{"learner":{"attributes":{"scikit_learn":"{\"_estimator_type\": \"regressor\"}"},"feature_names":["pm25_lag_1d","pm25_lag_2d","pm25_lag_3d","temperature_2m_mean","precipitation_sum","wind_speed_10m_max","wind_direction_10m_dominant","latitude","longitude"],"feature_types":["float","float","float","float","float","float","float","float","float"],"gradient_booster":{"model":{"gbtree_model_param":{"num_parallel_tree":"1","num_trees":"100"},"iteration_indptr":[0,1,2,3,4,5,6,7,8,9,10,11,12,13,14,15,16,17,18,19,20,21,22,23,24,25,26,27,28,29,30,31,32,33,34,35,36,37,38,39,40,41,42,43,44,45,46,47,48,49,50,51,52,53,54,55,56,57,58,59,60,61,62,63,64,65,66,67,68,69,70,71,72,73,74,75,76,77,78,79,80,81,82,83,84,85,86,87,88,89,90,91,92,93,94,95,96,97,98,99,100],"tree_info":[0,0,0,0,0,0,0,0,0,0,0,0,0,0,0,0,0,0,0,0,0,0,0,0,0,0,0,0,0,0,0,0,0,0,0,0,0,0,0,0,0,0,0,0,0,0,0,0,0,0,0,0,0,0,0,0,0,0,0,0,0,0,0,0,0,0,0,0,0,0,0,0,0,0,0,0,0,0,0,0,0,0,0,0,0,0,0,0,0,0,0,0,0,0,0,0,0,0,0,0],"trees":[{"base_weights":[1.2184213E-7,-8.33003E-1,4.0895624E0,-1.9386452E0,-3.0141566E-2,5.229214E0,-2.8411555E-1,-2.485844E0,-1.5638818E0,5.6473815E-1,-1.2783334E0,-3.782086E-2,5.938959E0,2.2066522E0,-7.866372E-1,-2.8001835E0,-1.6448251E0,-1.1483268E-1,-1.3486391E0,-8.0184996E-1,1.0678765E0,-9.168108E-1,-1.894337E0,3.1055434E0,-5.6013906E-1,6.6494317E0,2.011669E0,-7.4231885E-2,2.7817552E0,4.4023705E-1,-1.7225157E0,-2.8479135E0,-1.0527296E0,3.2138166E0,-1.8500806E0,-1.0310291E0,-2.2766E0,-9.026609E-1,4.2371497E0,2.1197128E0,4.1584548E-1,-1.2743729E0,-1.5740235E-1,-2.6465708E-1,-2.179791E0,1.8635748E-1,3.1018114E-2,-1.0573118E0,7.702898E-2,4.6599655E0,8.465002E0,4.1460533E0,4.4542322E-1,1.7595963E-1,1.338164E-1,2.4925797E0,-1.5431575E-1,-1.8731495E0,1.5714963E-1,-1.4316712E-1,-9.481884E-3,7.501811E-2,-9.317102E-2,-6.573189E-2,3.0676815E-1,-1.1832589E-1,-5.6000788E-2,-1.8693615E-2,-7.518392E-2,-6.261181E-2,-1.1784142E-1,-2.4913125E-2,-8.816458E-2,3.8768113E-2,2.7901813E-1,8.0761515E-2,2.970929E-1,-2.444453E-2,9.8833576E-2,-4.0859964E-2,-7.723637E-2,1.7101812E-1,-1.4599087E-2,-3.7889637E-2,9.802415E-2,-1.246645E-1,-7.923165E-2,2.4388192E-2,-8.771636E-2,1.4946578E-1,2.9464653E-1,3.8057682E-1,6.4757484E-1,2.7458775E-1,4.472898E-2,-5.988648E-2,5.589078E-2,5.826812E-2,-4.823189E-2,3.4902174E-2,2.4176812E-1,-2.4289435E-2,1.3701811E-1,-4.6917398E-2,-1.1564238E-1,1.9268109E-2,-7.481885E-3],"categories":[],"categories_nodes":[],"categories_segments":[],"categories_sizes":[],"default_left":[1,1,0,1,0,0,0,0,0,0,0,0,0,0,0,0,0,0,0,0,0,0,0,0,0,0,0,0,0,0,0,0,0,0,0,0,0,0,0,0,0,0,0,0,0,0,0,0,0,0,0,0,0,0,0,0,0,0,0,0,0,0,0,0,0,0,0,0,0,0,0,0,0,0,0,0,0,0,0,0,0,0,0,0,0,0,0,0,0,0,0,0,0,0,0,0,0,0,0,0,0,0,0,0,0,0,0],"id":0,"left_children":[1,3,5,7,9,11,13,15,17,19,21,23,25,27,29,31,33,-1,35,37,39,41,43,45,47,49,51,-1,53,55,57,59,61,63,65,67,69,71,73,75,77,79,81,83,85,-1,-1,87,-1,89,91,93,95,-1,97,99,101,103,105,-1,-1,-1,-1,-1,-1,-1,-1,-1,-1,-1,-1,-1,-1,-1,-1,-1,-1,-1,-1,-1,-1,-1,-1,-1,-1,-1,-1,-1,-1,-1,-1,-1,-1,-1,-1,-1,-1,-1,-1,-1,-1,-1,-1,-1,-1,-1,-1],"loss_changes":[5.5561943E3,1.2027446E3,1.3771997E3,1.1300244E2,5.8434576E2,8.1890137E2,7.433239E1,5.6198242E1,5.0686523E1,3.6733795E2,5.4828888E1,4.6069115E1,5.251377E2,2.5358624E1,5.702038E1,1.084729E1,7.0767944E1,0E0,7.605081E1,7.697472E1,2.6659216E2,4.3788177E1,4.2686554E1,3.867035E0,2.6694952E1,5.49312E2,1.0178535E2,0E0,1.7103271E1,2.7229618E1,8.222313E0,6.0603027E0,1.5214415E1,4.7756042E1,2.1102524E1,6.1558746E1,2.5549927E0,4.8542763E1,9.6229515E0,2.777052E2,3.427032E2,1.2333527E1,2.6517832E1,1.794508E1,1.0788971E1,0E0,0E0,2.2394531E1,0E0,1.4717249E2,2.2306104E2,5.1968887E1,2.2330868E1,0E0,4.5234704E0,1.764575E1,1.8602371E1,8.516541E0,2.6770282E-1,0E0,0E0,0E0,0E0,0E0,0E0,0E0,0E0,0E0,0E0,0E0,0E0,0E0,0E0,0E0,0E0,0E0,0E0,0E0,0E0,0E0,0E0,0E0,0E0,0E0,0E0,0E0,0E0,0E0,0E0,0E0,0E0,0E0,0E0,0E0,0E0,0E0,0E0,0E0,0E0,0E0,0E0,0E0,0E0,0E0,0E0,0E0,0E0],"parents":[2147483647,0,0,1,1,2,2,3,3,4,4,5,5,6,6,7,7,8,8,9,9,10,10,11,11,12,12,13,13,14,14,15,15,16,16,18,18,19,19,20,20,21,21,22,22,23,23,24,24,25,25,26,26,28,28,29,29,30,30,31,31,32,32,33,33,34,34,35,35,36,36,37,37,38,38,39,39,40,40,41,41,42,42,43,43,44,44,47,47,49,49,50,50,51,51,52,52,54,54,55,55,56,56,57,57,58,58],"right_children":[2,4,6,8,10,12,14,16,18,20,22,24,26,28,30,32,34,-1,36,38,40,42,44,46,48,50,52,-1,54,56,58,60,62,64,66,68,70,72,74,76,78,80,82,84,86,-1,-1,88,-1,90,92,94,96,-1,98,100,102,104,106,-1,-1,-1,-1,-1,-1,-1,-1,-1,-1,-1,-1,-1,-1,-1,-1,-1,-1,-1,-1,-1,-1,-1,-1,-1,-1,-1,-1,-1,-1,-1,-1,-1,-1,-1,-1,-1,-1,-1,-1,-1,-1,-1,-1,-1,-1,-1,-1],"split_conditions":[6.7E0,2.37E0,2.4131165E2,1.57E0,2.4349275E2,7.7905304E1,1.2605142E1,1.2E0,8.3640274E1,1.0815729E2,2.772677E2,1.93E0,2.6168804E1,1.32E0,2.53403E2,1.5867831E1,1.2000002E0,-1.1483268E-1,2.6404172E2,2.1334497E1,6.3282495E0,4.09E0,1.2605142E1,3.17E0,6.0469048E1,9.96E0,4.43E0,-7.4231885E-2,3E-1,4E-1,1.523E1,3.308525E1,1.63E0,1.17E0,3.3999999E0,7.978249E0,1.2074766E1,1.8129137E1,2.62E0,5.4428325E0,4.2E0,6E-1,-3.7779999E0,2E-1,1.097825E1,1.8635748E-1,3.1018114E-2,1.1620809E1,7.702898E-2,1.6055988E2,2.135E1,3.2283787E1,6.76E0,1.7595963E-1,7.54E0,8.41E0,2.5275739E2,2.6905984E2,6.93E0,-1.4316712E-1,-9.481884E-3,7.501811E-2,-9.317102E-2,-6.573189E-2,3.0676815E-1,-1.1832589E-1,-5.6000788E-2,-1.8693615E-2,-7.518392E-2,-6.261181E-2,-1.1784142E-1,-2.4913125E-2,-8.816458E-2,3.8768113E-2,2.7901813E-1,8.0761515E-2,2.970929E-1,-2.444453E-2,9.8833576E-2,-4.0859964E-2,-7.723637E-2,1.7101812E-1,-1.4599087E-2,-3.7889637E-2,9.802415E-2,-1.246645E-1,-7.923165E-2,2.4388192E-2,-8.771636E-2,1.4946578E-1,2.9464653E-1,3.8057682E-1,6.4757484E-1,2.7458775E-1,4.472898E-2,-5.988648E-2,5.589078E-2,5.826812E-2,-4.823189E-2,3.4902174E-2,2.4176812E-1,-2.4289435E-2,1.3701811E-1,-4.6917398E-2,-1.1564238E-1,1.9268109E-2,-7.481885E-3],"split_indices":[0,0,6,0,6,6,5,4,6,6,6,1,5,1,6,3,4,0,6,3,3,0,5,2,6,0,1,0,4,4,2,5,2,0,4,3,5,5,0,3,0,4,3,4,3,0,0,5,0,6,0,5,1,0,0,1,6,6,0,0,0,0,0,0,0,0,0,0,0,0,0,0,0,0,0,0,0,0,0,0,0,0,0,0,0,0,0,0,0,0,0,0,0,0,0,0,0,0,0,0,0,0,0,0,0,0,0],"split_type":[0,0,0,0,0,0,0,0,0,0,0,0,0,0,0,0,0,0,0,0,0,0,0,0,0,0,0,0,0,0,0,0,0,0,0,0,0,0,0,0,0,0,0,0,0,0,0,0,0,0,0,0,0,0,0,0,0,0,0,0,0,0,0,0,0,0,0,0,0,0,0,0,0,0,0,0,0,0,0,0,0,0,0,0,0,0,0,0,0,0,0,0,0,0,0,0,0,0,0,0,0,0,0,0,0,0,0],"sum_hessian":[1.629E3,1.354E3,2.75E2,5.69E2,7.85E2,2.18E2,5.7E1,2.29E2,3.4E2,5.32E2,2.53E2,2.6E1,1.92E2,9E0,4.8E1,1.65E2,6.4E1,7.5E1,2.65E2,1.43E2,3.89E2,1.61E2,9.2E1,3E0,2.3E1,1.62E2,3E1,1E0,8E0,2.1E1,2.7E1,1.6E2,5E0,2E0,6.2E1,1.99E2,6.6E1,1.41E2,2E0,1.48E2,2.41E2,1.09E2,5.2E1,1.4E1,7.8E1,2E0,1E0,1.9E1,4E0,7.9E1,8.3E1,1.2E1,1.8E1,6E0,2E0,4E0,1.7E1,2.5E1,2E0,1.59E2,1E0,1E0,4E0,1E0,1E0,3.5E1,2.7E1,8.4E1,1.15E2,6E0,6E1,9.7E1,4.4E1,1E0,1E0,1.32E2,1.6E1,1.53E2,8.8E1,4.2E1,6.7E1,1E0,5.1E1,1.2E1,2E0,4.9E1,2.9E1,6E0,1.3E1,3.5E1,4.4E1,7.2E1,1.1E1,8E0,4E0,5E0,1.3E1,1E0,1E0,3E0,1E0,1.6E1,1E0,9E0,1.6E1,1E0,1E0],"tree_param":{"num_deleted":"0","num_feature":"9","num_nodes":"107","size_leaf_vector":"1"}},{"base_weights":[1.4892735E-3,-7.9130983E-1,3.893668E0,-1.8425784E0,-2.793275E-2,5.028192E0,-1.0336966E-1,-2.3620043E0,-1.4868289E0,5.377339E-1,-1.214832E0,-2.7371326E-2,5.723811E0,2.107496E0,-5.1856375E-1,-2.6612034E0,-1.5615577E0,-2.1833315E0,-1.2822386E0,-7.603357E-1,1.0156423E0,-8.707337E-1,-1.8011662E0,3.00461E0,-5.315611E-1,6.4291906E0,1.9212573E0,-7.237609E-2,2.6633337E0,7.1099263E-1,-1.6417745E0,-2.7064662E0,-1.0031185E0,3.133471E0,-1.7603439E0,-1.16496705E-1,-1.7910649E0,-9.7994715E-1,-2.1654632E0,-1.0062659E0,1.2699976E0,2.0162632E0,3.9536062E-1,-1.211728E0,-1.4658071E-1,-2.4741541E-1,-2.0733826E0,1.8014556E-1,3.0242657E-2,-1.0076125E0,1.4789566E0,5.859529E0,6.7805225E-1,3.9633136E0,4.2294192E-1,1.684185E-1,1.3047107E-1,3.522762E0,-1.2622683E-1,-1.7857442E0,1.5322097E-1,-1.3605352E-1,-9.244836E-3,7.314266E-2,-8.944418E-2,-6.408859E-2,2.9909894E-1,-1.12573944E-1,-5.330075E-2,1.0388935E-2,-9.415038E-2,-1.7769938E-2,-7.145713E-2,-1.1286827E-1,-6.6119306E-2,-2.8358325E-2,-9.845415E-2,-1.6139682E-2,1.451569E-1,7.675381E-2,2.8311208E-1,-2.3230238E-2,9.394742E-2,-3.8864467E-2,-7.343135E-2,1.6674267E-1,-1.3883159E-2,-3.6140893E-2,9.475668E-2,-1.18555956E-1,-7.540212E-2,2.3342978E-2,-8.364381E-2,2.2342397E-2,8.1263594E-2,2.0604801E-1,3.4767345E-1,2.6238388E-1,4.293983E-2,-5.7391208E-2,5.3295862E-2,5.681142E-2,-4.7026087E-2,3.3593345E-2,3.0748507E-1,-1.9986173E-2,1.3359265E-1,-5.516341E-2,-1.1916768E-1,1.8786406E-2,-7.2948337E-3],"categories":[],"categories_nodes":[],"categories_segments":[],"categories_sizes":[],"default_left":[1,1,0,1,0,0,0,0,0,0,0,0,0,0,0,0,0,0,0,0,0,0,0,0,0,0,0,0,0,0,0,0,0,0,0,0,0,0,0,0,0,0,0,0,0,0,0,0,0,0,0,0,0,0,0,0,0,0,0,0,0,0,0,0,0,0,0,0,0,0,0,0,0,0,0,0,0,0,0,0,0,0,0,0,0,0,0,0,0,0,0,0,0,0,0,0,0,0,0,0,0,0,0,0,0,0,0,0,0,0,0],"id":1,"left_children":[1,3,5,7,9,11,13,15,17,19,21,23,25,27,29,31,33,35,37,39,41,43,45,47,49,51,53,-1,55,57,59,61,63,65,67,-1,69,71,73,75,77,79,81,83,85,87,89,-1,-1,91,93,95,-1,97,99,-1,101,103,105,107,109,-1,-1,-1,-1,-1,-1,-1,-1,-1,-1,-1,-1,-1,-1,-1,-1,-1,-1,-1,-1,-1,-1,-1,-1,-1,-1,-1,-1,-1,-1,-1,-1,-1,-1,-1,-1,-1,-1,-1,-1,-1,-1,-1,-1,-1,-1,-1,-1,-1,-1],"loss_changes":[5.032798E3,1.0873555E3,1.2521064E3,1.0181592E2,5.283652E2,7.562573E2,5.8005047E1,5.0927612E1,4.5792114E1,3.3142328E2,4.9677856E1,4.287187E1,4.945918E2,2.3615364E1,7.436299E1,9.743286E0,6.618091E1,1.9747925E-1,6.8897644E1,7.3180084E1,2.4126288E2,3.9825356E1,3.882196E1,3.563877E0,2.4460848E1,5.6651514E2,9.3172714E1,0E0,1.5632366E1,6.1650436E1,7.509506E0,5.4257812E0,1.424292E1,4.5398087E1,1.908348E1,0E0,4.985718E0,5.5600952E1,2.2060852E0,5.3420837E1,4.255714E1,2.5271332E2,3.0962482E2,1.1135223E1,2.5112778E1,1.664843E1,9.72171E0,0E0,0E0,2.039925E1,2.8816223E-2,2.5472607E2,0E0,4.7328583E1,2.0412798E1,0E0,4.300123E0,4.0802986E1,1.7138578E1,7.974724E0,2.5448492E-1,0E0,0E0,0E0,0E0,0E0,0E0,0E0,0E0,0E0,0E0,0E0,0E0,0E0,0E0,0E0,0E0,0E0,0E0,0E0,0E0,0E0,0E0,0E0,0E0,0E0,0E0,0E0,0E0,0E0,0E0,0E0,0E0,0E0,0E0,0E0,0E0,0E0,0E0,0E0,0E0,0E0,0E0,0E0,0E0,0E0,0E0,0E0,0E0,0E0,0E0],"parents":[2147483647,0,0,1,1,2,2,3,3,4,4,5,5,6,6,7,7,8,8,9,9,10,10,11,11,12,12,13,13,14,14,15,15,16,16,17,17,18,18,19,19,20,20,21,21,22,22,23,23,24,24,25,25,26,26,28,28,29,29,30,30,31,31,32,32,33,33,34,34,36,36,37,37,38,38,39,39,40,40,41,41,42,42,43,43,44,44,45,45,46,46,49,49,50,50,51,51,53,53,54,54,56,56,57,57,58,58,59,59,60,60],"right_children":[2,4,6,8,10,12,14,16,18,20,22,24,26,28,30,32,34,36,38,40,42,44,46,48,50,52,54,-1,56,58,60,62,64,66,68,-1,70,72,74,76,78,80,82,84,86,88,90,-1,-1,92,94,96,-1,98,100,-1,102,104,106,108,110,-1,-1,-1,-1,-1,-1,-1,-1,-1,-1,-1,-1,-1,-1,-1,-1,-1,-1,-1,-1,-1,-1,-1,-1,-1,-1,-1,-1,-1,-1,-1,-1,-1,-1,-1,-1,-1,-1,-1,-1,-1,-1,-1,-1,-1,-1,-1,-1,-1,-1],"split_conditions":[6.7E0,2.37E0,2.3712672E2,1.57E0,2.4349275E2,7.7905304E1,1.2605142E1,1.2E0,8.3640274E1,1.0815729E2,2.772677E2,1.93E0,2.6168804E1,1.32E0,2.53403E2,1.5867831E1,1.2000002E0,8E-1,2.6404172E2,1.536575E1,6.3282495E0,4.09E0,1.2605142E1,3.17E0,6.0469048E1,2.135E1,4.43E0,-7.237609E-2,3E-1,4E-1,1.523E1,3.308525E1,1.63E0,1.17E0,3.3999999E0,-1.16496705E-1,1.17E0,7.978249E0,2.7757376E1,1.8335276E1,2.72E0,5.4428325E0,4.2E0,6E-1,-3.7779999E0,2E-1,1.097825E1,1.8014556E-1,3.0242657E-2,1.1620809E1,1.75E0,1.6055988E2,6.7805225E-1,3.2283787E1,6.76E0,1.684185E-1,7.54E0,8.41E0,2.5275739E2,2.7591794E2,6.93E0,-1.3605352E-1,-9.244836E-3,7.314266E-2,-8.944418E-2,-6.408859E-2,2.9909894E-1,-1.12573944E-1,-5.330075E-2,1.0388935E-2,-9.415038E-2,-1.7769938E-2,-7.145713E-2,-1.1286827E-1,-6.6119306E-2,-2.8358325E-2,-9.845415E-2,-1.6139682E-2,1.451569E-1,7.675381E-2,2.8311208E-1,-2.3230238E-2,9.394742E-2,-3.8864467E-2,-7.343135E-2,1.6674267E-1,-1.3883159E-2,-3.6140893E-2,9.475668E-2,-1.18555956E-1,-7.540212E-2,2.3342978E-2,-8.364381E-2,2.2342397E-2,8.1263594E-2,2.0604801E-1,3.4767345E-1,2.6238388E-1,4.293983E-2,-5.7391208E-2,5.3295862E-2,5.681142E-2,-4.7026087E-2,3.3593345E-2,3.0748507E-1,-1.9986173E-2,1.3359265E-1,-5.516341E-2,-1.1916768E-1,1.8786406E-2,-7.2948337E-3],"split_indices":[0,0,6,0,6,6,5,4,6,6,6,1,5,1,6,3,4,4,6,3,3,0,5,2,6,0,1,0,4,4,2,5,2,0,4,0,1,3,5,5,2,3,0,4,3,4,3,0,0,5,2,6,0,5,1,0,0,1,6,6,0,0,0,0,0,0,0,0,0,0,0,0,0,0,0,0,0,0,0,0,0,0,0,0,0,0,0,0,0,0,0,0,0,0,0,0,0,0,0,0,0,0,0,0,0,0,0,0,0,0,0],"split_type":[0,0,0,0,0,0,0,0,0,0,0,0,0,0,0,0,0,0,0,0,0,0,0,0,0,0,0,0,0,0,0,0,0,0,0,0,0,0,0,0,0,0,0,0,0,0,0,0,0,0,0,0,0,0,0,0,0,0,0,0,0,0,0,0,0,0,0,0,0,0,0,0,0,0,0,0,0,0,0,0,0,0,0,0,0,0,0,0,0,0,0,0,0,0,0,0,0,0,0,0,0,0,0,0,0,0,0,0,0,0,0],"sum_hessian":[1.629E3,1.354E3,2.75E2,5.69E2,7.85E2,2.14E2,6.1E1,2.29E2,3.4E2,5.32E2,2.53E2,2.6E1,1.88E2,9E0,5.2E1,1.65E2,6.4E1,7.5E1,2.65E2,1.43E2,3.89E2,1.61E2,9.2E1,3E0,2.3E1,1.58E2,3E1,1E0,8E0,2.5E1,2.7E1,1.6E2,5E0,2E0,6.2E1,5.1E1,2.4E1,1.99E2,6.6E1,1.28E2,1.5E1,1.48E2,2.41E2,1.09E2,5.2E1,1.4E1,7.8E1,2E0,1E0,1.9E1,4E0,1.48E2,1E1,1.2E1,1.8E1,6E0,2E0,5E0,2E1,2.5E1,2E0,1.59E2,1E0,1E0,4E0,1E0,1E0,3.5E1,2.7E1,1E0,2.3E1,8.4E1,1.15E2,5.8E1,8E0,8.9E1,3.9E1,8E0,7E0,1.32E2,1.6E1,1.53E2,8.8E1,4.2E1,6.7E1,1E0,5.1E1,1.2E1,2E0,4.9E1,2.9E1,6E0,1.3E1,1E0,3E0,5.9E1,8.9E1,8E0,4E0,5E0,1.3E1,1E0,1E0,3E0,2E0,1.9E1,1E0,1.3E1,1.2E1,1E0,1E0],"tree_param":{"num_deleted":"0","num_feature":"9","num_nodes":"111","size_leaf_vector":"1"}},{"base_weights":[2.6181564E-3,-7.5190884E-1,3.706899E0,-1.7514336E0,-2.6106047E-2,5.229211E0,9.323691E-1,-2.244306E0,-1.4138614E0,5.116592E-1,-1.1544634E0,3.016897E0,7.5085635E0,2.5391254E0,-2.4721937E-1,-2.5291166E0,-1.482416E0,-1.02337174E-1,-1.2088223E0,-1.0852721E0,8.649559E-1,-8.269465E-1,-1.712563E0,2.1052E0,8.39527E0,1.1388971E1,5.572564E0,6.9131436E0,9.5620894E-1,2.012704E0,-7.033829E-1,-2.5720453E0,-9.5567954E-1,3.0551343E0,-1.6749594E0,-8.933309E-1,-2.0201979E0,-1.3229398E0,1.1147314E0,2.1666585E-1,1.639209E0,-1.1521623E0,-1.3636757E-1,-2.3113689E-1,-1.9721684E0,-1.2522207E-1,3.007392E0,2.1868773E0,1.091157E1,5.6046443E0,1.4291117E1,1.1048388E1,4.5176606E0,2.4716935E0,5.1012015E-1,1.9470164E0,-4.5675892E-1,-7.056668E-2,2.5499675E0,4.2583078E-1,-1.5655015E0,-1.2929337E-1,-9.013712E-3,7.13141E-2,-8.5866414E-2,-6.248637E-2,2.9162145E-1,-1.071016E-1,-5.073089E-2,-1.2027766E-2,-6.851126E-2,-4.7629874E-2,-1.0602575E-1,-7.2195485E-2,3.3623383E-3,8.519896E-3,2.4034333E-1,7.3241994E-2,-2.2228843E-2,1.2908813E-1,5.115784E-2,-3.696643E-2,-6.981377E-2,1.625741E-1,-1.32023515E-2,-3.447285E-2,9.159812E-2,-1.2638728E-1,-8.340734E-2,1.4534883E-1,-3.4841042E-2,3.791552E-1,1.351564E-1,2.2480336E-1,-4.2563584E-2,8.531081E-2,5.924481E-1,-2.6789892E-2,3.136134E-1,8.832431E-1,4.4773045E-1,1.082101E-1,5.944193E-1,2.739486E-1,2.1825189E-2,1.4001757E-1,2.071011E-2,1.2910367E-6,1.8496527E-1,-6.40646E-2,1.4968131E-1,1.6120057E-1,6.3604675E-3,1.170816E-1,-6.499673E-3,-8.51581E-2,7.4695195E-3],"categories":[],"categories_nodes":[],"categories_segments":[],"categories_sizes":[],"default_left":[1,1,0,1,0,0,0,0,0,0,0,0,0,0,0,0,0,0,0,0,0,0,0,0,0,0,0,0,0,0,0,0,0,0,0,0,0,0,0,0,0,0,0,0,0,0,0,0,0,0,0,0,0,0,0,0,0,0,0,0,0,0,0,0,0,0,0,0,0,0,0,0,0,0,0,0,0,0,0,0,0,0,0,0,0,0,0,0,0,0,0,0,0,0,0,0,0,0,0,0,0,0,0,0,0,0,0,0,0,0,0,0,0,0,0,0,0],"id":2,"left_children":[1,3,5,7,9,11,13,15,17,19,21,23,25,27,29,31,33,-1,35,37,39,41,43,45,47,49,51,53,55,57,59,61,63,65,67,69,71,73,75,77,79,81,83,85,87,89,91,93,95,97,99,101,103,105,-1,107,109,-1,111,113,115,-1,-1,-1,-1,-1,-1,-1,-1,-1,-1,-1,-1,-1,-1,-1,-1,-1,-1,-1,-1,-1,-1,-1,-1,-1,-1,-1,-1,-1,-1,-1,-1,-1,-1,-1,-1,-1,-1,-1,-1,-1,-1,-1,-1,-1,-1,-1,-1,-1,-1,-1,-1,-1,-1,-1,-1],"loss_changes":[4.5586045E3,9.8294965E2,1.1608657E3,9.166345E1,4.7752866E2,8.74938E2,1.882635E2,4.6159424E1,4.177594E1,3.0165234E2,4.501172E1,4.334433E2,5.9011914E2,2.841852E2,6.1207592E1,8.754639E0,6.1906128E1,0E0,6.475061E1,5.2193092E1,2.1899289E2,3.6226013E1,3.531067E1,1.6135806E2,1.7922595E2,3.8993848E2,2.9667505E2,1.3548273E2,4.5688652E1,2.1994957E1,4.8368927E1,4.856079E0,1.3334702E1,4.3156548E1,1.7257584E1,5.850702E1,5.691101E0,1.4896103E1,3.404699E1,1.9790892E2,1.1291022E2,1.0053284E1,2.3784159E1,1.5446458E1,9.127045E0,4.362246E1,5.8858765E1,3.8905685E1,5.7444458E1,4.845523E1,1.6589014E2,4.1435425E1,2.0161816E2,2.897358E0,0E0,6.4822014E1,4.3665096E1,0E0,1.4287285E1,2.3731068E1,6.8644867E0,0E0,0E0,0E0,0E0,0E0,0E0,0E0,0E0,0E0,0E0,0E0,0E0,0E0,0E0,0E0,0E0,0E0,0E0,0E0,0E0,0E0,0E0,0E0,0E0,0E0,0E0,0E0,0E0,0E0,0E0,0E0,0E0,0E0,0E0,0E0,0E0,0E0,0E0,0E0,0E0,0E0,0E0,0E0,0E0,0E0,0E0,0E0,0E0,0E0,0E0,0E0,0E0,0E0,0E0,0E0,0E0],"parents":[2147483647,0,0,1,1,2,2,3,3,4,4,5,5,6,6,7,7,8,8,9,9,10,10,11,11,12,12,13,13,14,14,15,15,16,16,18,18,19,19,20,20,21,21,22,22,23,23,24,24,25,25,26,26,27,27,28,28,29,29,30,30,31,31,32,32,33,33,34,34,35,35,36,36,37,37,38,38,39,39,40,40,41,41,42,42,43,43,44,44,45,45,46,46,47,47,48,48,49,49,50,50,51,51,52,52,53,53,55,55,56,56,58,58,59,59,60,60],"right_children":[2,4,6,8,10,12,14,16,18,20,22,24,26,28,30,32,34,-1,36,38,40,42,44,46,48,50,52,54,56,58,60,62,64,66,68,70,72,74,76,78,80,82,84,86,88,90,92,94,96,98,100,102,104,106,-1,108,110,-1,112,114,116,-1,-1,-1,-1,-1,-1,-1,-1,-1,-1,-1,-1,-1,-1,-1,-1,-1,-1,-1,-1,-1,-1,-1,-1,-1,-1,-1,-1,-1,-1,-1,-1,-1,-1,-1,-1,-1,-1,-1,-1,-1,-1,-1,-1,-1,-1,-1,-1,-1,-1,-1,-1,-1,-1,-1,-1],"split_conditions":[6.7E0,2.37E0,2.156651E2,1.57E0,2.4349275E2,1.6055988E2,2.4131165E2,1.2E0,9.580661E1,7.417453E1,2.772677E2,1.473E1,1.4000001E0,5E-1,1.2605142E1,1.5867831E1,1.2000002E0,-1.02337174E-1,2.5871188E2,1.536575E1,4E0,4.09E0,1.2605142E1,6.864755E1,1.043E1,1E-1,2.77E0,2.2425043E2,9.1345E0,1.32E0,2.53403E2,3.308525E1,1.63E0,1.17E0,3.3999999E0,7.978249E0,1.17E0,5.76E0,2.1004541E1,5.105334E0,3.57E0,6E-1,-3.7779999E0,2E-1,4.00325E0,1.93E0,-1.1509165E0,7.8E0,7.628329E1,6.93E0,7.4303327E0,1.6803488E2,2.6168804E1,6.03E0,5.1012015E-1,4.886584E0,1.5213665E1,-7.056668E-2,3E-1,4E-1,1.523E1,-1.2929337E-1,-9.013712E-3,7.13141E-2,-8.5866414E-2,-6.248637E-2,2.9162145E-1,-1.071016E-1,-5.073089E-2,-1.2027766E-2,-6.851126E-2,-4.7629874E-2,-1.0602575E-1,-7.2195485E-2,3.3623383E-3,8.519896E-3,2.4034333E-1,7.3241994E-2,-2.2228843E-2,1.2908813E-1,5.115784E-2,-3.696643E-2,-6.981377E-2,1.625741E-1,-1.32023515E-2,-3.447285E-2,9.159812E-2,-1.2638728E-1,-8.340734E-2,1.4534883E-1,-3.4841042E-2,3.791552E-1,1.351564E-1,2.2480336E-1,-4.2563584E-2,8.531081E-2,5.924481E-1,-2.6789892E-2,3.136134E-1,8.832431E-1,4.4773045E-1,1.082101E-1,5.944193E-1,2.739486E-1,2.1825189E-2,1.4001757E-1,2.071011E-2,1.2910367E-6,1.8496527E-1,-6.40646E-2,1.4968131E-1,1.6120057E-1,6.3604675E-3,1.170816E-1,-6.499673E-3,-8.51581E-2,7.4695195E-3],"split_indices":[0,0,6,0,6,6,6,4,6,6,6,0,4,4,5,3,4,0,6,3,0,0,5,6,1,4,1,6,3,1,6,5,2,0,4,3,2,0,5,3,1,4,3,4,3,1,3,1,6,0,3,6,5,1,0,3,3,0,4,4,2,0,0,0,0,0,0,0,0,0,0,0,0,0,0,0,0,0,0,0,0,0,0,0,0,0,0,0,0,0,0,0,0,0,0,0,0,0,0,0,0,0,0,0,0,0,0,0,0,0,0,0,0,0,0,0,0],"split_type":[0,0,0,0,0,0,0,0,0,0,0,0,0,0,0,0,0,0,0,0,0,0,0,0,0,0,0,0,0,0,0,0,0,0,0,0,0,0,0,0,0,0,0,0,0,0,0,0,0,0,0,0,0,0,0,0,0,0,0,0,0,0,0,0,0,0,0,0,0,0,0,0,0,0,0,0,0,0,0,0,0,0,0,0,0,0,0,0,0,0,0,0,0,0,0,0,0,0,0,0,0,0,0,0,0,0,0,0,0,0,0,0,0,0,0,0,0],"sum_hessian":[1.629E3,1.354E3,2.75E2,5.69E2,7.85E2,1.77E2,9.8E1,2.29E2,3.4E2,5.32E2,2.53E2,9.1E1,8.6E1,4.1E1,5.7E1,1.65E2,6.4E1,8.1E1,2.59E2,9.6E1,4.36E2,1.61E2,9.2E1,7.9E1,1.2E1,2.7E1,5.9E1,1E1,3.1E1,9E0,4.8E1,1.6E2,5E0,2E0,6.2E1,1.88E2,7.1E1,8.7E1,9E0,2.38E2,1.98E2,1.09E2,5.2E1,1.4E1,7.8E1,2.3E1,5.6E1,4E0,8E0,1E1,1.7E1,8E0,5.1E1,5E0,5E0,1.8E1,1.3E1,1E0,8E0,2.1E1,2.7E1,1.59E2,1E0,1E0,4E0,1E0,1E0,3.5E1,2.7E1,8E1,1.08E2,7E0,6.4E1,8E1,7E0,8E0,1E0,8.2E1,1.56E2,7.7E1,1.21E2,4.2E1,6.7E1,1E0,5.1E1,1.2E1,2E0,2.5E1,5.3E1,3E0,2E1,2E0,5.4E1,2E0,2E0,1E0,7E0,1E0,9E0,9E0,8E0,1E0,7E0,4.1E1,1E1,4E0,1E0,9E0,9E0,1.1E1,2E0,6E0,2E0,4E0,1.7E1,2.5E1,2E0],"tree_param":{"num_deleted":"0","num_feature":"9","num_nodes":"117","size_leaf_vector":"1"}},{"base_weights":[5.5887424E-3,-7.143997E-1,3.5402942E0,-1.6645954E0,-2.4417585E-2,4.99079E0,8.9657205E-1,-2.1324453E0,-1.3441552E0,5.3895956E-1,-1.0004619E0,2.8821914E0,7.1632066E0,2.4345841E0,-2.3261902E-1,-2.4035816E0,-1.4071984E0,-1.9456542E0,-1.1492819E0,-7.01744E-1,1.0393032E0,-6.9732356E-1,-1.6285765E0,2.0077503E0,8.04166E0,1.0877301E1,5.310576E0,6.628473E0,9.168542E-1,1.9217682E0,-6.675426E-1,-2.4443018E0,-9.1032094E-1,2.978756E0,-1.593717E0,-1.9830372E0,-1.1416284E0,-8.631436E-1,-1.9606478E0,-7.961101E-1,3.99883E0,2.0444155E0,4.0119916E-1,1.748841E-1,-1.0474558E0,-2.1577162E-1,-1.8762157E0,-1.1435649E-1,2.8660452E0,2.113981E0,1.0441298E1,5.350487E0,1.3650504E1,1.0574038E1,4.2974653E0,2.374897E0,4.8886514E-1,1.8594006E0,-4.2780554E-1,-6.880251E-2,2.441087E0,4.095658E-1,-1.4900012E0,-1.2286909E-1,-8.788371E-3,6.953124E-2,-8.2431756E-2,-6.0924213E-2,2.8433093E-1,-9.2554E-2,-2.8036295E-2,-7.177223E-2,-1.0310238E-1,-1.5198869E-2,-6.241816E-2,-1.705456E-2,-6.702342E-2,-5.0547283E-2,-1.0187441E-1,-2.1801962E-2,-7.812866E-2,3.4725703E-2,2.6518655E-1,1.9962768E-1,5.8990765E-2,-1.9448081E-2,9.465335E-2,5.2362043E-2,-2.230204E-2,-5.6458812E-2,3.3327207E-2,-6.453309E-2,3.2211438E-2,-1.0720243E-1,-6.7025095E-2,1.3989824E-1,-3.3181943E-2,3.6651668E-1,1.2852144E-1,2.1730988E-1,-4.11448E-2,8.3178036E-2,5.665285E-1,3.3214027E-1,7.141145E-2,8.434972E-1,4.2783138E-1,1.0550485E-1,5.6841344E-1,2.605773E-1,2.0833129E-2,5.5731725E-2,1.6318072E-1,1.2266636E-6,1.7664184E-1,-6.1128307E-2,1.4469193E-1,1.5429197E-1,6.1484496E-3,1.1239834E-1,-6.1927396E-3,-5.361394E-2,-1.1263587E-1],"categories":[],"categories_nodes":[],"categories_segments":[],"categories_sizes":[],"default_left":[1,1,0,1,0,0,0,0,0,0,0,0,0,0,0,0,0,0,0,0,0,0,0,0,0,0,0,0,0,0,0,0,0,0,0,0,0,0,0,0,0,0,0,0,0,0,0,0,0,0,0,0,0,0,0,0,0,0,0,0,0,0,0,0,0,0,0,0,0,0,0,0,0,0,0,0,0,0,0,0,0,0,0,0,0,0,0,0,0,0,0,0,0,0,0,0,0,0,0,0,0,0,0,0,0,0,0,0,0,0,0,0,0,0,0,0,0,0,0,0,0,0,0],"id":3,"left_children":[1,3,5,7,9,11,13,15,17,19,21,23,25,27,29,31,33,35,37,39,41,43,45,47,49,51,53,55,57,59,61,63,65,67,69,71,73,75,77,79,81,83,85,87,89,91,93,95,97,99,101,103,105,107,109,111,-1,113,115,-1,117,119,121,-1,-1,-1,-1,-1,-1,-1,-1,-1,-1,-1,-1,-1,-1,-1,-1,-1,-1,-1,-1,-1,-1,-1,-1,-1,-1,-1,-1,-1,-1,-1,-1,-1,-1,-1,-1,-1,-1,-1,-1,-1,-1,-1,-1,-1,-1,-1,-1,-1,-1,-1,-1,-1,-1,-1,-1,-1,-1,-1,-1],"loss_changes":[4.150793E3,8.883218E2,1.053904E3,8.2586914E1,4.3274573E2,7.94729E2,1.7250058E2,4.184497E1,3.773462E1,3.1049762E2,5.370117E1,3.9892633E2,5.4086914E2,2.6126068E2,5.5628498E1,7.8687134E0,5.7921295E1,2.0077515E-1,5.8669983E1,6.705824E1,2.2750613E2,6.0039238E1,3.213269E1,1.4603922E2,1.6284296E2,3.561184E2,2.7450647E2,1.2411154E2,4.1352394E1,2.0485249E1,4.401823E1,4.345215E0,1.2485556E1,4.1025696E1,1.5710861E1,3.71521E-1,1.569643E-1,4.7885345E1,2.8295593E0,3.8507957E1,9.2519E0,2.2773132E2,2.5889694E2,3.134219E1,2.0362305E1,1.4697573E1,8.460968E0,4.0249317E1,5.6381744E1,3.63552E1,5.1403137E1,4.626944E1,1.5083984E2,3.6512756E1,1.822915E2,3.082367E0,0E0,5.911931E1,4.0496677E1,0E0,1.3072052E1,2.185252E1,6.5053596E0,0E0,0E0,0E0,0E0,0E0,0E0,0E0,0E0,0E0,0E0,0E0,0E0,0E0,0E0,0E0,0E0,0E0,0E0,0E0,0E0,0E0,0E0,0E0,0E0,0E0,0E0,0E0,0E0,0E0,0E0,0E0,0E0,0E0,0E0,0E0,0E0,0E0,0E0,0E0,0E0,0E0,0E0,0E0,0E0,0E0,0E0,0E0,0E0,0E0,0E0,0E0,0E0,0E0,0E0,0E0,0E0,0E0,0E0,0E0,0E0],"parents":[2147483647,0,0,1,1,2,2,3,3,4,4,5,5,6,6,7,7,8,8,9,9,10,10,11,11,12,12,13,13,14,14,15,15,16,16,17,17,18,18,19,19,20,20,21,21,22,22,23,23,24,24,25,25,26,26,27,27,28,28,29,29,30,30,31,31,32,32,33,33,34,34,35,35,36,36,37,37,38,38,39,39,40,40,41,41,42,42,43,43,44,44,45,45,46,46,47,47,48,48,49,49,50,50,51,51,52,52,53,53,54,54,55,55,57,57,58,58,60,60,61,61,62,62],"right_children":[2,4,6,8,10,12,14,16,18,20,22,24,26,28,30,32,34,36,38,40,42,44,46,48,50,52,54,56,58,60,62,64,66,68,70,72,74,76,78,80,82,84,86,88,90,92,94,96,98,100,102,104,106,108,110,112,-1,114,116,-1,118,120,122,-1,-1,-1,-1,-1,-1,-1,-1,-1,-1,-1,-1,-1,-1,-1,-1,-1,-1,-1,-1,-1,-1,-1,-1,-1,-1,-1,-1,-1,-1,-1,-1,-1,-1,-1,-1,-1,-1,-1,-1,-1,-1,-1,-1,-1,-1,-1,-1,-1,-1,-1,-1,-1,-1,-1,-1,-1,-1,-1,-1],"split_conditions":[6.7E0,2.37E0,2.156651E2,1.57E0,2.3559648E2,1.6055988E2,2.4131165E2,1.2E0,9.580661E1,1.0815729E2,2.772677E2,1.473E1,1.4000001E0,5E-1,1.2605142E1,1.5867831E1,1.2000002E0,7.06E0,2.6404172E2,2.1334497E1,6.3282495E0,1E-1,1.2605142E1,6.864755E1,1.043E1,1E-1,2.77E0,2.2425043E2,9.1345E0,1.32E0,2.53403E2,3.308525E1,1.63E0,1.17E0,8.7E0,1.288981E1,7.32E0,9.7907505E0,1.2074766E1,1.8129137E1,2.62E0,2.33E0,4.2E0,2.5560144E2,6.1E0,3.87E0,1.1319916E1,1.93E0,-1.1509165E0,7.8E0,7.628329E1,9.63E0,7.4303327E0,1.6803488E2,2.6168804E1,1.9406637E1,4.8886514E-1,4.886584E0,1.5213665E1,-6.880251E-2,3E-1,4E-1,2.901707E2,-1.2286909E-1,-8.788371E-3,6.953124E-2,-8.2431756E-2,-6.0924213E-2,2.8433093E-1,-9.2554E-2,-2.8036295E-2,-7.177223E-2,-1.0310238E-1,-1.5198869E-2,-6.241816E-2,-1.705456E-2,-6.702342E-2,-5.0547283E-2,-1.0187441E-1,-2.1801962E-2,-7.812866E-2,3.4725703E-2,2.6518655E-1,1.9962768E-1,5.8990765E-2,-1.9448081E-2,9.465335E-2,5.2362043E-2,-2.230204E-2,-5.6458812E-2,3.3327207E-2,-6.453309E-2,3.2211438E-2,-1.0720243E-1,-6.7025095E-2,1.3989824E-1,-3.3181943E-2,3.6651668E-1,1.2852144E-1,2.1730988E-1,-4.11448E-2,8.3178036E-2,5.665285E-1,3.3214027E-1,7.141145E-2,8.434972E-1,4.2783138E-1,1.0550485E-1,5.6841344E-1,2.605773E-1,2.0833129E-2,5.5731725E-2,1.6318072E-1,1.2266636E-6,1.7664184E-1,-6.1128307E-2,1.4469193E-1,1.5429197E-1,6.1484496E-3,1.1239834E-1,-6.1927396E-3,-5.361394E-2,-1.1263587E-1],"split_indices":[0,0,6,0,6,6,6,4,6,6,6,0,4,4,5,3,4,1,6,3,3,4,5,6,1,4,1,6,3,1,6,5,2,0,4,5,1,3,5,5,0,2,0,6,0,2,3,1,3,1,6,2,3,6,5,5,0,3,3,0,4,4,6,0,0,0,0,0,0,0,0,0,0,0,0,0,0,0,0,0,0,0,0,0,0,0,0,0,0,0,0,0,0,0,0,0,0,0,0,0,0,0,0,0,0,0,0,0,0,0,0,0,0,0,0,0,0,0,0,0,0,0,0],"split_type":[0,0,0,0,0,0,0,0,0,0,0,0,0,0,0,0,0,0,0,0,0,0,0,0,0,0,0,0,0,0,0,0,0,0,0,0,0,0,0,0,0,0,0,0,0,0,0,0,0,0,0,0,0,0,0,0,0,0,0,0,0,0,0,0,0,0,0,0,0,0,0,0,0,0,0,0,0,0,0,0,0,0,0,0,0,0,0,0,0,0,0,0,0,0,0,0,0,0,0,0,0,0,0,0,0,0,0,0,0,0,0,0,0,0,0,0,0,0,0,0,0,0,0],"sum_hessian":[1.629E3,1.354E3,2.75E2,5.69E2,7.85E2,1.77E2,9.8E1,2.29E2,3.4E2,4.98E2,2.87E2,9.1E1,8.6E1,4.1E1,5.7E1,1.65E2,6.4E1,8.1E1,2.59E2,1.43E2,3.55E2,1.95E2,9.2E1,7.9E1,1.2E1,2.7E1,5.9E1,1E1,3.1E1,9E0,4.8E1,1.6E2,5E0,2E0,6.2E1,7.6E1,5E0,1.93E2,6.6E1,1.41E2,2E0,1.37E2,2.18E2,5.6E1,1.39E2,1.4E1,7.8E1,2.3E1,5.6E1,4E0,8E0,1E1,1.7E1,8E0,5.1E1,5E0,5E0,1.8E1,1.3E1,1E0,8E0,2.1E1,2.7E1,1.59E2,1E0,1E0,4E0,1E0,1E0,4.9E1,1.3E1,1.2E1,6.4E1,1E0,4E0,9.3E1,1E2,6E0,6E1,9.7E1,4.4E1,1E0,1E0,4.1E1,9.6E1,1.43E2,7.5E1,2.3E1,3.3E1,1.33E2,6E0,6E0,8E0,5E1,2.8E1,3E0,2E1,2E0,5.4E1,2E0,2E0,1E0,7E0,7E0,3E0,9E0,8E0,1E0,7E0,4.1E1,1E1,3E0,2E0,9E0,9E0,1.1E1,2E0,6E0,2E0,4E0,1.7E1,1.9E1,8E0],"tree_param":{"num_deleted":"0","num_feature":"9","num_nodes":"123","size_leaf_vector":"1"}},{"base_weights":[8.291459E-3,-6.788247E-1,3.3816035E0,-1.5822967E0,-2.2771457E-2,4.764047E0,8.618402E-1,-1.8116405E0,-9.780709E-1,5.178236E-1,-9.441198E-1,2.7535996E0,6.8352785E0,2.3359022E0,-2.2044331E-1,-1.9716619E0,-9.875967E-1,-7.5032425E-1,-1.8942403E0,-6.65268E-1,9.989776E-1,-1.494009E0,-6.2097245E-1,1.9148848E0,7.7031054E0,1.0393253E1,5.0609694E0,6.3613925E0,8.791429E-1,1.8348435E0,-6.3539076E-1,8.590676E-2,-1.9874284E0,2.0454037E0,-1.1086624E0,-1.3483521E0,1.6114692E-1,-1.1570764E0,-1.0950859E-1,-7.5700825E-1,3.8988593E0,1.981322E0,3.741842E-1,5.2981186E-1,-1.5376037E0,2.7857006E-1,-9.38174E-1,-1.0419199E-1,2.731428E0,2.043515E0,9.991422E0,5.119649E0,1.3038608E1,1.0120216E1,4.088004E0,2.2926373E0,4.6849582E-1,1.7757275E0,-4.0044656E-1,-6.708246E-2,2.3368592E0,3.9391503E-1,-1.4214385E0,-9.367993E-2,-1.2942038E-1,1.5483277E-1,-1.4274955E-3,-1.0521554E-1,-4.2658493E-2,-8.187643E-2,-4.0163856E-2,6.540944E-2,-3.6181163E-2,-6.800308E-2,2.1819426E-2,-2.0722987E-2,-7.430902E-2,3.385756E-2,2.585569E-1,2.042932E-1,5.808915E-2,-1.9569062E-2,8.9982964E-2,2.4294853E-4,3.9492942E-2,-1.0796397E-1,-6.92081E-2,2.9529596E-2,-4.2650696E-2,-2.9622544E-2,-9.643914E-2,1.3465206E-1,-3.160184E-2,3.5429946E-1,1.2221221E-1,2.1006623E-1,-3.9773308E-2,8.109858E-2,5.4174286E-1,-2.790544E-2,2.871618E-1,8.055398E-1,4.0881664E-1,1.0286722E-1,5.4354537E-1,2.4785864E-1,1.9886173E-2,6.486549E-2,1.817319E-1,7.818923E-3,1.7788145E-1,-5.8326602E-2,1.3986887E-1,1.4767945E-1,5.943505E-3,-4.6381842E-2,5.3624082E-2,-7.769904E-2,1.0053722E-2],"categories":[],"categories_nodes":[],"categories_segments":[],"categories_sizes":[],"default_left":[1,1,0,1,0,0,0,0,0,0,0,0,0,0,0,0,0,0,0,0,0,0,0,0,0,0,0,0,0,0,0,0,0,0,0,0,0,0,0,0,0,0,0,0,0,0,0,0,0,0,0,0,0,0,0,0,0,0,0,0,0,0,0,0,0,0,0,0,0,0,0,0,0,0,0,0,0,0,0,0,0,0,0,0,0,0,0,0,0,0,0,0,0,0,0,0,0,0,0,0,0,0,0,0,0,0,0,0,0,0,0,0,0,0,0,0,0,0,0],"id":4,"left_children":[1,3,5,7,9,11,13,15,17,19,21,23,25,27,29,31,33,35,37,39,41,43,45,47,49,51,53,55,57,59,61,-1,63,65,67,69,71,73,-1,75,77,79,81,83,85,87,89,91,93,95,97,99,101,103,105,107,-1,109,111,-1,113,115,117,-1,-1,-1,-1,-1,-1,-1,-1,-1,-1,-1,-1,-1,-1,-1,-1,-1,-1,-1,-1,-1,-1,-1,-1,-1,-1,-1,-1,-1,-1,-1,-1,-1,-1,-1,-1,-1,-1,-1,-1,-1,-1,-1,-1,-1,-1,-1,-1,-1,-1,-1,-1,-1,-1,-1,-1],"loss_changes":[3.780403E3,8.0310736E2,9.573213E2,7.721619E1,3.919769E2,7.223887E2,1.584549E2,5.238098E1,3.1754776E1,2.8301227E2,5.0781555E1,3.6716205E2,4.9662646E2,2.407026E2,5.0630333E1,2.342688E1,2.7603935E1,7.053327E1,4.228462E0,6.3246315E1,2.1591675E2,1.0255035E1,5.3048546E1,1.3217761E2,1.4794452E2,3.238623E2,2.539768E2,1.1316852E2,3.7423416E1,1.9081738E1,4.0205017E1,0E0,1.8614746E1,6.6291513E0,1.5248169E1,1.0979202E1,5.371979E1,4.1514635E0,0E0,3.4852356E1,8.795086E0,2.3154443E2,2.3751526E2,4.0569925E-1,7.0272827E0,1.7804651E1,4.5776566E1,3.7138218E1,5.3962006E1,3.3971912E1,4.5957947E1,4.2151672E1,1.3715332E2,3.2109314E1,1.6481714E2,3.2991333E0,0E0,5.4268543E1,3.7560524E1,0E0,1.1960007E1,2.0723618E1,6.333908E0,0E0,0E0,0E0,0E0,0E0,0E0,0E0,0E0,0E0,0E0,0E0,0E0,0E0,0E0,0E0,0E0,0E0,0E0,0E0,0E0,0E0,0E0,0E0,0E0,0E0,0E0,0E0,0E0,0E0,0E0,0E0,0E0,0E0,0E0,0E0,0E0,0E0,0E0,0E0,0E0,0E0,0E0,0E0,0E0,0E0,0E0,0E0,0E0,0E0,0E0,0E0,0E0,0E0,0E0,0E0,0E0],"parents":[2147483647,0,0,1,1,2,2,3,3,4,4,5,5,6,6,7,7,8,8,9,9,10,10,11,11,12,12,13,13,14,14,15,15,16,16,17,17,18,18,19,19,20,20,21,21,22,22,23,23,24,24,25,25,26,26,27,27,28,28,29,29,30,30,32,32,33,33,34,34,35,35,36,36,37,37,39,39,40,40,41,41,42,42,43,43,44,44,45,45,46,46,47,47,48,48,49,49,50,50,51,51,52,52,53,53,54,54,55,55,57,57,58,58,60,60,61,61,62,62],"right_children":[2,4,6,8,10,12,14,16,18,20,22,24,26,28,30,32,34,36,38,40,42,44,46,48,50,52,54,56,58,60,62,-1,64,66,68,70,72,74,-1,76,78,80,82,84,86,88,90,92,94,96,98,100,102,104,106,108,-1,110,112,-1,114,116,118,-1,-1,-1,-1,-1,-1,-1,-1,-1,-1,-1,-1,-1,-1,-1,-1,-1,-1,-1,-1,-1,-1,-1,-1,-1,-1,-1,-1,-1,-1,-1,-1,-1,-1,-1,-1,-1,-1,-1,-1,-1,-1,-1,-1,-1,-1,-1,-1,-1,-1,-1,-1,-1,-1,-1,-1],"split_conditions":[6.7E0,2.37E0,2.156651E2,2E0,2.3293379E2,1.6055988E2,2.4131165E2,4.1E0,2.6690277E2,1.0815729E2,3.2E0,1.473E1,1.4000001E0,5E-1,1.2605142E1,7.989243E0,4.1999993E0,1.8997308E2,1.4003028E1,2.1334497E1,6.3282495E0,9.5E-1,1.6700275E1,6.864755E1,1.043E1,1E-1,2.77E0,2.2425043E2,9.1345E0,1.32E0,2.53403E2,8.590676E-2,3.0247116E2,1.32E0,1.1214433E2,1.2468042E2,8.932418E0,2.85E0,-1.0950859E-1,1.8129137E1,2.62E0,2.23E0,4.2E0,2.59E0,2.8115835E0,5.4E0,2.772677E2,1.93E0,-1.1509165E0,7.8E0,7.628329E1,6.93E0,7.4303327E0,1.6803488E2,2.6168804E1,1.157E1,4.6849582E-1,5.0053334E0,1.5213665E1,-6.708246E-2,3E-1,2.0364674E1,1.669075E1,-9.367993E-2,-1.2942038E-1,1.5483277E-1,-1.4274955E-3,-1.0521554E-1,-4.2658493E-2,-8.187643E-2,-4.0163856E-2,6.540944E-2,-3.6181163E-2,-6.800308E-2,2.1819426E-2,-2.0722987E-2,-7.430902E-2,3.385756E-2,2.585569E-1,2.042932E-1,5.808915E-2,-1.9569062E-2,8.9982964E-2,2.4294853E-4,3.9492942E-2,-1.0796397E-1,-6.92081E-2,2.9529596E-2,-4.2650696E-2,-2.9622544E-2,-9.643914E-2,1.3465206E-1,-3.160184E-2,3.5429946E-1,1.2221221E-1,2.1006623E-1,-3.9773308E-2,8.109858E-2,5.4174286E-1,-2.790544E-2,2.871618E-1,8.055398E-1,4.0881664E-1,1.0286722E-1,5.4354537E-1,2.4785864E-1,1.9886173E-2,6.486549E-2,1.817319E-1,7.818923E-3,1.7788145E-1,-5.8326602E-2,1.3986887E-1,1.4767945E-1,5.943505E-3,-4.6381842E-2,5.3624082E-2,-7.769904E-2,1.0053722E-2],"split_indices":[0,0,6,0,6,6,6,4,6,6,0,0,4,4,5,5,4,6,5,3,3,2,5,6,1,4,1,6,3,1,6,0,6,0,6,6,3,1,0,5,0,2,0,0,3,1,6,1,3,1,6,0,3,6,5,0,0,3,3,0,4,5,3,0,0,0,0,0,0,0,0,0,0,0,0,0,0,0,0,0,0,0,0,0,0,0,0,0,0,0,0,0,0,0,0,0,0,0,0,0,0,0,0,0,0,0,0,0,0,0,0,0,0,0,0,0,0,0,0],"split_type":[0,0,0,0,0,0,0,0,0,0,0,0,0,0,0,0,0,0,0,0,0,0,0,0,0,0,0,0,0,0,0,0,0,0,0,0,0,0,0,0,0,0,0,0,0,0,0,0,0,0,0,0,0,0,0,0,0,0,0,0,0,0,0,0,0,0,0,0,0,0,0,0,0,0,0,0,0,0,0,0,0,0,0,0,0,0,0,0,0,0,0,0,0,0,0,0,0,0,0,0,0,0,0,0,0,0,0,0,0,0,0,0,0,0,0,0,0,0,0],"sum_hessian":[1.629E3,1.354E3,2.75E2,5.69E2,7.85E2,1.77E2,9.8E1,4.11E2,1.58E2,4.95E2,2.9E2,9.1E1,8.6E1,4.1E1,5.7E1,3.43E2,6.8E1,1.28E2,3E1,1.43E2,3.52E2,1.06E2,1.84E2,7.9E1,1.2E1,2.7E1,5.9E1,1E1,3.1E1,9E0,4.8E1,1E0,3.42E2,2E0,6.6E1,7.7E1,5.1E1,1E1,2E1,1.41E2,2E0,1.36E2,2.16E2,2E0,1.04E2,4.8E1,1.36E2,2.3E1,5.6E1,4E0,8E0,1E1,1.7E1,8E0,5.1E1,5E0,5E0,1.8E1,1.3E1,1E0,8E0,2.1E1,2.7E1,2.91E2,5.1E1,1E0,1E0,1.2E1,5.4E1,4.9E1,2.8E1,2.2E1,2.9E1,9E0,1E0,9.7E1,4.4E1,1E0,1E0,3.7E1,9.9E1,1.41E2,7.5E1,1E0,1E0,1.8E1,8.6E1,3.8E1,1E1,1.02E2,3.4E1,3E0,2E1,2E0,5.4E1,2E0,2E0,1E0,7E0,1E0,9E0,9E0,8E0,1E0,7E0,4.1E1,1E1,4E0,1E0,1E1,8E0,1.1E1,2E0,6E0,2E0,7E0,1.4E1,2.5E1,2E0],"tree_param":{"num_deleted":"0","num_feature":"9","num_nodes":"119","size_leaf_vector":"1"}},{"base_weights":[1.07249E-2,-6.44977E-1,3.2298021E0,-1.5038489E0,-2.1310348E-2,4.546971E0,8.2893485E-1,-1.3289682E0,-2.2396445E0,4.1448465E-1,-1.057401E0,2.63084E0,6.5209603E0,2.2424963E0,-2.0897049E-1,-2.048262E0,-9.708302E-1,-1.2462349E-1,-1.8584782E0,-9.5307237E-1,7.0321506E-1,1.8019276E0,-1.1025311E0,1.8263849E0,7.378961E0,9.926219E0,4.823157E0,6.1083317E0,8.435372E-1,1.7517555E0,-6.048539E-1,-1.17610596E-1,-1.7564002E0,-1.5138048E0,-6.786141E-1,-1.8840743E0,-1.7026467E-2,-1.1805611E0,1.144136E0,1.1449126E-1,1.429228E0,1.5820201E-2,1.5646246E-1,-8.201779E-1,-1.5248047E0,-9.468859E-2,2.6032162E0,1.975398E0,9.561056E0,4.887235E0,1.2454142E1,7.5996485E0,3.24492E0,2.219105E0,4.4897515E-1,1.6967151E0,-3.7459967E-1,-6.540539E-2,2.2370856E0,3.003591E-1,-1.4171716E0,-9.507727E-2,-7.127822E-2,2.9797006E-2,-8.329626E-2,-3.610769E-2,2.0399876E-1,-3.513719E-2,-9.608998E-2,-8.305443E-2,-4.0797215E-2,1.0641842E-2,2.381457E-1,6.1327096E-2,-2.2110378E-2,1.1375071E-1,3.9943483E-2,-1.814293E-2,-5.7440367E-2,-1.4392045E-2,-8.545273E-2,1.296026E-1,-3.0096987E-2,3.4248945E-1,1.1621268E-1,2.0306401E-1,-3.8447525E-2,7.907112E-2,5.180416E-1,3.050458E-1,6.1903287E-2,7.6929045E-1,3.90647E-1,4.289197E-1,6.476919E-2,6.5732095E-4,2.3147483E-1,6.227087E-2,1.771886E-1,-3.5067915E-4,1.6153862E-1,-5.5653293E-2,1.3520658E-1,1.4135034E-1,5.745395E-3,1.067575E-1,-8.6678285E-3,-4.9997047E-2,-1.115474E-1],"categories":[],"categories_nodes":[],"categories_segments":[],"categories_sizes":[],"default_left":[1,1,0,0,0,0,0,0,0,0,0,0,0,0,0,0,0,0,0,0,0,0,0,0,0,0,0,0,0,0,0,0,0,0,1,0,0,0,0,0,0,0,0,0,0,0,0,0,0,0,0,0,0,0,0,0,0,0,0,0,0,0,0,0,0,0,0,0,0,0,0,0,0,0,0,0,0,0,0,0,0,0,0,0,0,0,0,0,0,0,0,0,0,0,0,0,0,0,0,0,0,0,0,0,0,0,0,0,0],"id":5,"left_children":[1,3,5,7,9,11,13,15,17,19,21,23,25,27,29,31,33,-1,35,37,39,41,43,45,47,49,51,53,55,57,59,-1,61,63,65,67,-1,69,71,73,75,-1,-1,77,79,81,83,85,87,89,91,93,95,97,-1,99,101,-1,103,105,107,-1,-1,-1,-1,-1,-1,-1,-1,-1,-1,-1,-1,-1,-1,-1,-1,-1,-1,-1,-1,-1,-1,-1,-1,-1,-1,-1,-1,-1,-1,-1,-1,-1,-1,-1,-1,-1,-1,-1,-1,-1,-1,-1,-1,-1,-1,-1,-1],"loss_changes":[3.4426138E3,7.2577325E2,8.690388E2,7.036926E1,3.5533545E2,6.561155E2,1.4571576E2,1.17283264E2,5.7755737E0,2.1942006E2,3.2053345E1,3.379311E2,4.5511133E2,2.2198952E2,4.6080254E1,9.441406E0,4.831781E1,0E0,1.1845398E0,4.762857E1,1.9559523E2,6.896963E0,2.6172363E1,1.1963446E2,1.3439722E2,2.95802E2,2.3825745E2,1.02906494E2,3.3892788E1,1.7776787E1,3.6456367E1,0E0,1.2267914E0,3.5653793E1,4.5212654E1,6.995239E-1,0E0,1.4062981E1,3.268792E1,1.5778801E2,1.07478E2,0E0,0E0,2.0623543E1,2.024791E1,3.426871E1,5.1603546E1,3.1744862E1,4.105243E1,4.1164856E1,1.2470801E2,1.1846326E2,1.7892462E2,3.3253994E0,0E0,4.968138E1,3.483942E1,0E0,1.09424095E1,2.1230202E1,6.5970306E0,0E0,0E0,0E0,0E0,0E0,0E0,0E0,0E0,0E0,0E0,0E0,0E0,0E0,0E0,0E0,0E0,0E0,0E0,0E0,0E0,0E0,0E0,0E0,0E0,0E0,0E0,0E0,0E0,0E0,0E0,0E0,0E0,0E0,0E0,0E0,0E0,0E0,0E0,0E0,0E0,0E0,0E0,0E0,0E0,0E0,0E0,0E0,0E0],"parents":[2147483647,0,0,1,1,2,2,3,3,4,4,5,5,6,6,7,7,8,8,9,9,10,10,11,11,12,12,13,13,14,14,15,15,16,16,18,18,19,19,20,20,21,21,22,22,23,23,24,24,25,25,26,26,27,27,28,28,29,29,30,30,32,32,33,33,34,34,35,35,37,37,38,38,39,39,40,40,43,43,44,44,45,45,46,46,47,47,48,48,49,49,50,50,51,51,52,52,53,53,55,55,56,56,58,58,59,59,60,60],"right_children":[2,4,6,8,10,12,14,16,18,20,22,24,26,28,30,32,34,-1,36,38,40,42,44,46,48,50,52,54,56,58,60,-1,62,64,66,68,-1,70,72,74,76,-1,-1,78,80,82,84,86,88,90,92,94,96,98,-1,100,102,-1,104,106,108,-1,-1,-1,-1,-1,-1,-1,-1,-1,-1,-1,-1,-1,-1,-1,-1,-1,-1,-1,-1,-1,-1,-1,-1,-1,-1,-1,-1,-1,-1,-1,-1,-1,-1,-1,-1,-1,-1,-1,-1,-1,-1,-1,-1,-1,-1,-1,-1],"split_conditions":[6.7E0,2.37E0,2.156651E2,2.7479416E2,2.4675099E2,1.6055988E2,2.4131165E2,9.4213646E1,1.63E0,7.417453E1,-3.7779999E0,1.473E1,1.4000001E0,5E-1,1.2605142E1,1.53E0,1.7114204E1,-1.2462349E-1,3.5460663E2,1.536575E1,4E0,3.9E0,2.772677E2,6.864755E1,1.043E1,1E-1,4.23E0,2.2425043E2,9.1345E0,1.32E0,2.5730862E2,-1.17610596E-1,8E-1,1.0630672E1,1.473E1,1.69E0,-1.7026467E-2,3.8033707E1,2.1004541E1,5.105334E0,1.8243657E2,1.5820201E-2,1.5646246E-1,4E-1,1.2605142E1,1.93E0,-1.1509165E0,7.8E0,7.628329E1,9.63E0,7.4303327E0,3.2283787E1,7.6E0,1.157E1,4.4897515E-1,4.886584E0,1.5213665E1,-6.540539E-2,3E-1,4E-1,1.112E1,-9.507727E-2,-7.127822E-2,2.9797006E-2,-8.329626E-2,-3.610769E-2,2.0399876E-1,-3.513719E-2,-9.608998E-2,-8.305443E-2,-4.0797215E-2,1.0641842E-2,2.381457E-1,6.1327096E-2,-2.2110378E-2,1.1375071E-1,3.9943483E-2,-1.814293E-2,-5.7440367E-2,-1.4392045E-2,-8.545273E-2,1.296026E-1,-3.0096987E-2,3.4248945E-1,1.1621268E-1,2.0306401E-1,-3.8447525E-2,7.907112E-2,5.180416E-1,3.050458E-1,6.1903287E-2,7.6929045E-1,3.90647E-1,4.289197E-1,6.476919E-2,6.5732095E-4,2.3147483E-1,6.227087E-2,1.771886E-1,-3.5067915E-4,1.6153862E-1,-5.5653293E-2,1.3520658E-1,1.4135034E-1,5.745395E-3,1.067575E-1,-8.6678285E-3,-4.9997047E-2,-1.115474E-1],"split_indices":[0,0,6,6,6,6,6,6,0,6,3,0,4,4,5,0,5,0,6,3,0,0,6,6,1,4,1,6,3,1,6,0,4,5,1,0,0,6,5,3,6,0,0,4,5,1,3,1,6,2,3,5,1,0,0,3,3,0,4,4,0,0,0,0,0,0,0,0,0,0,0,0,0,0,0,0,0,0,0,0,0,0,0,0,0,0,0,0,0,0,0,0,0,0,0,0,0,0,0,0,0,0,0,0,0,0,0,0,0],"split_type":[0,0,0,0,0,0,0,0,0,0,0,0,0,0,0,0,0,0,0,0,0,0,0,0,0,0,0,0,0,0,0,0,0,0,0,0,0,0,0,0,0,0,0,0,0,0,0,0,0,0,0,0,0,0,0,0,0,0,0,0,0,0,0,0,0,0,0,0,0,0,0,0,0,0,0,0,0,0,0,0,0,0,0,0,0,0,0,0,0,0,0,0,0,0,0,0,0,0,0,0,0,0,0,0,0,0,0,0,0],"sum_hessian":[1.629E3,1.354E3,2.75E2,5.69E2,7.85E2,1.77E2,9.8E1,4.62E2,1.07E2,5.53E2,2.32E2,9.1E1,8.6E1,4.1E1,5.7E1,1.52E2,3.1E2,6.1E1,4.6E1,9.6E1,4.57E2,3E0,2.29E2,7.9E1,1.2E1,2.7E1,5.9E1,1E1,3.1E1,9E0,4.8E1,7.1E1,8.1E1,1.07E2,2.03E2,4.5E1,1E0,8.7E1,9E0,2.53E2,2.04E2,2E0,1E0,1.39E2,9E1,2.3E1,5.6E1,4E0,8E0,1E1,1.7E1,2E1,3.9E1,5E0,5E0,1.8E1,1.3E1,1E0,8E0,2.3E1,2.5E1,5.3E1,2.8E1,7E0,1E2,2.02E2,1E0,2E0,4.3E1,3.6E1,5.1E1,8E0,1E0,8.4E1,1.69E2,8.6E1,1.18E2,5.9E1,8E1,1.2E1,7.8E1,3E0,2E1,2E0,5.4E1,2E0,2E0,1E0,7E0,7E0,3E0,9E0,8E0,1.7E1,3E0,1.2E1,2.7E1,4E0,1E0,9E0,9E0,1.1E1,2E0,6E0,2E0,4E0,1.9E1,1.8E1,7E0],"tree_param":{"num_deleted":"0","num_feature":"9","num_nodes":"109","size_leaf_vector":"1"}},{"base_weights":[1.2883287E-2,-6.128224E-1,3.084689E0,-1.4294327E0,-1.9844495E-2,4.3396935E0,7.970579E-1,-1.6421142E0,-8.693434E-1,4.7246435E-1,-8.5890067E-1,2.5136452E0,6.2208056E0,3.8065815E-1,4.093651E0,-1.7886455E0,-8.877823E-1,-6.490615E-1,-1.6907512E0,-6.0792303E-1,9.205102E-1,-1.3741896E0,-5.5622596E-1,1.7420431E0,7.0686073E0,9.48444E0,4.594096E0,1.0687839E0,-1.008282E0,7.7419896E0,9.028869E-1,8.301415E-2,-1.8035412E0,2.0183403E0,-1.0046567E0,-1.216298E0,2.4880865E-1,-1.0255802E0,-1.9353656E0,-8.475956E-1,1.2606274E0,1.8233807E0,3.4091127E-1,5.2866155E-1,-1.4154693E0,2.8286457E-1,-8.522786E-1,-8.5808046E-2,2.4811025E0,1.9095513E0,9.149349E0,4.6762323E0,1.1895876E1,9.304767E0,3.6904395E0,3.592889E0,3.6290574E-1,1.8912162E0,-1.2829324E0,4.9973894E-2,4.5888743E-1,1.6893233E0,-7.088027E-1,-8.5048705E-2,-1.1724055E-1,1.5186463E-1,-4.891157E-4,-7.749843E-2,-2.9891094E-2,-7.4183695E-2,-3.5668183E-2,7.200449E-2,-3.3175077E-2,-6.1078172E-2,2.3356343E-2,-1.00496106E-1,-7.378155E-3,-2.4078773E-2,-8.295508E-2,-1.1493794E-2,1.3055305E-1,6.707912E-2,2.5726968E-1,-1.8027151E-2,8.411691E-2,6.904364E-4,3.8959183E-2,-7.601988E-2,-3.4226928E-2,2.7877832E-2,-4.2209506E-2,-2.6912186E-2,-8.760439E-2,1.2474251E-1,-2.8663797E-2,3.3107316E-1,1.1050769E-1,1.9629522E-1,-3.7165944E-2,7.709434E-2,4.953773E-1,2.9170004E-1,5.9581906E-2,7.346725E-1,3.732849E-1,8.957255E-2,5.01E-1,2.2505522E-1,1.2983968E-2,2.1587376E-1,4.4160068E-2,5.407237E-2,-4.47372E-2,1.6295612E-2,1.255456E-1,8.5545614E-2,-7.285913E-2,2.2038018E-2,9.45637E-2,-4.819993E-2,-4.960275E-3],"categories":[],"categories_nodes":[],"categories_segments":[],"categories_sizes":[],"default_left":[1,1,0,1,0,0,0,0,0,0,0,0,0,0,0,0,0,0,0,0,0,0,0,0,0,0,0,0,0,0,0,0,0,0,0,0,0,0,0,0,0,0,0,0,0,0,0,0,0,0,0,0,0,0,0,0,0,0,0,0,0,0,0,0,0,0,0,0,0,0,0,0,0,0,0,0,0,0,0,0,0,0,0,0,0,0,0,0,0,0,0,0,0,0,0,0,0,0,0,0,0,0,0,0,0,0,0,0,0,0,0,0,0,0,0,0,0,0,0,0,0],"id":6,"left_children":[1,3,5,7,9,11,13,15,17,19,21,23,25,27,29,31,33,35,37,39,41,43,45,47,49,51,53,55,57,59,61,-1,63,65,67,69,71,73,75,77,79,81,83,85,87,89,91,93,95,97,99,101,103,105,107,109,111,113,115,-1,-1,117,119,-1,-1,-1,-1,-1,-1,-1,-1,-1,-1,-1,-1,-1,-1,-1,-1,-1,-1,-1,-1,-1,-1,-1,-1,-1,-1,-1,-1,-1,-1,-1,-1,-1,-1,-1,-1,-1,-1,-1,-1,-1,-1,-1,-1,-1,-1,-1,-1,-1,-1,-1,-1,-1,-1,-1,-1,-1,-1],"loss_changes":[3.1348262E3,6.5610583E2,7.889336E2,6.647119E1,3.2508258E2,5.9579297E2,1.3433905E2,4.3951782E1,2.7672256E1,2.4065486E2,4.4621414E1,3.1103107E2,4.183098E2,8.614076E1,1.2106073E2,2.0667114E1,2.5463684E1,6.498433E1,3.384575E0,6.6453186E1,1.8305768E2,9.153046E0,4.6197853E1,1.08284164E2,1.2207941E2,2.690232E2,2.2107092E2,1.0559876E2,2.6316755E1,3.9230133E1,1.0069836E1,0E0,1.5053589E1,6.229393E0,1.39374695E1,9.430458E0,5.52964E1,3.7886286E0,2.769127E0,3.781459E1,3.4818256E1,2.1237103E2,2.0291074E2,3.7618643E-1,7.012253E0,1.5640738E1,3.776924E1,3.1621948E1,4.930963E1,2.9663815E1,3.6635315E1,3.7425842E1,1.1339038E2,3.0413635E1,1.4345331E2,2.171103E1,4.4343952E1,2.0917006E0,1.7100101E1,0E0,0E0,4.2714214E-1,3.710662E-1,0E0,0E0,0E0,0E0,0E0,0E0,0E0,0E0,0E0,0E0,0E0,0E0,0E0,0E0,0E0,0E0,0E0,0E0,0E0,0E0,0E0,0E0,0E0,0E0,0E0,0E0,0E0,0E0,0E0,0E0,0E0,0E0,0E0,0E0,0E0,0E0,0E0,0E0,0E0,0E0,0E0,0E0,0E0,0E0,0E0,0E0,0E0,0E0,0E0,0E0,0E0,0E0,0E0,0E0,0E0,0E0,0E0,0E0],"parents":[2147483647,0,0,1,1,2,2,3,3,4,4,5,5,6,6,7,7,8,8,9,9,10,10,11,11,12,12,13,13,14,14,15,15,16,16,17,17,18,18,19,19,20,20,21,21,22,22,23,23,24,24,25,25,26,26,27,27,28,28,29,29,30,30,32,32,33,33,34,34,35,35,36,36,37,37,38,38,39,39,40,40,41,41,42,42,43,43,44,44,45,45,46,46,47,47,48,48,49,49,50,50,51,51,52,52,53,53,54,54,55,55,56,56,57,57,58,58,61,61,62,62],"right_children":[2,4,6,8,10,12,14,16,18,20,22,24,26,28,30,32,34,36,38,40,42,44,46,48,50,52,54,56,58,60,62,-1,64,66,68,70,72,74,76,78,80,82,84,86,88,90,92,94,96,98,100,102,104,106,108,110,112,114,116,-1,-1,118,120,-1,-1,-1,-1,-1,-1,-1,-1,-1,-1,-1,-1,-1,-1,-1,-1,-1,-1,-1,-1,-1,-1,-1,-1,-1,-1,-1,-1,-1,-1,-1,-1,-1,-1,-1,-1,-1,-1,-1,-1,-1,-1,-1,-1,-1,-1,-1,-1,-1,-1,-1,-1,-1,-1,-1,-1,-1,-1],"split_conditions":[6.7E0,2.37E0,2.156651E2,2E0,2.3293379E2,1.6055988E2,1.6334501E1,4.1E0,2.6559424E2,1.09518364E2,3.2E0,1.473E1,1.4000001E0,2.5560144E2,2.3712672E2,7.989243E0,4.1999993E0,1.8997308E2,1.4003028E1,1.5867831E1,6.3282495E0,9.5E-1,1.6700275E1,6.864755E1,1.043E1,1E-1,2.77E0,4E-1,-3.5342503E0,8.77E0,1.112E1,8.301415E-2,3.0247116E2,1.32E0,2.17E0,1.2468042E2,8.932418E0,2.85E0,3.1347399E1,1.8335276E1,2.72E0,5.4428325E0,4.2E0,2.59E0,6.4E0,5.57E0,2.772677E2,1.93E0,-1.1509165E0,7.8E0,7.628329E1,9.63E0,7.4303327E0,1.6803488E2,2.6168804E1,2.286496E1,9.1345E0,1.043E1,9.028754E0,4.9973894E-2,4.5888743E-1,1.7778246E1,6.93E0,-8.5048705E-2,-1.1724055E-1,1.5186463E-1,-4.891157E-4,-7.749843E-2,-2.9891094E-2,-7.4183695E-2,-3.5668183E-2,7.200449E-2,-3.3175077E-2,-6.1078172E-2,2.3356343E-2,-1.00496106E-1,-7.378155E-3,-2.4078773E-2,-8.295508E-2,-1.1493794E-2,1.3055305E-1,6.707912E-2,2.5726968E-1,-1.8027151E-2,8.411691E-2,6.904364E-4,3.8959183E-2,-7.601988E-2,-3.4226928E-2,2.7877832E-2,-4.2209506E-2,-2.6912186E-2,-8.760439E-2,1.2474251E-1,-2.8663797E-2,3.3107316E-1,1.1050769E-1,1.9629522E-1,-3.7165944E-2,7.709434E-2,4.953773E-1,2.9170004E-1,5.9581906E-2,7.346725E-1,3.732849E-1,8.957255E-2,5.01E-1,2.2505522E-1,1.2983968E-2,2.1587376E-1,4.4160068E-2,5.407237E-2,-4.47372E-2,1.6295612E-2,1.255456E-1,8.5545614E-2,-7.285913E-2,2.2038018E-2,9.45637E-2,-4.819993E-2,-4.960275E-3],"split_indices":[0,0,6,0,6,6,3,4,6,6,0,0,4,6,6,5,4,6,5,3,3,2,5,6,1,4,1,4,3,0,2,0,6,0,2,6,3,1,5,5,2,3,0,0,2,1,6,1,3,1,6,2,3,6,5,5,3,0,5,0,0,3,0,0,0,0,0,0,0,0,0,0,0,0,0,0,0,0,0,0,0,0,0,0,0,0,0,0,0,0,0,0,0,0,0,0,0,0,0,0,0,0,0,0,0,0,0,0,0,0,0,0,0,0,0,0,0,0,0,0,0],"split_type":[0,0,0,0,0,0,0,0,0,0,0,0,0,0,0,0,0,0,0,0,0,0,0,0,0,0,0,0,0,0,0,0,0,0,0,0,0,0,0,0,0,0,0,0,0,0,0,0,0,0,0,0,0,0,0,0,0,0,0,0,0,0,0,0,0,0,0,0,0,0,0,0,0,0,0,0,0,0,0,0,0,0,0,0,0,0,0,0,0,0,0,0,0,0,0,0,0,0,0,0,0,0,0,0,0,0,0,0,0,0,0,0,0,0,0,0,0,0,0,0,0],"sum_hessian":[1.629E3,1.354E3,2.75E2,5.69E2,7.85E2,1.77E2,9.8E1,4.11E2,1.58E2,4.95E2,2.9E2,9.1E1,8.6E1,8.8E1,1E1,3.43E2,6.8E1,1.26E2,3.2E1,1.45E2,3.5E2,1.06E2,1.84E2,7.9E1,1.2E1,2.7E1,5.9E1,5.9E1,2.9E1,4E0,6E0,1E0,3.42E2,2E0,6.6E1,7.7E1,4.9E1,1E1,2.2E1,1.29E2,1.6E1,1.36E2,2.14E2,2E0,1.04E2,4.8E1,1.36E2,2.3E1,5.6E1,4E0,8E0,1E1,1.7E1,8E0,5.1E1,1.2E1,4.7E1,2E0,2.7E1,1E0,3E0,4E0,2E0,2.91E2,5.1E1,1E0,1E0,2.7E1,3.9E1,4.9E1,2.8E1,2.1E1,2.8E1,9E0,1E0,2.1E1,1E0,9E1,3.9E1,8E0,8E0,1.2E2,1.6E1,1.41E2,7.3E1,1E0,1E0,9E1,1.4E1,3.9E1,9E0,1.02E2,3.4E1,3E0,2E1,2E0,5.4E1,2E0,2E0,1E0,7E0,7E0,3E0,9E0,8E0,1E0,7E0,4.1E1,1E1,9E0,3E0,3E1,1.7E1,1E0,1E0,1E0,2.6E1,1E0,3E0,1E0,1E0],"tree_param":{"num_deleted":"0","num_feature":"9","num_nodes":"121","size_leaf_vector":"1"}},{"base_weights":[1.4978057E-2,-6.473531E-1,2.6662884E0,-1.5140855E0,-1.8785614E-1,3.5965E0,-1.9171579E-1,-1.8147697E0,-1.165128E0,1.7073217E-1,-9.196776E-1,-1.24078795E-1,4.1138215E0,1.5655769E0,-4.9022716E-1,8.093881E-2,-1.835821E0,-1.208759E0,2.0102501E-1,-6.8675894E-1,6.382052E-1,-6.5760577E-1,-1.3731408E0,2.4012933E0,-4.8041484E-1,3.0151358E0,5.405962E0,-6.1948784E-2,1.9331704E0,2.3257689E-1,-1.6499735E0,-2.0489182E0,-1.5563974E0,3.045152E0,-1.2640363E0,-1.4195422E0,-4.443828E-1,1.4068084E0,7.040275E-2,-1.5755995E-1,-1.0215089E0,-3.1364647E-1,-1.566609E0,1.516659E-1,1.2630487E-2,1.1368858E0,-7.973352E-1,5.108929E0,2.540542E0,6.372833E0,1.0504035E0,2.3281496E0,1.0384289E-1,-2.182374E-1,1.214196E0,-1.8134265E0,-2.5676265E-1,-1.0478955E-1,-6.663591E-4,9.127766E-2,-8.025329E-2,2.8094593E-1,-5.255952E-2,-5.1659156E-2,-8.356127E-2,-1.6028518E-2,-8.431355E-2,-3.8004655E-2,1.1374824E-2,1.0672927E-1,-3.2703273E-2,-1.9568374E-2,6.6355735E-2,-3.287517E-2,1.6066266E-2,5.935364E-2,-5.4943174E-2,-6.381315E-2,2.4390575E-2,-1.05634086E-1,-6.8456106E-2,6.5913126E-2,1.0284471E-2,-9.293768E-2,4.6794456E-3,-9.827096E-2,2.97852E-1,2.0673962E-1,9.426352E-2,2.7753058E-1,5.5129E-1,1.5956362E-1,1.3337682E-2,1.5152368E-1,3.4631304E-2,5.2422106E-2,-4.463389E-2,2.7391175E-2,-3.6544908E-2,1.9792847E-1,5.293026E-3,-9.9597536E-2,-3.6832195E-2,-4.5324232E-2,1.3098645E-2],"categories":[],"categories_nodes":[],"categories_segments":[],"categories_sizes":[],"default_left":[1,1,0,0,0,0,0,0,1,0,0,0,0,0,0,0,0,0,0,0,0,0,0,0,0,0,0,0,0,0,0,0,0,0,0,0,0,0,0,0,0,0,0,0,0,0,0,0,0,0,0,0,0,0,0,0,0,0,0,0,0,0,0,0,0,0,0,0,0,0,0,0,0,0,0,0,0,0,0,0,0,0,0,0,0,0,0,0,0,0,0,0,0,0,0,0,0,0,0,0,0,0,0,0,0],"id":7,"left_children":[1,3,5,7,9,11,13,15,17,19,21,23,25,27,29,-1,31,33,-1,35,37,39,41,43,45,47,49,-1,51,53,55,57,59,61,63,65,67,69,71,73,75,77,79,-1,-1,81,83,85,87,89,91,93,95,97,99,101,103,-1,-1,-1,-1,-1,-1,-1,-1,-1,-1,-1,-1,-1,-1,-1,-1,-1,-1,-1,-1,-1,-1,-1,-1,-1,-1,-1,-1,-1,-1,-1,-1,-1,-1,-1,-1,-1,-1,-1,-1,-1,-1,-1,-1,-1,-1,-1,-1],"loss_changes":[2.86408E3,5.1944604E2,8.67376E2,4.5312134E1,2.2426593E2,4.7399536E2,4.3257812E1,2.0391357E1,5.2825623E1,2.3052844E2,3.2491043E1,2.9049932E1,2.903462E2,1.4766375E1,5.9062607E1,0E0,1.1101746E1,5.3464813E1,0E0,3.5423843E1,1.6224725E2,3.2593338E1,2.0416428E1,4.6658363E0,1.5258032E1,1.05270996E2,4.0600952E2,0E0,7.7062416E0,1.9736208E1,5.6829376E0,1.2662048E1,2.0706238E1,3.7535637E1,1.7919495E1,1.4115799E1,3.283927E1,2.3837344E2,1.25286514E2,1.8646267E1,1.9072205E1,1.373802E1,6.381897E0,0E0,0E0,5.7333374E-1,2.2869392E1,1.3770459E2,9.562683E1,2.4486133E2,3.1024853E1,8.239021E0,3.759859E0,1.2575011E1,4.216455E1,3.146202E0,1.58561E0,0E0,0E0,0E0,0E0,0E0,0E0,0E0,0E0,0E0,0E0,0E0,0E0,0E0,0E0,0E0,0E0,0E0,0E0,0E0,0E0,0E0,0E0,0E0,0E0,0E0,0E0,0E0,0E0,0E0,0E0,0E0,0E0,0E0,0E0,0E0,0E0,0E0,0E0,0E0,0E0,0E0,0E0,0E0,0E0,0E0,0E0,0E0,0E0],"parents":[2147483647,0,0,1,1,2,2,3,3,4,4,5,5,6,6,7,7,8,8,9,9,10,10,11,11,12,12,13,13,14,14,16,16,17,17,19,19,20,20,21,21,22,22,23,23,24,24,25,25,26,26,28,28,29,29,30,30,31,31,32,32,33,33,34,34,35,35,36,36,37,37,38,38,39,39,40,40,41,41,42,42,45,45,46,46,47,47,48,48,49,49,50,50,51,51,52,52,53,53,54,54,55,55,56,56],"right_children":[2,4,6,8,10,12,14,16,18,20,22,24,26,28,30,-1,32,34,-1,36,38,40,42,44,46,48,50,-1,52,54,56,58,60,62,64,66,68,70,72,74,76,78,80,-1,-1,82,84,86,88,90,92,94,96,98,100,102,104,-1,-1,-1,-1,-1,-1,-1,-1,-1,-1,-1,-1,-1,-1,-1,-1,-1,-1,-1,-1,-1,-1,-1,-1,-1,-1,-1,-1,-1,-1,-1,-1,-1,-1,-1,-1,-1,-1,-1,-1,-1,-1,-1,-1,-1,-1,-1,-1],"split_conditions":[5.88E0,2.04E0,2.3712672E2,5E-1,2.4189311E2,6.864755E1,1.2605142E1,7.989243E0,1.473E1,1.3185591E2,2.772677E2,1.93E0,1.018E1,1.32E0,2.6487863E2,8.093881E-2,1.5E0,1.0630672E1,2.0102501E-1,3.8033707E1,7.978249E0,5E-1,1.2605142E1,3.17E0,9.885262E0,2.93E0,2.5476198E1,-6.1948784E-2,3E-1,1.202E1,1.523E1,1.5867831E1,9E-1,1.32E0,2.2754364E2,1.1132385E1,3.83E0,2.847643E1,4.2E0,3.2E0,2.13E0,3.87E0,3.142833E0,1.516659E-1,1.2630487E-2,8.97E0,4.500013E1,-4.2174983E-1,1.51884165E1,2.135E1,1.7967262E2,7.6E0,7.54E0,7.02E0,4E-1,1.3663666E1,6.7E0,-1.0478955E-1,-6.663591E-4,9.127766E-2,-8.025329E-2,2.8094593E-1,-5.255952E-2,-5.1659156E-2,-8.356127E-2,-1.6028518E-2,-8.431355E-2,-3.8004655E-2,1.1374824E-2,1.0672927E-1,-3.2703273E-2,-1.9568374E-2,6.6355735E-2,-3.287517E-2,1.6066266E-2,5.935364E-2,-5.4943174E-2,-6.381315E-2,2.4390575E-2,-1.05634086E-1,-6.8456106E-2,6.5913126E-2,1.0284471E-2,-9.293768E-2,4.6794456E-3,-9.827096E-2,2.97852E-1,2.0673962E-1,9.426352E-2,2.7753058E-1,5.5129E-1,1.5956362E-1,1.3337682E-2,1.5152368E-1,3.4631304E-2,5.2422106E-2,-4.463389E-2,2.7391175E-2,-3.6544908E-2,1.9792847E-1,5.293026E-3,-9.9597536E-2,-3.6832195E-2,-4.5324232E-2,1.3098645E-2],"split_indices":[0,0,6,4,6,6,5,5,1,6,6,1,0,1,6,0,0,5,0,6,3,4,5,2,5,1,5,0,4,0,2,3,2,0,6,5,0,5,0,0,0,2,3,0,0,0,6,3,5,0,6,1,0,0,4,3,0,0,0,0,0,0,0,0,0,0,0,0,0,0,0,0,0,0,0,0,0,0,0,0,0,0,0,0,0,0,0,0,0,0,0,0,0,0,0,0,0,0,0,0,0,0,0,0,0],"split_type":[0,0,0,0,0,0,0,0,0,0,0,0,0,0,0,0,0,0,0,0,0,0,0,0,0,0,0,0,0,0,0,0,0,0,0,0,0,0,0,0,0,0,0,0,0,0,0,0,0,0,0,0,0,0,0,0,0,0,0,0,0,0,0,0,0,0,0,0,0,0,0,0,0,0,0,0,0,0,0,0,0,0,0,0,0,0,0,0,0,0,0,0,0,0,0,0,0,0,0,0,0,0,0,0,0],"sum_hessian":[1.629E3,1.304E3,3.25E2,4.51E2,8.53E2,2.45E2,8E1,2.4E2,2.11E2,5.73E2,2.8E2,3E1,2.15E2,1.1E1,6.9E1,1E0,2.39E2,2.1E2,1E0,2.02E2,3.71E2,1.79E2,1.01E2,3E0,2.7E1,1.18E2,9.7E1,1E0,1E1,4.3E1,2.6E1,1.32E2,1.07E2,2E0,2.08E2,4.9E1,1.53E2,1.57E2,2.14E2,7.6E1,1.03E2,1.6E1,8.5E1,2E0,1E0,4E0,2.3E1,2E1,9.8E1,7.9E1,1.8E1,8E0,2E0,3E1,1.3E1,2.3E1,3E0,1.29E2,3E0,1E0,1.06E2,1E0,1E0,1.35E2,7.3E1,1E1,3.9E1,1.04E2,4.9E1,1.16E2,4.1E1,1.57E2,5.7E1,3.7E1,3.9E1,3E0,1E2,7E0,9E0,2E1,6.5E1,3E0,1E0,1E1,1.3E1,2E0,1.8E1,2.7E1,7.1E1,6.9E1,1E1,4E0,1.4E1,5E0,3E0,1E0,1E0,1.2E1,1.8E1,3E0,1E1,1.9E1,4E0,1E0,2E0],"tree_param":{"num_deleted":"0","num_feature":"9","num_nodes":"105","size_leaf_vector":"1"}},{"base_weights":[1.5370615E-2,-5.5409783E-1,2.8110747E0,-1.2927527E0,-1.7727077E-2,3.958621E0,7.194151E-1,-1.1385531E0,-1.9418423E0,4.3011516E-1,-7.8099865E-1,2.2541573E0,5.7155414E0,3.24781E-1,3.8469627E0,-1.6202121E0,-6.996043E-1,-1.0835649E-1,-1.6033387E0,-5.498704E-1,8.3651906E-1,-1.2527821E0,-5.039077E-1,1.5391843E0,6.480594E0,8.824038E0,4.1696506E0,9.3519956E-1,-9.0688217E-1,7.2854495E0,8.4133446E-1,-1.9586407E0,-1.3521888E0,-2.9005682E-1,-1.1564875E0,-1.6265744E0,-1.336245E-2,-7.7801764E-1,1.2271304E0,1.6874759E0,3.1590822E-1,5.373618E-1,-1.2919978E0,2.7127656E-1,-7.774852E-1,-2.7563868E-2,2.2111402E0,1.6979687E0,8.417542E0,4.260021E0,1.1122935E1,6.7691464E0,2.700674E0,3.280079E0,2.8064477E-1,1.7818842E0,-1.1625756E0,4.910987E-1,1.160221E-1,1.5877712E0,-6.831716E-1,-1.0022423E-2,-1.00689724E-1,-7.018802E-2,2.8584355E-2,-4.841675E-2,1.6180713E-2,-6.3900925E-2,-3.4224888E-4,-8.5783795E-2,-4.944414E-2,-1.3387009E-2,-6.5002896E-2,-8.386872E-3,1.2428253E-1,6.647092E-2,4.5223948E-1,-1.7330026E-2,7.710895E-2,1.4950514E-3,3.8807083E-2,-9.397118E-2,-5.7442944E-2,2.6310114E-2,-3.877769E-2,-4.4470523E-2,7.140922E-2,1.16115145E-1,-2.2677973E-2,3.119662E-1,9.732025E-2,1.8050103E-1,-3.9003626E-2,6.8228714E-2,4.5642957E-1,2.6826093E-1,4.923103E-2,2.3488764E-1,6.3115734E-1,3.814576E-1,6.0341716E-2,-1.3982172E-2,1.9939701E-1,1.9748174E-1,3.9308485E-2,4.8032686E-2,-4.5303654E-2,1.5022445E-2,1.1861887E-1,7.9618886E-2,-6.6179395E-2,2.240069E-2,8.803536E-2,-4.607413E-2,-5.1637413E-3],"categories":[],"categories_nodes":[],"categories_segments":[],"categories_sizes":[],"default_left":[1,1,0,0,0,0,0,0,0,0,0,0,0,0,0,0,0,0,0,0,0,0,0,0,0,0,0,0,0,0,0,0,0,0,0,0,0,0,0,0,0,0,0,0,0,0,0,0,0,0,0,0,0,0,0,0,0,0,0,0,0,0,0,0,0,0,0,0,0,0,0,0,0,0,0,0,0,0,0,0,0,0,0,0,0,0,0,0,0,0,0,0,0,0,0,0,0,0,0,0,0,0,0,0,0,0,0,0,0,0,0,0,0,0,0],"id":8,"left_children":[1,3,5,7,9,11,13,15,17,19,21,23,25,27,29,31,33,-1,35,37,39,41,43,45,47,49,51,53,55,57,59,61,63,65,67,69,-1,71,73,75,77,79,81,83,85,87,89,91,93,95,97,99,101,103,105,107,109,-1,-1,111,113,-1,-1,-1,-1,-1,-1,-1,-1,-1,-1,-1,-1,-1,-1,-1,-1,-1,-1,-1,-1,-1,-1,-1,-1,-1,-1,-1,-1,-1,-1,-1,-1,-1,-1,-1,-1,-1,-1,-1,-1,-1,-1,-1,-1,-1,-1,-1,-1,-1,-1,-1,-1,-1,-1],"loss_changes":[2.5966243E3,5.3681854E2,6.596284E2,5.4839966E1,2.6901056E2,5.2015625E2,1.2094003E2,9.6755615E1,4.761505E0,1.9800189E2,3.7410248E1,2.6802975E2,3.8127637E2,6.7760994E1,1.0755342E2,1.7307068E1,4.5320717E1,0E0,1.0244141E0,6.0145744E1,1.5496602E2,8.205841E0,3.944441E1,8.428378E1,1.06135315E2,2.4639746E2,2.1083472E2,9.117058E1,2.2696573E1,4.017801E1,9.050352E0,8.808533E0,1.3303925E1,5.4424522E1,1.6058731E1,9.1708374E-1,0E0,3.428202E1,3.025991E1,3.3834302E2,1.7845343E2,3.403067E-1,6.669586E0,1.3484431E1,3.5091446E1,2.6079124E1,4.757422E1,2.6506792E1,3.2678406E1,3.453691E1,1.14204346E2,9.12489E1,1.545737E2,1.8602463E1,3.9605404E1,1.9115534E0,1.4527931E1,0E0,0E0,1.9670391E-1,3.194213E-1,0E0,0E0,0E0,0E0,0E0,0E0,0E0,0E0,0E0,0E0,0E0,0E0,0E0,0E0,0E0,0E0,0E0,0E0,0E0,0E0,0E0,0E0,0E0,0E0,0E0,0E0,0E0,0E0,0E0,0E0,0E0,0E0,0E0,0E0,0E0,0E0,0E0,0E0,0E0,0E0,0E0,0E0,0E0,0E0,0E0,0E0,0E0,0E0,0E0,0E0,0E0,0E0,0E0,0E0],"parents":[2147483647,0,0,1,1,2,2,3,3,4,4,5,5,6,6,7,7,8,8,9,9,10,10,11,11,12,12,13,13,14,14,15,15,16,16,18,18,19,19,20,20,21,21,22,22,23,23,24,24,25,25,26,26,27,27,28,28,29,29,30,30,31,31,32,32,33,33,34,34,35,35,37,37,38,38,39,39,40,40,41,41,42,42,43,43,44,44,45,45,46,46,47,47,48,48,49,49,50,50,51,51,52,52,53,53,54,54,55,55,56,56,59,59,60,60],"right_children":[2,4,6,8,10,12,14,16,18,20,22,24,26,28,30,32,34,-1,36,38,40,42,44,46,48,50,52,54,56,58,60,62,64,66,68,70,-1,72,74,76,78,80,82,84,86,88,90,92,94,96,98,100,102,104,106,108,110,-1,-1,112,114,-1,-1,-1,-1,-1,-1,-1,-1,-1,-1,-1,-1,-1,-1,-1,-1,-1,-1,-1,-1,-1,-1,-1,-1,-1,-1,-1,-1,-1,-1,-1,-1,-1,-1,-1,-1,-1,-1,-1,-1,-1,-1,-1,-1,-1,-1,-1,-1,-1,-1,-1,-1,-1,-1],"split_conditions":[6.7E0,2.37E0,2.156651E2,2.7479416E2,2.3293379E2,1.6055988E2,1.6334501E1,1.5228162E2,1.63E0,1.09518364E2,3.2E0,1.473E1,1.4000001E0,2.5560144E2,2.3712672E2,1.53E0,9.7907505E0,-1.0835649E-1,3.5460663E2,1.5867831E1,6.013666E0,9.5E-1,1.6700275E1,7.7905304E1,1.043E1,1E-1,4.23E0,4E-1,-3.5342503E0,5E-1,1.112E1,8.7E-1,1.8667837E1,3.9095001E0,2.29E0,2.495452E1,-1.336245E-2,1.55843E1,2.72E0,5.8886676E0,4.2E0,2.59E0,2.8115835E0,5.57E0,1.6417831E1,1.93E0,-1.1509165E0,7.8E0,7.628329E1,9.63E0,1.4707222E1,3.2283787E1,7.6E0,2.286496E1,9.1345E0,1.043E1,9.028754E0,4.910987E-1,1.160221E-1,1.7778246E1,6.93E0,-1.0022423E-2,-1.00689724E-1,-7.018802E-2,2.8584355E-2,-4.841675E-2,1.6180713E-2,-6.3900925E-2,-3.4224888E-4,-8.5783795E-2,-4.944414E-2,-1.3387009E-2,-6.5002896E-2,-8.386872E-3,1.2428253E-1,6.647092E-2,4.5223948E-1,-1.7330026E-2,7.710895E-2,1.4950514E-3,3.8807083E-2,-9.397118E-2,-5.7442944E-2,2.6310114E-2,-3.877769E-2,-4.4470523E-2,7.140922E-2,1.16115145E-1,-2.2677973E-2,3.119662E-1,9.732025E-2,1.8050103E-1,-3.9003626E-2,6.8228714E-2,4.5642957E-1,2.6826093E-1,4.923103E-2,2.3488764E-1,6.3115734E-1,3.814576E-1,6.0341716E-2,-1.3982172E-2,1.9939701E-1,1.9748174E-1,3.9308485E-2,4.8032686E-2,-4.5303654E-2,1.5022445E-2,1.1861887E-1,7.9618886E-2,-6.6179395E-2,2.240069E-2,8.803536E-2,-4.607413E-2,-5.1637413E-3],"split_indices":[0,0,6,6,6,6,3,6,0,6,0,0,4,6,6,0,3,0,6,3,3,2,5,6,1,4,1,4,3,4,2,2,3,3,0,5,0,5,2,3,0,0,3,1,3,1,3,1,6,2,5,5,1,5,3,0,5,0,0,3,0,0,0,0,0,0,0,0,0,0,0,0,0,0,0,0,0,0,0,0,0,0,0,0,0,0,0,0,0,0,0,0,0,0,0,0,0,0,0,0,0,0,0,0,0,0,0,0,0,0,0,0,0,0,0],"split_type":[0,0,0,0,0,0,0,0,0,0,0,0,0,0,0,0,0,0,0,0,0,0,0,0,0,0,0,0,0,0,0,0,0,0,0,0,0,0,0,0,0,0,0,0,0,0,0,0,0,0,0,0,0,0,0,0,0,0,0,0,0,0,0,0,0,0,0,0,0,0,0,0,0,0,0,0,0,0,0,0,0,0,0,0,0,0,0,0,0,0,0,0,0,0,0,0,0,0,0,0,0,0,0,0,0,0,0,0,0,0,0,0,0,0,0],"sum_hessian":[1.629E3,1.354E3,2.75E2,5.69E2,7.85E2,1.77E2,9.8E1,4.62E2,1.07E2,4.95E2,2.9E2,9.1E1,8.6E1,8.8E1,1E1,2.19E2,2.43E2,6.1E1,4.6E1,1.45E2,3.5E2,1.06E2,1.84E2,7.9E1,1.2E1,2.7E1,5.9E1,5.9E1,2.9E1,4E0,6E0,9.4E1,1.25E2,1.29E2,1.14E2,4.5E1,1E0,1.29E2,1.6E1,1.32E2,2.18E2,2E0,1.04E2,4.8E1,1.36E2,2.4E1,5.5E1,4E0,8E0,1E1,1.7E1,2E1,3.9E1,1.2E1,4.7E1,2E0,2.7E1,2E0,2E0,4E0,2E0,3E0,9.1E1,1.22E2,3E0,6.1E1,6.8E1,1.03E2,1.1E1,3.8E1,7E0,6.6E1,6.3E1,8E0,8E0,1.27E2,5E0,1.42E2,7.6E1,1E0,1E0,1.8E1,8.6E1,3.9E1,9E0,1.3E2,6E0,3E0,2.1E1,2E0,5.3E1,2E0,2E0,1E0,7E0,7E0,3E0,4E0,1.3E1,1.7E1,3E0,1.2E1,2.7E1,9E0,3E0,3E1,1.7E1,1E0,1E0,1E0,2.6E1,1E0,3E0,1E0,1E0],"tree_param":{"num_deleted":"0","num_feature":"9","num_nodes":"115","size_leaf_vector":"1"}},{"base_weights":[1.708441E-2,-5.853898E-1,2.428777E0,-1.3693202E0,-1.6979037E-1,3.2758865E0,-1.7391154E-1,-1.646627E0,-1.0476208E0,1.829422E-1,-7.8313655E-1,1.4649145E-2,3.7634797E0,1.4541292E0,-4.5051977E-1,8.012575E-2,-1.6668421E0,2.997193E0,-1.1004152E0,-5.367407E-1,7.4209774E-1,-5.481886E-1,-1.2614783E0,4.677285E-1,-1.4596899E0,4.966033E0,2.6650467E0,-5.8745574E-2,1.799943E0,1.9644699E-1,-1.5529423E0,-1.8581744E0,-1.4157863E0,2.735178E-1,-4.872829E-2,-1.1431148E0,1.9559488E-1,-1.3138756E0,-3.283096E-1,4.4107127E-1,2.3915613E0,7.757641E-2,-9.545642E-1,-2.3156412E-1,-1.4363881E0,2.2352166E0,1.4000325E-1,-1.8523335E0,3.22204E-2,3.6994245E0,7.840359E0,4.5118027E0,1.7548543E0,2.1686099E0,9.3961395E-2,-2.1556875E-1,1.1241653E0,-1.7167126E0,-2.2302756E-1,-9.5120914E-2,2.2147715E-3,9.020614E-2,-7.313699E-2,-4.319015E-2,-7.194632E-2,-1.4714173E-2,-7.807083E-2,-2.8896196E-2,2.0848624E-2,4.4643972E-2,-1.8315071E-2,3.4403327E-1,5.7364114E-2,-3.163975E-2,3.117691E-2,-2.6296252E-2,-6.456378E-2,-5.903803E-2,3.1894773E-2,-9.502247E-2,-6.299688E-2,1.4273988E-1,9.411848E-3,2.1347258E-2,-6.6485345E-2,-2.7038276E-2,-9.904003E-2,1.4398928E-1,3.5989013E-1,4.2519388E-1,7.007613E-2,2.6292974E-1,-1.1152685E-2,4.9065124E-2,2.6104993E-1,1.4095967E-1,3.252913E-2,4.8910666E-2,-4.186356E-2,2.6477737E-2,-3.445603E-2,1.8507777E-1,4.2367927E-3,-9.5245026E-2,-3.2912787E-2,2.5811255E-2,-3.207601E-2],"categories":[],"categories_nodes":[],"categories_segments":[],"categories_sizes":[],"default_left":[1,1,0,0,0,0,0,0,0,0,0,0,0,0,0,0,0,0,1,0,1,0,0,0,0,0,0,0,0,0,0,0,0,0,0,0,0,0,0,0,0,0,0,0,0,0,0,0,0,0,0,0,0,0,0,0,0,0,0,0,0,0,0,0,0,0,0,0,0,0,0,0,0,0,0,0,0,0,0,0,0,0,0,0,0,0,0,0,0,0,0,0,0,0,0,0,0,0,0,0,0,0,0,0,0,0,0],"id":9,"left_children":[1,3,5,7,9,11,13,15,17,19,21,23,25,27,29,-1,31,33,35,37,39,41,43,45,47,49,51,-1,53,55,57,59,61,-1,-1,63,-1,65,67,69,71,73,75,77,79,81,83,85,-1,87,89,91,93,95,97,99,101,103,105,-1,-1,-1,-1,-1,-1,-1,-1,-1,-1,-1,-1,-1,-1,-1,-1,-1,-1,-1,-1,-1,-1,-1,-1,-1,-1,-1,-1,-1,-1,-1,-1,-1,-1,-1,-1,-1,-1,-1,-1,-1,-1,-1,-1,-1,-1,-1,-1],"loss_changes":[2.3697832E3,4.2493777E2,7.1932227E2,3.8597595E1,1.8490375E2,3.9112378E2,3.71318E1,1.8500488E1,4.856938E1,2.189095E2,3.437271E1,2.2726494E1,2.694431E2,1.3024675E1,5.0231224E1,0E0,8.897705E0,3.4799633E1,4.9416733E1,3.8119667E1,1.50884E2,5.3730434E1,1.8041885E1,1.4747574E1,7.8029423E0,3.3870044E2,1.8370544E2,0E0,6.7145653E0,1.744289E1,5.2799416E0,1.1279236E1,1.8967072E1,0E0,0E0,1.6025421E1,0E0,1.2160034E1,3.540123E1,9.516922E1,2.546337E2,3.2972767E1,1.7794823E1,1.3957809E1,4.7294464E0,4.535696E0,1.0267304E1,1.0830498E-1,0E0,1.8572516E2,1.16250244E2,1.3200317E2,2.040135E2,7.05431E0,3.2893627E0,1.1656273E1,3.719256E1,3.3274307E0,1.5686558E0,0E0,0E0,0E0,0E0,0E0,0E0,0E0,0E0,0E0,0E0,0E0,0E0,0E0,0E0,0E0,0E0,0E0,0E0,0E0,0E0,0E0,0E0,0E0,0E0,0E0,0E0,0E0,0E0,0E0,0E0,0E0,0E0,0E0,0E0,0E0,0E0,0E0,0E0,0E0,0E0,0E0,0E0,0E0,0E0,0E0,0E0,0E0,0E0],"parents":[2147483647,0,0,1,1,2,2,3,3,4,4,5,5,6,6,7,7,8,8,9,9,10,10,11,11,12,12,13,13,14,14,16,16,17,17,18,18,19,19,20,20,21,21,22,22,23,23,24,24,25,25,26,26,28,28,29,29,30,30,31,31,32,32,35,35,37,37,38,38,39,39,40,40,41,41,42,42,43,43,44,44,45,45,46,46,47,47,49,49,50,50,51,51,52,52,53,53,54,54,55,55,56,56,57,57,58,58],"right_children":[2,4,6,8,10,12,14,16,18,20,22,24,26,28,30,-1,32,34,36,38,40,42,44,46,48,50,52,-1,54,56,58,60,62,-1,-1,64,-1,66,68,70,72,74,76,78,80,82,84,86,-1,88,90,92,94,96,98,100,102,104,106,-1,-1,-1,-1,-1,-1,-1,-1,-1,-1,-1,-1,-1,-1,-1,-1,-1,-1,-1,-1,-1,-1,-1,-1,-1,-1,-1,-1,-1,-1,-1,-1,-1,-1,-1,-1,-1,-1,-1,-1,-1,-1,-1,-1,-1,-1,-1,-1],"split_conditions":[5.88E0,2.04E0,2.3712672E2,5E-1,2.3293379E2,7.7905304E1,1.2605142E1,7.989243E0,1.0630672E1,1.5228162E2,2.772677E2,2.1889065E1,1.5000001E0,1.32E0,2.6905984E2,8.012575E-2,1.5E0,1.32E0,1.473E1,3.8033707E1,5.79E0,4E-1,1.243434E1,1.93E0,7.88E0,1.267E1,4.2E0,-5.8745574E-2,3E-1,1.202E1,1.523E1,1.5867831E1,9E-1,2.735178E-1,-4.872829E-2,2.0158493E2,1.9559488E-1,1.1132385E1,4.17E0,5.4E0,1.7508281E2,3.2E0,7.978249E0,3.87E0,3.142833E0,3.17E0,5E-1,7.15E0,3.22204E-2,9E-1,2.3000591E1,2.2754364E2,1.685E1,7.6E0,7.54E0,7.02E0,4E-1,1.3663666E1,4.23E0,-9.5120914E-2,2.2147715E-3,9.020614E-2,-7.313699E-2,-4.319015E-2,-7.194632E-2,-1.4714173E-2,-7.807083E-2,-2.8896196E-2,2.0848624E-2,4.4643972E-2,-1.8315071E-2,3.4403327E-1,5.7364114E-2,-3.163975E-2,3.117691E-2,-2.6296252E-2,-6.456378E-2,-5.903803E-2,3.1894773E-2,-9.502247E-2,-6.299688E-2,1.4273988E-1,9.411848E-3,2.1347258E-2,-6.6485345E-2,-2.7038276E-2,-9.904003E-2,1.4398928E-1,3.5989013E-1,4.2519388E-1,7.007613E-2,2.6292974E-1,-1.1152685E-2,4.9065124E-2,2.6104993E-1,1.4095967E-1,3.252913E-2,4.8910666E-2,-4.186356E-2,2.6477737E-2,-3.445603E-2,1.8507777E-1,4.2367927E-3,-9.5245026E-2,-3.2912787E-2,2.5811255E-2,-3.207601E-2],"split_indices":[0,0,6,4,6,6,5,5,5,6,6,5,4,1,6,0,0,0,1,6,1,4,5,1,2,0,1,0,4,0,2,3,2,0,0,6,0,5,0,4,6,0,3,2,3,2,4,0,0,4,5,6,1,1,0,0,4,3,1,0,0,0,0,0,0,0,0,0,0,0,0,0,0,0,0,0,0,0,0,0,0,0,0,0,0,0,0,0,0,0,0,0,0,0,0,0,0,0,0,0,0,0,0,0,0,0,0],"split_type":[0,0,0,0,0,0,0,0,0,0,0,0,0,0,0,0,0,0,0,0,0,0,0,0,0,0,0,0,0,0,0,0,0,0,0,0,0,0,0,0,0,0,0,0,0,0,0,0,0,0,0,0,0,0,0,0,0,0,0,0,0,0,0,0,0,0,0,0,0,0,0,0,0,0,0,0,0,0,0,0,0,0,0,0,0,0,0,0,0,0,0,0,0,0,0,0,0,0,0,0,0,0,0,0,0,0,0],"sum_hessian":[1.629E3,1.304E3,3.25E2,4.51E2,8.53E2,2.45E2,8E1,2.4E2,2.11E2,5.42E2,3.11E2,3.2E1,2.13E2,1.1E1,6.9E1,1E0,2.39E2,2E0,2.09E2,2.37E2,3.05E2,2.1E2,1.01E2,2.5E1,7E0,1E2,1.13E2,1E0,1E1,4.4E1,2.5E1,1.32E2,1.07E2,1E0,1E0,2.08E2,1E0,4.9E1,1.88E2,2.59E2,4.6E1,8.3E1,1.27E2,1.5E1,8.6E1,3E0,2.2E1,6E0,1E0,7.1E1,2.9E1,3.6E1,7.7E1,8E0,2E0,3.1E1,1.3E1,2.2E1,3E0,1.29E2,3E0,1E0,1.06E2,1.09E2,9.9E1,1E1,3.9E1,1.41E2,4.7E1,1.66E2,9.3E1,9E0,3.7E1,3.6E1,4.7E1,5.7E1,7E1,7E0,8E0,2.1E1,6.5E1,2E0,1E0,1.9E1,3E0,1E0,5E0,5.9E1,1.2E1,2.6E1,3E0,3.1E1,5E0,6.4E1,1.3E1,5E0,3E0,1E0,1E0,1.2E1,1.9E1,3E0,1E1,1.8E1,4E0,1E0,2E0],"tree_param":{"num_deleted":"0","num_feature":"9","num_nodes":"107","size_leaf_vector":"1"}},{"base_weights":[1.7520286E-2,-5.005062E-1,2.5606668E0,-1.1694914E0,-1.4727575E-2,3.60516E0,6.568236E-1,-1.0275416E0,-1.7672065E0,3.3177325E-1,-8.385333E-1,2.0125928E0,5.2478156E0,2.7956617E-1,3.649468E0,-1.637927E0,-7.2100323E-1,-9.867928E-2,-1.4573617E0,-7.654654E-1,5.6343347E-1,1.7646883E0,-8.8016087E-1,1.3482034E0,5.946327E0,8.170714E0,3.7963326E0,8.223577E-1,-8.1533587E-1,6.9226065E0,7.901595E-1,-9.188679E-2,-1.343671E0,-1.2053754E0,-4.6341094E-1,-1.4790839E0,-1.1453467E-2,-9.823651E-1,1.0196015E0,1.0030485E-1,1.1345127E0,1.7635806E-2,1.5001512E-1,-6.641302E-1,-1.2341641E0,-1.9839099E-1,1.8670413E0,1.4572098E0,7.779578E0,3.8682916E0,1.0346045E1,8.087482E0,2.980627E0,2.9979496E0,2.1600246E-1,1.6795074E0,-1.0535214E0,4.6992907E-1,1.06954776E-1,1.4928811E0,-6.4442945E-1,-6.280393E-2,-1.0051246E-1,4.6246566E-2,-6.70543E-2,-2.5163556E-2,1.90705E-1,-7.819822E-2,-4.4020336E-2,-7.120621E-2,-3.288201E-2,1.05793495E-2,2.2749367E-1,-3.8105776E-3,1.565872E-1,9.625878E-2,2.7346555E-2,-1.7037245E-2,-4.5771893E-2,-3.1091232E-2,-7.595276E-2,1.3798188E-1,-3.2750323E-2,-4.5866746E-2,1.0411532E-1,1.6031119E-1,-3.8877044E-2,6.5989316E-2,4.2110395E-1,2.4670994E-1,3.8470216E-2,6.506912E-1,3.1161416E-1,6.3777246E-2,4.389766E-1,1.8517393E-1,-2.5158795E-3,1.8120602E-1,3.415178E-2,4.3152764E-2,-4.551832E-2,1.3833654E-2,1.12129405E-1,7.410442E-2,-6.011625E-2,2.2702074E-2,8.1954025E-2,-4.4099458E-2,-4.2327526E-3],"categories":[],"categories_nodes":[],"categories_segments":[],"categories_sizes":[],"default_left":[1,1,0,0,0,0,0,0,0,0,0,0,0,0,0,0,0,0,0,0,0,0,0,0,0,0,0,0,0,0,0,0,0,0,1,0,0,0,0,0,0,0,0,0,0,0,0,0,0,0,0,0,0,0,0,0,0,0,0,0,0,0,0,0,0,0,0,0,0,0,0,0,0,0,0,0,0,0,0,0,0,0,0,0,0,0,0,0,0,0,0,0,0,0,0,0,0,0,0,0,0,0,0,0,0,0,0,0,0],"id":10,"left_children":[1,3,5,7,9,11,13,15,17,19,21,23,25,27,29,31,33,-1,35,37,39,41,43,45,47,49,51,53,55,57,59,-1,61,63,65,67,-1,69,71,73,75,-1,-1,77,79,81,83,85,87,89,91,93,95,97,99,101,103,-1,-1,105,107,-1,-1,-1,-1,-1,-1,-1,-1,-1,-1,-1,-1,-1,-1,-1,-1,-1,-1,-1,-1,-1,-1,-1,-1,-1,-1,-1,-1,-1,-1,-1,-1,-1,-1,-1,-1,-1,-1,-1,-1,-1,-1,-1,-1,-1,-1,-1,-1],"loss_changes":[2.148672E3,4.403289E2,5.4647205E2,4.654602E1,2.2464139E2,4.550935E2,1.1075046E2,8.544937E1,4.029907E0,1.4125063E2,2.680246E1,2.3242798E2,3.380818E2,5.356352E1,9.747809E1,6.585144E0,3.81203E1,0E0,9.152069E-1,3.855811E1,1.2101947E2,5.920356E0,1.676973E1,6.456496E1,9.564935E1,2.2203577E2,1.8591315E2,7.850333E1,1.9596462E1,3.9114838E1,8.018871E0,0E0,1.3285294E0,3.2174652E1,3.670199E1,9.606018E-1,0E0,1.154361E1,3.0414925E1,1.3615375E2,9.418576E1,0E0,0E0,1.1472103E1,1.4058136E1,3.0171894E1,3.787291E1,2.2036018E1,2.6238403E1,3.2537994E1,1.1643713E2,3.1229126E1,1.1411432E2,1.6368507E1,3.5769062E1,1.7492628E0,1.2346577E1,0E0,0E0,1.517868E-2,3.2427466E-1,0E0,0E0,0E0,0E0,0E0,0E0,0E0,0E0,0E0,0E0,0E0,0E0,0E0,0E0,0E0,0E0,0E0,0E0,0E0,0E0,0E0,0E0,0E0,0E0,0E0,0E0,0E0,0E0,0E0,0E0,0E0,0E0,0E0,0E0,0E0,0E0,0E0,0E0,0E0,0E0,0E0,0E0,0E0,0E0,0E0,0E0,0E0,0E0],"parents":[2147483647,0,0,1,1,2,2,3,3,4,4,5,5,6,6,7,7,8,8,9,9,10,10,11,11,12,12,13,13,14,14,15,15,16,16,18,18,19,19,20,20,21,21,22,22,23,23,24,24,25,25,26,26,27,27,28,28,29,29,30,30,32,32,33,33,34,34,35,35,37,37,38,38,39,39,40,40,43,43,44,44,45,45,46,46,47,47,48,48,49,49,50,50,51,51,52,52,53,53,54,54,55,55,56,56,59,59,60,60],"right_children":[2,4,6,8,10,12,14,16,18,20,22,24,26,28,30,32,34,-1,36,38,40,42,44,46,48,50,52,54,56,58,60,-1,62,64,66,68,-1,70,72,74,76,-1,-1,78,80,82,84,86,88,90,92,94,96,98,100,102,104,-1,-1,106,108,-1,-1,-1,-1,-1,-1,-1,-1,-1,-1,-1,-1,-1,-1,-1,-1,-1,-1,-1,-1,-1,-1,-1,-1,-1,-1,-1,-1,-1,-1,-1,-1,-1,-1,-1,-1,-1,-1,-1,-1,-1,-1,-1,-1,-1,-1,-1,-1],"split_conditions":[6.7E0,2.37E0,2.156651E2,2.7479416E2,2.4675099E2,1.6055988E2,1.6334501E1,9.580661E1,1.63E0,7.417453E1,-3.7779999E0,1.473E1,1.4000001E0,2.5560144E2,2.3712672E2,1.67E0,1.7114204E1,-9.867928E-2,3.5460663E2,1.5271998E1,4E0,3.9E0,2.7926617E2,6.0469048E1,1.043E1,1E-1,2.77E0,4E-1,-3.5342503E0,5E-1,1.112E1,-9.188679E-2,2.4826952E1,1.0630672E1,1.473E1,2.495452E1,-1.1453467E-2,3.8033707E1,2.1004541E1,6.93E0,1.8243657E2,1.7635806E-2,1.5001512E-1,4E-1,1.5111424E1,1.93E0,1.83E0,7.8E0,7.628329E1,9.63E0,7.4303327E0,1.6803488E2,2.6168804E1,2.286496E1,9.1345E0,1.043E1,9.028754E0,4.6992907E-1,1.06954776E-1,1.7778246E1,6.93E0,-6.280393E-2,-1.0051246E-1,4.6246566E-2,-6.70543E-2,-2.5163556E-2,1.90705E-1,-7.819822E-2,-4.4020336E-2,-7.120621E-2,-3.288201E-2,1.05793495E-2,2.2749367E-1,-3.8105776E-3,1.565872E-1,9.625878E-2,2.7346555E-2,-1.7037245E-2,-4.5771893E-2,-3.1091232E-2,-7.595276E-2,1.3798188E-1,-3.2750323E-2,-4.5866746E-2,1.0411532E-1,1.6031119E-1,-3.8877044E-2,6.5989316E-2,4.2110395E-1,2.4670994E-1,3.8470216E-2,6.506912E-1,3.1161416E-1,6.3777246E-2,4.389766E-1,1.8517393E-1,-2.5158795E-3,1.8120602E-1,3.415178E-2,4.3152764E-2,-4.551832E-2,1.3833654E-2,1.12129405E-1,7.410442E-2,-6.011625E-2,2.2702074E-2,8.1954025E-2,-4.4099458E-2,-4.2327526E-3],"split_indices":[0,0,6,6,6,6,3,6,0,6,3,0,4,6,6,0,5,0,6,3,0,0,6,6,1,4,1,4,3,4,2,0,5,5,1,5,0,6,5,1,6,0,0,4,5,1,1,1,6,2,3,6,5,5,3,0,5,0,0,3,0,0,0,0,0,0,0,0,0,0,0,0,0,0,0,0,0,0,0,0,0,0,0,0,0,0,0,0,0,0,0,0,0,0,0,0,0,0,0,0,0,0,0,0,0,0,0,0,0],"split_type":[0,0,0,0,0,0,0,0,0,0,0,0,0,0,0,0,0,0,0,0,0,0,0,0,0,0,0,0,0,0,0,0,0,0,0,0,0,0,0,0,0,0,0,0,0,0,0,0,0,0,0,0,0,0,0,0,0,0,0,0,0,0,0,0,0,0,0,0,0,0,0,0,0,0,0,0,0,0,0,0,0,0,0,0,0,0,0,0,0,0,0,0,0,0,0,0,0,0,0,0,0,0,0,0,0,0,0,0,0],"sum_hessian":[1.629E3,1.354E3,2.75E2,5.69E2,7.85E2,1.77E2,9.8E1,4.62E2,1.07E2,5.53E2,2.32E2,9.1E1,8.6E1,8.8E1,1E1,1.53E2,3.09E2,6.1E1,4.6E1,9.6E1,4.57E2,3E0,2.29E2,7.9E1,1.2E1,2.7E1,5.9E1,5.9E1,2.9E1,4E0,6E0,8.8E1,6.5E1,1.06E2,2.03E2,4.5E1,1E0,8.6E1,1E1,2.53E2,2.04E2,2E0,1E0,1.44E2,8.5E1,2E1,5.9E1,4E0,8E0,1E1,1.7E1,8E0,5.1E1,1.2E1,4.7E1,2E0,2.7E1,2E0,2E0,4E0,2E0,6E1,5E0,6E0,1E2,2.02E2,1E0,3.8E1,7E0,3.5E1,5.1E1,9E0,1E0,2.4E2,1.3E1,8.6E1,1.18E2,6.4E1,8E1,2.8E1,5.7E1,2E0,1.8E1,4E0,5.5E1,2E0,2E0,1E0,7E0,7E0,3E0,9E0,8E0,1E0,7E0,4.1E1,1E1,9E0,3E0,3E1,1.7E1,1E0,1E0,1E0,2.6E1,1E0,3E0,1E0,1E0],"tree_param":{"num_deleted":"0","num_feature":"9","num_nodes":"109","size_leaf_vector":"1"}},{"base_weights":[1.8948805E-2,-5.2931035E-1,2.2136092E0,-1.239481E0,-1.5281573E-1,2.984746E0,-1.5569066E-1,-1.4919555E0,-9.466232E-1,1.6852531E-1,-7.115829E-1,2.0071976E0,4.3682837E0,1.3484708E0,-4.1132274E-1,7.696644E-2,-1.5109997E0,2.9374766E0,-9.9760264E-1,-5.03183E-1,6.9041437E-1,-1.0345427E0,-4.2130178E-1,9.005136E-1,2.9089556E0,5.1689086E0,8.673068E-1,-5.577403E-2,1.6738737E0,1.8227781E-1,-1.4228883E0,-1.684427E0,-1.2834364E0,2.6552367E-1,-4.5212917E-2,-1.037962E0,1.8593739E-1,-8.28803E-1,-6.0897496E-2,4.103037E-1,2.2252731E0,4.4469383E-1,-1.1228778E0,9.59044E-2,-8.088549E-1,2.120208E0,2.1475942E-1,3.6887827E0,1.410336E0,2.9610366E-1,5.8415747E0,2.5976427E0,1.1735201E-1,2.0177345E0,8.43331E-2,-1.9971038E-1,1.0423739E0,-1.5774621E0,-1.7836687E-1,-8.627566E-2,3.598991E-3,8.858007E-2,-6.642726E-2,-3.844739E-2,-6.6174895E-2,-4.449941E-2,1.8730964E-1,8.2190834E-2,-1.3203004E-2,4.1943323E-2,-1.7772196E-2,3.249192E-1,5.2110523E-2,-1.911653E-2,1.7652224E-1,-6.059735E-2,-3.9616986E-3,6.768192E-2,-2.0693548E-2,5.618306E-2,-4.5307428E-2,-9.022355E-4,1.7021814E-1,3.439873E-2,-6.337147E-2,2.6644364E-1,9.21868E-2,2.6565263E-1,1.8794646E-2,1.05269186E-1,-1.1480545E-1,2.5446135E-1,4.7755146E-1,-3.9028417E-2,1.7146993E-1,5.6716073E-2,-4.571432E-2,-8.590776E-3,1.1564527E-1,4.563905E-2,-3.931407E-2,2.5338262E-2,-3.24467E-2,1.731803E-1,3.3582307E-3,-8.775381E-2,-2.9351795E-2,2.6668882E-2,-2.9670378E-2],"categories":[],"categories_nodes":[],"categories_segments":[],"categories_sizes":[],"default_left":[1,1,0,0,0,0,0,0,0,0,0,0,0,0,0,0,0,0,1,0,1,0,0,0,0,0,0,0,0,0,0,0,0,0,0,0,0,0,0,0,0,0,0,0,0,0,0,0,0,0,0,0,0,0,0,0,0,0,0,0,0,0,0,0,0,0,0,0,0,0,0,0,0,0,0,0,0,0,0,0,0,0,0,0,0,0,0,0,0,0,0,0,0,0,0,0,0,0,0,0,0,0,0,0,0,0,0,0,0],"id":11,"left_children":[1,3,5,7,9,11,13,15,17,19,21,23,25,27,29,-1,31,33,35,37,39,41,43,45,47,49,51,-1,53,55,57,59,61,-1,-1,63,-1,65,67,69,71,73,75,77,79,81,83,85,87,89,91,93,95,97,99,101,103,105,107,-1,-1,-1,-1,-1,-1,-1,-1,-1,-1,-1,-1,-1,-1,-1,-1,-1,-1,-1,-1,-1,-1,-1,-1,-1,-1,-1,-1,-1,-1,-1,-1,-1,-1,-1,-1,-1,-1,-1,-1,-1,-1,-1,-1,-1,-1,-1,-1,-1,-1],"loss_changes":[1.9624573E3,3.4873553E2,5.960846E2,3.2008118E1,1.5345973E2,3.2394067E2,3.1700123E1,1.6238525E1,4.490837E1,1.9069998E2,2.8813873E1,1.4308276E2,2.7861694E2,1.1488497E1,4.229197E1,0E0,7.3098145E0,3.2151314E1,4.383316E1,3.4225567E1,1.3064563E2,1.9707611E1,3.335142E1,5.5584175E1,8.829077E1,2.6704736E2,2.5648636E1,0E0,5.842228E0,1.4992767E1,4.7202606E0,9.722046E0,1.7237045E1,0E0,0E0,1.503627E1,0E0,4.1683395E1,3.5760147E1,8.56226E1,2.3082909E2,2.4317717E1,1.2824921E1,4.6723885E1,1.8880253E1,6.596176E1,3.1733307E1,1.4752917E2,1.1507987E2,5.6424618E1,1.5233008E2,1.9535965E1,1.6774265E1,6.214012E0,2.8814785E0,1.0484555E1,3.2824276E1,3.015728E0,1.4981222E0,0E0,0E0,0E0,0E0,0E0,0E0,0E0,0E0,0E0,0E0,0E0,0E0,0E0,0E0,0E0,0E0,0E0,0E0,0E0,0E0,0E0,0E0,0E0,0E0,0E0,0E0,0E0,0E0,0E0,0E0,0E0,0E0,0E0,0E0,0E0,0E0,0E0,0E0,0E0,0E0,0E0,0E0,0E0,0E0,0E0,0E0,0E0,0E0,0E0,0E0],"parents":[2147483647,0,0,1,1,2,2,3,3,4,4,5,5,6,6,7,7,8,8,9,9,10,10,11,11,12,12,13,13,14,14,16,16,17,17,18,18,19,19,20,20,21,21,22,22,23,23,24,24,25,25,26,26,28,28,29,29,30,30,31,31,32,32,35,35,37,37,38,38,39,39,40,40,41,41,42,42,43,43,44,44,45,45,46,46,47,47,48,48,49,49,50,50,51,51,52,52,53,53,54,54,55,55,56,56,57,57,58,58],"right_children":[2,4,6,8,10,12,14,16,18,20,22,24,26,28,30,-1,32,34,36,38,40,42,44,46,48,50,52,-1,54,56,58,60,62,-1,-1,64,-1,66,68,70,72,74,76,78,80,82,84,86,88,90,92,94,96,98,100,102,104,106,108,-1,-1,-1,-1,-1,-1,-1,-1,-1,-1,-1,-1,-1,-1,-1,-1,-1,-1,-1,-1,-1,-1,-1,-1,-1,-1,-1,-1,-1,-1,-1,-1,-1,-1,-1,-1,-1,-1,-1,-1,-1,-1,-1,-1,-1,-1,-1,-1,-1,-1],"split_conditions":[5.88E0,2.04E0,2.3712672E2,5E-1,2.3293379E2,1.018E1,1.2605142E1,7.989243E0,1.0630672E1,1.5228162E2,3.2E0,1.5282335E2,2.5140787E1,1.32E0,2.6905984E2,7.696644E-2,1.5E0,1.32E0,1.473E1,8.000001E-1,5.79E0,2.13E0,3E-1,3E0,1.2469916E1,1.0990833E0,1.7967262E2,-5.577403E-2,3E-1,1.202E1,1.523E1,1.5867831E1,9E-1,2.6552367E-1,-4.5212917E-2,2.0158493E2,1.8593739E-1,5.76E0,-6.425833E-1,5.4E0,1.7508281E2,2.85E0,8.47E0,2.562108E2,1.3004922E1,2.1E0,8.66E0,2.2668568E1,1.2605142E1,9.4E0,2.135E1,2.6990833E0,5.2595005E0,6.1E0,7.54E0,7.02E0,4E-1,1.3663666E1,4.23E0,-8.627566E-2,3.598991E-3,8.858007E-2,-6.642726E-2,-3.844739E-2,-6.6174895E-2,-4.449941E-2,1.8730964E-1,8.2190834E-2,-1.3203004E-2,4.1943323E-2,-1.7772196E-2,3.249192E-1,5.2110523E-2,-1.911653E-2,1.7652224E-1,-6.059735E-2,-3.9616986E-3,6.768192E-2,-2.0693548E-2,5.618306E-2,-4.5307428E-2,-9.022355E-4,1.7021814E-1,3.439873E-2,-6.337147E-2,2.6644364E-1,9.21868E-2,2.6565263E-1,1.8794646E-2,1.05269186E-1,-1.1480545E-1,2.5446135E-1,4.7755146E-1,-3.9028417E-2,1.7146993E-1,5.6716073E-2,-4.571432E-2,-8.590776E-3,1.1564527E-1,4.563905E-2,-3.931407E-2,2.5338262E-2,-3.24467E-2,1.731803E-1,3.3582307E-3,-8.775381E-2,-2.9351795E-2,2.6668882E-2,-2.9670378E-2],"split_indices":[0,0,6,4,6,0,5,5,5,6,0,6,5,1,6,0,0,0,1,4,1,0,4,2,3,3,6,0,4,0,2,3,2,0,0,6,0,0,3,4,6,1,2,6,5,2,0,5,5,1,0,3,3,0,0,0,4,3,1,0,0,0,0,0,0,0,0,0,0,0,0,0,0,0,0,0,0,0,0,0,0,0,0,0,0,0,0,0,0,0,0,0,0,0,0,0,0,0,0,0,0,0,0,0,0,0,0,0,0],"split_type":[0,0,0,0,0,0,0,0,0,0,0,0,0,0,0,0,0,0,0,0,0,0,0,0,0,0,0,0,0,0,0,0,0,0,0,0,0,0,0,0,0,0,0,0,0,0,0,0,0,0,0,0,0,0,0,0,0,0,0,0,0,0,0,0,0,0,0,0,0,0,0,0,0,0,0,0,0,0,0,0,0,0,0,0,0,0,0,0,0,0,0,0,0,0,0,0,0,0,0,0,0,0,0,0,0,0,0,0,0],"sum_hessian":[1.629E3,1.304E3,3.25E2,4.51E2,8.53E2,2.45E2,8E1,2.4E2,2.11E2,5.42E2,3.11E2,1.45E2,1E2,1.1E1,6.9E1,1E0,2.39E2,2E0,2.09E2,2.37E2,3.05E2,1.46E2,1.65E2,6.6E1,7.9E1,8.1E1,1.9E1,1E0,1E1,4.4E1,2.5E1,1.32E2,1.07E2,1E0,1E0,2.08E2,1E0,1.36E2,1.01E2,2.59E2,4.6E1,8E0,1.38E2,7.1E1,9.4E1,2.3E1,4.3E1,5.1E1,2.8E1,1E1,7.1E1,5E0,1.4E1,8E0,2E0,3.1E1,1.3E1,2.2E1,3E0,1.29E2,3E0,1E0,1.06E2,1.09E2,9.9E1,1.35E2,1E0,1E1,9.1E1,1.66E2,9.3E1,9E0,3.7E1,7E0,1E0,1.27E2,1.1E1,2E1,5.1E1,4E0,9E1,9E0,1.4E1,3.3E1,1E1,2.6E1,2.5E1,5E0,2.3E1,6E0,4E0,6.1E1,1E1,1E0,4E0,7E0,7E0,1E0,7E0,1E0,1E0,1.2E1,1.9E1,3E0,1E1,1.8E1,4E0,1E0,2E0],"tree_param":{"num_deleted":"0","num_feature":"9","num_nodes":"109","size_leaf_vector":"1"}},{"base_weights":[1.9742493E-2,-5.020159E-1,2.108316E0,-1.1768032E0,-1.4428069E-1,2.8422134E0,-1.4658603E-1,-1.4172895E0,-8.978693E-1,7.5405344E-2,-8.9205486E-1,-1.05607495E-1,3.252122E0,1.2858477E0,-3.90052E-1,7.5042285E-2,-1.435702E0,2.86404E0,-9.4733524E-1,-6.778577E-1,3.213101E-1,-2.901409E-2,-1.0022751E0,2.0869956E0,-4.1506484E-1,4.3022385E0,2.2748048E0,-5.437968E-2,1.6004871E0,1.7692907E-1,-1.3563634E0,-1.6540558E0,-1.2679201E0,2.588856E-1,-4.4082593E-2,-9.865644E-1,1.8128894E-1,-1.1628131E0,-4.5921186E-1,9.3718594E-1,-1.4823388E-1,-8.0049556E-1,5.241165E-1,-1.5507385E0,-8.5083747E-1,1.3282421E-1,9.463263E-3,1.09325E0,-7.1200275E-1,2.2307315E0,5.582073E0,4.0233617E0,1.4161968E0,1.9287426E0,8.2224846E-2,-1.8994692E-1,1.002865E0,-1.5036805E0,-1.7019895E-1,-3.9559904E-2,-8.453774E-2,-7.535123E-2,-5.3487707E-2,-3.928417E-2,-6.712096E-2,-9.584523E-3,-7.004007E-2,-6.965268E-3,-4.6454437E-2,7.454994E-2,-2.472432E-2,-2.3253407E-2,4.3251004E-2,-7.080635E-2,4.918065E-3,4.7995638E-2,-1.0846525E-2,-8.340937E-2,-3.427314E-2,-2.934205E-2,-5.4756816E-2,6.5016165E-2,6.623936E-3,-8.386184E-2,4.862638E-3,3.8070586E-2,1.8677233E-1,3.1999502E-1,1.13127016E-1,2.3472135E-1,-1.131067E-2,3.566351E-2,2.2893138E-1,1.2629494E-1,2.7541151E-2,4.4498075E-2,-3.833121E-2,-2.092549E-2,5.639973E-2,1.6668604E-1,3.2055792E-3,-8.359706E-2,-2.8177727E-2,-3.9636876E-2,1.5077989E-2],"categories":[],"categories_nodes":[],"categories_segments":[],"categories_sizes":[],"default_left":[1,1,0,0,0,0,0,0,0,0,0,0,0,0,0,0,0,0,1,0,0,0,0,0,0,0,0,0,0,0,0,0,0,0,0,0,0,0,0,0,0,0,0,0,0,0,0,0,0,0,0,0,0,0,0,0,0,0,0,0,0,0,0,0,0,0,0,0,0,0,0,0,0,0,0,0,0,0,0,0,0,0,0,0,0,0,0,0,0,0,0,0,0,0,0,0,0,0,0,0,0,0,0,0,0],"id":12,"left_children":[1,3,5,7,9,11,13,15,17,19,21,23,25,27,29,-1,31,33,35,37,39,41,43,45,47,49,51,-1,53,55,57,59,61,-1,-1,63,-1,65,67,69,71,73,75,77,79,-1,-1,81,83,85,87,89,91,93,95,97,99,101,103,-1,-1,-1,-1,-1,-1,-1,-1,-1,-1,-1,-1,-1,-1,-1,-1,-1,-1,-1,-1,-1,-1,-1,-1,-1,-1,-1,-1,-1,-1,-1,-1,-1,-1,-1,-1,-1,-1,-1,-1,-1,-1,-1,-1,-1,-1],"loss_changes":[1.7773196E3,3.1485092E2,5.399032E2,2.9047485E1,1.4035857E2,2.9759412E2,2.8750204E1,1.5103699E1,4.216356E1,1.2265546E2,1.8425095E1,2.190027E1,2.1189355E2,1.0702023E1,3.85916E1,0E0,6.6953735E0,3.056384E1,4.125093E1,1.6749489E1,1.4444014E2,1.0234344E1,1.2966537E1,3.8201618E0,1.331892E1,2.6062012E2,1.6545325E2,0E0,5.3235645E0,1.3826214E1,4.2873764E0,1.8605347E0,5.021393E0,0E0,0E0,1.3885544E1,0E0,1.128727E1,1.700667E1,1.719991E2,9.157582E1,5.6729374E0,4.729471E0,2.5150452E0,8.193008E0,0E0,0E0,8.2248497E-1,1.8910019E1,8.780301E1,1.5655273E2,1.06576355E2,1.7012483E2,6.0141754E0,2.7392056E0,1.0111517E1,3.0419651E1,2.6960487E0,1.4138098E0,0E0,0E0,0E0,0E0,0E0,0E0,0E0,0E0,0E0,0E0,0E0,0E0,0E0,0E0,0E0,0E0,0E0,0E0,0E0,0E0,0E0,0E0,0E0,0E0,0E0,0E0,0E0,0E0,0E0,0E0,0E0,0E0,0E0,0E0,0E0,0E0,0E0,0E0,0E0,0E0,0E0,0E0,0E0,0E0,0E0,0E0],"parents":[2147483647,0,0,1,1,2,2,3,3,4,4,5,5,6,6,7,7,8,8,9,9,10,10,11,11,12,12,13,13,14,14,16,16,17,17,18,18,19,19,20,20,21,21,22,22,23,23,24,24,25,25,26,26,28,28,29,29,30,30,31,31,32,32,35,35,37,37,38,38,39,39,40,40,41,41,42,42,43,43,44,44,47,47,48,48,49,49,50,50,51,51,52,52,53,53,54,54,55,55,56,56,57,57,58,58],"right_children":[2,4,6,8,10,12,14,16,18,20,22,24,26,28,30,-1,32,34,36,38,40,42,44,46,48,50,52,-1,54,56,58,60,62,-1,-1,64,-1,66,68,70,72,74,76,78,80,-1,-1,82,84,86,88,90,92,94,96,98,100,102,104,-1,-1,-1,-1,-1,-1,-1,-1,-1,-1,-1,-1,-1,-1,-1,-1,-1,-1,-1,-1,-1,-1,-1,-1,-1,-1,-1,-1,-1,-1,-1,-1,-1,-1,-1,-1,-1,-1,-1,-1,-1,-1,-1,-1,-1,-1],"split_conditions":[5.88E0,2.04E0,2.3712672E2,5E-1,2.5730862E2,6.864755E1,1.2605142E1,7.989243E0,1.0630672E1,1.0815729E2,1.243434E1,1.93E0,1.5000001E0,1.32E0,2.6905984E2,7.5042285E-2,1.4E0,1.32E0,1.473E1,3.8033707E1,7.978249E0,3.13E0,3.3907502E0,3.17E0,9.885262E0,1E-1,4.2E0,-5.437968E-2,3E-1,1.202E1,1.523E1,8.7E-1,1.6602641E2,2.588856E-1,-4.4082593E-2,2.2754364E2,1.8128894E-1,1.1132385E1,8.052543E1,2.847643E1,4.2E0,1.1525623E1,1.3776166E1,6.3E0,2.7546893E2,1.3282421E-1,9.463263E-3,8.97E0,4.500013E1,1.5282335E2,2.1385101E2,2.2754364E2,1.685E1,7.6E0,7.54E0,6.6E0,4E-1,1.3663666E1,6.7E0,-3.9559904E-2,-8.453774E-2,-7.535123E-2,-5.3487707E-2,-3.928417E-2,-6.712096E-2,-9.584523E-3,-7.004007E-2,-6.965268E-3,-4.6454437E-2,7.454994E-2,-2.472432E-2,-2.3253407E-2,4.3251004E-2,-7.080635E-2,4.918065E-3,4.7995638E-2,-1.0846525E-2,-8.340937E-2,-3.427314E-2,-2.934205E-2,-5.4756816E-2,6.5016165E-2,6.623936E-3,-8.386184E-2,4.862638E-3,3.8070586E-2,1.8677233E-1,3.1999502E-1,1.13127016E-1,2.3472135E-1,-1.131067E-2,3.566351E-2,2.2893138E-1,1.2629494E-1,2.7541151E-2,4.4498075E-2,-3.833121E-2,-2.092549E-2,5.639973E-2,1.6668604E-1,3.2055792E-3,-8.359706E-2,-2.8177727E-2,-3.9636876E-2,1.5077989E-2],"split_indices":[0,0,6,4,6,6,5,5,5,6,5,1,4,1,6,0,0,0,1,6,3,0,3,2,5,4,1,0,4,0,2,2,6,0,0,6,0,5,6,5,0,5,3,2,6,0,0,0,6,6,6,6,1,1,0,4,4,3,0,0,0,0,0,0,0,0,0,0,0,0,0,0,0,0,0,0,0,0,0,0,0,0,0,0,0,0,0,0,0,0,0,0,0,0,0,0,0,0,0,0,0,0,0,0,0],"split_type":[0,0,0,0,0,0,0,0,0,0,0,0,0,0,0,0,0,0,0,0,0,0,0,0,0,0,0,0,0,0,0,0,0,0,0,0,0,0,0,0,0,0,0,0,0,0,0,0,0,0,0,0,0,0,0,0,0,0,0,0,0,0,0,0,0,0,0,0,0,0,0,0,0,0,0,0,0,0,0,0,0,0,0,0,0,0,0,0,0,0,0,0,0,0,0,0,0,0,0,0,0,0,0,0,0],"sum_hessian":[1.629E3,1.304E3,3.25E2,4.51E2,8.53E2,2.45E2,8E1,2.4E2,2.11E2,6.6E2,1.93E2,3E1,2.15E2,1.1E1,6.9E1,1E0,2.39E2,2E0,2.09E2,1.62E2,4.98E2,2.2E1,1.71E2,3E0,2.7E1,1.02E2,1.13E2,1E0,1E1,4.4E1,2.5E1,1E2,1.39E2,1E0,1E0,2.08E2,1E0,4.9E1,1.13E2,2.15E2,2.83E2,9E0,1.3E1,3.5E1,1.36E2,2E0,1E0,4E0,2.3E1,4E1,6.2E1,3.6E1,7.7E1,8E0,2E0,3.1E1,1.3E1,2.2E1,3E0,5E0,9.5E1,6E1,7.9E1,1.35E2,7.3E1,1E1,3.9E1,6.8E1,4.5E1,1.55E2,6E1,2.16E2,6.7E1,5E0,4E0,8E0,5E0,3E1,5E0,6.7E1,6.9E1,3E0,1E0,1E1,1.3E1,2.1E1,1.9E1,4.9E1,1.3E1,3.1E1,5E0,6.4E1,1.3E1,5E0,3E0,1E0,1E0,2.7E1,4E0,3E0,1E1,1.8E1,4E0,1E0,2E0],"tree_param":{"num_deleted":"0","num_feature":"9","num_nodes":"105","size_leaf_vector":"1"}},{"base_weights":[1.9536711E-2,-4.2907444E-1,2.2218866E0,-8.977534E-1,9.283507E-2,3.1321788E0,5.6275624E-1,-1.1597922E0,-5.3848714E-1,6.369475E-1,-4.203248E-1,1.7009737E0,4.609635E0,2.0961958E-1,3.3687932E0,-1.2770445E0,-5.584211E-1,-1.972905E-1,-9.5046777E-1,8.476087E-1,5.299784E-1,-5.347436E-2,-7.550583E-1,1.0982897E0,5.278954E0,7.295617E0,3.279349E0,7.321051E-1,-6.174182E-1,6.419122E0,7.087307E-1,7.316623E-2,-1.2893002E0,2.1543593E0,-6.715542E-1,-4.529548E-1,9.38945E-1,1.349698E-1,-1.0751108E0,-8.2289375E-2,1.6653947E0,-1.817854E-1,3.9348626E0,-1.383888E0,-5.428847E-1,2.4762663E-1,1.788659E0,1.1904006E0,6.9638224E0,3.289867E0,9.3382635E0,7.364792E0,2.509189E0,-3.6163935E-1,1.8797526E0,1.7132802E-1,-8.3713996E-1,4.4059792E-1,1.8865789E0,6.7739494E-2,-6.042781E-1,-6.551363E-2,5.3516976E-3,1.5260713E-1,8.969826E-3,-7.8079246E-2,-2.2448663E-2,-6.114563E-2,-4.9839816E-3,2.1224895E-1,1.4597038E-2,7.661583E-2,-2.5622893E-2,-5.8375753E-2,-6.1539533E-3,-2.7961055E-2,2.3834882E-2,1.9942807E-1,4.4480037E-2,-1.7502785E-2,9.263035E-2,3.5579345E-1,-2.7888218E-2,-8.013827E-2,-3.4244545E-2,-3.427387E-3,-4.5366306E-2,8.2251325E-2,-2.4446318E-2,1.2758444E-1,1.4693806E-2,1.3830549E-1,-3.910543E-2,5.702628E-2,3.7745842E-1,2.1492349E-1,2.2509748E-2,5.950758E-1,2.7263105E-1,5.4010104E-2,4.00767E-1,1.68323E-1,1.8496266E-2,3.5697173E-2,-4.026912E-2,1.2746613E-1,-1.457055E-3,3.7129126E-2,-5.675561E-2,2.7882397E-2,1.1361102E-1,-4.155873E-2,-3.762126E-3],"categories":[],"categories_nodes":[],"categories_segments":[],"categories_sizes":[],"default_left":[1,1,0,1,0,0,0,0,0,0,0,0,0,0,0,0,0,1,0,0,0,0,0,0,0,0,0,0,0,0,0,0,1,0,0,0,0,0,0,0,0,0,0,0,0,0,0,0,0,0,0,0,0,0,0,0,0,0,0,0,0,0,0,0,0,0,0,0,0,0,0,0,0,0,0,0,0,0,0,0,0,0,0,0,0,0,0,0,0,0,0,0,0,0,0,0,0,0,0,0,0,0,0,0,0,0,0,0,0,0,0,0,0],"id":13,"left_children":[1,3,5,7,9,11,13,15,17,19,21,23,25,27,29,31,33,35,37,-1,39,41,43,45,47,49,51,53,55,57,59,-1,61,63,65,67,69,71,73,75,77,79,81,83,85,87,89,91,93,95,97,99,101,103,105,-1,107,-1,109,-1,111,-1,-1,-1,-1,-1,-1,-1,-1,-1,-1,-1,-1,-1,-1,-1,-1,-1,-1,-1,-1,-1,-1,-1,-1,-1,-1,-1,-1,-1,-1,-1,-1,-1,-1,-1,-1,-1,-1,-1,-1,-1,-1,-1,-1,-1,-1,-1,-1,-1,-1,-1,-1],"loss_changes":[1.611391E3,3.3152716E2,4.1507837E2,6.659265E1,1.7952483E2,3.6854773E2,9.739438E1,2.833783E1,4.2404106E1,5.355261E2,4.0605465E1,1.9259024E2,2.869369E2,3.8910275E1,8.4705315E1,1.3439941E1,2.2623236E1,4.8937943E1,1.8680145E1,0E0,2.1633765E2,8.208318E1,2.2330566E1,4.6538795E1,8.1263E1,1.9838354E2,1.7030713E2,6.971762E1,3.396776E1,3.76037E1,6.7566395E0,0E0,1.01848755E1,4.77172E0,1.257185E1,3.714306E1,6.5070274E1,1.4355463E1,1.0676834E1,5.43861E1,1.9290234E2,5.370933E1,7.542435E1,5.4810486E0,2.2583519E1,3.888688E1,4.943495E1,1.77039E1,2.206778E1,2.9569954E1,1.14383545E2,2.8137726E1,9.411893E1,1.4416187E1,3.4584007E1,0E0,1.6847172E1,0E0,2.7037334E-1,0E0,2.9756927E-1,0E0,0E0,0E0,0E0,0E0,0E0,0E0,0E0,0E0,0E0,0E0,0E0,0E0,0E0,0E0,0E0,0E0,0E0,0E0,0E0,0E0,0E0,0E0,0E0,0E0,0E0,0E0,0E0,0E0,0E0,0E0,0E0,0E0,0E0,0E0,0E0,0E0,0E0,0E0,0E0,0E0,0E0,0E0,0E0,0E0,0E0,0E0,0E0,0E0,0E0,0E0,0E0],"parents":[2147483647,0,0,1,1,2,2,3,3,4,4,5,5,6,6,7,7,8,8,9,9,10,10,11,11,12,12,13,13,14,14,15,15,16,16,17,17,18,18,20,20,21,21,22,22,23,23,24,24,25,25,26,26,27,27,28,28,29,29,30,30,32,32,33,33,34,34,35,35,36,36,37,37,38,38,39,39,40,40,41,41,42,42,43,43,44,44,45,45,46,46,47,47,48,48,49,49,50,50,51,51,52,52,53,53,54,54,56,56,58,58,60,60],"right_children":[2,4,6,8,10,12,14,16,18,20,22,24,26,28,30,32,34,36,38,-1,40,42,44,46,48,50,52,54,56,58,60,-1,62,64,66,68,70,72,74,76,78,80,82,84,86,88,90,92,94,96,98,100,102,104,106,-1,108,-1,110,-1,112,-1,-1,-1,-1,-1,-1,-1,-1,-1,-1,-1,-1,-1,-1,-1,-1,-1,-1,-1,-1,-1,-1,-1,-1,-1,-1,-1,-1,-1,-1,-1,-1,-1,-1,-1,-1,-1,-1,-1,-1,-1,-1,-1,-1,-1,-1,-1,-1,-1,-1,-1,-1],"split_conditions":[6.7E0,2.78E0,2.156651E2,2E0,2.0991829E2,1.6055988E2,1.6334501E1,4.1E0,1.2115748E1,2.8E0,2.23229E1,1.473E1,1.4000001E0,7.4740844E0,2.3712672E2,7.989243E0,4.1999993E0,4.5E0,1.75E0,8.476087E-1,1.6921739E2,1.157E1,4.00325E0,1.06686745E2,1.043E1,1E-1,2.77E0,5.0053334E0,9.531505E0,5E-1,1.112E1,7.316623E-2,1.473E1,1.32E0,1.1214433E2,1.2321387E2,2.17E0,1E-1,1.8667837E1,4.17E0,1.8243657E2,2.1316135E1,1.473E1,5.67E0,7.538667E0,1.35515E1,1.4203494E2,7.8E0,7.628329E1,9.63E0,7.4303327E0,1.6803488E2,8.79075E0,3E-1,2.5560144E2,1.7132802E-1,2.237133E2,4.4059792E-1,8.77E0,6.7739494E-2,6.93E0,-6.551363E-2,5.3516976E-3,1.5260713E-1,8.969826E-3,-7.8079246E-2,-2.2448663E-2,-6.114563E-2,-4.9839816E-3,2.1224895E-1,1.4597038E-2,7.661583E-2,-2.5622893E-2,-5.8375753E-2,-6.1539533E-3,-2.7961055E-2,2.3834882E-2,1.9942807E-1,4.4480037E-2,-1.7502785E-2,9.263035E-2,3.5579345E-1,-2.7888218E-2,-8.013827E-2,-3.4244545E-2,-3.427387E-3,-4.5366306E-2,8.2251325E-2,-2.4446318E-2,1.2758444E-1,1.4693806E-2,1.3830549E-1,-3.910543E-2,5.702628E-2,3.7745842E-1,2.1492349E-1,2.2509748E-2,5.950758E-1,2.7263105E-1,5.4010104E-2,4.00767E-1,1.68323E-1,1.8496266E-2,3.5697173E-2,-4.026912E-2,1.2746613E-1,-1.457055E-3,3.7129126E-2,-5.675561E-2,2.7882397E-2,1.1361102E-1,-4.155873E-2,-3.762126E-3],"split_indices":[0,0,6,0,6,6,3,4,3,0,5,0,4,3,6,5,4,1,1,0,6,1,3,6,1,4,1,3,5,4,2,0,1,0,6,6,0,4,3,0,6,5,1,2,3,5,6,1,6,2,3,6,3,4,6,0,6,0,0,0,0,0,0,0,0,0,0,0,0,0,0,0,0,0,0,0,0,0,0,0,0,0,0,0,0,0,0,0,0,0,0,0,0,0,0,0,0,0,0,0,0,0,0,0,0,0,0,0,0,0,0,0,0],"split_type":[0,0,0,0,0,0,0,0,0,0,0,0,0,0,0,0,0,0,0,0,0,0,0,0,0,0,0,0,0,0,0,0,0,0,0,0,0,0,0,0,0,0,0,0,0,0,0,0,0,0,0,0,0,0,0,0,0,0,0,0,0,0,0,0,0,0,0,0,0,0,0,0,0,0,0,0,0,0,0,0,0,0,0,0,0,0,0,0,0,0,0,0,0,0,0,0,0,0,0,0,0,0,0,0,0,0,0,0,0,0,0,0,0],"sum_hessian":[1.629E3,1.354E3,2.75E2,7.13E2,6.41E2,1.77E2,9.8E1,4.11E2,3.02E2,3.11E2,3.3E2,9.1E1,8.6E1,8.8E1,1E1,3.43E2,6.8E1,1.66E2,1.36E2,1E0,3.1E2,1.58E2,1.72E2,7.9E1,1.2E1,2.7E1,5.9E1,5.4E1,3.4E1,4E0,6E0,1E0,3.42E2,2E0,6.6E1,1.36E2,3E1,1.4E1,1.22E2,2.02E2,1.08E2,1.54E2,4E0,4.2E1,1.3E2,3.6E1,4.3E1,4E0,8E0,1E1,1.7E1,8E0,5.1E1,2.8E1,2.6E1,1E0,3.3E1,2E0,2E0,4E0,2E0,3.37E2,5E0,1E0,1E0,1.2E1,5.4E1,4.2E1,9.4E1,4E0,2.6E1,4E0,1E1,1.11E2,1.1E1,1.09E2,9.3E1,2.6E1,8.2E1,1.43E2,1.1E1,2E0,2E0,3.1E1,1.1E1,5.7E1,7.3E1,1.2E1,2.4E1,2.8E1,1.5E1,2E0,2E0,1E0,7E0,7E0,3E0,9E0,8E0,1E0,7E0,3.6E1,1.5E1,8E0,2E1,1.9E1,7E0,5E0,2.8E1,1E0,1E0,1E0,1E0],"tree_param":{"num_deleted":"0","num_feature":"9","num_nodes":"113","size_leaf_vector":"1"}},{"base_weights":[2.1570109E-2,-3.7156823E-1,2.322495E0,-8.012422E-1,1.9599086E-1,3.25554E0,6.047138E-1,-1.0832314E0,-4.0025055E-1,5.1172775E-1,-5.8809656E-1,1.8157341E0,4.635149E0,1.8383531E-1,3.7429192E0,-1.4348989E0,-8.831923E-1,-5.477362E-1,2.1784043E0,-3.8566878E-1,9.0319E-1,2.0618336E0,-6.311474E-1,1.1397347E0,5.056059E0,7.986759E0,3.1758242E0,1.4130915E0,-2.8041855E-1,6.2145844E0,1.059378E0,-1.514879E0,-8.388994E-1,8.135786E-1,-9.2071515E-1,-2.9968575E-1,-1.0629735E0,1.7033114E-1,1.2161993E1,-1.0044759E-1,-1.3425652E0,4.9892107E-1,8.0847996E-1,1.1491001E-2,1.4314651E-1,1.68383E-1,-7.442042E-1,1.3674988E0,-1.3278613E0,1.1507205E0,6.663907E0,3.578487E0,1.0099272E1,7.3006477E0,2.4375708E0,3.6054163E0,5.9399385E-2,5.6758826E-3,-1.3299043E0,4.2591134E-1,1.8394142E0,6.502991E-2,-3.6680698E-3,-1.9318486E-2,-7.599986E-2,1.2571436E-1,-6.499662E-2,-4.6506867E-2,8.4854625E-2,-6.2388714E-2,-3.981288E-2,-5.3552415E-2,9.50864E-4,-5.7066202E-2,5.611793E-2,-5.31179E-2,1.5473595E-1,8.264185E-1,8.5730985E-2,-1.2136843E-2,6.164437E-2,-8.3029754E-2,1.0316012E-2,1.5823623E-2,6.716509E-2,-7.187036E-3,6.291759E-2,-4.14847E-2,2.67811E-2,5.565948E-2,2.9141554E-1,2.8441632E-2,-9.104833E-2,1.3369529E-1,-3.7801918E-2,3.623146E-1,5.012076E-2,2.1100341E-1,-3.885405E-2,6.780646E-1,2.6874217E-1,5.2659858E-2,4.0213418E-1,1.6735236E-1,1.7629264E-2,2.0603357E-1,-3.4224988E-5,6.880791E-2,-4.1251983E-2,3.0416965E-2,-3.890352E-2,-7.3091075E-2,3.029585E-3,2.7185334E-2,1.1077074E-1],"categories":[],"categories_nodes":[],"categories_segments":[],"categories_sizes":[],"default_left":[1,1,0,0,0,0,0,0,1,0,0,0,0,0,0,0,0,0,0,0,0,0,0,0,0,0,0,0,0,0,0,0,0,0,0,0,1,0,0,0,0,0,0,0,0,0,0,0,0,0,0,0,0,0,0,0,0,0,0,0,0,0,0,0,0,0,0,0,0,0,0,0,0,0,0,0,0,0,0,0,0,0,0,0,0,0,0,0,0,0,0,0,0,0,0,0,0,0,0,0,0,0,0,0,0,0,0,0,0,0,0,0,0,0,0],"id":14,"left_children":[1,3,5,7,9,11,13,15,17,19,21,23,25,27,29,31,33,35,37,39,41,43,45,47,49,51,53,55,57,59,61,63,65,67,69,71,73,75,77,79,81,-1,83,-1,-1,85,87,89,91,93,95,97,99,101,103,105,107,109,111,-1,113,-1,-1,-1,-1,-1,-1,-1,-1,-1,-1,-1,-1,-1,-1,-1,-1,-1,-1,-1,-1,-1,-1,-1,-1,-1,-1,-1,-1,-1,-1,-1,-1,-1,-1,-1,-1,-1,-1,-1,-1,-1,-1,-1,-1,-1,-1,-1,-1,-1,-1,-1,-1,-1,-1],"loss_changes":[1.4753312E3,3.398615E2,3.7948987E2,8.923523E1,1.4908772E2,2.9748462E2,1.1158019E2,3.1444153E1,1.2631673E2,1.5105472E2,2.1037453E1,1.6290268E2,3.5614026E2,4.3768463E1,5.9744568E1,6.689728E0,1.9785751E1,3.955655E1,3.587884E2,3.56186E1,2.4892781E2,3.7449026E0,1.5582405E1,3.8347763E1,7.396118E1,1.780481E2,1.527334E2,6.2108223E1,1.6821663E1,3.472557E1,1.7348514E0,2.5601196E-1,3.727886E1,1.2362709E1,1.0932983E1,5.2137512E1,1.857441E1,6.096548E1,1.0851163E2,1.965063E1,1.5120377E1,0E0,7.772638E1,0E0,0E0,7.665389E0,1.6856216E1,6.15775E1,6.647443E0,1.6543312E1,2.2410706E1,2.8429382E1,1.7245117E2,2.861612E1,9.17359E1,1.486731E1,1.7439686E1,2.1728416E1,2.2897377E0,0E0,2.5702477E-1,0E0,0E0,0E0,0E0,0E0,0E0,0E0,0E0,0E0,0E0,0E0,0E0,0E0,0E0,0E0,0E0,0E0,0E0,0E0,0E0,0E0,0E0,0E0,0E0,0E0,0E0,0E0,0E0,0E0,0E0,0E0,0E0,0E0,0E0,0E0,0E0,0E0,0E0,0E0,0E0,0E0,0E0,0E0,0E0,0E0,0E0,0E0,0E0,0E0,0E0,0E0,0E0,0E0,0E0],"parents":[2147483647,0,0,1,1,2,2,3,3,4,4,5,5,6,6,7,7,8,8,9,9,10,10,11,11,12,12,13,13,14,14,15,15,16,16,17,17,18,18,19,19,20,20,21,21,22,22,23,23,24,24,25,25,26,26,27,27,28,28,29,29,30,30,31,31,32,32,33,33,34,34,35,35,36,36,37,37,38,38,39,39,40,40,42,42,45,45,46,46,47,47,48,48,49,49,50,50,51,51,52,52,53,53,54,54,55,55,56,56,57,57,58,58,60,60],"right_children":[2,4,6,8,10,12,14,16,18,20,22,24,26,28,30,32,34,36,38,40,42,44,46,48,50,52,54,56,58,60,62,64,66,68,70,72,74,76,78,80,82,-1,84,-1,-1,86,88,90,92,94,96,98,100,102,104,106,108,110,112,-1,114,-1,-1,-1,-1,-1,-1,-1,-1,-1,-1,-1,-1,-1,-1,-1,-1,-1,-1,-1,-1,-1,-1,-1,-1,-1,-1,-1,-1,-1,-1,-1,-1,-1,-1,-1,-1,-1,-1,-1,-1,-1,-1,-1,-1,-1,-1,-1,-1,-1,-1,-1,-1,-1,-1],"split_conditions":[7.43E0,3E0,2.156651E2,1.2E0,2.4675099E2,1.6055988E2,1.6334501E1,1.6E0,7.15E0,3.9095001E0,-3.7779999E0,1.473E1,1.4000001E0,4E-1,2.3712672E2,2.3664352E1,9.5E-1,2.2754364E2,2.77E0,2.23229E1,3.942833E0,3.9E0,1.3004922E1,2.4122683E1,1.043E1,1E-1,2.77E0,2.4640424E2,2.5871188E2,5E-1,1.112E1,-9.659249E0,2.4122683E1,1.8753725E2,8.3640274E1,1.19553085E2,6.5E0,2.33E0,2.8E0,6.5E0,9.63E0,4.9892107E-1,4.4E0,1.1491001E-2,1.4314651E-1,2E-1,1.6805334E1,2.216998E1,8.03E0,7.8E0,2.1767351E1,1.112E1,7.4303327E0,1.6803488E2,8.79075E0,2.286496E1,1.2397806E1,7.68E0,1.3663666E1,4.2591134E-1,8.77E0,6.502991E-2,-3.6680698E-3,-1.9318486E-2,-7.599986E-2,1.2571436E-1,-6.499662E-2,-4.6506867E-2,8.4854625E-2,-6.2388714E-2,-3.981288E-2,-5.3552415E-2,9.50864E-4,-5.7066202E-2,5.611793E-2,-5.31179E-2,1.5473595E-1,8.264185E-1,8.5730985E-2,-1.2136843E-2,6.164437E-2,-8.3029754E-2,1.0316012E-2,1.5823623E-2,6.716509E-2,-7.187036E-3,6.291759E-2,-4.14847E-2,2.67811E-2,5.565948E-2,2.9141554E-1,2.8441632E-2,-9.104833E-2,1.3369529E-1,-3.7801918E-2,3.623146E-1,5.012076E-2,2.1100341E-1,-3.885405E-2,6.780646E-1,2.6874217E-1,5.2659858E-2,4.0213418E-1,1.6735236E-1,1.7629264E-2,2.0603357E-1,-3.4224988E-5,6.880791E-2,-4.1251983E-2,3.0416965E-2,-3.890352E-2,-7.3091075E-2,3.029585E-3,2.7185334E-2,1.1077074E-1],"split_indices":[0,0,6,4,6,6,3,0,1,3,3,0,4,4,6,5,2,6,0,5,3,0,5,5,1,4,1,6,6,4,2,3,5,6,6,6,1,0,0,0,1,0,0,0,0,4,3,5,0,1,5,2,3,6,3,5,5,1,3,0,0,0,0,0,0,0,0,0,0,0,0,0,0,0,0,0,0,0,0,0,0,0,0,0,0,0,0,0,0,0,0,0,0,0,0,0,0,0,0,0,0,0,0,0,0,0,0,0,0,0,0,0,0,0,0],"split_type":[0,0,0,0,0,0,0,0,0,0,0,0,0,0,0,0,0,0,0,0,0,0,0,0,0,0,0,0,0,0,0,0,0,0,0,0,0,0,0,0,0,0,0,0,0,0,0,0,0,0,0,0,0,0,0,0,0,0,0,0,0,0,0,0,0,0,0,0,0,0,0,0,0,0,0,0,0,0,0,0,0,0,0,0,0,0,0,0,0,0,0,0,0,0,0,0,0,0,0,0,0,0,0,0,0,0,0,0,0,0,0,0,0,0,0],"sum_hessian":[1.629E3,1.392E3,2.37E2,7.92E2,6E2,1.53E2,8.4E1,4.64E2,3.28E2,4.28E2,1.72E2,7.6E1,7.7E1,7.5E1,9E0,1.66E2,2.98E2,3.11E2,1.7E1,1.3E2,2.98E2,2E0,1.7E2,6.4E1,1.2E1,2.2E1,5.5E1,2E1,5.5E1,4E0,5E0,1.45E2,2.1E1,6E0,2.92E2,2.11E2,1E2,1.5E1,2E0,1.01E2,2.9E1,2E0,2.96E2,1E0,1E0,2.1E1,1.49E2,5.9E1,5E0,4E0,8E0,8E0,1.4E1,7E0,4.8E1,7E0,1.3E1,4.4E1,1.1E1,2E0,2E0,4E0,1E0,1E0,1.44E2,2E0,1.9E1,2E0,4E0,7.8E1,2.14E2,6.1E1,1.5E2,9.7E1,3E0,1.1E1,4E0,1E0,1E0,9.2E1,9E0,2.4E1,5E0,1.55E2,1.41E2,1.7E1,4E0,1.4E2,9E0,5.7E1,2E0,1E0,4E0,2E0,2E0,7E0,1E0,7E0,1E0,7E0,7E0,1E0,6E0,3.3E1,1.5E1,6E0,1E0,5E0,8E0,2.5E1,1.9E1,1E1,1E0,1E0,1E0],"tree_param":{"num_deleted":"0","num_feature":"9","num_nodes":"115","size_leaf_vector":"1"}},{"base_weights":[2.352714E-2,-3.5182962E-1,2.2203693E0,-6.315173E-1,4.4056082E-1,3.1093314E0,5.836574E-1,-1.0506871E0,-3.5150194E-1,7.534914E-1,-4.794143E-1,1.7352437E0,4.4259396E0,1.7668313E-1,3.6182961E0,-1.1562119E0,-5.093653E-1,-6.8479705E-1,2.4088133E-2,-6.191533E-1,9.9980134E-1,1.3956785E-1,-5.4530704E-1,1.0871246E0,4.8423586E0,7.6360717E0,3.0284574E0,1.3535585E0,-2.678002E-1,6.0166287E0,1.016636E0,7.23324E-2,-1.168018E0,2.1192055E0,-6.1946005E-1,-7.6997966E-1,5.9629004E-3,1.8217875E0,-2.1199629E-1,1.0455885E-1,-7.362632E-1,1.6811628E0,4.851052E-1,-6.6466E-1,7.909817E-1,1.3049086E0,-1.2719027E0,1.1123632E0,6.3765383E0,3.4186902E0,9.657429E0,6.9924645E0,2.3194675E0,3.4508953E0,5.839765E-2,5.2035702E-3,-1.2692477E0,4.1171432E-1,1.7934289E0,6.242871E-2,-3.5763741E-3,-5.940137E-2,7.6922565E-3,1.4876817E-1,1.0172236E-2,-5.6034204E-2,-1.2655839E-2,-4.273732E-2,-1.4904024E-2,5.900656E-2,-3.0242154E-2,2.7322391E-2,4.554734E-1,5.0144255E-2,-2.5371814E-2,-1.9829782E-2,-6.492904E-2,3.8918287E-2,2.7207235E-1,1.4222804E-1,1.4545719E-2,-5.2180197E-2,-9.547072E-3,8.015303E-2,-2.1093119E-2,5.2924495E-2,2.8170165E-1,2.7730597E-2,-8.74064E-2,1.2923878E-1,-3.654186E-2,4.6542753E-2,3.470446E-1,2.01772E-1,-3.7882697E-2,6.483993E-1,2.5698468E-1,4.350412E-1,1.5544501E-1,1.5923086E-1,1.6802896E-2,-1.4529229E-4,1.9723552E-1,6.594091E-2,-3.9418563E-2,2.8954614E-2,-3.7055593E-2,-6.976875E-2,2.9538453E-3,2.6505698E-2,1.0800147E-1],"categories":[],"categories_nodes":[],"categories_segments":[],"categories_sizes":[],"default_left":[1,1,0,1,0,0,0,0,0,0,0,0,0,0,0,0,0,0,0,0,0,0,0,0,0,0,0,0,0,0,0,0,1,0,0,0,0,0,0,0,0,0,0,0,0,0,0,0,0,0,0,0,0,0,0,0,0,0,0,0,0,0,0,0,0,0,0,0,0,0,0,0,0,0,0,0,0,0,0,0,0,0,0,0,0,0,0,0,0,0,0,0,0,0,0,0,0,0,0,0,0,0,0,0,0,0,0,0,0,0,0],"id":15,"left_children":[1,3,5,7,9,11,13,15,17,19,21,23,25,27,29,31,33,35,37,39,41,-1,43,45,47,49,51,53,55,57,59,-1,61,63,65,67,69,71,73,-1,75,77,79,81,83,85,87,89,91,93,95,97,99,101,103,105,107,-1,109,-1,-1,-1,-1,-1,-1,-1,-1,-1,-1,-1,-1,-1,-1,-1,-1,-1,-1,-1,-1,-1,-1,-1,-1,-1,-1,-1,-1,-1,-1,-1,-1,-1,-1,-1,-1,-1,-1,-1,-1,-1,-1,-1,-1,-1,-1,-1,-1,-1,-1,-1,-1],"loss_changes":[1.3448785E3,3.0899744E2,3.4446936E2,1.2052588E2,1.0515261E2,2.7092664E2,1.04337395E2,2.2945679E1,7.750437E1,9.258113E1,2.1565502E1,1.497968E2,3.267904E2,4.0118195E1,5.627974E1,1.2260742E1,2.12808E1,1.9304352E1,1.2431359E2,1.4870733E1,8.019481E1,0E0,1.519882E1,3.5054024E1,6.7299286E1,1.6305542E2,1.4116595E2,5.6842636E1,1.5316944E1,3.206044E1,1.6036272E0,0E0,9.254974E0,4.31526E0,1.2018881E1,1.1425613E1,2.7249786E1,3.1102725E2,9.347035E1,0E0,7.3160324E0,3.3184714E2,6.0111015E1,1.5059319E1,8.555672E0,5.8043045E1,6.188528E0,1.5458808E1,2.1198639E1,2.6239319E1,1.576919E2,2.6026184E1,8.301114E1,1.3655777E1,1.5981706E1,1.970276E1,2.0928936E0,0E0,2.4433422E-1,0E0,0E0,0E0,0E0,0E0,0E0,0E0,0E0,0E0,0E0,0E0,0E0,0E0,0E0,0E0,0E0,0E0,0E0,0E0,0E0,0E0,0E0,0E0,0E0,0E0,0E0,0E0,0E0,0E0,0E0,0E0,0E0,0E0,0E0,0E0,0E0,0E0,0E0,0E0,0E0,0E0,0E0,0E0,0E0,0E0,0E0,0E0,0E0,0E0,0E0,0E0,0E0],"parents":[2147483647,0,0,1,1,2,2,3,3,4,4,5,5,6,6,7,7,8,8,9,9,10,10,11,11,12,12,13,13,14,14,15,15,16,16,17,17,18,18,19,19,20,20,22,22,23,23,24,24,25,25,26,26,27,27,28,28,29,29,30,30,32,32,33,33,34,34,35,35,36,36,37,37,38,38,40,40,41,41,42,42,43,43,44,44,45,45,46,46,47,47,48,48,49,49,50,50,51,51,52,52,53,53,54,54,55,55,56,56,58,58],"right_children":[2,4,6,8,10,12,14,16,18,20,22,24,26,28,30,32,34,36,38,40,42,-1,44,46,48,50,52,54,56,58,60,-1,62,64,66,68,70,72,74,-1,76,78,80,82,84,86,88,90,92,94,96,98,100,102,104,106,108,-1,110,-1,-1,-1,-1,-1,-1,-1,-1,-1,-1,-1,-1,-1,-1,-1,-1,-1,-1,-1,-1,-1,-1,-1,-1,-1,-1,-1,-1,-1,-1,-1,-1,-1,-1,-1,-1,-1,-1,-1,-1,-1,-1,-1,-1,-1,-1,-1,-1,-1,-1,-1,-1],"split_conditions":[7.43E0,4E0,2.156651E2,2E0,2.4675099E2,1.6055988E2,1.6334501E1,4.1E0,1.4000002E0,7.417453E1,-3.7779999E0,1.473E1,1.4000001E0,4E-1,2.3712672E2,7.989243E0,4.1999993E0,3.57E0,1.7E0,1.75E0,1.8243657E2,1.3956785E-1,1.669075E1,2.4122683E1,1.043E1,1E-1,2.77E0,2.4640424E2,2.5871188E2,5E-1,1.112E1,7.23324E-2,1.473E1,1.32E0,2.17E0,2.4609364E1,3.13E0,3.05E0,2.4E0,1.0455885E-1,1.7313717E1,1.6921739E2,2.17E0,3.93E0,2.7238583E2,2.216998E1,8.03E0,7.8E0,7.628329E1,1.112E1,7.4303327E0,2.2668568E1,8.79075E0,2.1032498E0,1.2397806E1,7.68E0,1.3663666E1,4.1171432E-1,8.77E0,6.242871E-2,-3.5763741E-3,-5.940137E-2,7.6922565E-3,1.4876817E-1,1.0172236E-2,-5.6034204E-2,-1.2655839E-2,-4.273732E-2,-1.4904024E-2,5.900656E-2,-3.0242154E-2,2.7322391E-2,4.554734E-1,5.0144255E-2,-2.5371814E-2,-1.9829782E-2,-6.492904E-2,3.8918287E-2,2.7207235E-1,1.4222804E-1,1.4545719E-2,-5.2180197E-2,-9.547072E-3,8.015303E-2,-2.1093119E-2,5.2924495E-2,2.8170165E-1,2.7730597E-2,-8.74064E-2,1.2923878E-1,-3.654186E-2,4.6542753E-2,3.470446E-1,2.01772E-1,-3.7882697E-2,6.483993E-1,2.5698468E-1,4.350412E-1,1.5544501E-1,1.5923086E-1,1.6802896E-2,-1.4529229E-4,1.9723552E-1,6.594091E-2,-3.9418563E-2,2.8954614E-2,-3.7055593E-2,-6.976875E-2,2.9538453E-3,2.6505698E-2,1.0800147E-1],"split_indices":[0,0,6,0,6,6,3,4,4,6,3,0,4,4,6,5,4,0,2,1,6,0,3,5,1,4,1,6,6,4,2,0,1,0,2,5,1,1,4,0,5,6,1,2,6,5,0,1,6,2,3,5,3,3,5,1,3,0,0,0,0,0,0,0,0,0,0,0,0,0,0,0,0,0,0,0,0,0,0,0,0,0,0,0,0,0,0,0,0,0,0,0,0,0,0,0,0,0,0,0,0,0,0,0,0,0,0,0,0,0,0],"split_type":[0,0,0,0,0,0,0,0,0,0,0,0,0,0,0,0,0,0,0,0,0,0,0,0,0,0,0,0,0,0,0,0,0,0,0,0,0,0,0,0,0,0,0,0,0,0,0,0,0,0,0,0,0,0,0,0,0,0,0,0,0,0,0,0,0,0,0,0,0,0,0,0,0,0,0,0,0,0,0,0,0,0,0,0,0,0,0,0,0,0,0,0,0,0,0,0,0,0,0,0,0,0,0,0,0,0,0,0,0,0,0],"sum_hessian":[1.629E3,1.392E3,2.37E2,1.029E3,3.63E2,1.53E2,8.4E1,4.11E2,6.18E2,2.71E2,9.2E1,7.6E1,7.7E1,7.5E1,9E0,3.43E2,6.8E1,3.27E2,2.91E2,4.1E1,2.3E2,1E0,9.1E1,6.4E1,1.2E1,2.2E1,5.5E1,2E1,5.5E1,4E0,5E0,1E0,3.42E2,2E0,6.6E1,2.91E2,3.6E1,3.3E1,2.58E2,1E0,4E1,9.8E1,1.32E2,8.4E1,7E0,5.9E1,5E0,4E0,8E0,8E0,1.4E1,7E0,4.8E1,7E0,1.3E1,4.4E1,1.1E1,2E0,2E0,4E0,1E0,3.37E2,5E0,1E0,1E0,2.7E1,3.9E1,2.46E2,4.5E1,1.2E1,