{"learner":{"attributes":{"scikit_learn":"{\"_estimator_type\": \"regressor\"}"},"feature_names":["pm25_lag_1d","temperature_2m_mean","precipitation_sum","wind_speed_10m_max","wind_direction_10m_dominant","latitude","longitude"],"feature_types":["float","float","float","float","float","float","float"],"gradient_booster":{"model":{"gbtree_model_param":{"num_parallel_tree":"1","num_trees":"100"},"iteration_indptr":[0,1,2,3,4,5,6,7,8,9,10,11,12,13,14,15,16,17,18,19,20,21,22,23,24,25,26,27,28,29,30,31,32,33,34,35,36,37,38,39,40,41,42,43,44,45,46,47,48,49,50,51,52,53,54,55,56,57,58,59,60,61,62,63,64,65,66,67,68,69,70,71,72,73,74,75,76,77,78,79,80,81,82,83,84,85,86,87,88,89,90,91,92,93,94,95,96,97,98,99,100],"tree_info":[0,0,0,0,0,0,0,0,0,0,0,0,0,0,0,0,0,0,0,0,0,0,0,0,0,0,0,0,0,0,0,0,0,0,0,0,0,0,0,0,0,0,0,0,0,0,0,0,0,0,0,0,0,0,0,0,0,0,0,0,0,0,0,0,0,0,0,0,0,0,0,0,0,0,0,0,0,0,0,0,0,0,0,0,0,0,0,0,0,0,0,0,0,0,0,0,0,0,0,0],"trees":[{"base_weights":[-8.101218E-8,-6.983222E-1,6.315935E0,-1.7193015E0,5.662391E-1,4.4617777E0,1.0794212E1,-2.287586E0,-1.3244549E0,1.078162E0,-9.0991247E-1,5.492515E0,1.6722156E-1,1.2214099E1,1.4580717E0,-2.6437538E0,-1.6886575E0,-1.1034269E0,-2.0169077E0,-3.1138214E-1,1.4174794E0,2.019045E-1,-1.3252743E0,7.097112E0,3.990412E0,4.3308774E-1,-5.190299E-1,3.4864535E0,1.4006928E1,-3.4719163E-1,1.6750665E-1,-2.6760607E0,-6.611916E-1,4.9576325E0,-1.8703837E0,-1.807885E0,-8.3968925E-1,-2.0739577E0,2.701329E-1,6.795743E-1,-8.669752E-1,2.2059734E0,5.3024095E-1,-3.5830414E-1,1.2799822E0,-9.485265E-1,-2.1268036E0,3.9210932E0,8.661839E0,4.762782E0,3.9773682E-1,1.9758777E-1,-8.699691E-1,3.4095034E-1,1.5601517E0,1.895701E1,8.319641E0,4.783776E-2,-9.123671E-1,-3.1716313E-2,-1.3457638E-1,-6.921632E-2,1.4117019E-2,3.7878367E-1,-7.2412245E-2,-9.7232506E-2,5.4256637E-2,-4.3723416E-2,-1.01565115E-1,3.8775094E-3,-6.962112E-2,-5.659203E-2,-1.0686479E-1,4.2950355E-2,-3.7412237E-2,-6.165892E-2,5.682629E-2,-6.188019E-2,4.1238945E-2,4.5365144E-2,1.540465E-1,-4.2831423E-3,1.1327412E-1,-5.3468195E-4,-6.80662E-2,4.127741E-2,1.0256294E-1,-5.6351006E-2,8.234413E-3,-8.044534E-2,-1.2017739E-1,2.8497776E-1,4.9278587E-2,5.631236E-1,3.2691675E-1,1.05332434E-1,3.1235912E-1,1.4475666E-1,-4.503392E-2,-1.4667562E-2,-1.1142098E-1,-5.3549655E-2,1.4134042E-1,3.047296E-1,1.1557702E0,8.3028376E-1,3.1840047E-1,-6.921632E-2,1.2587762E-2],"categories":[],"categories_nodes":[],"categories_segments":[],"categories_sizes":[],"default_left":[1,1,0,1,0,0,0,0,0,0,0,0,0,0,0,0,0,0,0,0,0,0,0,0,0,0,0,0,0,0,0,0,0,0,0,0,0,0,0,0,0,0,0,0,0,0,0,0,0,0,0,0,0,0,0,0,0,0,0,0,0,0,0,0,0,0,0,0,0,0,0,0,0,0,0,0,0,0,0,0,0,0,0,0,0,0,0,0,0,0,0,0,0,0,0,0,0,0,0,0,0,0,0,0,0,0,0,0,0],"id":0,"left_children":[1,3,5,7,9,11,13,15,17,19,21,23,25,27,29,31,33,35,37,39,41,43,45,47,49,-1,51,53,55,57,-1,59,61,63,65,67,69,71,73,75,77,79,81,83,85,87,89,91,93,95,97,-1,99,-1,101,103,105,-1,107,-1,-1,-1,-1,-1,-1,-1,-1,-1,-1,-1,-1,-1,-1,-1,-1,-1,-1,-1,-1,-1,-1,-1,-1,-1,-1,-1,-1,-1,-1,-1,-1,-1,-1,-1,-1,-1,-1,-1,-1,-1,-1,-1,-1,-1,-1,-1,-1,-1,-1],"loss_changes":[7.974287E3,2.1028696E3,1.446457E3,1.9914136E2,5.51113E2,5.7010767E2,6.715166E2,7.4036865E1,7.950397E1,2.5552094E2,8.708716E1,2.2234766E2,1.5605975E2,6.552886E2,2.8488487E1,1.2898193E1,1.7836545E2,7.4099365E1,1.7261047E1,5.9500008E1,3.0314862E2,3.186394E1,3.935318E1,2.0954663E2,1.534986E2,0E0,4.2662247E1,4.713684E1,8.839287E2,4.5577054E0,0E0,5.3981934E0,3.8023553E0,7.8054825E1,3.218106E1,2.1163239E1,1.5119058E2,5.039917E0,3.0415328E0,3.5488914E1,4.428461E1,2.5854907E2,2.2035489E2,1.2188551E1,4.615488E0,1.9062286E1,2.2958527E0,8.835553E1,1.0308057E2,1.6820654E2,3.8276814E1,0E0,1.8145657E1,0E0,2.6356787E1,8.7537354E2,2.0150916E2,0E0,2.5461848E0,0E0,0E0,0E0,0E0,0E0,0E0,0E0,0E0,0E0,0E0,0E0,0E0,0E0,0E0,0E0,0E0,0E0,0E0,0E0,0E0,0E0,0E0,0E0,0E0,0E0,0E0,0E0,0E0,0E0,0E0,0E0,0E0,0E0,0E0,0E0,0E0,0E0,0E0,0E0,0E0,0E0,0E0,0E0,0E0,0E0,0E0,0E0,0E0,0E0,0E0],"parents":[2147483647,0,0,1,1,2,2,3,3,4,4,5,5,6,6,7,7,8,8,9,9,10,10,11,11,12,12,13,13,14,14,15,15,16,16,17,17,18,18,19,19,20,20,21,21,22,22,23,23,24,24,26,26,27,27,28,28,29,29,31,31,32,32,33,33,34,34,35,35,36,36,37,37,38,38,39,39,40,40,41,41,42,42,43,43,44,44,45,45,46,46,47,47,48,48,49,49,50,50,52,52,54,54,55,55,56,56,58,58],"right_children":[2,4,6,8,10,12,14,16,18,20,22,24,26,28,30,32,34,36,38,40,42,44,46,48,50,-1,52,54,56,58,-1,60,62,64,66,68,70,72,74,76,78,80,82,84,86,88,90,92,94,96,98,-1,100,-1,102,104,106,-1,108,-1,-1,-1,-1,-1,-1,-1,-1,-1,-1,-1,-1,-1,-1,-1,-1,-1,-1,-1,-1,-1,-1,-1,-1,-1,-1,-1,-1,-1,-1,-1,-1,-1,-1,-1,-1,-1,-1,-1,-1,-1,-1,-1,-1,-1,-1,-1,-1,-1,-1],"split_conditions":[8.63E0,2.8E0,1.639E1,1.52E0,2.4719026E2,2.4116145E2,2.3939618E2,1.2E0,2.5714746E2,7.657026E1,1.6071491E1,5.103E0,-3.8719997E0,1.9488333E0,1.864369E1,3.223357E1,1.0594036E1,1.0064301E2,3.5428463E1,1.3679999E1,9.382167E0,4.4E0,2.7940073E2,1.2536542E2,2.5153671E1,4.3308774E-1,8.913181E0,1.797E1,1.4000001E0,-2.8615835E0,1.6750665E-1,-8.96575E0,2.6999997E2,9.382167E0,1.8586336E1,1.257426E1,8.494666E0,1.191812E1,1.2000002E0,3.5E0,1.5244667E1,1.6586388E2,5.14E0,3.3206152E2,1.38049555E1,3.784283E1,2.9339774E2,1E-1,1.7057314E1,1.6042937E2,5.7925835E0,1.9758777E-1,3.072537E2,3.4095034E-1,1E-1,1.1244888E2,1.141071E2,4.783776E-2,3.01E1,-3.1716313E-2,-1.3457638E-1,-6.921632E-2,1.4117019E-2,3.7878367E-1,-7.2412245E-2,-9.7232506E-2,5.4256637E-2,-4.3723416E-2,-1.01565115E-1,3.8775094E-3,-6.962112E-2,-5.659203E-2,-1.0686479E-1,4.2950355E-2,-3.7412237E-2,-6.165892E-2,5.682629E-2,-6.188019E-2,4.1238945E-2,4.5365144E-2,1.540465E-1,-4.2831423E-3,1.1327412E-1,-5.3468195E-4,-6.80662E-2,4.127741E-2,1.0256294E-1,-5.6351006E-2,8.234413E-3,-8.044534E-2,-1.2017739E-1,2.8497776E-1,4.9278587E-2,5.631236E-1,3.2691675E-1,1.05332434E-1,3.1235912E-1,1.4475666E-1,-4.503392E-2,-1.4667562E-2,-1.1142098E-1,-5.3549655E-2,1.4134042E-1,3.047296E-1,1.1557702E0,8.3028376E-1,3.1840047E-1,-6.921632E-2,1.2587762E-2],"split_indices":[0,0,0,0,4,4,4,2,4,4,3,1,1,1,3,3,3,4,3,3,1,0,4,4,3,0,3,0,2,1,0,1,4,1,1,3,1,3,2,0,1,4,0,4,3,3,4,2,3,4,1,0,4,0,2,4,4,0,0,0,0,0,0,0,0,0,0,0,0,0,0,0,0,0,0,0,0,0,0,0,0,0,0,0,0,0,0,0,0,0,0,0,0,0,0,0,0,0,0,0,0,0,0,0,0,0,0,0,0],"split_type":[0,0,0,0,0,0,0,0,0,0,0,0,0,0,0,0,0,0,0,0,0,0,0,0,0,0,0,0,0,0,0,0,0,0,0,0,0,0,0,0,0,0,0,0,0,0,0,0,0,0,0,0,0,0,0,0,0,0,0,0,0,0,0,0,0,0,0,0,0,0,0,0,0,0,0,0,0,0,0,0,0,0,0,0,0,0,0,0,0,0,0,0,0,0,0,0,0,0,0,0,0,0,0,0,0,0,0,0,0],"sum_hessian":[1.806E3,1.627E3,1.79E2,9E2,7.27E2,1.28E2,5.1E1,3.67E2,5.33E2,5.4E2,1.87E2,1.03E2,2.5E1,4.4E1,7E0,2.28E2,1.39E2,4.06E2,1.27E2,1.06E2,4.34E2,5.1E1,1.36E2,4.8E1,5.5E1,1E0,2.4E1,8E0,3.6E1,4E0,3E0,2.24E2,4E0,3E0,1.36E2,1.09E2,2.97E2,1.24E2,3E0,3.8E1,6.8E1,2.29E2,2.05E2,3.4E1,1.7E1,9.4E1,4.2E1,1.7E1,3.1E1,4.5E1,1E1,1E0,2.3E1,2E0,6E0,1.8E1,1.8E1,1E0,3E0,2E0,2.22E2,2E0,2E0,2E0,1E0,1.33E2,3E0,2.2E1,8.7E1,1.12E2,1.85E2,9E0,1.15E2,2E0,1E0,7E0,3.1E1,5.6E1,1.2E1,9.3E1,1.36E2,1.52E2,5.3E1,2.6E1,8E0,1.2E1,5E0,8.1E1,1.3E1,1.7E1,2.5E1,1E1,7E0,1.2E1,1.9E1,1.7E1,2.8E1,3E0,7E0,1.7E1,6E0,2E0,4E0,5E0,1.3E1,2E0,1.6E1,2E0,1E0],"tree_param":{"num_deleted":"0","num_feature":"7","num_nodes":"109","size_leaf_vector":"1"}},{"base_weights":[2.8916541E-3,-6.635397E-1,6.0303774E0,-1.6336993E0,5.380775E-1,4.256102E0,1.0315975E1,-2.1549814E0,-1.2458674E0,1.0247768E0,-8.653397E-1,5.234637E0,1.7826772E-1,1.2451306E1,4.2187395E0,-2.4977984E0,-1.5876167E0,-1.0380551E0,-1.8994788E0,-2.9605108E-1,1.3473142E0,1.9325611E-1,-1.2608261E0,1.6914128E0,5.8128047E0,4.2226058E-1,-4.902185E-1,3.3597689E0,1.4763723E1,4.8442468E-1,2.6319702E0,-2.5269635E0,-6.39152E-1,4.786344E0,-1.753646E0,-1.7259493E0,-7.8714085E-1,-1.9551026E0,2.5801086E-1,6.454718E-1,-8.239256E-1,2.0965416E0,5.0425786E-1,-3.4234908E-1,1.2239742E0,-9.016065E-1,-2.0251293E0,4.423966E0,4.11898E-1,6.533101E0,1.4874216E0,1.9264807E-1,-8.3172435E-1,6.5917063E0,1.4946858E0,1.7562178E1,7.410599E0,-1.8771589E-1,5.95289E0,-1.05839334E-1,-1.3254058E-1,-6.690911E-2,1.3646443E-2,3.6615756E-1,-7.060194E-2,-9.102936E-2,5.222202E-2,-4.1632287E-2,-9.763484E-2,2.674477E-3,-6.552485E-2,-5.404539E-2,-1.0078497E-1,4.151868E-2,-3.6476936E-2,-5.8961343E-2,5.4073777E-2,-5.8840465E-2,3.9335616E-2,4.312101E-2,1.464004E-1,-4.0703937E-3,1.0771531E-1,-5.089451E-4,-6.504104E-2,3.9372295E-2,9.828948E-2,-5.3567808E-2,7.852097E-3,-7.664654E-2,-1.1439963E-1,3.1379405E-2,3.3728442E-1,-1.616092E-2,2.1245447E-1,2.2420588E-1,3.9224884E-1,2.2897565E-1,-3.6962096E-2,-1.3974929E-2,-1.06645785E-1,1.0106399E-1,3.9331397E-1,-5.1764663E-2,1.356868E-1,3.6797953E-1,1.0576286E0,5.814044E-1,1.3304625E-1,7.286128E-2,-4.8945032E-2,4.4596395E-1,6.7033374E-4],"categories":[],"categories_nodes":[],"categories_segments":[],"categories_sizes":[],"default_left":[1,1,0,1,0,0,0,0,0,0,0,0,0,0,0,0,0,0,0,0,0,0,0,0,0,0,0,0,0,0,0,0,0,0,0,0,0,0,0,0,0,0,0,0,0,0,0,0,0,0,0,0,0,0,0,0,0,0,0,0,0,0,0,0,0,0,0,0,0,0,0,0,0,0,0,0,0,0,0,0,0,0,0,0,0,0,0,0,0,0,0,0,0,0,0,0,0,0,0,0,0,0,0,0,0,0,0,0,0,0,0,0,0],"id":1,"left_children":[1,3,5,7,9,11,13,15,17,19,21,23,25,27,29,31,33,35,37,39,41,43,45,47,49,-1,51,53,55,-1,57,59,61,63,65,67,69,71,73,75,77,79,81,83,85,87,89,91,93,95,97,-1,99,101,103,105,107,109,111,-1,-1,-1,-1,-1,-1,-1,-1,-1,-1,-1,-1,-1,-1,-1,-1,-1,-1,-1,-1,-1,-1,-1,-1,-1,-1,-1,-1,-1,-1,-1,-1,-1,-1,-1,-1,-1,-1,-1,-1,-1,-1,-1,-1,-1,-1,-1,-1,-1,-1,-1,-1,-1,-1],"loss_changes":[7.2625493E3,1.898737E3,1.3247842E3,1.7946997E2,4.981415E2,5.138154E2,6.244907E2,7.052905E1,6.8523254E1,2.3087384E2,7.89518E1,2.0322021E2,1.4782478E2,7.492871E2,1.0468878E2,1.1231934E1,1.639584E2,6.6992004E1,1.5385376E1,5.3711464E1,2.737066E2,2.9126038E1,3.578784E1,5.411925E1,2.6756738E2,0E0,4.0285137E1,4.439795E1,4.871753E2,0E0,1.22848816E2,6.2250977E0,3.5530891E0,7.323698E1,2.8873749E1,1.9642273E1,1.2853519E2,4.231018E0,2.8667357E0,3.2302742E1,4.014318E1,2.3348486E2,1.9924896E2,1.11299095E1,4.2808685E0,1.7240242E1,2.0560303E0,3.983715E1,3.522277E1,1.6911108E2,9.977603E1,0E0,1.6649088E1,1.5760803E0,2.4398712E1,6.135835E2,1.6937549E2,1.1838098E1,1.0559337E2,0E0,0E0,0E0,0E0,0E0,0E0,0E0,0E0,0E0,0E0,0E0,0E0,0E0,0E0,0E0,0E0,0E0,0E0,0E0,0E0,0E0,0E0,0E0,0E0,0E0,0E0,0E0,0E0,0E0,0E0,0E0,0E0,0E0,0E0,0E0,0E0,0E0,0E0,0E0,0E0,0E0,0E0,0E0,0E0,0E0,0E0,0E0,0E0,0E0,0E0,0E0,0E0,0E0,0E0],"parents":[2147483647,0,0,1,1,2,2,3,3,4,4,5,5,6,6,7,7,8,8,9,9,10,10,11,11,12,12,13,13,14,14,15,15,16,16,17,17,18,18,19,19,20,20,21,21,22,22,23,23,24,24,26,26,27,27,28,28,30,30,31,31,32,32,33,33,34,34,35,35,36,36,37,37,38,38,39,39,40,40,41,41,42,42,43,43,44,44,45,45,46,46,47,47,48,48,49,49,50,50,52,52,53,53,54,54,55,55,56,56,57,57,58,58],"right_children":[2,4,6,8,10,12,14,16,18,20,22,24,26,28,30,32,34,36,38,40,42,44,46,48,50,-1,52,54,56,-1,58,60,62,64,66,68,70,72,74,76,78,80,82,84,86,88,90,92,94,96,98,-1,100,102,104,106,108,110,112,-1,-1,-1,-1,-1,-1,-1,-1,-1,-1,-1,-1,-1,-1,-1,-1,-1,-1,-1,-1,-1,-1,-1,-1,-1,-1,-1,-1,-1,-1,-1,-1,-1,-1,-1,-1,-1,-1,-1,-1,-1,-1,-1,-1,-1,-1,-1,-1,-1,-1,-1,-1,-1,-1],"split_conditions":[8.63E0,2.8E0,1.639E1,1.54E0,2.4719026E2,2.4116145E2,2.257193E2,1.2E0,2.5714746E2,7.657026E1,1.6071491E1,7.905746E1,-3.8719997E0,1.9488333E0,1.1966953E1,3.223357E1,1.0594036E1,9.546422E1,3.5428463E1,1.3679999E1,9.382167E0,4.4E0,2.7940073E2,6.28E-1,2.6111792E1,4.2226058E-1,8.913181E0,1.797E1,2.6000001E0,4.8442468E-1,2.5900616E1,3.53425E0,2.6999997E2,9.382167E0,1.8586336E1,1.257426E1,8.494666E0,1.191812E1,1.2000002E0,3.5E0,1.5244667E1,1.6586388E2,5.14E0,3.3206152E2,1.38049555E1,3.784283E1,2.9339774E2,-7.825001E-2,9E-1,1.033E1,4.7E0,1.9264807E-1,3.072537E2,-5.824167E-1,1E-1,1.1244888E2,4.167583E0,4.905084E0,1.02E1,-1.05839334E-1,-1.3254058E-1,-6.690911E-2,1.3646443E-2,3.6615756E-1,-7.060194E-2,-9.102936E-2,5.222202E-2,-4.1632287E-2,-9.763484E-2,2.674477E-3,-6.552485E-2,-5.404539E-2,-1.0078497E-1,4.151868E-2,-3.6476936E-2,-5.8961343E-2,5.4073777E-2,-5.8840465E-2,3.9335616E-2,4.312101E-2,1.464004E-1,-4.0703937E-3,1.0771531E-1,-5.089451E-4,-6.504104E-2,3.9372295E-2,9.828948E-2,-5.3567808E-2,7.852097E-3,-7.664654E-2,-1.1439963E-1,3.1379405E-2,3.3728442E-1,-1.616092E-2,2.1245447E-1,2.2420588E-1,3.9224884E-1,2.2897565E-1,-3.6962096E-2,-1.3974929E-2,-1.06645785E-1,1.0106399E-1,3.9331397E-1,-5.1764663E-2,1.356868E-1,3.6797953E-1,1.0576286E0,5.814044E-1,1.3304625E-1,7.286128E-2,-4.8945032E-2,4.4596395E-1,6.7033374E-4],"split_indices":[0,0,0,0,4,4,4,2,4,4,3,4,1,1,3,3,3,4,3,3,1,0,4,1,3,0,3,0,2,0,3,1,4,1,1,3,1,3,2,0,1,4,0,4,3,3,4,1,2,0,2,0,4,1,2,4,1,1,2,0,0,0,0,0,0,0,0,0,0,0,0,0,0,0,0,0,0,0,0,0,0,0,0,0,0,0,0,0,0,0,0,0,0,0,0,0,0,0,0,0,0,0,0,0,0,0,0,0,0,0,0,0,0],"split_type":[0,0,0,0,0,0,0,0,0,0,0,0,0,0,0,0,0,0,0,0,0,0,0,0,0,0,0,0,0,0,0,0,0,0,0,0,0,0,0,0,0,0,0,0,0,0,0,0,0,0,0,0,0,0,0,0,0,0,0,0,0,0,0,0,0,0,0,0,0,0,0,0,0,0,0,0,0,0,0,0,0,0,0,0,0,0,0,0,0,0,0,0,0,0,0,0,0,0,0,0,0,0,0,0,0,0,0,0,0,0,0,0,0],"sum_hessian":[1.806E3,1.627E3,1.79E2,9E2,7.27E2,1.28E2,5.1E1,3.82E2,5.18E2,5.4E2,1.87E2,1.03E2,2.5E1,3.7E1,1.4E1,2.36E2,1.46E2,3.95E2,1.23E2,1.06E2,4.34E2,5.1E1,1.36E2,1.5E1,8.8E1,1E0,2.4E1,8E0,2.9E1,2E0,1.2E1,2.32E2,4E0,3E0,1.43E2,1.04E2,2.91E2,1.2E2,3E0,3.8E1,6.8E1,2.29E2,2.05E2,3.4E1,1.7E1,9.4E1,4.2E1,4E0,1.1E1,7.5E1,1.3E1,1E0,2.3E1,2E0,6E0,2E1,9E0,7E0,5E0,5.8E1,1.74E2,2E0,2E0,2E0,1E0,1.4E2,3E0,2.2E1,8.2E1,1.12E2,1.79E2,9E0,1.11E2,2E0,1E0,7E0,3.1E1,5.6E1,1.2E1,9.3E1,1.36E2,1.52E2,5.3E1,2.6E1,8E0,1.2E1,5E0,8.1E1,1.3E1,1.7E1,2.5E1,2E0,2E0,1E1,1E0,3.1E1,4.4E1,5E0,8E0,1.7E1,6E0,1E0,1E0,2E0,4E0,6E0,1.4E1,4E0,5E0,2E0,5E0,3E0,2E0],"tree_param":{"num_deleted":"0","num_feature":"7","num_nodes":"113","size_leaf_vector":"1"}},{"base_weights":[5.6570563E-3,-6.305364E-1,5.759642E0,-1.6571066E0,3.9806962E-1,4.0577755E0,9.870818E0,-2.0654416E0,-1.3179896E0,9.8528415E-1,-7.0721734E-1,4.9861107E0,1.8836544E-1,1.1176295E1,1.2936556E0,-2.388834E0,-1.5217112E0,-1.1462581E0,-1.861253E0,-5.4298706E-2,1.4569373E0,1.4238873E-1,-9.8182106E-1,6.49322E0,3.5783525E0,4.1170403E-1,-4.6282637E-1,3.2560358E0,1.2800782E1,-3.1679544E-1,1.4916529E-1,-2.4175723E0,-6.178469E-1,4.620916E0,-1.6899506E0,-1.7149881E0,-9.051553E-1,-1.9321043E0,-8.829553E-1,-9.9631417E-1,5.55773E-1,2.4495437E0,4.0628397E-1,-8.7765557E-1,5.3961414E-1,-6.784233E-1,-1.9382019E0,3.5381198E0,7.952551E0,4.27659E0,3.3314595E-1,1.8783186E-1,-7.951639E-1,6.4269133E0,1.4319403E0,1.7325888E1,7.601952E0,4.4820286E-2,-8.4419715E-1,-2.7131129E-2,-1.2159773E-1,-6.46788E-2,1.31915575E-2,3.5395232E-1,-6.883689E-2,-7.26239E-2,-1.3239558E-1,-4.1645024E-2,-9.680624E-2,-3.1190969E-3,-6.7907564E-2,-8.346575E-2,-1.1691582E-1,-1.6492272E-2,-9.396133E-2,1.14587024E-1,-5.674372E-2,8.917959E-2,-2.8646882E-3,4.9334686E-2,1.598303E-1,-8.379949E-3,1.1126267E-1,-1.3519633E-2,-8.7737545E-2,-8.380635E-3,5.6326833E-2,-6.422405E-2,-1.285775E-2,-8.416732E-2,-1.2188162E-1,2.6081136E-1,3.942285E-2,5.3089017E-1,3.025428E-1,9.194252E-2,2.8211007E-1,1.3739012E-1,-4.5791276E-2,-5.8606368E-2,4.3586127E-2,9.8537385E-2,3.8348112E-1,-5.003918E-2,1.3025932E-1,2.7670008E-1,1.0570996E0,1.6257012E-1,5.235203E-1,-6.5277606E-2,1.3496697E-2],"categories":[],"categories_nodes":[],"categories_segments":[],"categories_sizes":[],"default_left":[1,1,0,1,0,0,0,0,0,0,0,0,0,0,0,0,0,0,0,0,0,0,0,0,0,0,0,0,0,0,0,0,0,0,0,0,0,0,0,0,0,0,0,0,0,0,0,0,0,0,0,0,0,0,0,0,0,0,0,0,0,0,0,0,0,0,0,0,0,0,0,0,0,0,0,0,0,0,0,0,0,0,0,0,0,0,0,0,0,0,0,0,0,0,0,0,0,0,0,0,0,0,0,0,0,0,0,0,0,0,0],"id":2,"left_children":[1,3,5,7,9,11,13,15,17,19,21,23,25,27,29,31,33,35,37,39,41,43,45,47,49,-1,51,53,55,57,-1,59,61,63,65,67,69,71,73,75,77,79,81,83,85,87,89,91,93,95,97,-1,99,101,103,105,107,-1,109,-1,-1,-1,-1,-1,-1,-1,-1,-1,-1,-1,-1,-1,-1,-1,-1,-1,-1,-1,-1,-1,-1,-1,-1,-1,-1,-1,-1,-1,-1,-1,-1,-1,-1,-1,-1,-1,-1,-1,-1,-1,-1,-1,-1,-1,-1,-1,-1,-1,-1,-1,-1],"loss_changes":[6.618422E3,1.7197241E3,1.2193472E3,1.10133545E2,5.290158E2,4.6244336E2,5.678008E2,6.1073364E1,3.9662903E1,2.6093066E2,6.616513E1,1.9741626E2,1.4003285E2,5.3730664E2,2.271389E1,1.0161255E1,1.5248953E2,4.5480682E1,5.6412964E0,9.652813E1,3.8070074E2,2.8836723E1,6.0780167E1,1.8317383E2,1.2546704E2,0E0,3.8044296E1,4.285289E1,7.387241E2,3.955965E0,0E0,4.7476807E0,3.3201635E0,6.871805E1,2.7320068E1,1.8088654E1,9.268605E1,6.5579834E0,4.3395724E0,3.267E1,7.688115E1,2.022998E2,1.8722667E2,1.0178076E1,2.1358274E1,4.1541008E1,2.388031E0,7.8943375E1,9.794507E1,1.4275903E2,3.5690712E1,0E0,1.6102295E1,1.4982605E0,2.2586517E1,7.3798193E2,2.0306409E2,0E0,2.4084527E0,0E0,0E0,0E0,0E0,0E0,0E0,0E0,0E0,0E0,0E0,0E0,0E0,0E0,0E0,0E0,0E0,0E0,0E0,0E0,0E0,0E0,0E0,0E0,0E0,0E0,0E0,0E0,0E0,0E0,0E0,0E0,0E0,0E0,0E0,0E0,0E0,0E0,0E0,0E0,0E0,0E0,0E0,0E0,0E0,0E0,0E0,0E0,0E0,0E0,0E0,0E0,0E0],"parents":[2147483647,0,0,1,1,2,2,3,3,4,4,5,5,6,6,7,7,8,8,9,9,10,10,11,11,12,12,13,13,14,14,15,15,16,16,17,17,18,18,19,19,20,20,21,21,22,22,23,23,24,24,26,26,27,27,28,28,29,29,31,31,32,32,33,33,34,34,35,35,36,36,37,37,38,38,39,39,40,40,41,41,42,42,43,43,44,44,45,45,46,46,47,47,48,48,49,49,50,50,52,52,53,53,54,54,55,55,56,56,58,58],"right_children":[2,4,6,8,10,12,14,16,18,20,22,24,26,28,30,32,34,36,38,40,42,44,46,48,50,-1,52,54,56,58,-1,60,62,64,66,68,70,72,74,76,78,80,82,84,86,88,90,92,94,96,98,-1,100,102,104,106,108,-1,110,-1,-1,-1,-1,-1,-1,-1,-1,-1,-1,-1,-1,-1,-1,-1,-1,-1,-1,-1,-1,-1,-1,-1,-1,-1,-1,-1,-1,-1,-1,-1,-1,-1,-1,-1,-1,-1,-1,-1,-1,-1,-1,-1,-1,-1,-1,-1,-1,-1,-1,-1,-1],"split_conditions":[8.63E0,2.52E0,1.639E1,1.52E0,2.3293379E2,2.4116145E2,2.3939618E2,1.2E0,2.5714746E2,1.0815729E2,1.6071491E1,5.103E0,-3.8719997E0,1.9488333E0,1.864369E1,3.223357E1,1.0594036E1,1.0064301E2,3.20405E1,3.99E0,9.382167E0,3.3E0,2.7940073E2,1.2536542E2,2.5153671E1,4.1170403E-1,8.913181E0,1.797E1,1.4000001E0,-2.8615835E0,1.4916529E-1,-8.96575E0,2.6999997E2,9.382167E0,2.6559424E2,1.257426E1,8.494666E0,6E-1,2.7243765E2,-7.394916E0,1.35515E1,1.6586388E2,5.14E0,3E-1,1.2757168E1,3.73E0,3.1184067E2,1E-1,1.6895088E1,1.6042937E2,5.7925835E0,1.8783186E-1,2.9947151E1,-5.824167E-1,1E-1,1.1244888E2,1.97E1,4.4820286E-2,3.01E1,-2.7131129E-2,-1.2159773E-1,-6.46788E-2,1.31915575E-2,3.5395232E-1,-6.883689E-2,-7.26239E-2,-1.3239558E-1,-4.1645024E-2,-9.680624E-2,-3.1190969E-3,-6.7907564E-2,-8.346575E-2,-1.1691582E-1,-1.6492272E-2,-9.396133E-2,1.14587024E-1,-5.674372E-2,8.917959E-2,-2.8646882E-3,4.9334686E-2,1.598303E-1,-8.379949E-3,1.1126267E-1,-1.3519633E-2,-8.7737545E-2,-8.380635E-3,5.6326833E-2,-6.422405E-2,-1.285775E-2,-8.416732E-2,-1.2188162E-1,2.6081136E-1,3.942285E-2,5.3089017E-1,3.025428E-1,9.194252E-2,2.8211007E-1,1.3739012E-1,-4.5791276E-2,-5.8606368E-2,4.3586127E-2,9.8537385E-2,3.8348112E-1,-5.003918E-2,1.3025932E-1,2.7670008E-1,1.0570996E0,1.6257012E-1,5.235203E-1,-6.5277606E-2,1.3496697E-2],"split_indices":[0,0,0,0,4,4,4,2,4,4,3,1,1,1,3,3,3,4,3,0,1,0,4,4,3,0,3,0,2,1,0,1,4,1,4,3,1,2,4,1,3,4,0,2,1,0,4,2,3,4,1,0,3,1,2,4,0,0,0,0,0,0,0,0,0,0,0,0,0,0,0,0,0,0,0,0,0,0,0,0,0,0,0,0,0,0,0,0,0,0,0,0,0,0,0,0,0,0,0,0,0,0,0,0,0,0,0,0,0,0,0],"split_type":[0,0,0,0,0,0,0,0,0,0,0,0,0,0,0,0,0,0,0,0,0,0,0,0,0,0,0,0,0,0,0,0,0,0,0,0,0,0,0,0,0,0,0,0,0,0,0,0,0,0,0,0,0,0,0,0,0,0,0,0,0,0,0,0,0,0,0,0,0,0,0,0,0,0,0,0,0,0,0,0,0,0,0,0,0,0,0,0,0,0,0,0,0,0,0,0,0,0,0,0,0,0,0,0,0,0,0,0,0,0,0],"sum_hessian":[1.806E3,1.627E3,1.79E2,8.14E2,8.13E2,1.28E2,5.1E1,3.67E2,4.47E2,5.31E2,2.82E2,1.03E2,2.5E1,4.4E1,7E0,2.28E2,1.39E2,3.42E2,1.05E2,1.66E2,3.65E2,6.9E1,2.13E2,4.8E1,5.5E1,1E0,2.4E1,8E0,3.6E1,4E0,3E0,2.24E2,4E0,3E0,1.36E2,1E2,2.42E2,9.7E1,8E0,6.5E1,1.01E2,1.87E2,1.78E2,1.9E1,5E1,1.63E2,5E1,1.7E1,3.1E1,4.5E1,1E1,1E0,2.3E1,2E0,6E0,1.8E1,1.8E1,1E0,3E0,2E0,2.22E2,2E0,2E0,2E0,1E0,1.11E2,2.5E1,2.1E1,7.9E1,8.5E1,1.57E2,6.2E1,3.5E1,6E0,2E0,2E0,6.3E1,3.3E1,6.8E1,6.4E1,1.23E2,1.36E2,4.2E1,1.2E1,7E0,2.3E1,2.7E1,6.6E1,9.7E1,3.6E1,1.4E1,1E1,7E0,1.1E1,2E1,1.7E1,2.8E1,3E0,7E0,1.9E1,4E0,1E0,1E0,2E0,4E0,5E0,1.3E1,8E0,1E1,2E0,1E0],"tree_param":{"num_deleted":"0","num_feature":"7","num_nodes":"111","size_leaf_vector":"1"}},{"base_weights":[7.802267E-3,-5.993294E-1,5.4989276E0,-1.4778212E0,4.887482E-1,3.8718157E0,9.429667E0,-1.962496E0,-1.1410457E0,1.0315667E0,-5.724959E-1,4.7521834E0,2.0142844E-1,1.1421495E1,3.7550602E0,-2.2702665E0,-1.4450535E0,-9.515509E-1,-1.7346654E0,-1.1908523E-3,1.5257734E0,1.7439054E-1,-8.6299896E-1,6.191695E0,3.4077501E0,4.0141144E-1,-4.3277273E-1,3.155705E0,1.3520515E1,4.3304053E-1,2.3341131E0,-2.2973545E0,-5.9725213E-1,4.4611487E0,-1.6069496E0,-1.5512756E0,-7.269829E-1,-1.784959E0,2.7067304E-1,-9.665661E-1,5.2883077E-1,2.5584865E0,4.6451756E-1,-1.0199412E0,3.9044487E-1,-5.583477E-1,-1.8361948E0,3.3778932E0,7.5809684E0,4.070892E0,3.2481572E-1,1.8313608E-1,-7.560317E-1,6.266241E0,1.3718033E0,1.6067013E1,6.820821E0,-2.707178E-1,5.4182024E0,-2.6226759E-2,-1.1554511E-1,-6.252285E-2,1.27518345E-2,3.421539E-1,-6.711598E-2,-8.372801E-2,5.2987076E-2,-3.7616637E-2,-8.71231E-2,2.9588636E-4,-6.140194E-2,-4.8185777E-2,-9.201842E-2,4.148E-2,-3.51527E-2,9.3337774E-2,-5.810823E-2,8.4851764E-2,-2.7235223E-3,1.517493E-1,5.932523E-3,-6.567088E-3,1.058289E-1,-1.5764575E-2,-7.7730045E-2,-1.1058963E-2,4.487835E-2,-3.6966067E-2,4.2823628E-2,-6.756968E-2,-1.0412786E-1,2.4895631E-1,3.7698098E-2,5.0655776E-1,2.8813604E-1,8.76008E-2,2.6849094E-1,1.3223799E-1,-4.3787908E-2,2.124211E-2,-6.336323E-2,9.607395E-2,3.7389413E-1,-4.83712E-2,1.2504895E-1,3.385874E-1,9.666834E-1,5.444264E-1,1.1471307E-1,6.7199476E-2,-5.1647592E-2,4.1896722E-1,-1.6802697E-2],"categories":[],"categories_nodes":[],"categories_segments":[],"categories_sizes":[],"default_left":[1,1,0,1,0,0,0,0,0,0,0,0,0,0,0,0,0,0,0,0,0,0,0,0,0,0,0,0,0,0,0,0,0,0,0,0,0,0,0,0,0,0,0,0,0,0,0,0,0,0,0,0,0,0,0,0,0,0,0,0,0,0,0,0,0,0,0,0,0,0,0,0,0,0,0,0,0,0,0,0,0,0,0,0,0,0,0,0,0,0,0,0,0,0,0,0,0,0,0,0,0,0,0,0,0,0,0,0,0,0,0,0,0],"id":3,"left_children":[1,3,5,7,9,11,13,15,17,19,21,23,25,27,29,31,33,35,37,39,41,43,45,47,49,-1,51,53,55,-1,57,59,61,63,65,67,69,71,73,75,77,79,81,83,85,87,89,91,93,95,97,-1,99,101,103,105,107,109,111,-1,-1,-1,-1,-1,-1,-1,-1,-1,-1,-1,-1,-1,-1,-1,-1,-1,-1,-1,-1,-1,-1,-1,-1,-1,-1,-1,-1,-1,-1,-1,-1,-1,-1,-1,-1,-1,-1,-1,-1,-1,-1,-1,-1,-1,-1,-1,-1,-1,-1,-1,-1,-1,-1],"loss_changes":[6.027537E3,1.5568741E3,1.1147261E3,1.4482788E2,4.199644E2,4.1587927E2,5.448594E2,5.5324707E1,5.8417847E1,2.4601251E2,5.3742783E1,1.8017432E2,1.325323E2,6.1663574E2,8.434685E1,9.005981E0,1.4103552E2,5.3686584E1,1.339267E1,8.08433E1,3.560987E2,1.8461067E1,5.1749146E1,1.6594019E2,1.13165405E2,0E0,3.5866768E1,4.1343964E1,4.0223242E2,0E0,1.059027E2,4.1916504E0,3.1025078E0,6.4479385E1,2.647522E1,1.5491272E1,1.0944008E2,3.9144592E0,2.7602227E0,3.3204304E1,6.959677E1,1.914657E2,1.5975009E2,3.6540728E0,1.880861E1,3.5711384E1,2.2019958E0,7.187335E1,8.999695E1,1.291463E2,3.295408E1,0E0,1.5027226E1,1.4242859E0,2.0909298E1,5.0672998E2,1.5914603E2,1.1234556E1,1.0505095E2,0E0,0E0,0E0,0E0,0E0,0E0,0E0,0E0,0E0,0E0,0E0,0E0,0E0,0E0,0E0,0E0,0E0,0E0,0E0,0E0,0E0,0E0,0E0,0E0,0E0,0E0,0E0,0E0,0E0,0E0,0E0,0E0,0E0,0E0,0E0,0E0,0E0,0E0,0E0,0E0,0E0,0E0,0E0,0E0,0E0,0E0,0E0,0E0,0E0,0E0,0E0,0E0,0E0,0E0],"parents":[2147483647,0,0,1,1,2,2,3,3,4,4,5,5,6,6,7,7,8,8,9,9,10,10,11,11,12,12,13,13,14,14,15,15,16,16,17,17,18,18,19,19,20,20,21,21,22,22,23,23,24,24,26,26,27,27,28,28,30,30,31,31,32,32,33,33,34,34,35,35,36,36,37,37,38,38,39,39,40,40,41,41,42,42,43,43,44,44,45,45,46,46,47,47,48,48,49,49,50,50,52,52,53,53,54,54,55,55,56,56,57,57,58,58],"right_children":[2,4,6,8,10,12,14,16,18,20,22,24,26,28,30,32,34,36,38,40,42,44,46,48,50,-1,52,54,56,-1,58,60,62,64,66,68,70,72,74,76,78,80,82,84,86,88,90,92,94,96,98,-1,100,102,104,106,108,110,112,-1,-1,-1,-1,-1,-1,-1,-1,-1,-1,-1,-1,-1,-1,-1,-1,-1,-1,-1,-1,-1,-1,-1,-1,-1,-1,-1,-1,-1,-1,-1,-1,-1,-1,-1,-1,-1,-1,-1,-1,-1,-1,-1,-1,-1,-1,-1,-1,-1,-1,-1,-1,-1,-1],"split_conditions":[8.63E0,2.8E0,1.639E1,1.52E0,2.3293379E2,2.4116145E2,2.257193E2,1.2E0,2.5714746E2,1.0815729E2,1.678156E1,5.103E0,-3.8719997E0,1.9488333E0,1.1966953E1,3.223357E1,1.0594036E1,1.0064301E2,3.5428463E1,3.99E0,9.382167E0,3.13E0,2.7940073E2,1.2536542E2,2.5153671E1,4.0141144E-1,8.913181E0,1.797E1,2.6000001E0,4.3304053E-1,2.5900616E1,-8.96575E0,2.6999997E2,9.382167E0,1.8586336E1,1.257426E1,9.590499E0,1.191812E1,1.2000002E0,-4.7615833E0,1.35515E1,2.8357857E1,5.14E0,3.03E0,1.2757168E1,7.17E0,2.9339774E2,1E-1,1.6895088E1,1.6042937E2,5.7925835E0,1.8313608E-1,2.56393E2,-5.824167E-1,1E-1,1.1244888E2,4.167583E0,4.905084E0,1.02E1,-2.6226759E-2,-1.1554511E-1,-6.252285E-2,1.27518345E-2,3.421539E-1,-6.711598E-2,-8.372801E-2,5.2987076E-2,-3.7616637E-2,-8.71231E-2,2.9588636E-4,-6.140194E-2,-4.8185777E-2,-9.201842E-2,4.148E-2,-3.51527E-2,9.3337774E-2,-5.810823E-2,8.4851764E-2,-2.7235223E-3,1.517493E-1,5.932523E-3,-6.567088E-3,1.058289E-1,-1.5764575E-2,-7.7730045E-2,-1.1058963E-2,4.487835E-2,-3.6966067E-2,4.2823628E-2,-6.756968E-2,-1.0412786E-1,2.4895631E-1,3.7698098E-2,5.0655776E-1,2.8813604E-1,8.76008E-2,2.6849094E-1,1.3223799E-1,-4.3787908E-2,2.124211E-2,-6.336323E-2,9.607395E-2,3.7389413E-1,-4.83712E-2,1.2504895E-1,3.385874E-1,9.666834E-1,5.444264E-1,1.1471307E-1,6.7199476E-2,-5.1647592E-2,4.1896722E-1,-1.6802697E-2],"split_indices":[0,0,0,0,4,4,4,2,4,4,3,1,1,1,3,3,3,4,3,0,1,0,4,4,3,0,3,0,2,0,3,1,4,1,1,3,1,3,2,1,3,3,0,0,1,0,4,2,3,4,1,0,4,1,2,4,1,1,2,0,0,0,0,0,0,0,0,0,0,0,0,0,0,0,0,0,0,0,0,0,0,0,0,0,0,0,0,0,0,0,0,0,0,0,0,0,0,0,0,0,0,0,0,0,0,0,0,0,0,0,0,0,0],"split_type":[0,0,0,0,0,0,0,0,0,0,0,0,0,0,0,0,0,0,0,0,0,0,0,0,0,0,0,0,0,0,0,0,0,0,0,0,0,0,0,0,0,0,0,0,0,0,0,0,0,0,0,0,0,0,0,0,0,0,0,0,0,0,0,0,0,0,0,0,0,0,0,0,0,0,0,0,0,0,0,0,0,0,0,0,0,0,0,0,0,0,0,0,0,0,0,0,0,0,0,0,0,0,0,0,0,0,0,0,0,0,0,0,0],"sum_hessian":[1.806E3,1.627E3,1.79E2,9E2,7.27E2,1.28E2,5.1E1,3.67E2,5.33E2,4.81E2,2.46E2,1.03E2,2.5E1,3.7E1,1.4E1,2.28E2,1.39E2,4.06E2,1.27E2,1.56E2,3.25E2,6.9E1,1.77E2,4.8E1,5.5E1,1E0,2.4E1,8E0,2.9E1,2E0,1.2E1,2.24E2,4E0,3E0,1.36E2,1.09E2,2.97E2,1.24E2,3E0,5.5E1,1.01E2,1.64E2,1.61E2,1E1,5.9E1,1.36E2,4.1E1,1.7E1,3.1E1,4.5E1,1E1,1E0,2.3E1,2E0,6E0,2E1,9E0,7E0,5E0,2E0,2.22E2,2E0,2E0,2E0,1E0,1.33E2,3E0,2.2E1,8.7E1,1.21E2,1.76E2,9E0,1.15E2,2E0,1E0,3E0,5.2E1,3.3E1,6.8E1,1.37E2,2.7E1,1.19E2,4.2E1,5E0,5E0,2.7E1,3.2E1,1.21E2,1.5E1,1.6E1,2.5E1,1E1,7E0,1.1E1,2E1,1.7E1,2.8E1,3E0,7E0,7E0,1.6E1,1E0,1E0,2E0,4E0,6E0,1.4E1,4E0,5E0,2E0,5E0,3E0,2E0],"tree_param":{"num_deleted":"0","num_feature":"7","num_nodes":"113","size_leaf_vector":"1"}},{"base_weights":[1.0351778E-2,-5.6943554E-1,5.2541485E0,-1.4988146E0,3.6178476E-1,3.6942582E0,9.022835E0,-1.8642279E0,-1.195308E0,8.9418E-1,-6.403214E-1,4.5292463E0,2.122195E-1,1.0916501E1,3.6240242E0,-2.1575897E0,-1.3710558E0,-1.0405939E0,-1.684663E0,-4.519519E-2,1.3203589E0,1.3258247E-1,-8.901482E-1,5.9041786E0,3.2453008E0,3.9137614E-1,-4.0549353E-1,3.0586581E0,1.290997E1,4.1860586E-1,2.2495396E0,-2.183117E0,-5.773438E-1,4.3068504E0,-1.5268264E0,-1.5546423E0,-8.2265365E-1,-1.7495954E0,-7.904375E-1,-8.920218E-1,5.031945E-1,2.216708E0,3.7156573E-1,-2.7381092E-1,1.0317049E0,-6.14362E-1,-1.7595363E0,3.2249238E0,7.226754E0,3.8750887E0,3.1661594E-1,1.7855768E-1,-7.199852E-1,6.109585E0,1.314167E0,1.622101E1,7.967281E0,-2.5523794E-1,5.2143197E0,-9.18076E-2,-1.1422848E-1,-6.043875E-2,1.2326765E-2,3.3074877E-1,-6.543807E-2,-5.426813E-2,-9.926447E-2,-3.9815284E-2,-8.8402264E-2,-2.979594E-3,-6.163922E-2,-7.507432E-2,-1.0675931E-1,-1.3201554E-2,-8.7762006E-2,1.076562E-1,-5.1041257E-2,1.0329243E-1,4.8433044E-3,4.047503E-2,1.46824E-1,-6.0242804E-4,1.3147259E-1,-4.8141E-2,1.3866617E-2,9.557689E-2,3.302436E-2,-5.8978118E-2,-1.1084028E-2,-7.606428E-2,-1.11495964E-1,2.376401E-1,3.6048796E-2,4.833405E-1,2.7441525E-1,4.4059786E-3,2.2762707E-1,1.5698831E-1,-3.298068E-2,-1.0335906E-2,-9.6847996E-2,9.36721E-2,3.6454675E-1,-4.6758823E-2,1.2004699E-1,4.7195098E-1,1.2280569E0,1.5646386E-1,6.1791223E-1,6.495949E-2,-4.9495604E-2,4.659761E-1,4.1591894E-2],"categories":[],"categories_nodes":[],"categories_segments":[],"categories_sizes":[],"default_left":[1,1,0,1,0,0,0,0,0,0,0,0,0,0,0,0,0,0,0,0,0,0,0,0,0,0,0,0,0,0,0,0,0,0,0,0,0,0,0,0,0,0,0,0,0,0,0,0,0,0,0,0,0,0,0,0,0,0,0,0,0,0,0,0,0,0,0,0,0,0,0,0,0,0,0,0,0,0,0,0,0,0,0,0,0,0,0,0,0,0,0,0,0,0,0,0,0,0,0,0,0,0,0,0,0,0,0,0,0,0,0,0,0],"id":4,"left_children":[1,3,5,7,9,11,13,15,17,19,21,23,25,27,29,31,33,35,37,39,41,43,45,47,49,-1,51,53,55,-1,57,59,61,63,65,67,69,71,73,75,77,79,81,83,85,87,89,91,93,95,97,-1,99,101,103,105,107,109,111,-1,-1,-1,-1,-1,-1,-1,-1,-1,-1,-1,-1,-1,-1,-1,-1,-1,-1,-1,-1,-1,-1,-1,-1,-1,-1,-1,-1,-1,-1,-1,-1,-1,-1,-1,-1,-1,-1,-1,-1,-1,-1,-1,-1,-1,-1,-1,-1,-1,-1,-1,-1,-1,-1],"loss_changes":[5.4967896E3,1.4095055E3,1.0248403E3,8.8159546E1,4.34855E2,3.7410107E2,4.920625E2,5.0283325E1,3.21651E1,2.1304156E2,5.47631E1,1.6443433E2,1.2547988E2,5.557593E2,7.9059326E1,7.977295E0,1.3039893E2,3.714801E1,4.771881E0,7.8002144E1,3.1044098E2,2.5860312E1,5.022876E1,1.5032666E2,1.0206238E2,0E0,3.3836735E1,3.9871803E1,3.6172607E2,0E0,9.787036E1,3.7253418E0,2.8991208E0,6.0503555E1,2.5573334E1,1.4937027E1,7.5974625E1,6.1695557E0,4.107467E0,2.808482E1,6.4564865E1,1.8804224E2,1.5507384E2,1.8874414E1,5.922865E0,3.613727E1,2.3231964E0,6.543643E1,8.268677E1,1.1761151E2,3.2387497E1,0E0,1.4590787E1,1.3539658E0,1.9356976E1,7.297324E2,2.5873657E2,1.0422067E1,1.0019351E2,0E0,0E0,0E0,0E0,0E0,0E0,0E0,0E0,0E0,0E0,0E0,0E0,0E0,0E0,0E0,0E0,0E0,0E0,0E0,0E0,0E0,0E0,0E0,0E0,0E0,0E0,0E0,0E0,0E0,0E0,0E0,0E0,0E0,0E0,0E0,0E0,0E0,0E0,0E0,0E0,0E0,0E0,0E0,0E0,0E0,0E0,0E0,0E0,0E0,0E0,0E0,0E0,0E0,0E0],"parents":[2147483647,0,0,1,1,2,2,3,3,4,4,5,5,6,6,7,7,8,8,9,9,10,10,11,11,12,12,13,13,14,14,15,15,16,16,17,17,18,18,19,19,20,20,21,21,22,22,23,23,24,24,26,26,27,27,28,28,30,30,31,31,32,32,33,33,34,34,35,35,36,36,37,37,38,38,39,39,40,40,41,41,42,42,43,43,44,44,45,45,46,46,47,47,48,48,49,49,50,50,52,52,53,53,54,54,55,55,56,56,57,57,58,58],"right_children":[2,4,6,8,10,12,14,16,18,20,22,24,26,28,30,32,34,36,38,40,42,44,46,48,50,-1,52,54,56,-1,58,60,62,64,66,68,70,72,74,76,78,80,82,84,86,88,90,92,94,96,98,-1,100,102,104,106,108,110,112,-1,-1,-1,-1,-1,-1,-1,-1,-1,-1,-1,-1,-1,-1,-1,-1,-1,-1,-1,-1,-1,-1,-1,-1,-1,-1,-1,-1,-1,-1,-1,-1,-1,-1,-1,-1,-1,-1,-1,-1,-1,-1,-1,-1,-1,-1,-1,-1,-1,-1,-1,-1,-1,-1],"split_conditions":[8.63E0,2.52E0,1.639E1,1.52E0,2.3293379E2,2.4116145E2,2.257193E2,1.2E0,2.5714746E2,1.0815729E2,1.6071491E1,5.103E0,-3.8719997E0,1.9488333E0,1.1966953E1,3.223357E1,1.0594036E1,1.0064301E2,3.20405E1,3.99E0,9.382167E0,4.4E0,2.7940073E2,1.2536542E2,2.5153671E1,3.9137614E-1,8.913181E0,1.797E1,1.4000001E0,4.1860586E-1,2.5900616E1,3.53425E0,2.6999997E2,9.382167E0,2.2243004E2,-7.6158327E-1,8.494666E0,6E-1,2.7243765E2,-7.394916E0,1.0966713E1,1.6586388E2,6.03E0,1.1657168E1,1.1753877E1,3.73E0,3.1184067E2,1E-1,1.6895088E1,7.905746E1,4.7E0,1.7855768E-1,3.072537E2,-5.824167E-1,1E-1,1.7837817E2,1.97E1,4.905084E0,2.7438046E1,-9.18076E-2,-1.1422848E-1,-6.043875E-2,1.2326765E-2,3.3074877E-1,-6.543807E-2,-5.426813E-2,-9.926447E-2,-3.9815284E-2,-8.8402264E-2,-2.979594E-3,-6.163922E-2,-7.507432E-2,-1.0675931E-1,-1.3201554E-2,-8.7762006E-2,1.076562E-1,-5.1041257E-2,1.0329243E-1,4.8433044E-3,4.047503E-2,1.46824E-1,-6.0242804E-4,1.3147259E-1,-4.8141E-2,1.3866617E-2,9.557689E-2,3.302436E-2,-5.8978118E-2,-1.1084028E-2,-7.606428E-2,-1.11495964E-1,2.376401E-1,3.6048796E-2,4.833405E-1,2.7441525E-1,4.4059786E-3,2.2762707E-1,1.5698831E-1,-3.298068E-2,-1.0335906E-2,-9.6847996E-2,9.36721E-2,3.6454675E-1,-4.6758823E-2,1.2004699E-1,4.7195098E-1,1.2280569E0,1.5646386E-1,6.1791223E-1,6.495949E-2,-4.9495604E-2,4.659761E-1,4.1591894E-2],"split_indices":[0,0,0,0,4,4,4,2,4,4,3,1,1,1,3,3,3,4,3,0,1,0,4,4,3,0,3,0,2,0,3,1,4,1,4,1,1,2,4,1,3,4,0,1,3,0,4,2,3,4,2,0,4,1,2,4,0,1,3,0,0,0,0,0,0,0,0,0,0,0,0,0,0,0,0,0,0,0,0,0,0,0,0,0,0,0,0,0,0,0,0,0,0,0,0,0,0,0,0,0,0,0,0,0,0,0,0,0,0,0,0,0,0],"split_type":[0,0,0,0,0,0,0,0,0,0,0,0,0,0,0,0,0,0,0,0,0,0,0,0,0,0,0,0,0,0,0,0,0,0,0,0,0,0,0,0,0,0,0,0,0,0,0,0,0,0,0,0,0,0,0,0,0,0,0,0,0,0,0,0,0,0,0,0,0,0,0,0,0,0,0,0,0,0,0,0,0,0,0,0,0,0,0,0,0,0,0,0,0,0,0,0,0,0,0,0,0,0,0,0,0,0,0,0,0,0,0,0,0],"sum_hessian":[1.806E3,1.627E3,1.79E2,8.14E2,8.13E2,1.28E2,5.1E1,3.67E2,4.47E2,5.31E2,2.82E2,1.03E2,2.5E1,3.7E1,1.4E1,2.28E2,1.39E2,3.42E2,1.05E2,1.66E2,3.65E2,6.9E1,2.13E2,4.8E1,5.5E1,1E0,2.4E1,8E0,2.9E1,2E0,1.2E1,2.24E2,4E0,3E0,1.36E2,1E2,2.42E2,9.7E1,8E0,6.5E1,1.01E2,1.87E2,1.78E2,4.8E1,2.1E1,1.63E2,5E1,1.7E1,3.1E1,4.5E1,1E1,1E0,2.3E1,2E0,6E0,1.6E1,1.3E1,7E0,5E0,5.5E1,1.69E2,2E0,2E0,2E0,1E0,7.1E1,6.5E1,2.3E1,7.7E1,8.5E1,1.57E2,6.2E1,3.5E1,6E0,2E0,2E0,6.3E1,2E1,8.1E1,6.4E1,1.23E2,1.53E2,2.5E1,2.1E1,2.7E1,5E0,1.6E1,6.6E1,9.7E1,3.6E1,1.4E1,1E1,7E0,1.1E1,2E1,7E0,3.8E1,2E0,8E0,1.7E1,6E0,1E0,1E0,2E0,4E0,1E1,6E0,7E0,6E0,2E0,5E0,2E0,3E0],"tree_param":{"num_deleted":"0","num_feature":"7","num_nodes":"113","size_leaf_vector":"1"}},{"base_weights":[1.2877596E-2,-5.41147E-1,5.0236506E0,-1.3370818E0,4.4467488E-1,3.5238883E0,8.647607E0,-1.7714033E0,-1.0352701E0,8.517769E-1,-7.2919136E-1,4.316125E0,2.1940663E-1,1.0449779E1,3.505599E0,-2.05082E0,-1.3017046E0,-8.643947E-1,-1.570512E0,-8.4519935E-1,1.0455606E0,1.500293E-1,-1.0575876E0,5.6300197E0,3.0893936E0,3.8159177E-1,-3.823639E-1,2.9647815E0,1.23469515E1,4.0465233E-1,2.177296E0,-2.0748768E0,-5.5809903E-1,4.157836E0,-1.4516058E0,-1.4004631E0,-6.6361654E-1,-1.6245338E0,8.3329394E-2,5.9516805E-1,-1.3866793E0,1.5626752E0,4.0267342E-1,-3.3770806E-1,1.0900725E0,-7.6918465E-1,-1.6701618E0,3.0788827E0,6.8890963E0,3.6863782E0,3.1205878E-1,1.7409372E-1,-6.8845195E-1,5.956845E0,1.2589283E0,1.46764555E1,6.2202973E0,-2.4054301E-1,5.0381985E0,-1.1814302E-1,-9.7286135E-2,-5.8424126E-2,1.1915875E-2,3.197238E-1,-6.380212E-2,-6.1566513E-2,-1.17232695E-1,-8.2889006E-2,-4.1274216E-2,-3.948627E-4,-5.5591602E-2,-4.3218434E-2,-8.382543E-2,4.130033E-2,-3.4356214E-2,-6.298768E-2,6.592274E-2,-8.468678E-2,-5.3365524E-3,3.1230984E-2,1.230968E-1,6.471834E-2,-1.1127988E-2,-1.5327957E-3,-6.106707E-2,3.3181652E-2,9.161731E-2,-4.9562503E-2,-3.5469611E-3,-6.566018E-2,-9.907923E-2,2.268383E-1,3.4471657E-2,1.4559492E-1,3.8474575E-1,7.705545E-2,2.4454041E-1,1.5175536E-1,-3.151486E-2,-5.1870234E-2,4.2252477E-2,9.133029E-2,3.5543308E-1,-4.5200195E-2,1.15245104E-1,3.6418036E-1,9.3328124E-1,5.0716186E-1,9.572323E-2,6.279417E-2,-4.7433283E-2,4.5044357E-1,4.003219E-2],"categories":[],"categories_nodes":[],"categories_segments":[],"categories_sizes":[],"default_left":[1,1,0,1,0,0,0,0,0,0,0,0,0,0,0,0,0,0,0,0,0,0,0,0,0,0,0,0,0,0,0,0,0,0,0,0,0,0,0,0,0,0,0,0,0,0,0,0,0,0,0,0,0,0,0,0,0,0,0,0,0,0,0,0,0,0,0,0,0,0,0,0,0,0,0,0,0,0,0,0,0,0,0,0,0,0,0,0,0,0,0,0,0,0,0,0,0,0,0,0,0,0,0,0,0,0,0,0,0,0,0,0,0],"id":5,"left_children":[1,3,5,7,9,11,13,15,17,19,21,23,25,27,29,31,33,35,37,39,41,43,45,47,49,-1,51,53,55,-1,57,59,61,63,65,67,69,71,73,75,77,79,81,83,85,87,89,91,93,95,97,-1,99,101,103,105,107,109,111,-1,-1,-1,-1,-1,-1,-1,-1,-1,-1,-1,-1,-1,-1,-1,-1,-1,-1,-1,-1,-1,-1,-1,-1,-1,-1,-1,-1,-1,-1,-1,-1,-1,-1,-1,-1,-1,-1,-1,-1,-1,-1,-1,-1,-1,-1,-1,-1,-1,-1,-1,-1,-1,-1],"loss_changes":[5.019116E3,1.2780046E3,9.4783984E2,1.1627222E2,3.4852014E2,3.3676624E2,4.4524E2,4.562744E1,4.7481873E1,1.7878958E2,5.4440422E1,1.5023315E2,1.1889324E2,5.0300635E2,7.3781845E1,7.0654297E0,1.2061034E2,4.2876373E1,1.157135E1,4.45014E1,1.609397E2,2.4209826E1,2.2918884E1,1.3618115E2,9.16991E1,0E0,3.1967031E1,3.843695E1,3.3687012E2,0E0,9.113551E1,3.7712402E0,2.7090678E0,5.6774155E1,2.406314E1,1.49062195E1,8.757448E1,3.4500427E0,3.4285607E0,2.312717E1,1.5932877E1,2.253789E2,1.2182662E2,9.458812E0,4.481619E0,1.4660007E1,2.1778717E0,5.9575897E1,8.01499E1,1.1131879E2,3.013991E1,0E0,1.3719527E1,1.287117E0,1.792023E1,4.8336475E2,1.4949634E2,9.668641E0,9.374278E1,0E0,0E0,0E0,0E0,0E0,0E0,0E0,0E0,0E0,0E0,0E0,0E0,0E0,0E0,0E0,0E0,0E0,0E0,0E0,0E0,0E0,0E0,0E0,0E0,0E0,0E0,0E0,0E0,0E0,0E0,0E0,0E0,0E0,0E0,0E0,0E0,0E0,0E0,0E0,0E0,0E0,0E0,0E0,0E0,0E0,0E0,0E0,0E0,0E0,0E0,0E0,0E0,0E0,0E0],"parents":[2147483647,0,0,1,1,2,2,3,3,4,4,5,5,6,6,7,7,8,8,9,9,10,10,11,11,12,12,13,13,14,14,15,15,16,16,17,17,18,18,19,19,20,20,21,21,22,22,23,23,24,24,26,26,27,27,28,28,30,30,31,31,32,32,33,33,34,34,35,35,36,36,37,37,38,38,39,39,40,40,41,41,42,42,43,43,44,44,45,45,46,46,47,47,48,48,49,49,50,50,52,52,53,53,54,54,55,55,56,56,57,57,58,58],"right_children":[2,4,6,8,10,12,14,16,18,20,22,24,26,28,30,32,34,36,38,40,42,44,46,48,50,-1,52,54,56,-1,58,60,62,64,66,68,70,72,74,76,78,80,82,84,86,88,90,92,94,96,98,-1,100,102,104,106,108,110,112,-1,-1,-1,-1,-1,-1,-1,-1,-1,-1,-1,-1,-1,-1,-1,-1,-1,-1,-1,-1,-1,-1,-1,-1,-1,-1,-1,-1,-1,-1,-1,-1,-1,-1,-1,-1,-1,-1,-1,-1,-1,-1,-1,-1,-1,-1,-1,-1,-1,-1,-1,-1,-1,-1],"split_conditions":[8.63E0,2.8E0,1.639E1,1.52E0,2.4719026E2,2.4116145E2,2.257193E2,1.2E0,2.5714746E2,4.56333E1,1.6071491E1,5.103E0,-3.8719997E0,1.9488333E0,1.1966953E1,3.223357E1,1.0594036E1,1.0064301E2,3.51862E1,1.2682018E1,9.382167E0,4.4E0,2.7940073E2,1.2536542E2,2.5153671E1,3.8159177E-1,8.913181E0,1.797E1,2.6000001E0,4.0465233E-1,2.5900616E1,9.3E-1,2.6999997E2,9.382167E0,2.6559424E2,8.000001E-1,9.590499E0,1.191812E1,1.2000002E0,1.6990892E1,1.4536335E1,1.6586388E2,1.0000001E0,3.3206152E2,1.38049555E1,3.261727E1,3E-1,1E-1,9.23E0,1.6042937E2,4.7E0,1.7409372E-1,2.9947151E1,-5.824167E-1,1E-1,1.7106628E1,4.167583E0,4.905084E0,2.7438046E1,-1.1814302E-1,-9.7286135E-2,-5.8424126E-2,1.1915875E-2,3.197238E-1,-6.380212E-2,-6.1566513E-2,-1.17232695E-1,-8.2889006E-2,-4.1274216E-2,-3.948627E-4,-5.5591602E-2,-4.3218434E-2,-8.382543E-2,4.130033E-2,-3.4356214E-2,-6.298768E-2,6.592274E-2,-8.468678E-2,-5.3365524E-3,3.1230984E-2,1.230968E-1,6.471834E-2,-1.1127988E-2,-1.5327957E-3,-6.106707E-2,3.3181652E-2,9.161731E-2,-4.9562503E-2,-3.5469611E-3,-6.566018E-2,-9.907923E-2,2.268383E-1,3.4471657E-2,1.4559492E-1,3.8474575E-1,7.705545E-2,2.4454041E-1,1.5175536E-1,-3.151486E-2,-5.1870234E-2,4.2252477E-2,9.133029E-2,3.5543308E-1,-4.5200195E-2,1.15245104E-1,3.6418036E-1,9.3328124E-1,5.0716186E-1,9.572323E-2,6.279417E-2,-4.7433283E-2,4.5044357E-1,4.003219E-2],"split_indices":[0,0,0,0,4,4,4,2,4,4,3,1,1,1,3,3,3,4,3,3,1,0,4,4,3,0,3,0,2,0,3,0,4,1,4,2,1,3,2,4,1,4,2,4,3,3,2,2,0,4,2,0,3,1,2,3,1,1,3,0,0,0,0,0,0,0,0,0,0,0,0,0,0,0,0,0,0,0,0,0,0,0,0,0,0,0,0,0,0,0,0,0,0,0,0,0,0,0,0,0,0,0,0,0,0,0,0,0,0,0,0,0,0],"split_type":[0,0,0,0,0,0,0,0,0,0,0,0,0,0,0,0,0,0,0,0,0,0,0,0,0,0,0,0,0,0,0,0,0,0,0,0,0,0,0,0,0,0,0,0,0,0,0,0,0,0,0,0,0,0,0,0,0,0,0,0,0,0,0,0,0,0,0,0,0,0,0,0,0,0,0,0,0,0,0,0,0,0,0,0,0,0,0,0,0,0,0,0,0,0,0,0,0,0,0,0,0,0,0,0,0,0,0,0,0,0,0,0,0],"sum_hessian":[1.806E3,1.627E3,1.79E2,9E2,7.27E2,1.28E2,5.1E1,3.67E2,5.33E2,5.4E2,1.87E2,1.03E2,2.5E1,3.7E1,1.4E1,2.28E2,1.39E2,4.06E2,1.27E2,5.5E1,4.85E2,5.1E1,1.36E2,4.8E1,5.5E1,1E0,2.4E1,8E0,2.9E1,2E0,1.2E1,2.24E2,4E0,3E0,1.36E2,1.09E2,2.97E2,1.23E2,4E0,1.5E1,4E1,2.68E2,2.17E2,3.4E1,1.7E1,9.4E1,4.2E1,1.7E1,3.1E1,4.5E1,1E1,1E0,2.3E1,2E0,6E0,2E1,9E0,7E0,5E0,6.4E1,1.6E2,2E0,2E0,2E0,1E0,1.11E2,2.5E1,7.4E1,3.5E1,1.21E2,1.76E2,9E0,1.14E2,2E0,2E0,4E0,1.1E1,3.2E1,8E0,1.32E2,1.36E2,8.9E1,1.28E2,2.6E1,8E0,1.2E1,5E0,7.1E1,2.3E1,2.2E1,2E1,1E1,7E0,6E0,2.5E1,1.7E1,2.8E1,2E0,8E0,1.9E1,4E0,1E0,1E0,2E0,4E0,8E0,1.2E1,4E0,5E0,2E0,5E0,2E0,3E0],"tree_param":{"num_deleted":"0","num_feature":"7","num_nodes":"113","size_leaf_vector":"1"}},{"base_weights":[1.4772366E-2,-5.14409E-1,4.800842E0,-1.3558849E0,3.287326E-1,3.3614888E0,8.27922E0,-1.6833353E0,-1.0838811E0,8.1790924E-1,-5.9201187E-1,4.1121793E0,2.2943899E-1,9.385013E0,1.024229E0,-1.9494228E0,-1.2360685E0,-9.445867E-1,-1.5243919E0,2.322249E-2,1.2450436E0,1.1489165E-1,-8.2047564E-1,1.195828E0,4.590263E0,3.7205195E-1,-3.566666E-1,2.8739655E0,1.0715133E1,-2.5219253E-1,1.1818494E-1,-1.9720904E0,-5.394956E-1,4.0139246E0,-1.3803306E0,-1.4092962E0,-7.4754864E-1,-1.681104E0,-1.1584587E0,-7.8869265E-1,5.269696E-1,2.2836034E0,4.5721316E-1,-2.5578943E-1,9.3527716E-1,-5.7464266E-1,-1.5949094E0,3.6624246E0,6.842711E-2,5.181004E0,1.055506E0,1.6974138E-1,-6.5443E-1,5.807924E0,1.2059882E0,1.4536335E1,6.329975E0,3.882594E-2,-7.0350003E-1,-1.9049399E-2,-9.92326E-2,-5.647665E-2,1.1518685E-2,3.0906639E-1,-6.220707E-2,-7.223052E-2,5.5906314E-2,-3.0790556E-2,-8.049442E-2,-2.8128277E-3,-5.5954512E-2,-3.4967493E-2,-8.798791E-2,2.1152232E-2,-6.599724E-2,-1.9487584E-2,-9.819314E-2,-5.8090067E-3,6.337761E-2,8.9851595E-2,2.5053823E-1,-1.3121131E-2,7.957388E-2,-4.573607E-2,1.3553907E-2,8.994915E-2,2.8771177E-2,-3.58081E-2,3.895857E-2,-6.83488E-2,-1.0254089E-1,1.1635312E-2,2.9356673E-1,-3.274361E-2,2.0061798E-1,1.6726658E-1,3.185619E-1,2.3736985E-1,-1.9147744E-2,-8.444198E-3,-9.047435E-2,8.904703E-2,3.4654728E-1,-4.3693524E-2,1.1063528E-1,2.0199676E-1,8.9982414E-1,1.16944864E-1,4.509975E-1,-5.8149137E-2,1.6873693E-2],"categories":[],"categories_nodes":[],"categories_segments":[],"categories_sizes":[],"default_left":[1,1,0,1,0,0,0,0,0,0,0,0,0,0,0,0,0,0,0,0,0,0,0,0,0,0,0,0,0,0,0,0,0,0,0,0,0,0,0,0,0,0,0,0,0,0,0,0,0,0,0,0,0,0,0,0,0,0,0,0,0,0,0,0,0,0,0,0,0,0,0,0,0,0,0,0,0,0,0,0,0,0,0,0,0,0,0,0,0,0,0,0,0,0,0,0,0,0,0,0,0,0,0,0,0,0,0,0,0,0,0],"id":6,"left_children":[1,3,5,7,9,11,13,15,17,19,21,23,25,27,29,31,33,35,37,39,41,43,45,47,49,-1,51,53,55,57,-1,59,61,63,65,67,69,71,73,75,77,79,81,83,85,87,89,91,93,95,97,-1,99,101,103,105,107,-1,109,-1,-1,-1,-1,-1,-1,-1,-1,-1,-1,-1,-1,-1,-1,-1,-1,-1,-1,-1,-1,-1,-1,-1,-1,-1,-1,-1,-1,-1,-1,-1,-1,-1,-1,-1,-1,-1,-1,-1,-1,-1,-1,-1,-1,-1,-1,-1,-1,-1,-1,-1,-1],"loss_changes":[4.5790557E3,1.1554844E3,8.7335986E2,7.076575E1,3.6711526E2,3.0236133E2,4.0755884E2,4.138684E1,2.6049683E1,1.805521E2,4.579928E1,1.3951392E2,1.12549706E2,3.5892578E2,1.427393E1,6.2547607E0,1.1157306E2,3.0353424E1,4.1312103E0,7.6898605E1,2.8205627E2,2.1526333E1,3.9825104E1,4.424288E1,1.8037488E2,0E0,3.0148119E1,3.7039703E1,5.279785E2,2.8676069E0,0E0,3.7409668E0,2.5314732E0,5.3275818E1,2.3617493E1,1.5084442E1,6.2350067E1,4.3290863E0,9.49707E0,3.2989872E1,5.5398712E1,1.887124E2,1.6203658E2,1.7259283E1,5.8025913E0,3.1978916E1,2.4963531E0,3.6513397E1,3.6859306E1,1.4473682E2,7.616701E1,0E0,1.31544075E1,1.2235641E0,1.659043E1,6.1735815E2,1.8288531E2,0E0,2.305714E0,0E0,0E0,0E0,0E0,0E0,0E0,0E0,0E0,0E0,0E0,0E0,0E0,0E0,0E0,0E0,0E0,0E0,0E0,0E0,0E0,0E0,0E0,0E0,0E0,0E0,0E0,0E0,0E0,0E0,0E0,0E0,0E0,0E0,0E0,0E0,0E0,0E0,0E0,0E0,0E0,0E0,0E0,0E0,0E0,0E0,0E0,0E0,0E0,0E0,0E0,0E0,0E0],"parents":[2147483647,0,0,1,1,2,2,3,3,4,4,5,5,6,6,7,7,8,8,9,9,10,10,11,11,12,12,13,13,14,14,15,15,16,16,17,17,18,18,19,19,20,20,21,21,22,22,23,23,24,24,26,26,27,27,28,28,29,29,31,31,32,32,33,33,34,34,35,35,36,36,37,37,38,38,39,39,40,40,41,41,42,42,43,43,44,44,45,45,46,46,47,47,48,48,49,49,50,50,52,52,53,53,54,54,55,55,56,56,58,58],"right_children":[2,4,6,8,10,12,14,16,18,20,22,24,26,28,30,32,34,36,38,40,42,44,46,48,50,-1,52,54,56,58,-1,60,62,64,66,68,70,72,74,76,78,80,82,84,86,88,90,92,94,96,98,-1,100,102,104,106,108,-1,110,-1,-1,-1,-1,-1,-1,-1,-1,-1,-1,-1,-1,-1,-1,-1,-1,-1,-1,-1,-1,-1,-1,-1,-1,-1,-1,-1,-1,-1,-1,-1,-1,-1,-1,-1,-1,-1,-1,-1,-1,-1,-1,-1,-1,-1,-1,-1,-1,-1,-1,-1,-1],"split_conditions":[8.63E0,2.52E0,1.639E1,1.52E0,2.3293379E2,2.4116145E2,2.3939618E2,1.2E0,2.5714746E2,1.19553085E2,1.6071491E1,7.905746E1,-3.8719997E0,1.9488333E0,1.864369E1,3.223357E1,1.0594036E1,1.0064301E2,2.16E0,3.99E0,6.794667E0,4.4E0,2.7940073E2,6.28E-1,2.6111792E1,3.7205195E-1,8.913181E0,1.797E1,1.4000001E0,-2.8615835E0,1.1818494E-1,-8.96575E0,2.6999997E2,9.382167E0,1.8586336E1,1.257426E1,8.494666E0,1.191812E1,2.2E0,1.9361507E1,6.725157E1,5.7925835E0,4.23E0,1.1657168E1,1.1753877E1,7.17E0,3.1184067E2,-7.825001E-2,9E-1,1.033E1,1.895167E2,1.6974138E-1,3.072537E2,-5.824167E-1,1E-1,1.1244888E2,1.97E1,3.882594E-2,3.01E1,-1.9049399E-2,-9.92326E-2,-5.647665E-2,1.1518685E-2,3.0906639E-1,-6.220707E-2,-7.223052E-2,5.5906314E-2,-3.0790556E-2,-8.049442E-2,-2.8128277E-3,-5.5954512E-2,-3.4967493E-2,-8.798791E-2,2.1152232E-2,-6.599724E-2,-1.9487584E-2,-9.819314E-2,-5.8090067E-3,6.337761E-2,8.9851595E-2,2.5053823E-1,-1.3121131E-2,7.957388E-2,-4.573607E-2,1.3553907E-2,8.994915E-2,2.8771177E-2,-3.58081E-2,3.895857E-2,-6.83488E-2,-1.0254089E-1,1.1635312E-2,2.9356673E-1,-3.274361E-2,2.0061798E-1,1.6726658E-1,3.185619E-1,2.3736985E-1,-1.9147744E-2,-8.444198E-3,-9.047435E-2,8.904703E-2,3.4654728E-1,-4.3693524E-2,1.1063528E-1,2.0199676E-1,8.9982414E-1,1.16944864E-1,4.509975E-1,-5.8149137E-2,1.6873693E-2],"split_indices":[0,0,0,0,4,4,4,2,4,4,3,4,1,1,3,3,3,4,0,0,1,0,4,1,3,0,3,0,2,1,0,1,4,1,1,3,1,3,0,3,4,1,0,1,3,0,4,1,2,0,4,0,4,1,2,4,0,0,0,0,0,0,0,0,0,0,0,0,0,0,0,0,0,0,0,0,0,0,0,0,0,0,0,0,0,0,0,0,0,0,0,0,0,0,0,0,0,0,0,0,0,0,0,0,0,0,0,0,0,0,0],"split_type":[0,0,0,0,0,0,0,0,0,0,0,0,0,0,0,0,0,0,0,0,0,0,0,0,0,0,0,0,0,0,0,0,0,0,0,0,0,0,0,0,0,0,0,0,0,0,0,0,0,0,0,0,0,0,0,0,0,0,0,0,0,0,0,0,0,0,0,0,0,0,0,0,0,0,0,0,0,0,0,0,0,0,0,0,0,0,0,0,0,0,0,0,0,0,0,0,0,0,0,0,0,0,0,0,0,0,0,0,0,0,0],"sum_hessian":[1.806E3,1.627E3,1.79E2,8.14E2,8.13E2,1.28E2,5.1E1,3.67E2,4.47E2,5.31E2,2.82E2,1.03E2,2.5E1,4.4E1,7E0,2.28E2,1.39E2,3.42E2,1.05E2,1.86E2,3.45E2,6.9E1,2.13E2,1.5E1,8.8E1,1E0,2.4E1,8E0,3.6E1,4E0,3E0,2.24E2,4E0,3E0,1.36E2,1E2,2.42E2,7.1E1,3.4E1,7.1E1,1.15E2,1.48E2,1.97E2,4.8E1,2.1E1,1.63E2,5E1,4E0,1.1E1,7.5E1,1.3E1,1E0,2.3E1,2E0,6E0,1.8E1,1.8E1,1E0,3E0,2E0,2.22E2,2E0,2E0,2E0,1E0,1.33E2,3E0,2.1E1,7.9E1,8.5E1,1.57E2,6E0,6.5E1,3E0,3.1E1,5.4E1,1.7E1,6.2E1,5.3E1,1.27E2,2.1E1,1.21E2,7.6E1,2.1E1,2.7E1,5E0,1.6E1,1.48E2,1.5E1,3.6E1,1.4E1,2E0,2E0,1E1,1E0,3.1E1,4.4E1,3E0,1E1,1.7E1,6E0,1E0,1E0,2E0,4E0,5E0,1.3E1,8E0,1E1,2E0,1E0],"tree_param":{"num_deleted":"0","num_feature":"7","num_nodes":"111","size_leaf_vector":"1"}},{"base_weights":[1.6193697E-2,-4.886916E-1,4.582511E0,-1.2095773E0,4.041747E-1,3.2059727E0,7.9092593E0,-1.5989857E0,-9.3895584E-1,8.562196E-1,-4.7958976E-1,3.9178889E0,2.3500074E-1,9.590283E0,3.123382E0,-1.8526644E0,-1.1726183E0,-7.8460795E-1,-1.4223982E0,-2.7794456E-1,1.1728381E0,9.178841E-2,-7.693225E-1,5.154225E0,2.7661324E0,3.6275065E-1,-3.3600026E-1,2.7861044E0,1.131186E1,3.9286122E0,-7.035375E-2,-1.8740115E0,-5.215123E-1,3.8749437E0,-1.3114331E0,-1.2655708E0,-6.044384E-1,-1.4724692E0,1.0384397E-1,4.8347002E-1,-7.1055084E-1,5.7501894E-1,1.9800365E0,1.0244763E0,-4.1861933E-1,-9.251905E-1,7.3028064E-1,2.778756E0,6.329357E0,3.308292E0,2.4745327E-1,1.6549785E-1,-6.2583005E-1,5.6627254E0,1.1552519E0,8.951514E0,1.7788498E1,2.3785596E0,5.6323105E-1,-1.0744145E-1,-8.7571025E-2,-5.45941E-2,1.1134735E-2,2.9876417E-1,-6.0651887E-2,-4.5173433E-2,-8.683075E-2,-7.553668E-2,-3.5983015E-2,-8.4695686E-4,-5.029833E-2,-3.973369E-2,-7.59302E-2,4.016792E-2,-3.1514253E-2,-4.875049E-2,4.1649077E-2,-5.234743E-2,3.9660245E-2,6.846973E-2,-9.451385E-3,1.246743E-1,1.329878E-2,1.0327267E-1,3.0892745E-2,-4.266472E-2,2.2494296E-2,1.0480001E-1,-5.0081294E-2,-3.820333E-2,5.669522E-2,2.0755112E-1,2.7227247E-2,4.3383303E-1,2.3433213E-1,6.707782E-2,2.2074726E-1,1.22543745E-1,-4.4259455E-2,-4.777484E-2,4.0900152E-2,8.6820856E-2,3.3788356E-1,-4.223707E-2,1.06209874E-1,6.2745154E-1,2.1541226E-1,1.112406E0,2.2131474E-1,3.6116976E-1,3.4362655E-2],"categories":[],"categories_nodes":[],"categories_segments":[],"categories_sizes":[],"default_left":[1,1,0,1,0,0,0,0,0,0,0,0,0,0,0,0,0,0,0,0,0,0,0,0,0,0,0,0,0,0,0,0,0,0,0,0,0,0,0,0,0,0,0,0,0,0,0,0,0,0,0,0,0,0,0,0,0,0,0,0,0,0,0,0,0,0,0,0,0,0,0,0,0,0,0,0,0,0,0,0,0,0,0,0,0,0,0,0,0,0,0,0,0,0,0,0,0,0,0,0,0,0,0,0,0,0,0,0,0,0,0],"id":7,"left_children":[1,3,5,7,9,11,13,15,17,19,21,23,25,27,29,31,33,35,37,39,41,43,45,47,49,-1,51,53,55,57,-1,59,61,63,65,67,69,71,73,75,77,79,81,83,85,87,89,91,93,95,97,-1,99,101,103,105,107,109,-1,-1,-1,-1,-1,-1,-1,-1,-1,-1,-1,-1,-1,-1,-1,-1,-1,-1,-1,-1,-1,-1,-1,-1,-1,-1,-1,-1,-1,-1,-1,-1,-1,-1,-1,-1,-1,-1,-1,-1,-1,-1,-1,-1,-1,-1,-1,-1,-1,-1,-1,-1,-1],"loss_changes":[4.168218E3,1.0483584E3,7.989346E2,9.3448E1,2.912475E2,2.7192505E2,3.8839478E2,3.7630493E1,3.8730133E1,1.7341095E2,4.0960724E1,1.3383447E2,1.0665697E2,4.1361304E2,6.024875E1,5.5300293E0,1.0317642E2,3.450357E1,9.934753E0,3.525916E1,1.8078607E2,4.041716E1,3.9009033E1,1.1919519E2,7.565079E1,0E0,2.8489141E1,3.568022E1,2.993794E2,1.21032E2,0E0,3.8167114E0,2.365522E0,4.99942E1,2.2194916E1,1.3634842E1,7.0280396E1,2.6706848E0,3.0740142E0,2.0692629E1,3.5228928E1,1.3257181E2,1.4015009E2,1.1422354E1,2.1147354E1,3.6507385E1,1.0516842E1,5.2926376E1,8.272595E1,9.419583E1,2.962206E1,0E0,1.2205209E1,1.1631546E0,1.53595915E1,3.468374E2,3.18656E2,9.336492E1,0E0,0E0,0E0,0E0,0E0,0E0,0E0,0E0,0E0,0E0,0E0,0E0,0E0,0E0,0E0,0E0,0E0,0E0,0E0,0E0,0E0,0E0,0E0,0E0,0E0,0E0,0E0,0E0,0E0,0E0,0E0,0E0,0E0,0E0,0E0,0E0,0E0,0E0,0E0,0E0,0E0,0E0,0E0,0E0,0E0,0E0,0E0,0E0,0E0,0E0,0E0,0E0,0E0],"parents":[2147483647,0,0,1,1,2,2,3,3,4,4,5,5,6,6,7,7,8,8,9,9,10,10,11,11,12,12,13,13,14,14,15,15,16,16,17,17,18,18,19,19,20,20,21,21,22,22,23,23,24,24,26,26,27,27,28,28,29,29,31,31,32,32,33,33,34,34,35,35,36,36,37,37,38,38,39,39,40,40,41,41,42,42,43,43,44,44,45,45,46,46,47,47,48,48,49,49,50,50,52,52,53,53,54,54,55,55,56,56,57,57],"right_children":[2,4,6,8,10,12,14,16,18,20,22,24,26,28,30,32,34,36,38,40,42,44,46,48,50,-1,52,54,56,58,-1,60,62,64,66,68,70,72,74,76,78,80,82,84,86,88,90,92,94,96,98,-1,100,102,104,106,108,110,-1,-1,-1,-1,-1,-1,-1,-1,-1,-1,-1,-1,-1,-1,-1,-1,-1,-1,-1,-1,-1,-1,-1,-1,-1,-1,-1,-1,-1,-1,-1,-1,-1,-1,-1,-1,-1,-1,-1,-1,-1,-1,-1,-1,-1,-1,-1,-1,-1,-1,-1,-1,-1],"split_conditions":[8.63E0,2.8E0,1.639E1,1.52E0,2.3293379E2,2.4116145E2,2.257193E2,1.2E0,2.5714746E2,7.5476295E1,1E-1,5.103E0,-3.8719997E0,1.9488333E0,1.083425E1,3.223357E1,1.0594036E1,1.0064301E2,3.51862E1,1.3679999E1,4.5E0,2.650303E2,7.17E0,1.2536542E2,2.5153671E1,3.6275065E-1,8.913181E0,1.797E1,2.37E1,1.0075917E1,-7.035375E-2,9.3E-1,2.6999997E2,9.382167E0,2.2243004E2,8.000001E-1,9.590499E0,1.191812E1,1.2000002E0,3.5E0,1.5244667E1,9.17175E0,5.6999993E0,2.3986887E2,1.3428002E1,1.1720751E1,5.313417E0,1E-1,1.6895088E1,1.6042937E2,5.7925835E0,1.6549785E-1,2.9947151E1,-5.824167E-1,1E-1,8.000001E-1,2.6000001E0,1.1966953E1,5.6323105E-1,-1.0744145E-1,-8.7571025E-2,-5.45941E-2,1.1134735E-2,2.9876417E-1,-6.0651887E-2,-4.5173433E-2,-8.683075E-2,-7.553668E-2,-3.5983015E-2,-8.4695686E-4,-5.029833E-2,-3.973369E-2,-7.59302E-2,4.016792E-2,-3.1514253E-2,-4.875049E-2,4.1649077E-2,-5.234743E-2,3.9660245E-2,6.846973E-2,-9.451385E-3,1.246743E-1,1.329878E-2,1.0327267E-1,3.0892745E-2,-4.266472E-2,2.2494296E-2,1.0480001E-1,-5.0081294E-2,-3.820333E-2,5.669522E-2,2.0755112E-1,2.7227247E-2,4.3383303E-1,2.3433213E-1,6.707782E-2,2.2074726E-1,1.22543745E-1,-4.4259455E-2,-4.777484E-2,4.0900152E-2,8.6820856E-2,3.3788356E-1,-4.223707E-2,1.06209874E-1,6.2745154E-1,2.1541226E-1,1.112406E0,2.2131474E-1,3.6116976E-1,3.4362655E-2],"split_indices":[0,0,0,0,4,4,4,2,4,4,2,1,1,1,1,3,3,4,3,3,0,4,0,4,3,0,3,0,0,1,0,0,4,1,4,2,1,3,2,0,1,1,2,4,1,3,1,2,3,4,1,0,3,1,2,2,2,3,0,0,0,0,0,0,0,0,0,0,0,0,0,0,0,0,0,0,0,0,0,0,0,0,0,0,0,0,0,0,0,0,0,0,0,0,0,0,0,0,0,0,0,0,0,0,0,0,0,0,0,0,0],"split_type":[0,0,0,0,0,0,0,0,0,0,0,0,0,0,0,0,0,0,0,0,0,0,0,0,0,0,0,0,0,0,0,0,0,0,0,0,0,0,0,0,0,0,0,0,0,0,0,0,0,0,0,0,0,0,0,0,0,0,0,0,0,0,0,0,0,0,0,0,0,0,0,0,0,0,0,0,0,0,0,0,0,0,0,0,0,0,0,0,0,0,0,0,0,0,0,0,0,0,0,0,0,0,0,0,0,0,0,0,0,0,0],"sum_hessian":[1.806E3,1.627E3,1.79E2,9E2,7.27E2,1.28E2,5.1E1,3.67E2,5.33E2,4.81E2,2.46E2,1.03E2,2.5E1,3.7E1,1.4E1,2.28E2,1.39E2,4.06E2,1.27E2,1.05E2,3.76E2,8.3E1,1.63E2,4.8E1,5.5E1,1E0,2.4E1,8E0,2.9E1,1.2E1,2E0,2.24E2,4E0,3E0,1.36E2,1.09E2,2.97E2,1.23E2,4E0,3.8E1,6.7E1,2.17E2,1.59E2,2.9E1,5.4E1,1.48E2,1.5E1,1.7E1,3.1E1,4.5E1,1E1,1E0,2.3E1,2E0,6E0,2.3E1,6E0,1.1E1,1E0,6.4E1,1.6E2,2E0,2E0,2E0,1E0,7.1E1,6.5E1,7.4E1,3.5E1,1.21E2,1.76E2,9E0,1.14E2,2E0,2E0,7E0,3.1E1,5.5E1,1.2E1,1.06E2,1.11E2,1.22E2,3.7E1,7E0,2.2E1,3.6E1,1.8E1,3E0,1.45E2,3E0,1.2E1,1E1,7E0,1.1E1,2E1,1.7E1,2.8E1,3E0,7E0,1.9E1,4E0,1E0,1E0,2E0,4E0,1.2E1,1.1E1,4E0,2E0,2E0,9E0],"tree_param":{"num_deleted":"0","num_feature":"7","num_nodes":"111","size_leaf_vector":"1"}},{"base_weights":[1.8320624E-2,-3.8489747E-1,5.266265E0,-1.1057959E0,5.560618E-1,6.5621533E0,1.9902653E0,-1.5065672E0,-8.3408904E-1,9.630865E-1,-6.036718E-1,5.4060016E0,1.3172154E1,6.0923157E0,1.0307459E0,-1.7505289E0,-1.1029924E0,-6.728116E-1,-1.2760834E0,6.611829E-1,2.2687747E0,1.4021014E-1,-8.703454E-1,1.2733516E-1,6.1582775E0,1.6210205E1,2.2839892E0,4.1635847E-1,3.367878E-1,4.4902292E-1,4.9905505E0,-1.4169965E0,-1.8531212E0,3.740724E0,-1.2298803E0,-8.543728E-1,-8.508773E-2,-1.2962912E0,4.38776E-2,2.4094515E-2,1.118996E0,-1.17725536E-1,2.6863935E0,-3.0809775E-1,9.1147065E-1,-6.440031E-1,-1.6788005E0,-6.356337E-1,1.939256E-1,9.059173E0,4.730156E0,1.8477488E1,2.3803596E-1,1.397593E-2,1.4294867E-1,-1.1737138E-2,3.6996223E-2,1.9386802E0,-4.37043E-1,5.491503E-1,-6.679364E-1,-7.676838E-2,-3.3580214E-2,-9.388519E-2,-1.5717676E-2,2.8880534E-1,-5.9135593E-2,-6.606986E-2,2.4553861E-2,-6.2172767E-2,-2.9253958E-2,9.761418E-3,-3.8905542E-2,-3.982922E-2,-7.098865E-2,-3.614516E-2,1.9869955E-2,1.293313E-1,2.1859735E-2,-5.9939917E-2,1.7125961E-1,1.6144282E-1,5.752478E-2,-3.0112345E-2,2.7160818E-2,6.726085E-2,7.345875E-3,-9.556879E-3,-5.2726652E-2,-8.846053E-2,-1.3768668E-2,-5.1455434E-2,7.2641015E-2,3.1083125E-1,8.7402546E-1,3.2434028E-1,1.3921499E-1,2.7282295E-1,1.0954211E0,3.6641434E-2,1.9328566E-1,-4.6661686E-2,8.284903E-2,-6.7863666E-2,1.7768431E-2],"categories":[],"categories_nodes":[],"categories_segments":[],"categories_sizes":[],"default_left":[1,1,0,1,0,0,0,0,0,0,0,0,0,0,0,0,0,0,0,0,0,0,0,0,0,0,0,0,0,0,0,0,0,0,0,0,0,0,0,0,0,0,0,0,0,0,0,0,0,0,0,0,0,0,0,0,0,0,0,0,0,0,0,0,0,0,0,0,0,0,0,0,0,0,0,0,0,0,0,0,0,0,0,0,0,0,0,0,0,0,0,0,0,0,0,0,0,0,0,0,0,0,0,0,0],"id":8,"left_children":[1,3,5,7,9,11,13,15,17,19,21,23,25,27,29,31,33,35,37,39,41,43,45,47,49,51,53,-1,55,57,59,61,63,65,67,69,71,73,-1,75,77,79,81,83,85,87,89,91,-1,93,95,97,-1,-1,-1,-1,-1,99,101,-1,103,-1,-1,-1,-1,-1,-1,-1,-1,-1,-1,-1,-1,-1,-1,-1,-1,-1,-1,-1,-1,-1,-1,-1,-1,-1,-1,-1,-1,-1,-1,-1,-1,-1,-1,-1,-1,-1,-1,-1,-1,-1,-1,-1,-1],"loss_changes":[3.8257585E3,1.1395413E3,5.3458716E2,1.0229993E2,3.4469867E2,6.318706E2,1.4328825E2,3.5778137E1,3.9701874E1,2.1136359E2,3.7813034E1,3.1689722E2,3.930005E2,8.723486E1,7.147142E1,5.4837036E0,9.494824E1,4.4637894E1,7.709152E0,1.2830669E2,1.0097766E2,1.7914692E1,2.4537102E1,3.3947655E1,2.4714673E2,1.7162598E2,3.81102E0,0E0,8.6490655E-1,3.9125385E1,1.4296887E2,4.2628098E0,6.1429443E0,4.6915768E1,2.3328354E1,3.280127E1,1.9578466E1,8.124771E0,0E0,5.187595E1,2.5503098E2,6.538854E1,6.793762E1,8.59079E0,6.103183E0,2.043499E1,3.3193283E0,9.712653E0,0E0,4.179673E2,1.4942993E2,2.378518E2,0E0,0E0,0E0,0E0,0E0,2.272797E1,2.1288015E1,0E0,2.598538E0,0E0,0E0,0E0,0E0,0E0,0E0,0E0,0E0,0E0,0E0,0E0,0E0,0E0,0E0,0E0,0E0,0E0,0E0,0E0,0E0,0E0,0E0,0E0,0E0,0E0,0E0,0E0,0E0,0E0,0E0,0E0,0E0,0E0,0E0,0E0,0E0,0E0,0E0,0E0,0E0,0E0,0E0,0E0,0E0],"parents":[2147483647,0,0,1,1,2,2,3,3,4,4,5,5,6,6,7,7,8,8,9,9,10,10,11,11,12,12,13,13,14,14,15,15,16,16,17,17,18,18,19,19,20,20,21,21,22,22,23,23,24,24,25,25,26,26,28,28,29,29,30,30,31,31,32,32,33,33,34,34,35,35,36,36,37,37,39,39,40,40,41,41,42,42,43,43,44,44,45,45,46,46,47,47,49,49,50,50,51,51,57,57,58,58,60,60],"right_children":[2,4,6,8,10,12,14,16,18,20,22,24,26,28,30,32,34,36,38,40,42,44,46,48,50,52,54,-1,56,58,60,62,64,66,68,70,72,74,-1,76,78,80,82,84,86,88,90,92,-1,94,96,98,-1,-1,-1,-1,-1,100,102,-1,104,-1,-1,-1,-1,-1,-1,-1,-1,-1,-1,-1,-1,-1,-1,-1,-1,-1,-1,-1,-1,-1,-1,-1,-1,-1,-1,-1,-1,-1,-1,-1,-1,-1,-1,-1,-1,-1,-1,-1,-1,-1,-1,-1,-1],"split_conditions":[1.033E1,2.93E0,2.2425043E2,1.54E0,2.4595123E2,2.153E1,3.53425E0,1.2E0,2.5025977E2,7.17E0,1.6071491E1,6.5039314E1,2.1767351E1,3.072537E2,7.3E0,3.53425E0,1.0594036E1,2.52E0,4.3010586E1,1.5281337E2,6.725157E1,4.4E0,2.8970807E2,9E-1,3.7634165E0,3.4999995E0,1.5592499E0,4.1635847E-1,1.26E1,4E-1,1.02E1,2.8009167E0,3.054701E1,9.382167E0,3.8761486E1,4E-1,2.3166218E1,1.4003028E1,4.38776E-2,3.93E0,1.912692E2,9E0,2.266857E1,1.4565548E1,6.22E0,8.378E0,1.4588418E1,5.6216053E1,1.939256E-1,2.216998E1,1.0000001E0,9.3737274E1,2.3803596E-1,1.397593E-2,1.4294867E-1,-1.1737138E-2,3.6996223E-2,2E-1,3.01E1,5.491503E-1,3.01E1,-7.676838E-2,-3.3580214E-2,-9.388519E-2,-1.5717676E-2,2.8880534E-1,-5.9135593E-2,-6.606986E-2,2.4553861E-2,-6.2172767E-2,-2.9253958E-2,9.761418E-3,-3.8905542E-2,-3.982922E-2,-7.098865E-2,-3.614516E-2,1.9869955E-2,1.293313E-1,2.1859735E-2,-5.9939917E-2,1.7125961E-1,1.6144282E-1,5.752478E-2,-3.0112345E-2,2.7160818E-2,6.726085E-2,7.345875E-3,-9.556879E-3,-5.2726652E-2,-8.846053E-2,-1.3768668E-2,-5.1455434E-2,7.2641015E-2,3.1083125E-1,8.7402546E-1,3.2434028E-1,1.3921499E-1,2.7282295E-1,1.0954211E0,3.6641434E-2,1.9328566E-1,-4.6661686E-2,8.284903E-2,-6.7863666E-2,1.7768431E-2],"split_indices":[0,0,4,0,4,0,1,2,4,0,3,4,3,4,2,1,3,0,3,4,4,0,4,2,1,2,1,0,0,2,2,1,3,1,3,2,3,3,0,0,4,0,3,3,0,1,1,4,0,3,2,4,0,0,0,0,0,2,0,0,0,0,0,0,0,0,0,0,0,0,0,0,0,0,0,0,0,0,0,0,0,0,0,0,0,0,0,0,0,0,0,0,0,0,0,0,0,0,0,0,0,0,0,0,0],"split_type":[0,0,0,0,0,0,0,0,0,0,0,0,0,0,0,0,0,0,0,0,0,0,0,0,0,0,0,0,0,0,0,0,0,0,0,0,0,0,0,0,0,0,0,0,0,0,0,0,0,0,0,0,0,0,0,0,0,0,0,0,0,0,0,0,0,0,0,0,0,0,0,0,0,0,0,0,0,0,0,0,0,0,0,0,0,0,0,0,0,0,0,0,0,0,0,0,0,0,0,0,0,0,0,0,0],"sum_hessian":[1.806E3,1.678E3,1.28E2,9.5E2,7.28E2,9.1E1,3.7E1,3.82E2,5.68E2,5.39E2,1.89E2,7.9E1,1.2E1,6E0,3.1E1,2.36E2,1.46E2,4.18E2,1.5E2,4.39E2,1E2,5E1,1.39E2,1E1,6.9E1,9E0,3E0,4E0,2E0,2.8E1,3E0,5.9E1,1.77E2,3E0,1.43E2,3.19E2,9.9E1,1.49E2,1E0,1.84E2,2.55E2,1.5E1,8.5E1,3.2E1,1.8E1,1.1E2,2.9E1,9E0,1E0,2.1E1,4.8E1,7E0,2E0,1E0,2E0,1E0,1E0,1E1,1.8E1,1E0,2E0,5E1,9E0,1.74E2,3E0,2E0,1E0,1.36E2,7E0,1.29E2,1.9E2,7.1E1,2.8E1,3.1E1,1.18E2,6.1E1,1.23E2,8E1,1.75E2,1.2E1,3E0,6.2E1,2.3E1,2.4E1,8E0,1.1E1,7E0,5.3E1,5.7E1,2.7E1,2E0,8E0,1E0,1.7E1,4E0,2.4E1,2.4E1,2E0,5E0,7E0,3E0,1.5E1,3E0,1E0,1E0],"tree_param":{"num_deleted":"0","num_feature":"7","num_nodes":"105","size_leaf_vector":"1"}},{"base_weights":[2.0164207E-2,-3.655614E-1,5.040421E0,-1.0507367E0,5.2876955E-1,6.273467E0,1.9225094E0,-1.4313219E0,-7.927141E-1,9.157938E-1,-5.7397693E-1,5.1589956E0,1.26491785E1,5.850788E0,1.0031201E0,-1.6639305E0,-1.0465628E0,-6.3945884E-1,-1.2127225E0,6.284305E-1,2.1586063E0,1.3460466E-1,-8.280032E-1,2.381795E0,6.5288563E0,1.5560323E1,2.2090209E0,3.9970416E-1,3.2836804E-1,4.3574816E-1,4.865786E0,-1.953772E0,-1.5454125E0,3.6111054E0,-1.1686747E0,-8.119399E-1,-8.112471E-2,-1.2322155E0,4.2780664E-2,2.2801915E-2,1.0636369E0,-1.0488175E-1,2.5546203E0,-2.927823E-1,8.6982393E-1,-6.1236405E-1,-1.5982682E0,-2.3667485E-1,3.8496487E0,9.367699E0,3.448204E0,1.7724644E1,2.3010142E-1,1.3626528E-2,1.381837E-1,-1.1443711E-2,3.607131E-2,1.8626486E0,-4.132862E-1,5.354215E-1,-6.51238E-1,-9.732473E-3,-9.8910846E-2,-7.895718E-2,-2.5995636E-2,2.791785E-1,-5.765721E-2,-4.8692122E-2,-1.0077288E-1,-5.9088048E-2,-2.7798915E-2,-2.9294273E-2,1.472466E-2,-3.7899993E-2,-6.746905E-2,-3.436705E-2,1.8884476E-2,1.22944586E-1,2.0772964E-2,-5.7173457E-2,1.6483739E-1,1.6084254E-1,6.967786E-2,-2.8666956E-2,2.5953678E-2,2.2895865E-2,8.429844E-2,-4.2909715E-2,5.61675E-3,-8.286505E-2,2.84217E-3,-6.90227E-2,3.0706046E-2,2.5869772E-1,5.147302E-2,3.5214397E-1,6.617398E-1,2.5263938E-1,3.2745995E-2,2.6372883E-1,1.0497785E0,3.503837E-2,1.8603745E-1,-4.447442E-2,7.974219E-2,-6.616708E-2,1.7324222E-2],"categories":[],"categories_nodes":[],"categories_segments":[],"categories_sizes":[],"default_left":[1,1,0,1,0,0,0,0,0,0,0,0,0,0,0,0,0,0,0,0,0,0,0,0,0,0,0,0,0,0,0,0,0,0,0,0,0,0,0,0,0,0,0,0,0,0,0,0,0,0,0,0,0,0,0,0,0,0,0,0,0,0,0,0,0,0,0,0,0,0,0,0,0,0,0,0,0,0,0,0,0,0,0,0,0,0,0,0,0,0,0,0,0,0,0,0,0,0,0,0,0,0,0,0,0,0,0],"id":9,"left_children":[1,3,5,7,9,11,13,15,17,19,21,23,25,27,29,31,33,35,37,39,41,43,45,47,49,51,53,-1,55,57,59,61,63,65,67,69,71,73,-1,75,77,79,81,83,85,87,89,91,93,95,97,99,-1,-1,-1,-1,-1,101,103,-1,105,-1,-1,-1,-1,-1,-1,-1,-1,-1,-1,-1,-1,-1,-1,-1,-1,-1,-1,-1,-1,-1,-1,-1,-1,-1,-1,-1,-1,-1,-1,-1,-1,-1,-1,-1,-1,-1,-1,-1,-1,-1,-1,-1,-1,-1,-1],"loss_changes":[3.5009927E3,1.0294022E3,4.8388306E2,9.2253296E1,3.1165527E2,5.8845386E2,1.3137244E2,3.2536438E1,3.585019E1,1.9149832E2,3.4311146E1,2.887998E2,3.607334E2,8.022821E1,6.800992E1,5.121887E0,8.782741E1,4.0284714E1,7.1423187E0,1.1594809E2,9.0801605E1,1.6280048E1,2.2275177E1,1.0852995E2,4.3120898E2,1.5560303E2,3.5431366E0,0E0,8.2220185E-1,3.5902946E1,1.3590976E2,2.4100342E0,5.163269E0,4.4027912E1,2.1794464E1,2.9634155E1,1.9132257E1,7.3114166E0,0E0,4.688347E1,2.3049792E2,6.029596E1,6.1641846E1,7.8140717E0,5.6152983E0,1.9871384E1,3.0253906E0,1.1552111E1,6.189987E1,1.4952734E2,1.1770636E2,2.1504321E2,0E0,0E0,0E0,0E0,0E0,2.1140434E1,1.9587837E1,0E0,2.4702353E0,0E0,0E0,0E0,0E0,0E0,0E0,0E0,0E0,0E0,0E0,0E0,0E0,0E0,0E0,0E0,0E0,0E0,0E0,0E0,0E0,0E0,0E0,0E0,0E0,0E0,0E0,0E0,0E0,0E0,0E0,0E0,0E0,0E0,0E0,0E0,0E0,0E0,0E0,0E0,0E0,0E0,0E0,0E0,0E0,0E0,0E0],"parents":[2147483647,0,0,1,1,2,2,3,3,4,4,5,5,6,6,7,7,8,8,9,9,10,10,11,11,12,12,13,13,14,14,15,15,16,16,17,17,18,18,19,19,20,20,21,21,22,22,23,23,24,24,25,25,26,26,28,28,29,29,30,30,31,31,32,32,33,33,34,34,35,35,36,36,37,37,39,39,40,40,41,41,42,42,43,43,44,44,45,45,46,46,47,47,48,48,49,49,50,50,51,51,57,57,58,58,60,60],"right_children":[2,4,6,8,10,12,14,16,18,20,22,24,26,28,30,32,34,36,38,40,42,44,46,48,50,52,54,-1,56,58,60,62,64,66,68,70,72,74,-1,76,78,80,82,84,86,88,90,92,94,96,98,100,-1,-1,-1,-1,-1,102,104,-1,106,-1,-1,-1,-1,-1,-1,-1,-1,-1,-1,-1,-1,-1,-1,-1,-1,-1,-1,-1,-1,-1,-1,-1,-1,-1,-1,-1,-1,-1,-1,-1,-1,-1,-1,-1,-1,-1,-1,-1,-1,-1,-1,-1,-1,-1,-1],"split_conditions":[1.033E1,2.93E0,2.2425043E2,1.54E0,2.4595123E2,2.153E1,3.53425E0,1.2E0,2.5025977E2,7.17E0,1.6071491E1,1.3143837E2,2.1767351E1,3.072537E2,7.3E0,9.3E-1,1.0594036E1,2.52E0,4.3010586E1,1.5281337E2,6.725157E1,4.4E0,2.8970807E2,1.26E1,1.2E0,3.4999995E0,1.5592499E0,3.9970416E-1,1.26E1,4E-1,1.02E1,1.1043261E1,2.8802248E1,9.382167E0,2.6559424E2,4E-1,1.5557852E2,1.4003028E1,4.2780664E-2,3.93E0,1.912692E2,9E0,2.0620806E1,1.4565548E1,1.38049555E1,3.1401102E1,1.7140501E1,4.354123E1,1.929E1,1.587E1,6.053E0,9.3737274E1,2.3010142E-1,1.3626528E-2,1.381837E-1,-1.1443711E-2,3.607131E-2,2E-1,3.01E1,5.354215E-1,3.01E1,-9.732473E-3,-9.8910846E-2,-7.895718E-2,-2.5995636E-2,2.791785E-1,-5.765721E-2,-4.8692122E-2,-1.0077288E-1,-5.9088048E-2,-2.7798915E-2,-2.9294273E-2,1.472466E-2,-3.7899993E-2,-6.746905E-2,-3.436705E-2,1.8884476E-2,1.22944586E-1,2.0772964E-2,-5.7173457E-2,1.6483739E-1,1.6084254E-1,6.967786E-2,-2.8666956E-2,2.5953678E-2,2.2895865E-2,8.429844E-2,-4.2909715E-2,5.61675E-3,-8.286505E-2,2.84217E-3,-6.90227E-2,3.0706046E-2,2.5869772E-1,5.147302E-2,3.5214397E-1,6.617398E-1,2.5263938E-1,3.2745995E-2,2.6372883E-1,1.0497785E0,3.503837E-2,1.8603745E-1,-4.447442E-2,7.974219E-2,-6.616708E-2,1.7324222E-2],"split_indices":[0,0,4,0,4,0,1,2,4,0,3,4,3,4,2,0,3,0,3,4,4,0,4,0,2,2,1,0,0,2,2,3,3,1,4,2,4,3,0,0,4,0,3,3,3,3,1,4,0,0,1,4,0,0,0,0,0,2,0,0,0,0,0,0,0,0,0,0,0,0,0,0,0,0,0,0,0,0,0,0,0,0,0,0,0,0,0,0,0,0,0,0,0,0,0,0,0,0,0,0,0,0,0,0,0,0,0],"split_type":[0,0,0,0,0,0,0,0,0,0,0,0,0,0,0,0,0,0,0,0,0,0,0,0,0,0,0,0,0,0,0,0,0,0,0,0,0,0,0,0,0,0,0,0,0,0,0,0,0,0,0,0,0,0,0,0,0,0,0,0,0,0,0,0,0,0,0,0,0,0,0,0,0,0,0,0,0,0,0,0,0,0,0,0,0,0,0,0,0,0,0,0,0,0,0,0,0,0,0,0,0,0,0,0,0,0,0],"sum_hessian":[1.806E3,1.678E3,1.28E2,9.5E2,7.28E2,9.1E1,3.7E1,3.82E2,5.68E2,5.39E2,1.89E2,7.9E1,1.2E1,6E0,3.1E1,2.36E2,1.46E2,4.18E2,1.5E2,4.39E2,1E2,5E1,1.39E2,2.7E1,5.2E1,9E0,3E0,4E0,2E0,2.8E1,3E0,6.4E1,1.72E2,3E0,1.43E2,3.19E2,9.9E1,1.49E2,1E0,1.84E2,2.55E2,1.5E1,8.5E1,3.2E1,1.8E1,1.1E2,2.9E1,1E1,1.7E1,2.6E1,2.6E1,7E0,2E0,1E0,2E0,1E0,1E0,1E1,1.8E1,1E0,2E0,1E0,6.3E1,1.66E2,6E0,2E0,1E0,1.18E2,2.5E1,1.29E2,1.9E2,4.2E1,5.7E1,3.1E1,1.18E2,6.1E1,1.23E2,8E1,1.75E2,1.2E1,3E0,5.3E1,3.2E1,2.4E1,8E0,1.3E1,5E0,8.2E1,2.8E1,2.8E1,1E0,4E0,6E0,1.1E1,6E0,1.8E1,8E0,1.6E1,1E1,2E0,5E0,7E0,3E0,1.5E1,3E0,1E0,1E0],"tree_param":{"num_deleted":"0","num_feature":"7","num_nodes":"107","size_leaf_vector":"1"}},{"base_weights":[2.1691589E-2,-3.4719518E-1,4.8227706E0,-9.985212E-1,5.029533E-1,5.9952993E0,1.8571013E0,-1.3725396E0,-7.6112854E-1,8.643135E-1,-5.6431305E-1,4.920685E0,1.2147137E1,5.618868E0,9.7618043E-1,1.7685726E-1,-1.4252633E0,-6.1340433E-1,-1.1660335E0,5.863367E-1,2.0514925E0,1.7525522E-1,-8.1032306E-1,3.1244686E-1,5.650803E0,1.4936668E1,2.1365223E0,3.83716E-1,3.201588E-1,4.228002E-1,4.744142E0,-1.2242138E0,3.635321E0,-1.5099249E0,-3.7958705E-1,-7.7354217E-1,-7.7214174E-2,4.9415493E-1,-1.1909652E0,2.1578021E-2,9.874719E-1,-9.2908695E-2,2.418071E0,-3.378092E-2,1.6092991E0,-5.3661263E-1,-1.389093E0,-3.2318532E-1,1.8261002E-1,8.676743E0,4.23865E0,1.70026E1,2.2243138E-1,1.3285863E-2,1.3357759E-1,-1.115762E-2,3.516953E-2,1.789614E0,-3.9076567E-1,5.22036E-1,-6.3495725E-1,-1.7932702E-2,-6.402684E-2,2.6987255E-1,-4.1276723E-2,-6.9951676E-2,-9.501184E-2,-5.196032E-2,3.6714904E-2,-6.097833E-2,-2.8758926E-2,9.6545955E-3,-3.728282E-2,-5.1052E-2,8.811362E-2,-6.048885E-2,4.171114E-2,2.4849938E-2,-2.3748873E-2,1.1687326E-1,1.8553222E-2,-5.4534685E-2,1.5865599E-1,1.5294935E-1,6.80071E-2,7.961839E-2,-1.2342944E-2,1.807284E-1,-1.4848873E-2,1.3159502E-3,-3.9033122E-2,-5.0210178E-2,-8.207205E-2,-5.096565E-2,9.364631E-2,2.936009E-1,8.2387286E-1,2.9058382E-1,1.2480384E-1,9.260702E-2,9.4511795E-1,3.350544E-2,1.7906104E-1,-4.2389676E-2,7.6751865E-2,-6.45129E-2,1.689111E-2],"categories":[],"categories_nodes":[],"categories_segments":[],"categories_sizes":[],"default_left":[1,1,0,1,0,0,0,0,0,0,0,0,0,0,0,0,0,0,0,0,0,0,0,0,0,0,0,0,0,0,0,0,0,0,0,0,0,0,0,0,0,0,0,0,0,0,0,0,0,0,0,0,0,0,0,0,0,0,0,0,0,0,0,0,0,0,0,0,0,0,0,0,0,0,0,0,0,0,0,0,0,0,0,0,0,0,0,0,0,0,0,0,0,0,0,0,0,0,0,0,0,0,0,0,0,0,0],"id":10,"left_children":[1,3,5,7,9,11,13,15,17,19,21,23,25,27,29,31,33,35,37,39,41,43,45,47,49,51,53,-1,55,57,59,61,63,65,67,69,71,73,75,77,79,81,83,85,87,89,91,93,-1,95,97,99,-1,-1,-1,-1,-1,101,103,-1,105,-1,-1,-1,-1,-1,-1,-1,-1,-1,-1,-1,-1,-1,-1,-1,-1,-1,-1,-1,-1,-1,-1,-1,-1,-1,-1,-1,-1,-1,-1,-1,-1,-1,-1,-1,-1,-1,-1,-1,-1,-1,-1,-1,-1,-1,-1],"loss_changes":[3.2019697E3,9.302045E2,4.3744238E2,8.339386E1,2.8163947E2,5.484265E2,1.2044006E2,3.0313904E1,3.421631E1,1.7865158E2,3.3801132E1,2.6739905E2,3.3111133E2,7.378166E1,6.4717865E1,6.7442604E1,3.0943054E1,3.686194E1,7.0041504E0,1.0033794E2,8.119214E1,1.4143413E1,2.1274338E1,2.6654596E1,2.5806543E2,1.410376E2,3.2938652E0,0E0,7.816056E-1,3.2947117E1,1.2919925E2,2.8238297E-2,3.5898205E1,1.158136E1,2.1335812E1,2.8583755E1,1.821238E1,7.563686E0,6.8381805E0,4.3909527E1,2.1465846E2,5.5601612E1,5.550714E1,1.4945941E1,2.400903E1,1.3209349E1,2.6252136E0,1.872561E1,0E0,3.627002E2,1.1980823E2,1.9524805E2,0E0,0E0,0E0,0E0,0E0,1.9663036E1,1.802416E1,0E0,2.348267E0,0E0,0E0,0E0,0E0,0E0,0E0,0E0,0E0,0E0,0E0,0E0,0E0,0E0,0E0,0E0,0E0,0E0,0E0,0E0,0E0,0E0,0E0,0E0,0E0,0E0,0E0,0E0,0E0,0E0,0E0,0E0,0E0,0E0,0E0,0E0,0E0,0E0,0E0,0E0,0E0,0E0,0E0,0E0,0E0,0E0,0E0],"parents":[2147483647,0,0,1,1,2,2,3,3,4,4,5,5,6,6,7,7,8,8,9,9,10,10,11,11,12,12,13,13,14,14,15,15,16,16,17,17,18,18,19,19,20,20,21,21,22,22,23,23,24,24,25,25,26,26,28,28,29,29,30,30,31,31,32,32,33,33,34,34,35,35,36,36,37,37,38,38,39,39,40,40,41,41,42,42,43,43,44,44,45,45,46,46,47,47,49,49,50,50,51,51,57,57,58,58,60,60],"right_children":[2,4,6,8,10,12,14,16,18,20,22,24,26,28,30,32,34,36,38,40,42,44,46,48,50,52,54,-1,56,58,60,62,64,66,68,70,72,74,76,78,80,82,84,86,88,90,92,94,-1,96,98,100,-1,-1,-1,-1,-1,102,104,-1,106,-1,-1,-1,-1,-1,-1,-1,-1,-1,-1,-1,-1,-1,-1,-1,-1,-1,-1,-1,-1,-1,-1,-1,-1,-1,-1,-1,-1,-1,-1,-1,-1,-1,-1,-1,-1,-1,-1,-1,-1,-1,-1,-1,-1,-1,-1],"split_conditions":[1.033E1,2.93E0,2.2425043E2,1.52E0,2.4719026E2,2.153E1,3.53425E0,1.0594036E1,2.5025977E2,7.17E0,1.5725037E1,6.725157E1,2.1767351E1,3.072537E2,7.3E0,1.0495713E1,8.7E0,2.52E0,-4.7615833E0,1.5281337E2,6.725157E1,1.4764389E1,2.7940073E2,9E-1,3.7634165E0,3.4999995E0,1.5592499E0,3.83716E-1,1.26E1,4E-1,1.02E1,-3.8719997E0,1.43E0,2.768471E2,1.23E0,1E-1,2.3166218E1,1.73E0,4.3010586E1,1.5725037E1,1.912692E2,9E0,2.0620806E1,-3.4303334E0,1E-1,5E-1,1E-1,5.6216053E1,1.8261002E-1,2.216998E1,1.0000001E0,1E-1,2.2243138E-1,1.3285863E-2,1.3357759E-1,-1.115762E-2,3.516953E-2,2E-1,3.01E1,5.22036E-1,3.01E1,-1.7932702E-2,-6.402684E-2,2.6987255E-1,-4.1276723E-2,-6.9951676E-2,-9.501184E-2,-5.196032E-2,3.6714904E-2,-6.097833E-2,-2.8758926E-2,9.6545955E-3,-3.728282E-2,-5.1052E-2,8.811362E-2,-6.048885E-2,4.171114E-2,2.4849938E-2,-2.3748873E-2,1.1687326E-1,1.8553222E-2,-5.4534685E-2,1.5865599E-1,1.5294935E-1,6.80071E-2,7.961839E-2,-1.2342944E-2,1.807284E-1,-1.4848873E-2,1.3159502E-3,-3.9033122E-2,-5.0210178E-2,-8.207205E-2,-5.096565E-2,9.364631E-2,2.936009E-1,8.2387286E-1,2.9058382E-1,1.2480384E-1,9.260702E-2,9.4511795E-1,3.350544E-2,1.7906104E-1,-4.2389676E-2,7.6751865E-2,-6.45129E-2,1.689111E-2],"split_indices":[0,0,4,0,4,0,1,3,4,0,3,4,3,4,2,3,2,0,1,4,4,3,4,2,1,2,1,0,0,2,2,1,0,4,0,2,3,0,3,3,4,0,3,1,2,2,2,4,0,3,2,2,0,0,0,0,0,2,0,0,0,0,0,0,0,0,0,0,0,0,0,0,0,0,0,0,0,0,0,0,0,0,0,0,0,0,0,0,0,0,0,0,0,0,0,0,0,0,0,0,0,0,0,0,0,0,0],"split_type":[0,0,0,0,0,0,0,0,0,0,0,0,0,0,0,0,0,0,0,0,0,0,0,0,0,0,0,0,0,0,0,0,0,0,0,0,0,0,0,0,0,0,0,0,0,0,0,0,0,0,0,0,0,0,0,0,0,0,0,0,0,0,0,0,0,0,0,0,0,0,0,0,0,0,0,0,0,0,0,0,0,0,0,0,0,0,0,0,0,0,0,0,0,0,0,0,0,0,0,0,0,0,0,0,0,0,0],"sum_hessian":[1.806E3,1.678E3,1.28E2,9.5E2,7.28E2,9.1E1,3.7E1,3.67E2,5.83E2,5.44E2,1.84E2,7.9E1,1.2E1,6E0,3.1E1,1.2E1,3.55E2,4.29E2,1.54E2,4.42E2,1.02E2,4.6E1,1.38E2,1.1E1,6.8E1,9E0,3E0,4E0,2E0,2.8E1,3E0,9E0,3E0,3.28E2,2.7E1,3.3E2,9.9E1,2E0,1.52E2,1.84E2,2.58E2,1.5E1,8.7E1,4.1E1,5E0,9.5E1,4.3E1,1E1,1E0,2E1,4.8E1,7E0,2E0,1E0,2E0,1E0,1E0,1E1,1.8E1,1E0,2E0,1E0,8E0,2E0,1E0,2.59E2,6.9E1,1.7E1,1E1,1E2,2.3E2,7.1E1,2.8E1,1E0,1E0,1.51E2,1E0,9.4E1,9E1,8E1,1.78E2,1.2E1,3E0,5.3E1,3.4E1,4E0,3.7E1,2E0,3E0,2.9E1,6.6E1,1.9E1,2.4E1,8E0,2E0,1.6E1,4E0,2.4E1,2.4E1,1E0,6E0,7E0,3E0,1.5E1,3E0,1E0,1E0],"tree_param":{"num_deleted":"0","num_feature":"7","num_nodes":"107","size_leaf_vector":"1"}},{"base_weights":[2.3200491E-2,-3.2960182E-1,4.6149206E0,-9.487345E-1,4.7852546E-1,5.7299385E0,1.7939587E0,-1.2926477E0,-7.155755E-1,8.2846177E-1,-5.1854897E-1,4.9278455E0,1.3535934E1,5.3961716E0,9.499134E-1,-1.5072616E0,-9.3784404E-1,-5.7744145E-1,-1.0941359E0,5.6822044E-1,1.9539838E0,1.5765867E-1,-7.419015E-1,2.1586413E0,6.2502856E0,1.9207668E1,3.0622816E0,3.6836737E-1,3.1215477E-1,4.1017506E-1,4.625538E0,-1.1981412E0,-1.6029917E0,3.3670006E0,-1.0509102E0,-1.1405567E0,-4.3283772E-1,4.81801E-1,-1.118523E0,2.0505095E-2,9.6181077E-1,-8.175568E-2,2.3100052E0,-4.1192267E-2,1.5564806E0,-4.7895542E-1,-1.3226448E0,-3.1988683E-1,3.4799662E0,8.920928E0,3.5493426E0,2.661718E-1,1.0673934E0,1.2953723E-2,1.9551629E-1,-1.0878682E-2,3.429029E-2,1.8235592E0,-3.1702578E-1,5.0898504E-1,-6.1908334E-1,-6.548916E-2,-2.544768E-2,-8.126719E-2,-1.1216988E-2,2.6087677E-1,-5.4615106E-2,-5.5449355E-2,6.295133E-2,-1.1394065E-2,-6.744444E-2,3.0381603E-3,-4.049265E-2,-4.97757E-2,8.5910775E-2,-5.6853604E-2,4.0668357E-2,-3.2683898E-2,1.7871564E-2,9.593676E-2,5.830415E-3,-5.2017696E-2,1.5270637E-1,1.3931619E-1,4.8170995E-2,7.643365E-2,-1.2070041E-2,1.7470412E-1,-1.4292046E-2,-3.591914E-2,8.118574E-3,-4.7825195E-2,-7.813259E-2,-6.422316E-2,2.073972E-2,2.2526579E-1,2.537444E-2,3.4307465E-1,7.059511E-1,2.9497543E-1,7.025635E-2,3.203958E-2,2.1848767E-1,-7.087858E-2,1.923099E-2,-6.290009E-2,1.6468836E-2],"categories":[],"categories_nodes":[],"categories_segments":[],"categories_sizes":[],"default_left":[1,1,0,1,0,0,0,0,0,0,0,0,0,0,0,0,0,0,0,0,0,0,0,0,0,0,0,0,0,0,0,0,0,0,0,0,0,0,0,0,0,0,0,0,0,0,0,0,0,0,0,0,0,0,0,0,0,0,0,0,0,0,0,0,0,0,0,0,0,0,0,0,0,0,0,0,0,0,0,0,0,0,0,0,0,0,0,0,0,0,0,0,0,0,0,0,0,0,0,0,0,0,0,0,0,0,0],"id":11,"left_children":[1,3,5,7,9,11,13,15,17,19,21,23,25,27,29,31,33,35,37,39,41,43,45,47,49,51,53,-1,55,57,59,61,63,65,67,69,71,73,75,77,79,81,83,85,87,89,91,93,95,97,99,-1,-1,-1,-1,-1,-1,101,103,-1,105,-1,-1,-1,-1,-1,-1,-1,-1,-1,-1,-1,-1,-1,-1,-1,-1,-1,-1,-1,-1,-1,-1,-1,-1,-1,-1,-1,-1,-1,-1,-1,-1,-1,-1,-1,-1,-1,-1,-1,-1,-1,-1,-1,-1,-1,-1],"loss_changes":[2.9288062E3,8.405216E2,3.9547998E2,7.53324E1,2.5478682E2,5.0932153E2,1.1041049E2,2.7750244E1,2.9122406E1,1.570597E2,2.8813179E1,2.9778687E2,4.16411E2,6.785066E1,6.158674E1,5.0927124E0,7.508809E1,3.3624893E1,6.342224E0,9.4833496E1,7.339029E1,1.3415653E1,2.1203217E1,9.608647E1,3.794922E2,3.493103E1,8.495911E0,0E0,7.43014E-1,3.0384731E1,1.22820015E2,3.949913E0,5.120636E0,3.8707508E1,2.0714401E1,1.5854485E1,6.239106E1,7.1902285E0,6.264221E0,4.225638E1,2.0682774E2,5.1274204E1,5.2476288E1,1.3883944E1,2.2416866E1,1.5471762E1,2.371872E0,8.328005E0,5.5622345E1,2.0286646E2,1.428883E2,0E0,0E0,0E0,0E0,0E0,0E0,2.731546E1,1.5989088E1,0E0,2.2323222E0,0E0,0E0,0E0,0E0,0E0,0E0,0E0,0E0,0E0,0E0,0E0,0E0,0E0,0E0,0E0,0E0,0E0,0E0,0E0,0E0,0E0,0E0,0E0,0E0,0E0,0E0,0E0,0E0,0E0,0E0,0E0,0E0,0E0,0E0,0E0,0E0,0E0,0E0,0E0,0E0,0E0,0E0,0E0,0E0,0E0,0E0],"parents":[2147483647,0,0,1,1,2,2,3,3,4,4,5,5,6,6,7,7,8,8,9,9,10,10,11,11,12,12,13,13,14,14,15,15,16,16,17,17,18,18,19,19,20,20,21,21,22,22,23,23,24,24,25,25,26,26,28,28,29,29,30,30,31,31,32,32,33,33,34,34,35,35,36,36,37,37,38,38,39,39,40,40,41,41,42,42,43,43,44,44,45,45,46,46,47,47,48,48,49,49,50,50,57,57,58,58,60,60],"right_children":[2,4,6,8,10,12,14,16,18,20,22,24,26,28,30,32,34,36,38,40,42,44,46,48,50,52,54,-1,56,58,60,62,64,66,68,70,72,74,76,78,80,82,84,86,88,90,92,94,96,98,100,-1,-1,-1,-1,-1,-1,102,104,-1,106,-1,-1,-1,-1,-1,-1,-1,-1,-1,-1,-1,-1,-1,-1,-1,-1,-1,-1,-1,-1,-1,-1,-1,-1,-1,-1,-1,-1,-1,-1,-1,-1,-1,-1,-1,-1,-1,-1,-1,-1,-1,-1,-1,-1,-1,-1],"split_conditions":[1.033E1,2.93E0,2.2425043E2,1.54E0,2.4595123E2,2.37E1,3.53425E0,1.2E0,2.5025977E2,7.17E0,1.5725037E1,1.3143837E2,2.6000001E0,3.072537E2,7.3E0,3.53425E0,1.0594036E1,6.832179E1,-4.7615833E0,1.5281337E2,6.725157E1,1.4764389E1,2.7940073E2,1.26E1,1.2E0,9.3737274E1,3.01E1,3.6836737E-1,1.26E1,3E-1,1.02E1,2.8009167E0,3.054701E1,9.382167E0,1.8586336E1,-2.6178334E0,9.590499E0,1.73E0,4.3010586E1,3.93E0,9.382167E0,9E0,2.266857E1,-3.4303334E0,1E-1,3.1401102E1,1E-1,4.354123E1,4.719666E0,2.0870687E1,1.8861568E2,2.661718E-1,1.0673934E0,1.2953723E-2,1.9551629E-1,-1.0878682E-2,3.429029E-2,2E-1,2.266857E1,5.0898504E-1,3.01E1,-6.548916E-2,-2.544768E-2,-8.126719E-2,-1.1216988E-2,2.6087677E-1,-5.4615106E-2,-5.5449355E-2,6.295133E-2,-1.1394065E-2,-6.744444E-2,3.0381603E-3,-4.049265E-2,-4.97757E-2,8.5910775E-2,-5.6853604E-2,4.0668357E-2,-3.2683898E-2,1.7871564E-2,9.593676E-2,5.830415E-3,-5.2017696E-2,1.5270637E-1,1.3931619E-1,4.8170995E-2,7.643365E-2,-1.2070041E-2,1.7470412E-1,-1.4292046E-2,-3.591914E-2,8.118574E-3,-4.7825195E-2,-7.813259E-2,-6.422316E-2,2.073972E-2,2.2526579E-1,2.537444E-2,3.4307465E-1,7.059511E-1,2.9497543E-1,7.025635E-2,3.203958E-2,2.1848767E-1,-7.087858E-2,1.923099E-2,-6.290009E-2,1.6468836E-2],"split_indices":[0,0,4,0,4,0,1,2,4,0,3,4,2,4,2,1,3,4,1,4,4,3,4,0,2,4,0,0,0,2,2,1,3,1,1,1,1,0,3,0,1,0,3,1,2,3,2,4,1,3,4,0,0,0,0,0,0,2,3,0,0,0,0,0,0,0,0,0,0,0,0,0,0,0,0,0,0,0,0,0,0,0,0,0,0,0,0,0,0,0,0,0,0,0,0,0,0,0,0,0,0,0,0,0,0,0,0],"split_type":[0,0,0,0,0,0,0,0,0,0,0,0,0,0,0,0,0,0,0,0,0,0,0,0,0,0,0,0,0,0,0,0,0,0,0,0,0,0,0,0,0,0,0,0,0,0,0,0,0,0,0,0,0,0,0,0,0,0,0,0,0,0,0,0,0,0,0,0,0,0,0,0,0,0,0,0,0,0,0,0,0,0,0,0,0,0,0,0,0,0,0,0,0,0,0,0,0,0,0,0,0,0,0,0,0,0,0],"sum_hessian":[1.806E3,1.678E3,1.28E2,9.5E2,7.28E2,9.1E1,3.7E1,3.82E2,5.68E2,5.39E2,1.89E2,8.4E1,7E0,6E0,3.1E1,2.36E2,1.46E2,4.18E2,1.5E2,4.39E2,1E2,4.7E1,1.42E2,2.8E1,5.6E1,4E0,3E0,4E0,2E0,2.8E1,3E0,5.9E1,1.77E2,3E0,1.43E2,8.4E1,3.34E2,2E0,1.48E2,1.84E2,2.55E2,1.5E1,8.5E1,4.2E1,5E0,9.9E1,4.3E1,1E1,1.8E1,2.7E1,2.9E1,1E0,3E0,1E0,2E0,1E0,1E0,9E0,1.9E1,1E0,2E0,5E1,9E0,1.74E2,3E0,2E0,1E0,1.4E2,3E0,1.6E1,6.8E1,1.45E2,1.89E2,1E0,1E0,1.47E2,1E0,6.1E1,1.23E2,1.19E2,1.36E2,1.2E1,3E0,6.2E1,2.3E1,4E0,3.8E1,2E0,3E0,7.2E1,2.7E1,1.9E1,2.4E1,4E0,6E0,1.3E1,5E0,2.1E1,6E0,1.3E1,1.6E1,7E0,2E0,7E0,1.2E1,1E0,1E0],"tree_param":{"num_deleted":"0","num_feature":"7","num_nodes":"107","size_leaf_vector":"1"}},{"base_weights":[2.4584372E-2,-3.1289533E-1,4.416862E0,-8.287817E-1,5.673569E-1,5.477827E0,1.7319769E0,-1.0154641E0,-2.7675778E-1,8.8657194E-1,-4.064093E-1,4.7005286E0,1.3051892E1,5.1823316E0,9.2308754E-1,-9.0972877E-1,-1.5180144E0,1.2625365E-1,-9.483634E-1,3.8653607E0,7.929684E-1,3.3955228E-1,-6.7112875E-1,2.0578527E0,5.9625826E0,1.8514E1,2.9612849E0,3.5363266E-1,3.0435085E-1,3.9652422E-1,4.5098996E0,-1.3225493E0,-7.4354327E-1,-1.783986E0,-1.1815078E0,-6.533083E-1,1.1358712E0,-1.0845323E0,-9.535982E-2,3.4058116E-2,1.3435102E1,4.795712E-1,1.8593396E0,1.2641242E-1,1.8488768E0,-1.0898875E0,-7.2629526E-2,-3.0784538E-1,3.3191595E0,8.836838E0,3.6044328E0,2.5951752E-1,1.0273663E0,1.2629879E-2,1.8899907E-1,-1.0606718E-2,3.343303E-2,1.757434E0,-3.0375683E-1,4.9626046E-1,-6.036063E-1,-3.0886909E-2,-7.403887E-2,-1.647663E-2,-5.1289447E-2,-1.9394374E-2,-8.9889854E-2,-3.828229E-2,-6.718418E-2,-1.6002877E-2,-5.9991784E-2,1.5580076E-1,-1.8207004E-2,-1.0123655E-2,-5.8564592E-2,6.4151795E-3,-3.7125506E-2,8.228289E-2,-3.8799953E-2,1.0467039E0,1.9787091E-1,4.6451725E-2,-7.463672E-3,-3.568741E-3,1.0946249E-1,2.9543703E-2,-2.9709483E-2,1.064245E-1,1.8260611E-2,-5.9605297E-2,4.0903997E-2,-4.3944582E-2,1.2597524E-2,-6.165423E-2,1.9850882E-2,2.2976272E-1,4.9506098E-2,3.1907701E-1,8.690859E-1,4.2671323E-1,1.2096553E-1,3.0637844E-2,2.1120475E-1,-3.5345435E-2,7.427888E-2,-6.1327584E-2,1.605711E-2],"categories":[],"categories_nodes":[],"categories_segments":[],"categories_sizes":[],"default_left":[1,1,0,1,0,0,0,0,0,0,0,0,0,0,0,0,0,0,0,0,0,0,0,0,0,0,0,0,0,0,0,0,0,0,0,0,0,0,0,0,0,0,0,0,0,0,0,0,0,0,0,0,0,0,0,0,0,0,0,0,0,0,0,0,0,0,0,0,0,0,0,0,0,0,0,0,0,0,0,0,0,0,0,0,0,0,0,0,0,0,0,0,0,0,0,0,0,0,0,0,0,0,0,0,0,0,0],"id":12,"left_children":[1,3,5,7,9,11,13,15,17,19,21,23,25,27,29,31,33,35,37,39,41,43,45,47,49,51,53,-1,55,57,59,61,63,65,67,69,71,73,75,77,79,81,83,85,87,89,91,93,95,97,99,-1,-1,-1,-1,-1,-1,101,103,-1,105,-1,-1,-1,-1,-1,-1,-1,-1,-1,-1,-1,-1,-1,-1,-1,-1,-1,-1,-1,-1,-1,-1,-1,-1,-1,-1,-1,-1,-1,-1,-1,-1,-1,-1,-1,-1,-1,-1,-1,-1,-1,-1,-1,-1,-1,-1],"loss_changes":[2.6799062E3,7.6292114E2,3.5797803E2,1.0885217E2,1.9339244E2,4.802815E2,1.0127253E2,4.0650635E1,7.292855E1,1.2742508E2,3.0638346E1,2.712218E2,3.8610254E2,6.2394135E1,5.8649597E1,4.4021362E1,1.0064362E1,1.337551E2,1.1627983E1,5.128465E2,1.511683E2,1.2955865E1,2.849229E1,8.755404E1,3.5448962E2,2.8808838E1,7.915558E0,0E0,7.063278E-1,2.8171394E1,1.1675578E2,1.9939636E1,5.4582733E1,7.2950745E-1,3.2201157E0,1.7100525E1,2.2093231E2,6.4207E0,2.2664242E0,1.5637395E1,2.0144678E2,9.99115E1,6.576337E1,1.2734697E1,1.2969093E0,1.4042213E1,1.2782872E1,7.663391E0,5.191954E1,4.1358337E2,1.7215393E2,0E0,0E0,0E0,0E0,0E0,0E0,2.5646957E1,1.5477637E1,0E0,2.1221008E0,0E0,0E0,0E0,0E0,0E0,0E0,0E0,0E0,0E0,0E0,0E0,0E0,0E0,0E0,0E0,0E0,0E0,0E0,0E0,0E0,0E0,0E0,0E0,0E0,0E0,0E0,0E0,0E0,0E0,0E0,0E0,0E0,0E0,0E0,0E0,0E0,0E0,0E0,0E0,0E0,0E0,0E0,0E0,0E0,0E0,0E0],"parents":[2147483647,0,0,1,1,2,2,3,3,4,4,5,5,6,6,7,7,8,8,9,9,10,10,11,11,12,12,13,13,14,14,15,15,16,16,17,17,18,18,19,19,20,20,21,21,22,22,23,23,24,24,25,25,26,26,28,28,29,29,30,30,31,31,32,32,33,33,34,34,35,35,36,36,37,37,38,38,39,39,40,40,41,41,42,42,43,43,44,44,45,45,46,46,47,47,48,48,49,49,50,50,57,57,58,58,60,60],"right_children":[2,4,6,8,10,12,14,16,18,20,22,24,26,28,30,32,34,36,38,40,42,44,46,48,50,52,54,-1,56,58,60,62,64,66,68,70,72,74,76,78,80,82,84,86,88,90,92,94,96,98,100,-1,-1,-1,-1,-1,-1,102,104,-1,106,-1,-1,-1,-1,-1,-1,-1,-1,-1,-1,-1,-1,-1,-1,-1,-1,-1,-1,-1,-1,-1,-1,-1,-1,-1,-1,-1,-1,-1,-1,-1,-1,-1,-1,-1,-1,-1,-1,-1,-1,-1,-1,-1,-1,-1,-1],"split_conditions":[1.033E1,3.35E0,2.2425043E2,2.49E0,2.4719026E2,2.37E1,3.53425E0,2.7464355E2,2.257193E2,3.43E0,1.6071491E1,1.3143837E2,2.6000001E0,3.072537E2,7.3E0,9.546422E1,1.5E0,1.7566371E2,1.6675915E1,2.1924562E1,7.17E0,1.9000002E0,2.81169E1,1.26E1,8.000001E-1,9.3737274E1,3.01E1,3.5363266E-1,1.26E1,3E-1,1.02E1,-7.6158327E-1,9.590499E0,8.287822E0,2.8701898E2,1.9272614E1,7.8592496E0,1.3039754E1,3.045274E2,1.5021105E1,2.7571666E0,1.7000003E0,6.725157E1,3.045274E2,4.7E0,1.8128E1,4.6175838E0,4.354123E1,1.929E1,2.0870687E1,3.7634165E0,2.5951752E-1,1.0273663E0,1.2629879E-2,1.8899907E-1,-1.0606718E-2,3.343303E-2,2E-1,3.01E1,4.9626046E-1,3.01E1,-3.0886909E-2,-7.403887E-2,-1.647663E-2,-5.1289447E-2,-1.9394374E-2,-8.9889854E-2,-3.828229E-2,-6.718418E-2,-1.6002877E-2,-5.9991784E-2,1.5580076E-1,-1.8207004E-2,-1.0123655E-2,-5.8564592E-2,6.4151795E-3,-3.7125506E-2,8.228289E-2,-3.8799953E-2,1.0467039E0,1.9787091E-1,4.6451725E-2,-7.463672E-3,-3.568741E-3,1.0946249E-1,2.9543703E-2,-2.9709483E-2,1.064245E-1,1.8260611E-2,-5.9605297E-2,4.0903997E-2,-4.3944582E-2,1.2597524E-2,-6.165423E-2,1.9850882E-2,2.2976272E-1,4.9506098E-2,3.1907701E-1,8.690859E-1,4.2671323E-1,1.2096553E-1,3.0637844E-2,2.1120475E-1,-3.5345435E-2,7.427888E-2,-6.1327584E-2,1.605711E-2],"split_indices":[0,0,4,0,4,0,1,4,4,0,3,4,2,4,2,4,0,4,1,3,0,2,3,0,2,4,0,0,0,2,2,1,1,3,4,3,1,3,4,3,1,2,4,4,0,1,1,4,0,3,1,0,0,0,0,0,0,2,0,0,0,0,0,0,0,0,0,0,0,0,0,0,0,0,0,0,0,0,0,0,0,0,0,0,0,0,0,0,0,0,0,0,0,0,0,0,0,0,0,0,0,0,0,0,0,0,0],"split_type":[0,0,0,0,0,0,0,0,0,0,0,0,0,0,0,0,0,0,0,0,0,0,0,0,0,0,0,0,0,0,0,0,0,0,0,0,0,0,0,0,0,0,0,0,0,0,0,0,0,0,0,0,0,0,0,0,0,0,0,0,0,0,0,0,0,0,0,0,0,0,0,0,0,0,0,0,0,0,0,0,0,0,0,0,0,0,0,0,0,0,0,0,0,0,0,0,0,0,0,0,0,0,0,0,0,0,0],"sum_hessian":[1.806E3,1.678E3,1.28E2,1.058E3,6.2E2,9.1E1,3.7E1,7.9E2,2.68E2,4.67E2,1.53E2,8.4E1,7E0,6E0,3.1E1,6.55E2,1.35E2,1.68E2,1E2,1.3E1,4.54E2,4E1,1.13E2,2.8E1,5.6E1,4E0,3E0,4E0,2E0,2.8E1,3E0,1.86E2,4.69E2,7.3E1,6.2E1,9.5E1,7.3E1,8.6E1,1.4E1,1E1,3E0,3.52E2,1.02E2,3.6E1,4E0,6.6E1,4.7E1,1E1,1.8E1,2.4E1,3.2E1,1E0,3E0,1E0,2E0,1E0,1E0,9E0,1.9E1,1E0,2E0,3.5E1,1.51E2,1.91E2,2.78E2,1E0,7.2E1,1.9E1,4.3E1,6E1,3.5E1,3.1E1,4.2E1,8E0,7.8E1,1.1E1,3E0,3E0,7E0,1E0,2E0,2.05E2,1.47E2,1.5E1,8.7E1,2.2E1,1.4E1,3E0,1E0,6.3E1,3E0,1.3E1,3.4E1,4E0,6E0,1.1E1,7E0,2E1,4E0,5E0,2.7E1,7E0,2E0,1.6E1,3E0,1E0,1E0],"tree_param":{"num_deleted":"0","num_feature":"7","num_nodes":"107","size_leaf_vector":"1"}},{"base_weights":[2.6483137E-2,-2.96606E-1,4.231446E0,-7.8774416E-1,5.4141647E-1,2.8726957E0,6.1881967E0,-1.0227057E0,-3.901818E-1,9.130797E-1,-2.17242E-1,4.6865325E0,1.5766219E0,1.168133E1,5.074124E0,-1.2530886E0,-7.821808E-1,2.4188016E-2,-7.666345E-1,-6.41494E-1,1.1170391E0,1.5743115E0,-3.4674463E-1,6.6745577E0,2.2813473E0,3.796995E0,4.1716605E-1,1.5205693E1,7.3882645E-1,2.5696032E0,7.1585126E0,-1.5823859E0,-1.1040603E0,-6.197417E-1,-1.6324394E0,4.3982756E-1,-1.2059163E0,-9.875307E-1,-2.6886865E-1,1.1007222E0,-1.442493E0,5.133761E0,9.9085253E-1,2.9680377E-1,7.8217006E-1,2.0480241E-1,-6.306451E-1,8.845949E-2,7.546807E0,-1.1295615E0,3.5124469E0,-5.686605E-1,7.255689E0,3.0136428E0,4.4646278E-2,5.6695234E-2,1.779327E1,1.154737E-1,-6.006172E-2,4.418135E0,3.194226E-1,1.0795012E1,2.6224287E0,-3.5091653E-2,-8.054373E-2,-5.892849E-2,-3.0499969E-2,-1.01269735E-2,-4.7582325E-2,-8.687259E-2,-4.6883173E-2,1.31567465E-2,4.2694378E-1,-9.754846E-2,-3.672022E-2,-5.0697166E-2,6.907654E-2,-2.3935376E-2,3.48906E-2,-5.4764133E-2,8.458725E-2,-8.348986E-2,1.0491567E-2,2.608378E-2,6.537246E-1,4.3916083E-3,7.738631E-2,8.984546E-3,8.5509926E-2,-1.4551784E-2,5.722289E-2,-6.748495E-2,-1.4226592E-2,8.574045E-3,-1.9395829E-3,4.057706E-1,-1.0341549E-2,-6.8720646E-2,-3.7539005E-3,2.2505616E-1,2.0490697E-2,3.2582503E-2,-7.155885E-2,4.0854135E-1,-1.6353012E-3,2.434109E-2,2.6485264E-1,1.0067637E-1,-4.00643E-2,4.0478835E-1,1.0779842E0,1.3498712E-3,3.305165E-1,-7.7266015E-2,1.9845264E-1,6.648829E-1,9.198227E-2,7.2533816E-2,2.8270635E-1],"categories":[],"categories_nodes":[],"categories_segments":[],"categories_sizes":[],"default_left":[1,1,0,1,0,0,0,0,0,0,0,0,0,0,0,0,0,0,0,0,0,0,0,0,0,0,0,0,0,0,0,0,0,0,0,0,0,0,0,0,0,0,0,0,0,0,0,0,0,0,0,0,0,0,0,0,0,0,0,0,0,0,0,0,0,0,0,0,0,0,0,0,0,0,0,0,0,0,0,0,0,0,0,0,0,0,0,0,0,0,0,0,0,0,0,0,0,0,0,0,0,0,0,0,0,0,0,0,0,0,0,0,0,0,0,0,0,0,0],"id":13,"left_children":[1,3,5,7,9,11,13,15,17,19,21,23,25,27,29,31,33,35,37,39,41,43,45,47,49,51,53,55,57,59,61,63,65,67,69,71,73,75,77,79,81,83,85,-1,87,89,91,93,95,97,99,101,103,105,107,-1,109,-1,-1,111,113,115,117,-1,-1,-1,-1,-1,-1,-1,-1,-1,-1,-1,-1,-1,-1,-1,-1,-1,-1,-1,-1,-1,-1,-1,-1,-1,-1,-1,-1,-1,-1,-1,-1,-1,-1,-1,-1,-1,-1,-1,-1,-1,-1,-1,-1,-1,-1,-1,-1,-1,-1,-1,-1,-1,-1,-1,-1],"loss_changes":[2.456205E3,6.914774E2,3.251997E2,9.852417E1,1.7529887E2,1.7597876E2,2.589547E2,3.5869385E1,6.1634846E1,1.3293478E2,4.8108116E1,1.3778314E2,1.1941398E2,2.9728845E2,2.1652332E2,1.484021E1,4.42901E1,9.7162315E1,2.2495087E1,6.996794E1,1.8194318E2,4.372885E1,3.019338E1,9.6992676E1,7.1154236E1,2.4571751E2,3.0817095E1,1.9829517E2,1.1915675E1,9.0098434E1,3.6758203E2,1.4532776E0,7.96875E0,3.816384E1,2.1647797E0,2.0096112E2,1.5429665E1,1.0348755E1,1.3519113E1,2.2619167E1,1.312011E1,3.96036E2,1.8039374E2,0E0,6.9612255E0,3.1083591E1,3.122298E1,3.834573E-2,6.7809875E1,1.1877704E0,3.4965363E1,9.35293E0,6.0296204E1,2.0500355E1,4.9914074E1,0E0,8.081909E0,0E0,0E0,1.1533626E2,8.099529E1,2.6689453E2,3.4426483E1,0E0,0E0,0E0,0E0,0E0,0E0,0E0,0E0,0E0,0E0,0E0,0E0,0E0,0E0,0E0,0E0,0E0,0E0,0E0,0E0,0E0,0E0,0E0,0E0,0E0,0E0,0E0,0E0,0E0,0E0,0E0,0E0,0E0,0E0,0E0,0E0,0E0,0E0,0E0,0E0,0E0,0E0,0E0,0E0,0E0,0E0,0E0,0E0,0E0,0E0,0E0,0E0,0E0,0E0,0E0,0E0],"parents":[2147483647,0,0,1,1,2,2,3,3,4,4,5,5,6,6,7,7,8,8,9,9,10,10,11,11,12,12,13,13,14,14,15,15,16,16,17,17,18,18,19,19,20,20,21,21,22,22,23,23,24,24,25,25,26,26,27,27,28,28,29,29,30,30,31,31,32,32,33,33,34,34,35,35,36,36,37,37,38,38,39,39,40,40,41,41,42,42,44,44,45,45,46,46,47,47,48,48,49,49,50,50,51,51,52,52,53,53,54,54,56,56,59,59,60,60,61,61,62,62],"right_children":[2,4,6,8,10,12,14,16,18,20,22,24,26,28,30,32,34,36,38,40,42,44,46,48,50,52,54,56,58,60,62,64,66,68,70,72,74,76,78,80,82,84,86,-1,88,90,92,94,96,98,100,102,104,106,108,-1,110,-1,-1,112,114,116,118,-1,-1,-1,-1,-1,-1,-1,-1,-1,-1,-1,-1,-1,-1,-1,-1,-1,-1,-1,-1,-1,-1,-1,-1,-1,-1,-1,-1,-1,-1,-1,-1,-1,-1,-1,-1,-1,-1,-1,-1,-1,-1,-1,-1,-1,-1,-1,-1,-1,-1,-1,-1,-1,-1,-1,-1],"split_conditions":[1.033E1,3.35E0,1.639E1,2.16E0,2.3293379E2,1.7057314E1,1.797E1,5E-1,9.536333E0,4.56333E1,1.1874544E1,4.6905E0,1.8861568E2,1.4000002E0,2.153E1,1.12E0,2.6690277E2,2.563847E1,1.5857165E1,1.2682018E1,3.43E0,2.3678108E2,1E-1,4.7871143E1,1.2923572E2,9E-1,3.7634165E0,-5.824167E-1,3.4050834E0,4.719666E0,2.1372566E2,-1.2865833E0,2.3166218E1,9.536333E0,2.8802248E1,2.5509243E1,3.0863335E0,2.86E1,7.3E0,1.3864633E1,1.76155E1,1.9813087E1,4.5E0,2.9680377E-1,1E-1,1.3428002E1,2.0870687E1,1.26E1,3.072537E2,1.205E1,3.072537E2,1.858451E1,1.0975918E1,3.603E0,4E-1,5.6695234E-2,1.9361507E1,1.154737E-1,-6.006172E-2,1.3675834E0,1.6815498E1,2.1767351E1,1.0075917E1,-3.5091653E-2,-8.054373E-2,-5.892849E-2,-3.0499969E-2,-1.01269735E-2,-4.7582325E-2,-8.687259E-2,-4.6883173E-2,1.31567465E-2,4.2694378E-1,-9.754846E-2,-3.672022E-2,-5.0697166E-2,6.907654E-2,-2.3935376E-2,3.48906E-2,-5.4764133E-2,8.458725E-2,-8.348986E-2,1.0491567E-2,2.608378E-2,6.537246E-1,4.3916083E-3,7.738631E-2,8.984546E-3,8.5509926E-2,-1.4551784E-2,5.722289E-2,-6.748495E-2,-1.4226592E-2,8.574045E-3,-1.9395829E-3,4.057706E-1,-1.0341549E-2,-6.8720646E-2,-3.7539005E-3,2.2505616E-1,2.0490697E-2,3.2582503E-2,-7.155885E-2,4.0854135E-1,-1.6353012E-3,2.434109E-2,2.6485264E-1,1.0067637E-1,-4.00643E-2,4.0478835E-1,1.0779842E0,1.3498712E-3,3.305165E-1,-7.7266015E-2,1.9845264E-1,6.648829E-1,9.198227E-2,7.2533816E-2,2.8270635E-1],"split_indices":[0,0,0,0,4,3,0,2,1,4,3,1,4,2,0,0,4,3,1,3,0,4,2,4,4,2,1,1,1,1,4,1,3,1,3,3,1,2,2,4,1,3,0,0,2,1,3,0,4,0,4,3,1,1,2,0,3,0,0,1,1,3,1,0,0,0,0,0,0,0,0,0,0,0,0,0,0,0,0,0,0,0,0,0,0,0,0,0,0,0,0,0,0,0,0,0,0,0,0,0,0,0,0,0,0,0,0,0,0,0,0,0,0,0,0,0,0,0,0],"split_type":[0,0,0,0,0,0,0,0,0,0,0,0,0,0,0,0,0,0,0,0,0,0,0,0,0,0,0,0,0,0,0,0,0,0,0,0,0,0,0,0,0,0,0,0,0,0,0,0,0,0,0,0,0,0,0,0,0,0,0,0,0,0,0,0,0,0,0,0,0,0,0,0,0,0,0,0,0,0,0,0,0,0,0,0,0,0,0,0,0,0,0,0,0,0,0,0,0,0,0,0,0,0,0,0,0,0,0,0,0,0,0,0,0,0,0,0,0,0,0],"sum_hessian":[1.806E3,1.678E3,1.28E2,1.058E3,6.2E2,7.7E1,5.1E1,6.64E2,3.94E2,4.16E2,2.04E2,3.1E1,4.6E1,7E0,4.4E1,3.37E2,3.27E2,1.88E2,2.06E2,4.8E1,3.68E2,1.3E1,1.91E2,1.6E1,1.5E1,1.5E1,3.1E1,5E0,2E0,2.1E1,2.3E1,1.02E2,2.35E2,2.76E2,5.1E1,1.41E2,4.7E1,1.42E2,6.4E1,1.5E1,3.3E1,1E1,3.58E2,1E0,1.2E1,6.5E1,1.26E2,2E0,1.4E1,4E0,1.1E1,7E0,8E0,3E0,2.8E1,1E0,4E0,1E0,1E0,1.1E1,1E1,1.2E1,1.1E1,4E0,9.8E1,2.03E2,3.2E1,1.23E2,1.53E2,4.3E1,8E0,1.39E2,2E0,1.7E1,3E1,1.41E2,1E0,5.3E1,1.1E1,3E0,1.2E1,2.9E1,4E0,7E0,3E0,1.37E2,2.21E2,8E0,4E0,4.3E1,2.2E1,4E1,8.6E1,1E0,1E0,1.3E1,1E0,3E0,1E0,8E0,3E0,3E0,4E0,7E0,1E0,2E0,1E0,8E0,2E1,2E0,2E0,4E0,7E0,7E0,3E0,9E0,3E0,9E0,2E0],"tree_param":{"num_deleted":"0","num_feature":"7","num_nodes":"119","size_leaf_vector":"1"}},{"base_weights":[2.818178E-2,-2.8117457E-1,4.054392E0,-8.493997E-1,3.764018E-1,2.7456362E0,5.9395566E0,-1.13E0,-6.544365E-1,7.3404515E-1,-3.4448072E-1,4.470179E0,1.5130618E0,1.1296623E1,4.855199E0,2.7422354E-1,-1.1781037E0,-5.3802884E-1,-1.0194639E0,2.0244004E-1,1.2274913E0,2.2102575E-1,-6.3679415E-1,6.364481E0,2.178097E0,3.6301408E0,4.0723914E-1,1.4701987E1,7.203558E-1,2.4617164E0,6.846925E0,-1.0166035E0,3.4327352E0,-1.2538935E0,-2.4549803E-1,-9.3429494E-1,-3.8995063E-1,-1.0966305E0,-9.899816E-2,-1.6511099E-1,1.3314692E0,2.279117E0,2.3470196E-1,2.904952E0,-7.9916984E-2,1.6417906E0,-7.012021E-1,6.2713623E-3,7.211824E0,-1.0875783E0,3.357287E0,-5.450994E-1,6.9381166E0,2.9352593E0,4.4504E-2,5.527785E-2,1.7200161E1,1.12586856E-1,-5.856017E-2,4.224884E0,3.1446832E-1,1.0313482E1,2.5209107E0,-1.396203E-2,-5.33753E-2,2.530677E-1,-3.6328E-2,-6.402927E-2,-1.1406243E-3,3.0277131E-2,-5.1171806E-2,-1.104424E-2,-5.5506874E-2,9.502015E-3,-3.353961E-2,-4.5512006E-2,-6.94709E-2,1.53562E-2,-6.421826E-2,2.9932618E-2,-2.1283275E-2,8.280363E-2,-7.277834E-2,1.4552449E-1,-2.0966565E-3,-1.2901718E-2,6.9528185E-2,3.987306E-2,2.6699752E-1,1.8789599E-2,-2.5601137E-2,9.477874E-2,1.5666354E-2,-6.393052E-2,-2.1077102E-2,-7.8893425E-3,8.359695E-3,3.8778815E-1,-1.0083008E-2,-6.614362E-2,-3.660059E-3,2.1505366E-1,1.9722298E-2,-1.1813896E-1,2.60545E-3,3.9066765E-1,-1.5944242E-3,2.3529729E-2,2.5823134E-1,9.620186E-2,-3.8156476E-2,3.912954E-1,1.0420514E0,1.2958741E-3,3.1605637E-1,-7.388563E-2,1.9101064E-1,6.349632E-1,8.8532925E-2,6.92698E-2,2.7328283E-1],"categories":[],"categories_nodes":[],"categories_segments":[],"categories_sizes":[],"default_left":[1,1,0,1,0,0,0,0,0,0,0,0,0,0,0,0,0,0,0,0,0,0,0,0,0,0,0,0,0,0,0,0,0,0,0,0,0,0,0,0,0,0,0,0,0,0,0,0,0,0,0,0,0,0,0,0,0,0,0,0,0,0,0,0,0,0,0,0,0,0,0,0,0,0,0,0,0,0,0,0,0,0,0,0,0,0,0,0,0,0,0,0,0,0,0,0,0,0,0,0,0,0,0,0,0,0,0,0,0,0,0,0,0,0,0,0,0,0,0,0,0],"id":14,"left_children":[1,3,5,7,9,11,13,15,17,19,21,23,25,27,29,31,33,35,37,39,41,43,45,47,49,51,53,55,57,59,61,63,65,67,69,71,73,75,77,79,81,83,85,87,89,91,93,95,97,99,101,103,105,107,109,-1,111,-1,-1,113,115,117,119,-1,-1,-1,-1,-1,-1,-1,-1,-1,-1,-1,-1,-1,-1,-1,-1,-1,-1,-1,-1,-1,-1,-1,-1,-1,-1,-1,-1,-1,-1,-1,-1,-1,-1,-1,-1,-1,-1,-1,-1,-1,-1,-1,-1,-1,-1,-1,-1,-1,-1,-1,-1,-1,-1,-1,-1,-1,-1],"loss_changes":[2.2518196E3,6.276805E2,3.0196338E2,4.855121E1,2.0109373E2,1.5903528E2,2.472196E2,2.5180847E1,2.2142227E1,1.364194E2,4.295478E1,1.25078186E2,1.08554016E2,2.775376E2,1.9766699E2,5.6491932E1,2.485498E1,2.3517776E1,8.98317E0,1.04793755E2,2.813567E2,7.211817E1,2.6247017E1,9.154376E1,6.526495E1,2.2476747E2,2.9213425E1,1.8478174E2,1.1327337E1,8.196251E1,3.3391382E2,7.724571E-2,3.0772999E1,1.0781616E1,1.9157326E1,1.3554039E1,4.8667374E1,5.174881E0,5.6899004E0,3.8264202E1,5.8500725E1,1.9209558E2,8.009373E1,4.1927223E1,1.6142485E1,1.0917788E0,2.6427841E1,1.0558298E-1,6.205127E1,1.0965486E0,3.1858917E1,8.807391E0,5.515277E1,1.954813E1,4.5489536E1,0E0,7.552002E0,0E0,0E0,1.05460846E2,7.475739E1,2.4247083E2,3.2553528E1,0E0,0E0,0E0,0E0,0E0,0E0,0E0,0E0,0E0,0E0,0E0,0E0,0E0,0E0,0E0,0E0,0E0,0E0,0E0,0E0,0E0,0E0,0E0,0E0,0E0,0E0,0E0,0E0,0E0,0E0,0E0,0E0,0E0,0E0,0E0,0E0,0E0,0E0,0E0,0E0,0E0,0E0,0E0,0E0,0E0,0E0,0E0,0E0,0E0,0E0,0E0,0E0,0E0,0E0,0E0,0E0,0E0,0E0],"parents":[2147483647,0,0,1,1,2,2,3,3,4,4,5,5,6,6,7,7,8,8,9,9,10,10,11,11,12,12,13,13,14,14,15,15,16,16,17,17,18,18,19,19,20,20,21,21,22,22,23,23,24,24,25,25,26,26,27,27,28,28,29,29,30,30,31,31,32,32,33,33,34,34,35,35,36,36,37,37,38,38,39,39,40,40,41,41,42,42,43,43,44,44,45,45,46,46,47,47,48,48,49,49,50,50,51,51,52,52,53,53,54,54,56,56,59,59,60,60,61,61,62,62],"right_children":[2,4,6,8,10,12,14,16,18,20,22,24,26,28,30,32,34,36,38,40,42,44,46,48,50,52,54,56,58,60,62,64,66,68,70,72,74,76,78,80,82,84,86,88,90,92,94,96,98,100,102,104,106,108,110,-1,112,-1,-1,114,116,118,120,-1,-1,-1,-1,-1,-1,-1,-1,-1,-1,-1,-1,-1,-1,-1,-1,-1,-1,-1,-1,-1,-1,-1,-1,-1,-1,-1,-1,-1,-1,-1,-1,-1,-1,-1,-1,-1,-1,-1,-1,-1,-1,-1,-1,-1,-1,-1,-1,-1,-1,-1,-1,-1,-1,-1,-1,-1,-1],"split_conditions":[1.033E1,2.8E0,1.639E1,1.52E0,2.3293379E2,1.7057314E1,1.797E1,1.0594036E1,2.5714746E2,1.5281337E2,1E-1,4.6905E0,1.8861568E2,1.4000002E0,2.153E1,1.0495713E1,8.7E0,1.0064301E2,3.20405E1,6.4E0,9.382167E0,2.3986887E2,1.1720751E1,9.504272E0,1.2923572E2,9E-1,3.7634165E0,-5.824167E-1,3.4050834E0,4.719666E0,2.1372566E2,-3.8719997E0,1.43E0,1.8586336E1,1.28E1,1.257426E1,6.794667E0,6E-1,2.7591794E2,-7.825001E-2,1.3952048E2,2.8357857E1,5.14E0,1.5778E1,2.7940073E2,6.4E0,2.0870687E1,1.157E1,3.072537E2,1.205E1,3.072537E2,1.063E1,1.0975918E1,3.603E0,4E-1,5.527785E-2,1.9361507E1,1.12586856E-1,-5.856017E-2,1.3675834E0,1.6815498E1,2.1767351E1,1.0075917E1,-1.396203E-2,-5.33753E-2,2.530677E-1,-3.6328E-2,-6.402927E-2,-1.1406243E-3,3.0277131E-2,-5.1171806E-2,-1.104424E-2,-5.5506874E-2,9.502015E-3,-3.353961E-2,-4.5512006E-2,-6.94709E-2,1.53562E-2,-6.421826E-2,2.9932618E-2,-2.1283275E-2,8.280363E-2,-7.277834E-2,1.4552449E-1,-2.0966565E-3,-1.2901718E-2,6.9528185E-2,3.987306E-2,2.6699752E-1,1.8789599E-2,-2.5601137E-2,9.477874E-2,1.5666354E-2,-6.393052E-2,-2.1077102E-2,-7.8893425E-3,8.359695E-3,3.8778815E-1,-1.0083008E-2,-6.614362E-2,-3.660059E-3,2.1505366E-1,1.9722298E-2,-1.1813896E-1,2.60545E-3,3.9066765E-1,-1.5944242E-3,2.3529729E-2,2.5823134E-1,9.620186E-2,-3.8156476E-2,3.912954E-1,1.0420514E0,1.2958741E-3,3.1605637E-1,-7.388563E-2,1.9101064E-1,6.349632E-1,8.8532925E-2,6.92698E-2,2.7328283E-1],"split_indices":[0,0,0,0,4,3,0,3,4,4,2,1,4,2,0,3,2,4,3,0,1,4,3,3,4,2,1,1,1,1,4,1,0,1,2,3,1,2,4,1,4,3,0,1,4,0,3,0,4,0,4,0,1,1,2,0,3,0,0,1,1,3,1,0,0,0,0,0,0,0,0,0,0,0,0,0,0,0,0,0,0,0,0,0,0,0,0,0,0,0,0,0,0,0,0,0,0,0,0,0,0,0,0,0,0,0,0,0,0,0,0,0,0,0,0,0,0,0,0,0,0],"split_type":[0,0,0,0,0,0,0,0,0,0,0,0,0,0,0,0,0,0,0,0,0,0,0,0,0,0,0,0,0,0,0,0,0,0,0,0,0,0,0,0,0,0,0,0,0,0,0,0,0,0,0,0,0,0,0,0,0,0,0,0,0,0,0,0,0,0,0,0,0,0,0,0,0,0,0,0,0,0,0,0,0,0,0,0,0,0,0,0,0,0,0,0,0,0,0,0,0,0,0,0,0,0,0,0,0,0,0,0,0,0,0,0,0,0,0,0,0,0,0,0,0],"sum_hessian":[1.806E3,1.678E3,1.28E2,9E2,7.78E2,7.7E1,5.1E1,3.67E2,5.33E2,5.2E2,2.58E2,3.1E1,4.6E1,7E0,4.4E1,1.2E1,3.55E2,4.06E2,1.27E2,2.51E2,2.69E2,8.8E1,1.7E2,1.6E1,1.5E1,1.5E1,3.1E1,5E0,2E0,2.1E1,2.3E1,9E0,3E0,3.28E2,2.7E1,1.09E2,2.97E2,1.17E2,1E1,1.9E2,6.1E1,1.3E2,1.39E2,8E0,8E1,4E0,1.66E2,2E0,1.4E1,4E0,1.1E1,7E0,8E0,3E0,2.8E1,1E0,4E0,1E0,1E0,1.1E1,1E1,1.2E1,1.1E1,1E0,8E0,2E0,1E0,3.21E2,7E0,1.3E1,1.4E1,2.2E1,8.7E1,9.7E1,2E2,7.4E1,4.3E1,8E0,2E0,4.8E1,1.42E2,5.5E1,6E0,1.02E2,2.8E1,9.8E1,4.1E1,5E0,3E0,3.9E1,4.1E1,3E0,1E0,5.3E1,1.13E2,1E0,1E0,1.3E1,1E0,3E0,1E0,8E0,3E0,1E0,6E0,7E0,1E0,2E0,1E0,8E0,2E1,2E0,2E0,4E0,7E0,7E0,3E0,9E0,3E0,9E0,2E0],"tree_param":{"num_deleted":"0","num_feature":"7","num_nodes":"121","size_leaf_vector":"1"}},{"base_weights":[2.9292217E-2,-2.6690555E-1,3.884228E0,-7.1330225E-1,4.947708E-1,2.6231813E0,5.7011013E0,-8.7408006E-1,-2.3788008E-1,7.725109E-1,-3.5248336E-1,4.2636433E0,1.4504586E0,1.0924624E1,4.645784E0,-1.1280721E0,-7.0716417E-1,2.2786489E-1,-7.2299314E-1,3.6156824E0,6.833309E-1,3.183803E-1,-5.906669E-1,-6.4500636E-1,4.987915E0,3.46573E0,3.9749616E-1,1.4214993E1,7.02347E-1,2.3583796E0,6.5489974E0,-4.343584E-1,-1.1949371E0,-4.3641952E-1,-1.0808026E0,-4.883563E-2,9.509541E0,-8.589335E-1,8.121952E-2,5.0991837E-2,1.2514661E1,4.0429273E-1,1.6330118E0,5.790246E-2,1.5752866E0,-9.7743714E-1,-3.8494617E-2,8.150697E-3,-8.8776493E-1,6.8867965E0,2.5971196E0,-5.3228605E-1,6.634441E0,2.8589365E0,4.428038E-2,5.3895902E-2,1.6626823E1,1.0977218E-1,-5.709616E-2,4.040086E0,3.0939272E-1,9.853461E0,2.4234114E0,1.1615837E-2,-5.3603817E-2,-6.9842644E-2,-4.9303856E-2,-5.1907655E-2,-9.3137985E-3,-6.161159E-2,1.0364524E-2,-3.0184949E-2,6.420287E-2,7.6394014E-2,5.8304006E-1,-2.4467194E-2,-5.5268895E-2,-6.912814E-3,1.062815E-1,7.827229E-2,-3.5630457E-2,1.000555E0,1.6727401E-1,4.1612938E-2,-9.706071E-3,-8.966924E-3,9.719866E-2,3.0580569E-2,-3.189263E-2,1.5641463E-1,-1.8577052E-2,-5.369422E-2,4.0503927E-2,-4.019592E-2,1.3438738E-2,-5.1460464E-2,-1.1585796E-2,3.7033996E-1,-9.830934E-3,4.0816467E-2,2.1306458E-1,-5.0145764E-2,6.905296E-2,3.7357596E-1,-1.5545607E-3,2.2745399E-2,2.5177556E-1,9.1926225E-2,-3.63395E-2,3.7825224E-1,1.0073165E0,1.2440324E-3,3.022289E-1,-7.065313E-2,1.8384776E-1,6.351885E-1,1.3761064E-1,1.5772139E-1,-4.1055683E-2],"categories":[],"categories_nodes":[],"categories_segments":[],"categories_sizes":[],"default_left":[1,1,0,1,0,0,0,0,0,0,0,0,0,0,0,0,0,0,0,0,0,0,0,0,0,0,0,0,0,0,0,0,0,0,0,0,0,0,0,0,0,0,0,0,0,0,0,0,0,0,0,0,0,0,0,0,0,0,0,0,0,0,0,0,0,0,0,0,0,0,0,0,0,0,0,0,0,0,0,0,0,0,0,0,0,0,0,0,0,0,0,0,0,0,0,0,0,0,0,0,0,0,0,0,0,0,0,0,0,0,0,0,0,0,0,0,0,0,0],"id":15,"left_children":[1,3,5,7,9,11,13,15,17,19,21,23,25,27,29,31,33,35,37,39,41,43,45,47,49,51,53,55,57,59,61,63,65,67,69,71,73,75,77,79,81,83,85,87,89,91,93,-1,95,97,99,101,103,105,107,-1,109,-1,-1,111,113,115,117,-1,-1,-1,-1,-1,-1,-1,-1,-1,-1,-1,-1,-1,-1,-1,-1,-1,-1,-1,-1,-1,-1,-1,-1,-1,-1,-1,-1,-1,-1,-1,-1,-1,-1,-1,-1,-1,-1,-1,-1,-1,-1,-1,-1,-1,-1,-1,-1,-1,-1,-1,-1,-1,-1,-1,-1],"loss_changes":[2.0643115E3,5.712294E2,2.8060474E2,8.07392E1,1.4640384E2,1.4387268E2,2.3589539E2,3.2737E1,6.094232E1,1.161926E2,2.4795515E1,1.1698346E2,9.835662E1,2.5909656E2,1.804588E2,1.39530945E1,4.8085373E1,3.5488217E2,1.4500664E1,4.434713E2,1.1991351E2,1.3332032E1,2.4308647E1,1.1254873E0,1.09229675E2,2.0622833E2,2.7694832E1,1.7218408E2,1.0768048E1,7.455749E1,3.0330945E2,1.257843E1,1.0599518E1,4.1952152E1,3.9461426E1,1.006176E2,5.086618E1,9.751503E0,9.267854E0,1.3836373E1,2.0799811E2,9.0565186E1,5.8396423E1,1.3873721E1,2.232633E1,1.2420799E1,1.1505254E1,0E0,1.3269353E-1,5.6707153E1,3.801095E1,8.588894E0,5.0448425E1,1.8639492E1,4.1457382E1,0E0,7.057007E0,0E0,0E0,9.6430984E1,6.900099E1,2.2816638E2,3.105175E1,0E0,0E0,0E0,0E0,0E0,0E0,0E0,0E0,0E0,0E0,0E0,0E0,0E0,0E0,0E0,0E0,0E0,0E0,0E0,0E0,0E0,0E0,0E0,0E0,0E0,0E0,0E0,0E0,0E0,0E0,0E0,0E0,0E0,0E0,0E0,0E0,0E0,0E0,0E0,0E0,0E0,0E0,0E0,0E0,0E0,0E0,0E0,0E0,0E0,0E0,0E0,0E0,0E0,0E0,0E0,0E0],"parents":[2147483647,0,0,1,1,2,2,3,3,4,4,5,5,6,6,7,7,8,8,9,9,10,10,11,11,12,12,13,13,14,14,15,15,16,16,17,17,18,18,19,19,20,20,21,21,22,22,23,23,24,24,25,25,26,26,27,27,28,28,29,29,30,30,31,31,32,32,33,33,34,34,35,35,36,36,37,37,38,38,39,39,40,40,41,41,42,42,43,43,44,44,45,45,46,46,48,48,49,49,50,50,51,51,52,52,53,53,54,54,56,56,59,59,60,60,61,61,62,62],"right_children":[2,4,6,8,10,12,14,16,18,20,22,24,26,28,30,32,34,36,38,40,42,44,46,48,50,52,54,56,58,60,62,64,66,68,70,72,74,76,78,80,82,84,86,88,90,92,94,-1,96,98,100,102,104,106,108,-1,110,-1,-1,112,114,116,118,-1,-1,-1,-1,-1,-1,-1,-1,-1,-1,-1,-1,-1,-1,-1,-1,-1,-1,-1,-1,-1,-1,-1,-1,-1,-1,-1,-1,-1,-1,-1,-1,-1,-1,-1,-1,-1,-1,-1,-1,-1,-1,-1,-1,-1,-1,-1,-1,-1,-1,-1,-1,-1,-1,-1,-1],"split_conditions":[1.033E1,3.35E0,1.639E1,2.49E0,2.4719026E2,1.7057314E1,1.797E1,1E-1,2.0859827E2,3.43E0,1.6071491E1,4.7871143E1,1.8861568E2,1.4000002E0,2.153E1,-1.2865833E0,2.2243004E2,2.0647006E2,1.6675915E1,2.1924562E1,7.17E0,1.4764389E1,2.81169E1,8.287822E0,4.6905E0,9E-1,3.7634165E0,-5.824167E-1,3.4050834E0,4.719666E0,2.1372566E2,1.4618837E1,1.8808131E2,9.546422E1,3.374796E1,1.7566371E2,2.73E0,7.594667E0,2.281957E1,1.5021105E1,2.7571666E0,1.7000003E0,6.725157E1,1.2682018E1,3.029351E2,1.8128E1,4.6175838E0,8.150697E-3,1.205E1,3.072537E2,1.0498834E1,9.450916E0,1.0975918E1,3.603E0,4E-1,5.3895902E-2,1.9361507E1,1.0977218E-1,-5.709616E-2,1.3675834E0,1.6815498E1,3.4999995E0,1.02E1,1.1615837E-2,-5.3603817E-2,-6.9842644E-2,-4.9303856E-2,-5.1907655E-2,-9.3137985E-3,-6.161159E-2,1.0364524E-2,-3.0184949E-2,6.420287E-2,7.6394014E-2,5.8304006E-1,-2.4467194E-2,-5.5268895E-2,-6.912814E-3,1.062815E-1,7.827229E-2,-3.5630457E-2,1.000555E0,1.6727401E-1,4.1612938E-2,-9.706071E-3,-8.966924E-3,9.719866E-2,3.0580569E-2,-3.189263E-2,1.5641463E-1,-1.8577052E-2,-5.369422E-2,4.0503927E-2,-4.019592E-2,1.3438738E-2,-5.1460464E-2,-1.1585796E-2,3.7033996E-1,-9.830934E-3,4.0816467E-2,2.1306458E-1,-5.0145764E-2,6.905296E-2,3.7357596E-1,-1.5545607E-3,2.2745399E-2,2.5177556E-1,9.1926225E-2,-3.63395E-2,3.7825224E-1,1.0073165E0,1.2440324E-3,3.022289E-1,-7.065313E-2,1.8384776E-1,6.351885E-1,1.3761064E-1,1.5772139E-1,-4.1055683E-2],"split_indices":[0,0,0,0,4,3,0,2,4,0,3,4,4,2,0,1,4,4,1,3,0,3,3,3,1,2,1,1,1,1,4,3,4,4,3,4,0,1,3,3,1,2,4,3,4,1,1,0,0,4,1,1,1,1,2,0,3,0,0,1,1,2,2,0,0,0,0,0,0,0,0,0,0,0,0,0,0,0,0,0,0,0,0,0,0,0,0,0,0,0,0,0,0,0,0,0,0,0,0,0,0,0,0,0,0,0,0,0,0,0,0,0,0,0,0,0,0,0,0],"split_type":[0,0,0,0,0,0,0,0,0,0,0,0,0,0,0,0,0,0,0,0,0,0,0,0,0,0,0,0,0,0,0,0,0,0,0,0,0,0,0,0,0,0,0,0,0,0,0,0,0,0,0,0,0,0,0,0,0,0,0,0,0,0,0,0,0,0,0,0,0,0,0,0,0,0,0,0,0,0,0,0,0,0,0,0,0,0,0,0,0,0,0,0,0,0,0,0,0,0,0,0,0,0,0,0,0,0,0,0,0,0,0,0,0,0,0,0,0,0,0],"sum_hessian":[1.806E3,1.678E3,1.28E2,1.058E3,6.2E2,7.7E1,5.1E1,7.9E2,2.68E2,4.67E2,1.53E2,3.1E1,4.6E1,7E0,4.4E1,3.11E2,4.79E2,1.37E2,1.31E2,1.3E1,4.54E2,4E1,1.13E2,4E0,2.7E1,1.5E1,3.1E1,5E0,2E0,2.1E1,2.3E1,2.8E1,2.83E2,2.79E2,2E2,1.34E2,3E0,1.12E2,1.9E1,1E1,3E0,3.52E2,1.02E2,3.4E1,6E0,6.6E1,4.7E1,1E0,3E0,1.4E1,1.3E1,7E0,8E0,3E0,2.8E1,1E0,4E0,1E0,