{"learner":{"attributes":{"scikit_learn":"{\"_estimator_type\": \"regressor\"}"},"feature_names":["pm25_rolling_3d","pm25_lag_1d","pm25_lag_2d","pm25_lag_3d","pm25_nearby_avg","temperature_2m_mean","precipitation_sum","wind_speed_10m_max","wind_direction_10m_dominant","latitude","longitude"],"feature_types":["float","float","float","float","float","float","float","float","float","float","float"],"gradient_booster":{"model":{"gbtree_model_param":{"num_parallel_tree":"1","num_trees":"100"},"iteration_indptr":[0,1,2,3,4,5,6,7,8,9,10,11,12,13,14,15,16,17,18,19,20,21,22,23,24,25,26,27,28,29,30,31,32,33,34,35,36,37,38,39,40,41,42,43,44,45,46,47,48,49,50,51,52,53,54,55,56,57,58,59,60,61,62,63,64,65,66,67,68,69,70,71,72,73,74,75,76,77,78,79,80,81,82,83,84,85,86,87,88,89,90,91,92,93,94,95,96,97,98,99,100],"tree_info":[0,0,0,0,0,0,0,0,0,0,0,0,0,0,0,0,0,0,0,0,0,0,0,0,0,0,0,0,0,0,0,0,0,0,0,0,0,0,0,0,0,0,0,0,0,0,0,0,0,0,0,0,0,0,0,0,0,0,0,0,0,0,0,0,0,0,0,0,0,0,0,0,0,0,0,0,0,0,0,0,0,0,0,0,0,0,0,0,0,0,0,0,0,0,0,0,0,0,0,0],"trees":[{"base_weights":[-7.6840124E-8,-6.92223E-1,5.384335E0,-1.5203248E0,8.173414E-1,7.699067E0,1.2451526E0,-2.0826068E0,-1.1496892E0,1.6647066E0,-5.814691E-1,5.4962525E0,1.2887559E1,4.021589E0,1.4236902E-1,-2.2956629E0,-1.7104287E0,-8.485813E-1,-1.7779027E0,-1.287872E-1,2.4689643E0,-2.1552024E-2,-1.0359185E0,1.8172773E0,6.8220925E0,1.3458914E1,1.7354454E0,-8.1069297E-1,5.5823455E0,3.8348763E0,-1.5003094E-1,6.0329217E-2,-2.3142748E0,1.3748763E0,-1.7822584E0,-1.5386527E0,-4.620655E-1,-1.2090201E0,-1.9003696E0,-1.0304762E0,7.118848E-1,1.8097769E0,3.9612072E0,1.2993175E0,-3.4302598E-1,-1.1282755E0,1.2585348E0,-1.1163118E-1,2.442596E0,8.679839E0,4.460882E0,1.6443895E-1,1.3960428E1,1.310792E-1,-9.207904E-4,7.6579206E-2,-7.927326E-2,4.0211225E-1,6.2936563E0,4.957921E-2,2.2260562E-1,1.9946006E-1,-2.0534775E0,-3.1631183E-2,-1.16596214E-1,-7.639439E-2,2.5207922E-1,-8.112188E-2,-1.361995E-1,-8.2653865E-2,-2.3851478E-2,3.3591483E-2,-5.2113414E-2,-7.037669E-2,4.2153536E-3,-8.243223E-2,-1.09234154E-1,-6.4674735E-2,4.413579E-2,-5.464166E-3,1.118255E-1,3.8182076E-2,1.6214915E-1,3.013911E-1,8.3487354E-2,1.2416749E-2,1.2197416E-1,1.3160561E-1,-2.2797609E-2,-2.597173E-2,-8.383579E-2,1.0136882E-1,-4.5420792E-2,1.5307114E-1,-1.9873261E-2,3.129435E-1,6.1050427E-1,2.92855E-1,1.3492976E-1,7.718446E-1,4.0719637E-1,5.582921E-2,-2.5670791E-2,1.2972674E-1,3.7569258E-1,3.6236476E-2,-4.3218806E-2,-2.9207885E-3,-1.1650707E-1],"categories":[],"categories_nodes":[],"categories_segments":[],"categories_sizes":[],"default_left":[1,1,0,0,0,0,0,0,0,0,0,0,0,0,0,0,0,0,0,0,0,0,0,0,0,0,0,0,0,0,0,0,0,0,0,0,0,0,0,0,0,0,0,0,0,0,0,0,0,0,0,0,0,0,0,0,0,0,0,0,0,0,0,0,0,0,0,0,0,0,0,0,0,0,0,0,0,0,0,0,0,0,0,0,0,0,0,0,0,0,0,0,0,0,0,0,0,0,0,0,0,0,0,0,0,0,0,0,0],"id":0,"left_children":[1,3,5,7,9,11,13,15,17,19,21,23,25,27,29,31,33,35,37,39,41,43,45,47,49,51,53,55,57,59,61,-1,63,65,67,69,71,73,75,77,79,81,83,85,87,89,91,-1,93,95,97,-1,99,-1,-1,-1,-1,101,103,-1,-1,105,107,-1,-1,-1,-1,-1,-1,-1,-1,-1,-1,-1,-1,-1,-1,-1,-1,-1,-1,-1,-1,-1,-1,-1,-1,-1,-1,-1,-1,-1,-1,-1,-1,-1,-1,-1,-1,-1,-1,-1,-1,-1,-1,-1,-1,-1,-1],"loss_changes":[6.6418E3,1.9751079E3,1.9353765E3,2.101753E2,6.647379E2,1.4149741E3,2.2600128E2,2.810852E1,1.15203E2,5.0372644E2,5.3921913E1,4.4123145E2,2.1877148E2,1.6290787E2,5.887855E1,1.9349121E1,3.591449E1,1.1104617E2,1.1566589E1,8.335828E1,2.2989502E2,4.1209717E1,2.6213333E1,7.129784E1,2.5956445E2,1.377041E2,4.7107697E0,1.3316662E1,5.6425385E1,2.6052856E0,3.43367E1,0E0,6.0338135E0,5.0277325E1,1.7855713E1,1.74328E1,1.7833026E2,9.874893E0,7.9923706E0,2.7811642E1,7.160691E1,2.5090991E2,3.3563135E2,2.2161777E1,2.740585E1,3.686119E1,1.0171908E1,0E0,4.1639435E1,2.3980371E2,6.2931213E1,0E0,1.6627051E2,0E0,0E0,0E0,0E0,2.5356293E0,4.3696167E1,0E0,0E0,2.5213667E1,4.2795715E0,0E0,0E0,0E0,0E0,0E0,0E0,0E0,0E0,0E0,0E0,0E0,0E0,0E0,0E0,0E0,0E0,0E0,0E0,0E0,0E0,0E0,0E0,0E0,0E0,0E0,0E0,0E0,0E0,0E0,0E0,0E0,0E0,0E0,0E0,0E0,0E0,0E0,0E0,0E0,0E0,0E0,0E0,0E0,0E0,0E0,0E0],"parents":[2147483647,0,0,1,1,2,2,3,3,4,4,5,5,6,6,7,7,8,8,9,9,10,10,11,11,12,12,13,13,14,14,15,15,16,16,17,17,18,18,19,19,20,20,21,21,22,22,23,23,24,24,25,25,26,26,27,27,28,28,29,29,30,30,32,32,33,33,34,34,35,35,36,36,37,37,38,38,39,39,40,40,41,41,42,42,43,43,44,44,45,45,46,46,48,48,49,49,50,50,52,52,57,57,58,58,61,61,62,62],"right_children":[2,4,6,8,10,12,14,16,18,20,22,24,26,28,30,32,34,36,38,40,42,44,46,48,50,52,54,56,58,60,62,-1,64,66,68,70,72,74,76,78,80,82,84,86,88,90,92,-1,94,96,98,-1,100,-1,-1,-1,-1,102,104,-1,-1,106,108,-1,-1,-1,-1,-1,-1,-1,-1,-1,-1,-1,-1,-1,-1,-1,-1,-1,-1,-1,-1,-1,-1,-1,-1,-1,-1,-1,-1,-1,-1,-1,-1,-1,-1,-1,-1,-1,-1,-1,-1,-1,-1,-1,-1,-1,-1],"split_conditions":[7.03E0,2.67E0,2.1554892E2,1.3E0,2.2814908E2,1.347E1,1.5281989E1,1.2E0,2.4882654E2,1.0982171E2,3E-1,1.1832608E2,2.968636E1,6.7933335E0,1.67E0,7.989243E0,1.0534229E1,1.3136511E2,1.3896187E1,3.88E0,4.47E0,2.4474434E2,1.6946917E1,4.4396984E1,2.5E0,9.237492E1,7.5866666E0,9E0,5.74E0,1.45E0,2.7546893E2,6.0329217E-2,-8.907251E0,1.4766667E0,2.6993942E2,1.7657331E1,9.626082E0,3.0233333E0,2.7546893E2,1.6467749E1,7.417453E1,2.185203E1,3.2000003E0,3.82E0,-6.401001E0,2.5044673E2,5.306667E0,-1.1163118E-1,1.0982171E2,1.7566371E2,1.860249E2,1.6443895E-1,7.1010833E0,1.310792E-1,-9.207904E-4,7.6579206E-2,-7.927326E-2,8.203333E0,8.55E0,4.957921E-2,2.2260562E-1,8.034416E0,1.6533333E0,-3.1631183E-2,-1.16596214E-1,-7.639439E-2,2.5207922E-1,-8.112188E-2,-1.361995E-1,-8.2653865E-2,-2.3851478E-2,3.3591483E-2,-5.2113414E-2,-7.037669E-2,4.2153536E-3,-8.243223E-2,-1.09234154E-1,-6.4674735E-2,4.413579E-2,-5.464166E-3,1.118255E-1,3.8182076E-2,1.6214915E-1,3.013911E-1,8.3487354E-2,1.2416749E-2,1.2197416E-1,1.3160561E-1,-2.2797609E-2,-2.597173E-2,-8.383579E-2,1.0136882E-1,-4.5420792E-2,1.5307114E-1,-1.9873261E-2,3.129435E-1,6.1050427E-1,2.92855E-1,1.3492976E-1,7.718446E-1,4.0719637E-1,5.582921E-2,-2.5670791E-2,1.2972674E-1,3.7569258E-1,3.6236476E-2,-4.3218806E-2,-2.9207885E-3,-1.1650707E-1],"split_indices":[1,1,8,1,8,1,7,6,8,8,6,8,7,0,2,7,7,8,7,1,1,8,5,8,6,8,0,7,2,2,8,0,5,0,8,5,5,4,8,5,8,7,6,1,5,8,0,0,8,8,8,0,5,0,0,0,0,0,1,0,0,5,4,0,0,0,0,0,0,0,0,0,0,0,0,0,0,0,0,0,0,0,0,0,0,0,0,0,0,0,0,0,0,0,0,0,0,0,0,0,0,0,0,0,0,0,0,0,0],"split_type":[0,0,0,0,0,0,0,0,0,0,0,0,0,0,0,0,0,0,0,0,0,0,0,0,0,0,0,0,0,0,0,0,0,0,0,0,0,0,0,0,0,0,0,0,0,0,0,0,0,0,0,0,0,0,0,0,0,0,0,0,0,0,0,0,0,0,0,0,0,0,0,0,0,0,0,0,0,0,0,0,0,0,0,0,0,0,0,0,0,0,0,0,0,0,0,0,0,0,0,0,0,0,0,0,0,0,0,0,0],"sum_hessian":[1.78E3,1.578E3,2.02E2,1.019E3,5.59E2,1.29E2,7.3E1,4.03E2,6.16E2,3.48E2,2.11E2,9.2E1,3.7E1,2E1,5.3E1,2.53E2,1.5E2,4.18E2,1.98E2,1.08E2,2.4E2,9.5E1,1.16E2,2.5E1,6.7E1,3.5E1,2E0,5E0,1.5E1,3E0,5E1,1E0,2.52E2,3E0,1.47E2,1.49E2,2.69E2,3.7E1,1.61E2,5.2E1,5.6E1,1.68E2,7.2E1,1.8E1,7.7E1,1.12E2,4E0,3E0,2.2E1,3.6E1,3.1E1,2E0,3.3E1,1E0,1E0,1E0,4E0,2E0,1.3E1,1E0,2E0,4.3E1,7E0,3E0,2.49E2,2E0,1E0,1.28E2,1.9E1,1.34E2,1.5E1,9.1E1,1.78E2,3.2E1,5E0,8.9E1,7.2E1,4.6E1,6E0,3.7E1,1.9E1,9.8E1,7E1,3.7E1,3.5E1,1E1,8E0,2E0,7.5E1,5.4E1,5.8E1,3E0,1E0,1.8E1,4E0,2.3E1,1.3E1,1.6E1,1.5E1,2.5E1,8E0,1E0,1E0,4E0,9E0,2.9E1,1.4E1,1E0,6E0],"tree_param":{"num_deleted":"0","num_feature":"11","num_nodes":"109","size_leaf_vector":"1"}},{"base_weights":[2.1745814E-3,-6.573915E-1,5.1324835E0,-1.444811E0,7.780107E-1,7.3360095E0,1.1920661E0,-2.050008E0,-1.1338083E0,1.7320198E0,-3.6985126E-1,5.2362013E0,1.2281961E1,3.845885E0,1.379501E-1,-2.27649E0,-1.7141631E0,-8.575938E-1,-1.7101783E0,4.4709662E-1,3.2324824E0,2.0649444E-1,-8.599885E-1,1.727243E0,6.500859E0,1.2823287E1,1.6920594E0,-7.706073E-1,5.336702E0,3.7111785E0,-1.4500803E-1,-3.5013357E-1,-2.2939157E0,1.3500537E0,-1.7894682E0,-1.5662819E0,-5.119138E-1,-8.7832314E-1,-1.7943946E0,-4.69806E-1,1.4386395E0,7.970466E-1,2.9349442E0,1.1920872E0,-3.95643E-1,-9.937488E-1,1.1676581E0,-1.0744502E-1,2.3262572E0,8.270805E0,4.2512064E0,1.5895765E-1,1.3297085E1,1.2780224E-1,-8.9777115E-4,7.4664734E-2,-7.610233E-2,3.9205942E-1,6.015075E0,4.8339732E-2,2.1518543E-1,1.8932836E-1,-1.9657322E0,5.036999E-2,-7.663001E-2,-1.1574908E-1,-3.388382E-2,-7.384791E-2,2.4577723E-1,-9.270462E-2,-1.8589477E-3,-8.390012E-2,-2.6287366E-2,2.3009013E-2,-5.2067935E-2,-5.6736764E-2,2.7960747E-2,-7.868356E-2,-1.02495395E-1,-7.3389895E-2,-1.0185068E-3,-5.657209E-3,1.2377596E-1,7.992755E-1,1.3622689E-1,3.594232E-2,1.8292083E-1,-6.308553E-2,-2.5756091E-3,-5.9518825E-2,1.9163473E-2,1.3095059E-1,-2.5861356E-2,1.6418102E-1,2.3608958E-2,1.8330513E-1,4.9202347E-1,-3.7489556E-2,2.3047996E-1,7.3473674E-1,3.8909876E-1,5.4433476E-2,-2.5029022E-2,1.2453767E-1,3.5878643E-1,3.4485042E-2,-4.1201927E-2,-1.1968019E-1,-2.2737253E-2],"categories":[],"categories_nodes":[],"categories_segments":[],"categories_sizes":[],"default_left":[1,1,0,0,0,0,0,0,0,0,0,0,0,0,0,0,0,0,0,0,0,0,0,0,0,0,0,0,0,0,0,0,0,0,0,0,0,0,0,0,0,0,0,0,0,0,0,0,0,0,0,0,0,0,0,0,0,0,0,0,0,0,0,0,0,0,0,0,0,0,0,0,0,0,0,0,0,0,0,0,0,0,0,0,0,0,0,0,0,0,0,0,0,0,0,0,0,0,0,0,0,0,0,0,0,0,0,0,0],"id":1,"left_children":[1,3,5,7,9,11,13,15,17,19,21,23,25,27,29,31,33,35,37,39,41,43,45,47,49,51,53,55,57,59,61,63,65,67,69,71,73,75,77,79,81,-1,83,85,87,89,91,-1,93,95,97,-1,99,-1,-1,-1,-1,101,103,-1,-1,105,107,-1,-1,-1,-1,-1,-1,-1,-1,-1,-1,-1,-1,-1,-1,-1,-1,-1,-1,-1,-1,-1,-1,-1,-1,-1,-1,-1,-1,-1,-1,-1,-1,-1,-1,-1,-1,-1,-1,-1,-1,-1,-1,-1,-1,-1,-1],"loss_changes":[6.0298823E3,1.7858103E3,1.7538657E3,1.8965796E2,6.1388025E2,1.285811E3,2.0647948E2,2.2339478E1,1.0615369E2,5.8851654E2,7.221214E1,4.014712E2,1.9614062E2,1.4864172E2,5.5136147E1,6.0112305E0,3.541327E1,1.1164371E2,1.3696106E1,1.515945E2,4.863706E2,7.050019E1,3.8588516E1,6.536741E1,2.3559912E2,1.2222363E2,4.478177E0,1.2479972E1,5.131076E1,2.3437195E0,3.141762E1,6.3596544E0,5.2747803E0,4.7578793E1,1.5784729E1,1.6555176E1,1.60027E2,8.743807E0,7.8844604E0,3.89925E1,1.2900111E2,0E0,3.3813E2,4.989271E1,2.1990005E1,3.565503E1,2.3362904E1,0E0,3.927514E1,2.3135376E2,6.0810547E1,0E0,1.4772461E2,0E0,0E0,0E0,0E0,2.4104326E0,3.9394257E1,0E0,0E0,2.287902E1,4.0835896E0,0E0,0E0,0E0,0E0,0E0,0E0,0E0,0E0,0E0,0E0,0E0,0E0,0E0,0E0,0E0,0E0,0E0,0E0,0E0,0E0,0E0,0E0,0E0,0E0,0E0,0E0,0E0,0E0,0E0,0E0,0E0,0E0,0E0,0E0,0E0,0E0,0E0,0E0,0E0,0E0,0E0,0E0,0E0,0E0,0E0,0E0],"parents":[2147483647,0,0,1,1,2,2,3,3,4,4,5,5,6,6,7,7,8,8,9,9,10,10,11,11,12,12,13,13,14,14,15,15,16,16,17,17,18,18,19,19,20,20,21,21,22,22,23,23,24,24,25,25,26,26,27,27,28,28,29,29,30,30,31,31,32,32,33,33,34,34,35,35,36,36,37,37,38,38,39,39,40,40,42,42,43,43,44,44,45,45,46,46,48,48,49,49,50,50,52,52,57,57,58,58,61,61,62,62],"right_children":[2,4,6,8,10,12,14,16,18,20,22,24,26,28,30,32,34,36,38,40,42,44,46,48,50,52,54,56,58,60,62,64,66,68,70,72,74,76,78,80,82,-1,84,86,88,90,92,-1,94,96,98,-1,100,-1,-1,-1,-1,102,104,-1,-1,106,108,-1,-1,-1,-1,-1,-1,-1,-1,-1,-1,-1,-1,-1,-1,-1,-1,-1,-1,-1,-1,-1,-1,-1,-1,-1,-1,-1,-1,-1,-1,-1,-1,-1,-1,-1,-1,-1,-1,-1,-1,-1,-1,-1,-1,-1,-1],"split_conditions":[7.03E0,2.67E0,2.1554892E2,1.2E0,2.140479E2,1.347E1,1.5281989E1,6E-1,2.4882654E2,1.5281337E2,2.5016772E2,1.1832608E2,2.968636E1,6.7933335E0,1.67E0,-8.907251E0,1.0534229E1,1.2000877E2,1.2682018E1,4E0,5.3E-1,1.5000001E0,3.441647E2,4.4396984E1,2.5E0,9.237492E1,7.5866666E0,9E0,5.74E0,1.45E0,2.7546893E2,8.0333334E-1,3.054701E1,1.4766667E0,1.9833333E0,1.7657331E1,9.626082E0,3.0233333E0,2.7546893E2,5.061587E1,7.417453E1,7.970466E-1,2.7E0,5.19E0,3.15E0,1.7326084E1,2.22E0,-1.0744502E-1,8.19E0,7.173333E0,1.6135834E0,1.5895765E-1,7.1010833E0,1.2780224E-1,-8.9777115E-4,7.4664734E-2,-7.610233E-2,8.203333E0,8.55E0,4.8339732E-2,2.1518543E-1,8.034416E0,9.34E0,5.036999E-2,-7.663001E-2,-1.1574908E-1,-3.388382E-2,-7.384791E-2,2.4577723E-1,-9.270462E-2,-1.8589477E-3,-8.390012E-2,-2.6287366E-2,2.3009013E-2,-5.2067935E-2,-5.6736764E-2,2.7960747E-2,-7.868356E-2,-1.02495395E-1,-7.3389895E-2,-1.0185068E-3,-5.657209E-3,1.2377596E-1,7.992755E-1,1.3622689E-1,3.594232E-2,1.8292083E-1,-6.308553E-2,-2.5756091E-3,-5.9518825E-2,1.9163473E-2,1.3095059E-1,-2.5861356E-2,1.6418102E-1,2.3608958E-2,1.8330513E-1,4.9202347E-1,-3.7489556E-2,2.3047996E-1,7.3473674E-1,3.8909876E-1,5.4433476E-2,-2.5029022E-2,1.2453767E-1,3.5878643E-1,3.4485042E-2,-4.1201927E-2,-1.1968019E-1,-2.2737253E-2],"split_indices":[1,1,8,1,8,1,7,6,8,8,8,8,7,0,2,5,7,8,7,1,3,6,8,8,6,8,0,7,2,2,8,0,7,0,4,5,5,4,8,8,8,0,1,1,1,5,3,0,3,4,5,0,5,0,0,0,0,0,1,0,0,5,0,0,0,0,0,0,0,0,0,0,0,0,0,0,0,0,0,0,0,0,0,0,0,0,0,0,0,0,0,0,0,0,0,0,0,0,0,0,0,0,0,0,0,0,0,0,0],"split_type":[0,0,0,0,0,0,0,0,0,0,0,0,0,0,0,0,0,0,0,0,0,0,0,0,0,0,0,0,0,0,0,0,0,0,0,0,0,0,0,0,0,0,0,0,0,0,0,0,0,0,0,0,0,0,0,0,0,0,0,0,0,0,0,0,0,0,0,0,0,0,0,0,0,0,0,0,0,0,0,0,0,0,0,0,0,0,0,0,0,0,0,0,0,0,0,0,0,0,0,0,0,0,0,0,0,0,0,0,0],"sum_hessian":[1.78E3,1.578E3,2.02E2,1.019E3,5.59E2,1.29E2,7.3E1,3.44E2,6.75E2,3.05E2,2.54E2,9.2E1,3.7E1,2E1,5.3E1,2.02E2,1.42E2,4.58E2,2.17E2,1.65E2,1.4E2,1.17E2,1.37E2,2.5E1,6.7E1,3.5E1,2E0,5E0,1.5E1,3E0,5E1,2E0,2E2,3E0,1.39E2,1.49E2,3.09E2,2.1E1,1.96E2,8.6E1,7.9E1,2E0,1.38E2,4.4E1,7.3E1,1.29E2,8E0,3E0,2.2E1,3.6E1,3.1E1,2E0,3.3E1,1E0,1E0,1E0,4E0,2E0,1.3E1,1E0,2E0,4.3E1,7E0,1E0,1E0,1.97E2,3E0,2E0,1E0,1.34E2,5E0,1.34E2,1.5E1,1.09E2,2E2,1.8E1,3E0,1.09E2,8.7E1,2.6E1,6E1,3.2E1,4.7E1,1E0,1.37E2,3.8E1,6E0,2E1,5.3E1,1.13E2,1.6E1,4E0,4E0,1.4E1,8E0,1E1,2.6E1,2E0,2.9E1,2.5E1,8E0,1E0,1E0,4E0,9E0,2.9E1,1.4E1,5E0,2E0],"tree_param":{"num_deleted":"0","num_feature":"11","num_nodes":"109","size_leaf_vector":"1"}},{"base_weights":[4.6096533E-3,-6.2354255E-1,4.8905587E0,-1.3730093E0,7.426712E-1,6.9873505E0,1.1409179E0,-1.8840746E0,-1.0361482E0,1.6512235E0,-3.5050404E-1,4.984592E0,1.170496E1,3.6779377E0,1.3317087E-1,-1.7492245E0,-1.21262625E-1,-7.6312214E-1,-1.6058053E0,4.2500508E-1,3.0831459E0,1.9746806E-1,-8.1652004E-1,1.643971E0,6.1885853E0,1.2217755E1,1.649758E0,-7.323166E-1,5.101912E0,3.591501E0,-1.4068191E-1,-2.2429063E0,-1.4035379E0,-1.3892273E0,-4.124595E-1,-1.0862952E0,-1.7177533E0,-4.471709E-1,1.368184E0,7.704784E-1,2.7949271E0,1.4388131E0,-2.4206789E-1,-2.1248449E-2,-1.1409038E0,-1.03415824E-1,2.2181091E0,7.8755174E0,4.044677E0,1.5365906E-1,1.2665284E1,1.2460717E-1,-8.75324E-4,7.279811E-2,-7.305824E-2,3.8225785E-1,5.748844E0,4.7131237E-2,2.0801258E-1,1.797092E-1,-1.8852477E0,-2.9068008E-2,-1.1383889E-1,4.7882497E-2,-7.353573E-2,-7.464055E-2,-2.1420661E-2,3.0792216E-2,-4.693345E-2,-1.9434614E-2,-7.1675055E-2,-7.8782685E-2,-1.0776172E-1,-6.985631E-2,-9.6841546E-4,-5.382921E-3,1.1771609E-1,7.792936E-1,1.2946491E-1,3.5643892E-3,1.04331054E-1,6.65377E-2,-2.1904757E-2,-2.06293E-2,8.2229614E-2,6.3033454E-2,-6.020343E-2,1.3112181E-1,-6.757751E-2,5.015803E-1,2.2093378E-1,2.7454203E-1,1.22283E-1,6.994128E-1,3.7180552E-1,5.307264E-2,-2.4403298E-2,1.19556166E-1,3.4264103E-1,3.281826E-2,-3.9279174E-2,-1.14693515E-1,-2.1979345E-2],"categories":[],"categories_nodes":[],"categories_segments":[],"categories_sizes":[],"default_left":[1,1,0,0,0,0,0,0,0,0,0,0,0,0,0,0,0,0,0,0,0,0,0,0,0,0,0,0,0,0,0,0,0,0,0,0,0,0,0,0,0,0,0,0,0,0,0,0,0,0,0,0,0,0,0,0,0,0,0,0,0,0,0,0,0,0,0,0,0,0,0,0,0,0,0,0,0,0,0,0,0,0,0,0,0,0,0,0,0,0,0,0,0,0,0,0,0,0,0,0,0,0,0],"id":2,"left_children":[1,3,5,7,9,11,13,15,17,19,21,23,25,27,29,31,-1,33,35,37,39,41,43,45,47,49,51,53,55,57,59,61,63,65,67,69,71,73,75,-1,77,79,81,83,85,-1,87,89,91,-1,93,-1,-1,-1,-1,95,97,-1,-1,99,101,-1,-1,-1,-1,-1,-1,-1,-1,-1,-1,-1,-1,-1,-1,-1,-1,-1,-1,-1,-1,-1,-1,-1,-1,-1,-1,-1,-1,-1,-1,-1,-1,-1,-1,-1,-1,-1,-1,-1,-1,-1,-1],"loss_changes":[5.4691514E3,1.6178079E3,1.5880571E3,1.7364917E2,5.5677466E2,1.1699258E3,1.887041E2,2.5240723E1,9.4737366E1,5.359796E2,6.5279E1,3.6387988E2,1.7578174E2,1.3561807E2,5.164722E1,5.2657593E1,0E0,9.141916E1,9.7074585E0,1.371664E2,4.578628E2,6.473095E1,3.5576057E1,6.000328E1,2.140769E2,1.0840576E2,4.2570667E0,1.16969385E1,4.6655212E1,2.1046448E0,2.884491E1,6.161499E0,3.2338745E1,1.4289154E1,1.4667593E2,8.646858E0,6.674988E0,3.5329155E1,1.1668417E2,0E0,3.252401E2,2.7313957E1,2.7714802E1,2.7406683E1,1.6384018E1,0E0,3.6740494E1,2.3144409E2,6.0569397E1,0E0,1.3119531E2,0E0,0E0,0E0,0E0,2.2914176E0,3.5509857E1,0E0,0E0,2.0760582E1,3.7174797E0,0E0,0E0,0E0,0E0,0E0,0E0,0E0,0E0,0E0,0E0,0E0,0E0,0E0,0E0,0E0,0E0,0E0,0E0,0E0,0E0,0E0,0E0,0E0,0E0,0E0,0E0,0E0,0E0,0E0,0E0,0E0,0E0,0E0,0E0,0E0,0E0,0E0,0E0,0E0,0E0,0E0,0E0],"parents":[2147483647,0,0,1,1,2,2,3,3,4,4,5,5,6,6,7,7,8,8,9,9,10,10,11,11,12,12,13,13,14,14,15,15,17,17,18,18,19,19,20,20,21,21,22,22,23,23,24,24,25,25,26,26,27,27,28,28,29,29,30,30,31,31,32,32,33,33,34,34,35,35,36,36,37,37,38,38,40,40,41,41,42,42,43,43,44,44,46,46,47,47,48,48,50,50,55,55,56,56,59,59,60,60],"right_children":[2,4,6,8,10,12,14,16,18,20,22,24,26,28,30,32,-1,34,36,38,40,42,44,46,48,50,52,54,56,58,60,62,64,66,68,70,72,74,76,-1,78,80,82,84,86,-1,88,90,92,-1,94,-1,-1,-1,-1,96,98,-1,-1,100,102,-1,-1,-1,-1,-1,-1,-1,-1,-1,-1,-1,-1,-1,-1,-1,-1,-1,-1,-1,-1,-1,-1,-1,-1,-1,-1,-1,-1,-1,-1,-1,-1,-1,-1,-1,-1,-1,-1,-1,-1,-1,-1],"split_conditions":[7.03E0,2.67E0,2.1554892E2,1.3E0,2.140479E2,1.347E1,1.5281989E1,2.7678317E2,2.4882654E2,1.5281337E2,2.5016772E2,1.1832608E2,2.968636E1,6.7933335E0,1.67E0,1.1693304E2,-1.21262625E-1,1.3136511E2,1.3896187E1,4E0,5.3E-1,3E-1,1.5629972E1,4.4396984E1,2.5E0,9.237492E1,7.5866666E0,9E0,5.74E0,1.45E0,2.7546893E2,-8.907251E0,1.0534229E1,1.7657331E1,9.626082E0,1.66E0,2.9797424E2,5.061587E1,7.417453E1,7.704784E-1,2.7E0,3.13E0,1.3E0,3.441647E2,1.94E0,-1.03415824E-1,1.26E1,1.0515666E1,1.8490831E2,1.5365906E-1,7.1010833E0,1.2460717E-1,-8.75324E-4,7.279811E-2,-7.305824E-2,8.203333E0,8.55E0,4.7131237E-2,2.0801258E-1,8.034416E0,9.34E0,-2.9068008E-2,-1.1383889E-1,4.7882497E-2,-7.353573E-2,-7.464055E-2,-2.1420661E-2,3.0792216E-2,-4.693345E-2,-1.9434614E-2,-7.1675055E-2,-7.8782685E-2,-1.0776172E-1,-6.985631E-2,-9.6841546E-4,-5.382921E-3,1.1771609E-1,7.792936E-1,1.2946491E-1,3.5643892E-3,1.04331054E-1,6.65377E-2,-2.1904757E-2,-2.06293E-2,8.2229614E-2,6.3033454E-2,-6.020343E-2,1.3112181E-1,-6.757751E-2,5.015803E-1,2.2093378E-1,2.7454203E-1,1.22283E-1,6.994128E-1,3.7180552E-1,5.307264E-2,-2.4403298E-2,1.19556166E-1,3.4264103E-1,3.281826E-2,-3.9279174E-2,-1.14693515E-1,-2.1979345E-2],"split_indices":[1,1,8,1,8,1,7,8,8,8,8,8,7,0,2,8,0,8,7,1,3,6,7,8,6,8,0,7,2,2,8,5,7,5,5,3,8,8,8,0,1,1,3,8,4,0,4,5,8,0,5,0,0,0,0,0,1,0,0,5,0,0,0,0,0,0,0,0,0,0,0,0,0,0,0,0,0,0,0,0,0,0,0,0,0,0,0,0,0,0,0,0,0,0,0,0,0,0,0,0,0,0,0],"split_type":[0,0,0,0,0,0,0,0,0,0,0,0,0,0,0,0,0,0,0,0,0,0,0,0,0,0,0,0,0,0,0,0,0,0,0,0,0,0,0,0,0,0,0,0,0,0,0,0,0,0,0,0,0,0,0,0,0,0,0,0,0,0,0,0,0,0,0,0,0,0,0,0,0,0,0,0,0,0,0,0,0,0,0,0,0,0,0,0,0,0,0,0,0,0,0,0,0,0,0,0,0,0,0],"sum_hessian":[1.78E3,1.578E3,2.02E2,1.019E3,5.59E2,1.29E2,7.3E1,4.03E2,6.16E2,3.05E2,2.54E2,9.2E1,3.7E1,2E1,5.3E1,3.26E2,7.7E1,4.18E2,1.98E2,1.65E2,1.4E2,1.17E2,1.37E2,2.5E1,6.7E1,3.5E1,2E0,5E0,1.5E1,3E0,5E1,1.32E2,1.94E2,1.49E2,2.69E2,3.7E1,1.61E2,8.6E1,7.9E1,2E0,1.38E2,3E1,8.7E1,4E1,9.7E1,3E0,2.2E1,3.6E1,3.1E1,2E0,3.3E1,1E0,1E0,1E0,4E0,2E0,1.3E1,1E0,2E0,4.3E1,7E0,3E0,1.29E2,5E0,1.89E2,1.34E2,1.5E1,9.1E1,1.78E2,1.3E1,2.4E1,1.25E2,3.6E1,2.6E1,6E1,3.2E1,4.7E1,1E0,1.37E2,1E1,2E1,9E0,7.8E1,3.3E1,7E0,2E0,9.5E1,2E1,2E0,2.1E1,1.5E1,1.5E1,1.6E1,2.5E1,8E0,1E0,1E0,4E0,9E0,2.9E1,1.4E1,5E0,2E0],"tree_param":{"num_deleted":"0","num_feature":"11","num_nodes":"103","size_leaf_vector":"1"}},{"base_weights":[6.787206E-3,-5.915687E-1,4.6609607E0,-1.3661907E0,6.088002E-1,6.65666E0,1.0920154E0,-1.8522942E0,-1.0917233E0,1.3508329E0,-5.6373626E-1,4.7469697E0,1.1155202E1,3.5174031E0,1.2858658E-1,-2.0608826E0,-1.543233E0,-8.592131E-1,-1.5855757E0,-1.5743834E-1,2.0307317E0,-1.0566233E-1,-9.349116E-1,2.6596613E0,6.5670085E0,1.2898191E1,7.2459188E0,-6.957442E-1,4.877496E0,3.4757118E0,-1.3645436E-1,-3.2200155E-1,-2.076583E0,1.3300519E0,-1.6143037E0,-1.4826801E0,-5.499512E-1,-1.00759E0,-1.7182077E0,-3.583324E-1,2.6747582E0,7.680982E0,1.8683001E0,4.3424383E-1,-6.843225E-1,-1.030676E0,1.2638805E0,-9.953774E-2,3.0392327E0,1.1060819E1,4.259127E0,7.429008E0,1.50349245E1,9.58218E0,1.1242131E0,7.097816E-2,-7.0135914E-2,3.727014E-1,5.494416E0,4.5952953E-2,2.0107882E-1,1.705769E-1,-1.8080696E0,4.983744E-2,-7.398756E-2,-1.1270294E-1,-9.139582E-2,-7.0287034E-2,2.3843575E-1,-8.376164E-2,1.2824953E-3,-7.559683E-2,6.3868195E-2,1.485498E-2,-5.0013255E-2,-6.1408736E-2,8.81253E-3,-9.151708E-2,-5.5318017E-2,-4.2642854E-2,1.3596768E-2,2.8382838E-1,3.6403034E-2,2.3541892E-2,6.48544E-1,1.5470588E-1,5.567357E-2,-2.4782514E-2,4.3806735E-2,1.39349075E-2,-7.1596414E-2,-2.4106735E-2,-7.4636556E-2,9.313654E-2,-4.325927E-2,1.8299605E-1,1.783592E-2,7.8887E-1,2.8196615E-1,3.3647344E-1,1.2047086E-1,1.6519803E-1,5.879664E-1,8.130979E-1,1.9440581E-1,1.4285444E-1,6.028103E-1,1.7987669E-1,-1.9675022E-2,5.174582E-2,-2.3793215E-2,1.1477392E-1,3.272222E-1,4.868168E-2,-1.8555595E-2,-1.7298519E-3,-1.02824025E-1],"categories":[],"categories_nodes":[],"categories_segments":[],"categories_sizes":[],"default_left":[1,1,0,0,0,0,0,0,0,0,0,0,0,0,0,0,0,0,0,0,0,0,0,0,0,0,0,0,0,0,0,0,0,0,0,0,0,0,0,0,0,0,0,0,0,0,0,0,0,0,0,0,0,0,0,0,0,0,0,0,0,0,0,0,0,0,0,0,0,0,0,0,0,0,0,0,0,0,0,0,0,0,0,0,0,0,0,0,0,0,0,0,0,0,0,0,0,0,0,0,0,0,0,0,0,0,0,0,0,0,0,0,0,0,0,0,0],"id":3,"left_children":[1,3,5,7,9,11,13,15,17,19,21,23,25,27,29,31,33,35,37,39,41,43,45,47,49,51,53,55,57,59,61,63,65,67,69,71,73,75,77,79,81,83,85,87,89,91,93,-1,95,97,99,101,103,105,107,-1,-1,109,111,-1,-1,113,115,-1,-1,-1,-1,-1,-1,-1,-1,-1,-1,-1,-1,-1,-1,-1,-1,-1,-1,-1,-1,-1,-1,-1,-1,-1,-1,-1,-1,-1,-1,-1,-1,-1,-1,-1,-1,-1,-1,-1,-1,-1,-1,-1,-1,-1,-1,-1,-1,-1,-1,-1,-1,-1,-1],"loss_changes":[4.9625786E3,1.4690366E3,1.4386069E3,1.26060425E2,5.4019904E2,1.0638535E3,1.7246263E2,1.9060547E1,6.93703E1,3.899989E2,4.087741E1,3.358391E2,1.6546729E2,1.2372919E2,4.8379036E1,4.873352E0,3.1348633E1,8.035956E1,1.3293976E1,6.866606E1,2.2610779E2,3.435118E1,2.930793E1,8.548282E1,4.610786E2,1.8045996E2,1.8945428E2,1.0964053E1,4.2417816E1,1.8862839E0,2.6483559E1,6.055288E0,4.7504272E0,4.4333454E1,1.4031891E1,1.3155457E1,1.0824434E2,1.0400814E1,8.815186E0,3.514041E1,4.261603E1,2.6087936E2,2.33427E2,2.3856224E1,3.8556946E1,3.1722702E1,9.261558E0,0E0,6.862463E1,3.20161E2,1.39146E2,1.219126E2,1.692893E2,1.3193481E2,2.018459E1,0E0,0E0,2.1782787E0,3.200299E1,0E0,0E0,1.9501625E1,3.453249E0,0E0,0E0,0E0,0E0,0E0,0E0,0E0,0E0,0E0,0E0,0E0,0E0,0E0,0E0,0E0,0E0,0E0,0E0,0E0,0E0,0E0,0E0,0E0,0E0,0E0,0E0,0E0,0E0,0E0,0E0,0E0,0E0,0E0,0E0,0E0,0E0,0E0,0E0,0E0,0E0,0E0,0E0,0E0,0E0,0E0,0E0,0E0,0E0,0E0,0E0,0E0,0E0,0E0,0E0],"parents":[2147483647,0,0,1,1,2,2,3,3,4,4,5,5,6,6,7,7,8,8,9,9,10,10,11,11,12,12,13,13,14,14,15,15,16,16,17,17,18,18,19,19,20,20,21,21,22,22,23,23,24,24,25,25,26,26,27,27,28,28,29,29,30,30,31,31,32,32,33,33,34,34,35,35,36,36,37,37,38,38,39,39,40,40,41,41,42,42,43,43,44,44,45,45,46,46,48,48,49,49,50,50,51,51,52,52,53,53,54,54,57,57,58,58,61,61,62,62],"right_children":[2,4,6,8,10,12,14,16,18,20,22,24,26,28,30,32,34,36,38,40,42,44,46,48,50,52,54,56,58,60,62,64,66,68,70,72,74,76,78,80,82,84,86,88,90,92,94,-1,96,98,100,102,104,106,108,-1,-1,110,112,-1,-1,114,116,-1,-1,-1,-1,-1,-1,-1,-1,-1,-1,-1,-1,-1,-1,-1,-1,-1,-1,-1,-1,-1,-1,-1,-1,-1,-1,-1,-1,-1,-1,-1,-1,-1,-1,-1,-1,-1,-1,-1,-1,-1,-1,-1,-1,-1,-1,-1,-1,-1,-1,-1,-1,-1,-1],"split_conditions":[7.03E0,2.5E0,2.1554892E2,1.2E0,2.2814908E2,1.347E1,1.5281989E1,6E-1,2.4882654E2,1.0982171E2,3E-1,1.6118169E2,2.1767351E1,6.7933335E0,1.67E0,-8.907251E0,1.0534229E1,1.2000877E2,1.4003028E1,8.083333E0,5.3E-1,2.7678317E2,1.709067E1,4.4396984E1,9.000001E-1,1.09E1,7.6531653E0,9E0,5.74E0,1.45E0,2.7546893E2,8.0333334E-1,8.1E-1,1.4766667E0,1.9833333E0,2.0699001E1,9.626082E0,2.4233334E0,3.1883888E1,3.88E0,8.86E0,1.4378879E2,6.919832E0,3.04E0,1.5484185E1,2.5044673E2,5.306667E0,-9.953774E-2,8.93E0,5.6E0,1.8243657E2,1.7208603E1,4.7E0,2.2148046E1,9.773334E0,7.097816E-2,-7.0135914E-2,8.203333E0,8.55E0,4.5952953E-2,2.0107882E-1,3.33E0,1.6533333E0,4.983744E-2,-7.398756E-2,-1.1270294E-1,-9.139582E-2,-7.0287034E-2,2.3843575E-1,-8.376164E-2,1.2824953E-3,-7.559683E-2,6.3868195E-2,1.485498E-2,-5.0013255E-2,-6.1408736E-2,8.81253E-3,-9.151708E-2,-5.5318017E-2,-4.2642854E-2,1.3596768E-2,2.8382838E-1,3.6403034E-2,2.3541892E-2,6.48544E-1,1.5470588E-1,5.567357E-2,-2.4782514E-2,4.3806735E-2,1.39349075E-2,-7.1596414E-2,-2.4106735E-2,-7.4636556E-2,9.313654E-2,-4.325927E-2,1.8299605E-1,1.783592E-2,7.8887E-1,2.8196615E-1,3.3647344E-1,1.2047086E-1,1.6519803E-1,5.879664E-1,8.130979E-1,1.9440581E-1,1.4285444E-1,6.028103E-1,1.7987669E-1,-1.9675022E-2,5.174582E-2,-2.3793215E-2,1.1477392E-1,3.272222E-1,4.868168E-2,-1.8555595E-2,-1.7298519E-3,-1.02824025E-1],"split_indices":[1,1,8,1,8,1,7,6,8,8,6,8,7,0,2,5,7,8,7,4,3,8,5,8,6,0,5,7,2,2,8,0,4,0,4,5,5,4,7,1,4,8,5,1,7,8,0,0,3,2,8,7,6,7,0,0,0,0,1,0,0,3,4,0,0,0,0,0,0,0,0,0,0,0,0,0,0,0,0,0,0,0,0,0,0,0,0,0,0,0,0,0,0,0,0,0,0,0,0,0,0,0,0,0,0,0,0,0,0,0,0,0,0,0,0,0,0],"split_type":[0,0,0,0,0,0,0,0,0,0,0,0,0,0,0,0,0,0,0,0,0,0,0,0,0,0,0,0,0,0,0,0,0,0,0,0,0,0,0,0,0,0,0,0,0,0,0,0,0,0,0,0,0,0,0,0,0,0,0,0,0,0,0,0,0,0,0,0,0,0,0,0,0,0,0,0,0,0,0,0,0,0,0,0,0,0,0,0,0,0,0,0,0,0,0,0,0,0,0,0,0,0,0,0,0,0,0,0,0,0,0,0,0,0,0,0,0],"sum_hessian":[1.78E3,1.578E3,2.02E2,9.59E2,6.19E2,1.29E2,7.3E1,3.44E2,6.15E2,3.79E2,2.4E2,9.2E1,3.7E1,2E1,5.3E1,2.02E2,1.42E2,4.2E2,1.95E2,1.18E2,2.61E2,1.08E2,1.32E2,4.4E1,4.8E1,2.4E1,1.3E1,5E0,1.5E1,3E0,5E1,2E0,2E2,3E0,1.39E2,1.38E2,2.82E2,3.8E1,1.57E2,1.11E2,7E0,6E0,2.55E2,5.6E1,5.2E1,1.27E2,5E0,3E0,4.1E1,1.5E1,3.3E1,8E0,1.6E1,9E0,4E0,1E0,4E0,2E0,1.3E1,1E0,2E0,4.3E1,7E0,1E0,1E0,1.12E2,8.8E1,2E0,1E0,1.34E2,5E0,1.37E2,1E0,9.8E1,1.84E2,3.2E1,6E0,1.31E2,2.6E1,6.2E1,4.9E1,2E0,5E0,3E0,3E0,9.6E1,1.59E2,1.8E1,3.8E1,2.3E1,2.9E1,5.9E1,6.8E1,4E0,1E0,3.3E1,8E0,7E0,8E0,1.3E1,2E1,5E0,3E0,1.4E1,2E0,3E0,6E0,1E0,3E0,1E0,1E0,4E0,9E0,1.7E1,2.6E1,1E0,6E0],"tree_param":{"num_deleted":"0","num_feature":"11","num_nodes":"117","size_leaf_vector":"1"}},{"base_weights":[9.612491E-3,-5.615487E-1,4.4522424E0,-1.241644E0,6.7819923E-1,6.35687E0,1.0461092E0,-1.561087E0,-7.852744E-1,1.5138776E0,-3.2727444E-1,4.5271378E0,1.0667614E1,3.3639517E0,1.2535359E-1,-1.7713498E0,-1.2208381E0,-4.7938958E-1,-1.3724729E0,3.7896216E-1,2.8392825E0,1.588665E-1,-7.405886E-1,2.528929E0,6.2698374E0,1.1142414E1,1.4141356E0,-6.6081667E-1,4.662993E0,3.3636842E0,-1.3109104E-1,5.6677323E-2,-1.7823538E0,-9.32738E-1,-1.7173389E0,-1.1577184E0,-1.05721384E-1,-8.966112E-1,-1.5227915E0,-4.2821512E-1,1.2520304E0,7.2317773E-1,2.5679724E0,1.3347613E0,-2.5717443E-1,-8.596034E-1,1.0608015E0,-9.580507E-2,2.8920527E0,1.0574705E1,4.05961E0,1.3260455E-1,1.1563843E1,1.0642173E-1,-3.6156774E-4,6.9203705E-2,-6.733049E-2,6.952355E0,2.9903412E0,4.4804126E-2,1.943762E-1,-4.8470765E-1,1.198852E0,-1.0495805E-1,-8.270853E-2,-8.85386E-2,-2.6461232E-2,-1.0170358E-1,-5.6954183E-2,-6.553844E-2,-6.7428597E-3,6.1673135E-2,-3.8173497E-2,-8.681334E-3,-5.4503407E-2,-7.786959E-2,1.0367108E-2,-6.485626E-2,-1.8297815E-3,-5.9539382E-3,1.0842919E-1,7.559436E-1,1.1837335E-1,-9.721014E-3,9.375518E-2,6.0653158E-2,-2.2001255E-2,-5.1871713E-2,1.9173717E-2,1.2186598E-1,-2.6393844E-2,1.7411534E-1,1.7043214E-2,7.543569E-1,2.694343E-1,3.2085145E-1,1.14734136E-1,6.373989E-1,3.429068E-1,4.1720602E-1,1.3896088E-1,2.2491053E-1,7.4305005E-2,1.0918792E-2,-6.976121E-2,1.7936487E-1,1.3474881E-2],"categories":[],"categories_nodes":[],"categories_segments":[],"categories_sizes":[],"default_left":[1,1,0,0,0,0,0,0,0,0,0,0,0,0,0,0,0,0,0,0,0,0,0,0,0,0,0,0,0,0,0,0,0,0,0,0,0,0,0,0,0,0,0,0,0,0,0,0,0,0,0,0,0,0,0,0,0,0,0,0,0,0,0,0,0,0,0,0,0,0,0,0,0,0,0,0,0,0,0,0,0,0,0,0,0,0,0,0,0,0,0,0,0,0,0,0,0,0,0,0,0,0,0,0,0,0,0],"id":4,"left_children":[1,3,5,7,9,11,13,15,17,19,21,23,25,27,29,31,33,35,37,39,41,43,45,47,49,51,53,55,57,59,61,-1,63,65,67,69,71,73,75,77,79,-1,81,83,85,87,89,-1,91,93,95,-1,97,-1,-1,-1,-1,99,101,-1,-1,103,105,-1,-1,-1,-1,-1,-1,-1,-1,-1,-1,-1,-1,-1,-1,-1,-1,-1,-1,-1,-1,-1,-1,-1,-1,-1,-1,-1,-1,-1,-1,-1,-1,-1,-1,-1,-1,-1,-1,-1,-1,-1,-1,-1,-1],"loss_changes":[4.5217124E3,1.3321709E3,1.3102954E3,1.4747388E2,4.710369E2,9.770825E2,1.5750662E2,4.069104E1,7.513962E1,4.5921594E2,5.135453E1,3.0799585E2,1.5119824E2,1.1287654E2,4.5285385E1,1.3783569E1,3.1583862E1,7.059572E1,8.935089E0,1.1751979E2,4.0754138E2,5.807127E1,3.049797E1,7.817578E1,4.2329272E2,9.814209E1,3.0612345E0,1.0278037E1,4.0478973E1,1.686966E0,2.4565878E1,0E0,1.1431274E1,4.9448395E1,1.3067825E1,1.5321625E1,1.6037491E2,4.9857883E0,6.788086E0,2.9557076E1,1.0079383E2,0E0,3.1400366E2,2.5979282E1,2.4191162E1,2.9135323E1,2.0968204E1,0E0,6.2058685E1,2.9312524E2,1.26737854E2,0E0,1.02026855E2,0E0,0E0,0E0,0E0,1.165802E1,1.8265396E1,0E0,0E0,2.6551617E1,2.3450066E1,0E0,0E0,0E0,0E0,0E0,0E0,0E0,0E0,0E0,0E0,0E0,0E0,0E0,0E0,0E0,0E0,0E0,0E0,0E0,0E0,0E0,0E0,0E0,0E0,0E0,0E0,0E0,0E0,0E0,0E0,0E0,0E0,0E0,0E0,0E0,0E0,0E0,0E0,0E0,0E0,0E0,0E0,0E0,0E0],"parents":[2147483647,0,0,1,1,2,2,3,3,4,4,5,5,6,6,7,7,8,8,9,9,10,10,11,11,12,12,13,13,14,14,15,15,16,16,17,17,18,18,19,19,20,20,21,21,22,22,23,23,24,24,25,25,26,26,27,27,28,28,29,29,30,30,32,32,33,33,34,34,35,35,36,36,37,37,38,38,39,39,40,40,42,42,43,43,44,44,45,45,46,46,48,48,49,49,50,50,52,52,57,57,58,58,61,61,62,62],"right_children":[2,4,6,8,10,12,14,16,18,20,22,24,26,28,30,32,34,36,38,40,42,44,46,48,50,52,54,56,58,60,62,-1,64,66,68,70,72,74,76,78,80,-1,82,84,86,88,90,-1,92,94,96,-1,98,-1,-1,-1,-1,100,102,-1,-1,104,106,-1,-1,-1,-1,-1,-1,-1,-1,-1,-1,-1,-1,-1,-1,-1,-1,-1,-1,-1,-1,-1,-1,-1,-1,-1,-1,-1,-1,-1,-1,-1,-1,-1,-1,-1,-1,-1,-1,-1,-1,-1,-1,-1,-1],"split_conditions":[7.03E0,2.67E0,2.1554892E2,1.64E0,2.140479E2,1.347E1,1.5281989E1,1.2E0,2.4882654E2,1.5281337E2,2.5016772E2,1.6118169E2,2.968636E1,6.7933335E0,1.67E0,7.989243E0,2.2514067E2,1.3004668E2,1.6862455E1,4E0,5.3E-1,3E-1,3.441647E2,4.4396984E1,9.000001E-1,9.237492E1,7.5866666E0,9E0,4.7E0,1.45E0,1.773E1,5.6677323E-2,7.6666665E-1,1.1832608E2,2.7645092E1,1.7657331E1,9.626082E0,1.27E0,1.7701082E1,5.061587E1,7.417453E1,7.2317773E-1,2.7E0,2.47E0,1.3E0,1.7326084E1,2.22E0,-9.580507E-2,8.93E0,5.6E0,1.8243657E2,1.3260455E-1,7.1010833E0,1.0642173E-1,-3.6156774E-4,6.9203705E-2,-6.733049E-2,1.6946917E1,4.028167E0,4.4804126E-2,1.943762E-1,2.461709E2,5.35E0,-1.0495805E-1,-8.270853E-2,-8.85386E-2,-2.6461232E-2,-1.0170358E-1,-5.6954183E-2,-6.553844E-2,-6.7428597E-3,6.1673135E-2,-3.8173497E-2,-8.681334E-3,-5.4503407E-2,-7.786959E-2,1.0367108E-2,-6.485626E-2,-1.8297815E-3,-5.9539382E-3,1.0842919E-1,7.559436E-1,1.1837335E-1,-9.721014E-3,9.375518E-2,6.0653158E-2,-2.2001255E-2,-5.1871713E-2,1.9173717E-2,1.2186598E-1,-2.6393844E-2,1.7411534E-1,1.7043214E-2,7.543569E-1,2.694343E-1,3.2085145E-1,1.14734136E-1,6.373989E-1,3.429068E-1,4.1720602E-1,1.3896088E-1,2.2491053E-1,7.4305005E-2,1.0918792E-2,-6.976121E-2,1.7936487E-1,1.3474881E-2],"split_indices":[1,1,8,1,8,1,7,6,8,8,8,8,7,0,2,7,8,8,7,1,3,6,8,8,6,8,0,7,3,2,4,0,4,8,7,5,5,2,5,8,8,0,1,2,3,5,3,0,3,2,8,0,5,0,0,0,0,5,5,0,0,8,2,0,0,0,0,0,0,0,0,0,0,0,0,0,0,0,0,0,0,0,0,0,0,0,0,0,0,0,0,0,0,0,0,0,0,0,0,0,0,0,0,0,0,0,0],"split_type":[0,0,0,0,0,0,0,0,0,0,0,0,0,0,0,0,0,0,0,0,0,0,0,0,0,0,0,0,0,0,0,0,0,0,0,0,0,0,0,0,0,0,0,0,0,0,0,0,0,0,0,0,0,0,0,0,0,0,0,0,0,0,0,0,0,0,0,0,0,0,0,0,0,0,0,0,0,0,0,0,0,0,0,0,0,0,0,0,0,0,0,0,0,0,0,0,0,0,0,0,0,0,0,0,0,0,0],"sum_hessian":[1.78E3,1.578E3,2.02E2,1.019E3,5.59E2,1.29E2,7.3E1,5.98E2,4.21E2,3.05E2,2.54E2,9.2E1,3.7E1,2E1,5.3E1,3.67E2,2.31E2,2.78E2,1.43E2,1.65E2,1.4E2,1.17E2,1.37E2,4.4E1,4.8E1,3.5E1,2E0,5E0,1.5E1,3E0,5E1,1E0,3.66E2,1.48E2,8.3E1,9.8E1,1.8E2,3.6E1,1.07E2,8.6E1,7.9E1,2E0,1.38E2,3E1,8.7E1,1.29E2,8E0,3E0,4.1E1,1.5E1,3.3E1,2E0,3.3E1,1E0,1E0,1E0,4E0,5E0,1E1,1E0,2E0,4E1,1E1,1.01E2,2.65E2,4.7E1,1.01E2,5.2E1,3.1E1,8.5E1,1.3E1,5.9E1,1.21E2,8E0,2.8E1,1.05E2,2E0,2.6E1,6E1,3.2E1,4.7E1,1E0,1.37E2,8E0,2.2E1,9E0,7.8E1,1.13E2,1.6E1,4E0,4E0,3.3E1,8E0,7E0,8E0,1.3E1,2E1,2.5E1,8E0,3E0,2E0,4E0,6E0,2.3E1,1.7E1,2E0,8E0],"tree_param":{"num_deleted":"0","num_feature":"11","num_nodes":"107","size_leaf_vector":"1"}},{"base_weights":[1.2073346E-2,-7.340216E-1,3.119686E0,-1.3488047E0,1.2094974E-1,4.5688877E0,6.877841E-1,-1.6779013E0,-1.1152945E0,7.286726E-1,-7.2025174E-1,3.3550832E0,1.0166311E1,2.3816044E0,6.3081E-2,-1.8664687E0,-1.3984809E0,-8.740617E-1,-1.5249591E0,-5.246085E-1,1.2826879E0,-2.1424884E-1,-9.5729816E-1,1.5593778E0,4.998861E0,7.2043667E0,1.222101E1,1.09323E0,5.4932175E0,5.1259845E-1,-1.566748E0,-1.8853366E0,-4.5645773E-1,1.3409516E0,-1.4667612E0,-1.1156961E0,7.970421E-2,-1.0385079E0,-1.622462E0,-8.110041E-1,9.5242536E-1,2.732769E0,4.1183764E-1,2.506047E0,-3.4927332E-1,-4.468263E-1,-1.1401147E0,-1.9191125E-1,2.633164E0,7.2248945E0,2.3556662E0,1.2254896E1,4.319171E0,1.2860969E1,-1.4454091E-2,3.724196E0,5.8813894E-1,7.2134557E0,1.16514385E-1,2.2274299E0,1.8812808E-1,-9.768423E-1,-1.1223755E-1,-1.2940622E-2,-9.502295E-2,-5.428533E-2,3.5782218E-2,-6.602748E-2,2.3313637E-1,-7.617875E-2,2.8003356E-3,-7.173794E-2,-4.062972E-2,-3.6170613E-2,5.0700832E-2,-5.9781667E-2,4.026034E-3,-8.546953E-2,-5.0560635E-2,-5.65722E-2,2.757076E-2,1.7518319E-1,2.072708E-2,2.8978044E-1,9.754124E-2,1.2299618E-2,2.63583E-1,-1.2584336E-2,2.694812E-1,1.2509929E-2,-4.2848766E-2,-4.4651777E-2,-4.16128E-3,4.0978458E-2,-6.0554218E-2,1.21021785E-1,-2.613988E-2,1.5567712E-1,-5.185126E-2,4.5699173E-1,1.2922043E-1,-4.721296E-3,1.7510949E-1,1.7111444E-1,6.6684806E-1,3.3721566E-1,6.385022E-2,6.6441834E-1,1.1851025E-1,3.8145424E-3,2.457367E-1,-3.251652E-2,9.991587E-2,8.974159E-2,3.9691073E-1,1.7811942E-1,-1.7699478E-2,-5.034827E-3,7.360808E-2,-1.6903227E-2,-6.669102E-2],"categories":[],"categories_nodes":[],"categories_segments":[],"categories_sizes":[],"default_left":[1,1,0,0,0,0,0,0,0,0,0,0,0,0,0,0,0,1,0,0,0,0,0,0,0,0,0,0,0,0,0,0,0,0,0,0,0,0,0,0,0,0,0,0,0,0,0,0,0,0,0,0,0,0,0,0,0,0,0,0,0,0,0,0,0,0,0,0,0,0,0,0,0,0,0,0,0,0,0,0,0,0,0,0,0,0,0,0,0,0,0,0,0,0,0,0,0,0,0,0,0,0,0,0,0,0,0,0,0,0,0,0,0,0,0,0,0,0,0,0,0],"id":5,"left_children":[1,3,5,7,9,11,13,15,17,19,21,23,25,27,29,31,33,35,37,39,41,43,45,47,49,51,53,55,57,59,61,63,65,67,69,71,73,75,77,79,81,83,85,87,89,91,93,95,97,99,101,103,105,107,-1,109,111,113,-1,115,117,119,-1,-1,-1,-1,-1,-1,-1,-1,-1,-1,-1,-1,-1,-1,-1,-1,-1,-1,-1,-1,-1,-1,-1,-1,-1,-1,-1,-1,-1,-1,-1,-1,-1,-1,-1,-1,-1,-1,-1,-1,-1,-1,-1,-1,-1,-1,-1,-1,-1,-1,-1,-1,-1,-1,-1,-1,-1,-1,-1],"loss_changes":[4.1316704E3,7.5548193E2,1.2127468E3,6.2373047E1,3.0827774E2,1.4334331E3,1.3740729E2,1.5567688E1,4.728882E1,2.436908E2,3.0141266E1,5.205663E2,1.4321973E2,1.3430693E2,7.113623E1,4.540039E0,2.8714905E1,7.199327E1,6.899933E0,4.6458153E1,3.057358E2,3.0994432E1,1.55420685E1,1.6410971E2,5.3017773E2,2.0936078E2,1.7184277E2,3.2360466E1,3.7600525E1,4.186827E1,6.2063484E0,4.42749E0,3.7271552E0,4.1521E1,1.2197327E1,2.291452E1,4.8756702E1,5.8985863E0,6.1885376E0,4.0352077E1,2.324844E1,2.0663605E2,1.22017944E2,3.3165047E1,2.4258308E1,7.551049E0,1.8516434E1,3.0654654E1,9.843509E1,4.2069165E2,1.239306E2,1.1701721E1,8.7297424E1,5.817871E1,0E0,1.6996933E1,4.1468204E1,9.315399E0,0E0,4.26141E1,2.4254173E1,2.5134678E0,0E0,0E0,0E0,0E0,0E0,0E0,0E0,0E0,0E0,0E0,0E0,0E0,0E0,0E0,0E0,0E0,0E0,0E0,0E0,0E0,0E0,0E0,0E0,0E0,0E0,0E0,0E0,0E0,0E0,0E0,0E0,0E0,0E0,0E0,0E0,0E0,0E0,0E0,0E0,0E0,0E0,0E0,0E0,0E0,0E0,0E0,0E0,0E0,0E0,0E0,0E0,0E0,0E0,0E0,0E0,0E0,0E0,0E0,0E0],"parents":[2147483647,0,0,1,1,2,2,3,3,4,4,5,5,6,6,7,7,8,8,9,9,10,10,11,11,12,12,13,13,14,14,15,15,16,16,17,17,18,18,19,19,20,20,21,21,22,22,23,23,24,24,25,25,26,26,27,27,28,28,29,29,30,30,31,31,32,32,33,33,34,34,35,35,36,36,37,37,38,38,39,39,40,40,41,41,42,42,43,43,44,44,45,45,46,46,47,47,48,48,49,49,50,50,51,51,52,52,53,53,55,55,56,56,57,57,59,59,60,60,61,61],"right_children":[2,4,6,8,10,12,14,16,18,20,22,24,26,28,30,32,34,36,38,40,42,44,46,48,50,52,54,56,58,60,62,64,66,68,70,72,74,76,78,80,82,84,86,88,90,92,94,96,98,100,102,104,106,108,-1,110,112,114,-1,116,118,120,-1,-1,-1,-1,-1,-1,-1,-1,-1,-1,-1,-1,-1,-1,-1,-1,-1,-1,-1,-1,-1,-1,-1,-1,-1,-1,-1,-1,-1,-1,-1,-1,-1,-1,-1,-1,-1,-1,-1,-1,-1,-1,-1,-1,-1,-1,-1,-1,-1,-1,-1,-1,-1,-1,-1,-1,-1,-1,-1],"split_conditions":[4.82E0,2.2E0,2.1554892E2,1.2E0,2.2897649E2,1.347E1,1.5484185E1,6E-1,2.3173593E2,1.0982171E2,2.5156496E2,1.5281337E2,9.4E0,8.55E0,2.7416818E2,3.054701E1,1.0534229E1,3.33E0,1.4003028E1,1.6467749E1,6.5677485E0,2.25E0,1.6048288E1,7.417453E1,3.2000003E0,3.13E0,7.6531653E0,-3.328083E0,3.072537E2,2.54E0,2.9730624E2,-8.907251E0,1.25E0,1.4766667E0,1.9833333E0,6E-1,1.8406769E2,1.3556282E1,3.2580498E1,3.91E0,1.6734415E1,2.44E0,1.155E1,2.92E0,1.2000002E0,3.0733333E0,5.6E-1,1.35E0,1.4197508E2,1.5659419E1,6.2E0,1E-1,1.0000001E0,2.89E1,-1.4454091E-2,2.4133334E0,1.05510845E1,7.87E0,1.16514385E-1,2.1E0,1.773E1,1E-1,-1.1223755E-1,-1.2940622E-2,-9.502295E-2,-5.428533E-2,3.5782218E-2,-6.602748E-2,2.3313637E-1,-7.617875E-2,2.8003356E-3,-7.173794E-2,-4.062972E-2,-3.6170613E-2,5.0700832E-2,-5.9781667E-2,4.026034E-3,-8.546953E-2,-5.0560635E-2,-5.65722E-2,2.757076E-2,1.7518319E-1,2.072708E-2,2.8978044E-1,9.754124E-2,1.2299618E-2,2.63583E-1,-1.2584336E-2,2.694812E-1,1.2509929E-2,-4.2848766E-2,-4.4651777E-2,-4.16128E-3,4.0978458E-2,-6.0554218E-2,1.21021785E-1,-2.613988E-2,1.5567712E-1,-5.185126E-2,4.5699173E-1,1.2922043E-1,-4.721296E-3,1.7510949E-1,1.7111444E-1,6.6684806E-1,3.3721566E-1,6.385022E-2,6.6441834E-1,1.1851025E-1,3.8145424E-3,2.457367E-1,-3.251652E-2,9.991587E-2,8.974159E-2,3.9691073E-1,1.7811942E-1,-1.7699478E-2,-5.034827E-3,7.360808E-2,-1.6903227E-2,-6.669102E-2],"split_indices":[1,1,8,1,8,1,7,6,8,8,8,8,2,2,8,7,7,3,7,5,5,1,7,8,6,2,5,5,8,2,8,5,0,0,4,6,8,7,7,1,5,4,2,0,6,4,3,2,8,5,1,6,6,3,0,0,5,1,0,6,4,6,0,0,0,0,0,0,0,0,0,0,0,0,0,0,0,0,0,0,0,0,0,0,0,0,0,0,0,0,0,0,0,0,0,0,0,0,0,0,0,0,0,0,0,0,0,0,0,0,0,0,0,0,0,0,0,0,0,0,0],"split_type":[0,0,0,0,0,0,0,0,0,0,0,0,0,0,0,0,0,0,0,0,0,0,0,0,0,0,0,0,0,0,0,0,0,0,0,0,0,0,0,0,0,0,0,0,0,0,0,0,0,0,0,0,0,0,0,0,0,0,0,0,0,0,0,0,0,0,0,0,0,0,0,0,0,0,0,0,0,0,0,0,0,0,0,0,0,0,0,0,0,0,0,0,0,0,0,0,0,0,0,0,0,0,0,0,0,0,0,0,0,0,0,0,0,0,0,0,0,0,0,0,0],"sum_hessian":[1.78E3,1.436E3,3.44E2,8.35E2,6.01E2,2.15E2,1.29E2,3.44E2,4.91E2,3.49E2,2.52E2,1.78E2,3.7E1,3.4E1,9.5E1,2.02E2,1.42E2,3.11E2,1.8E2,1.07E2,2.42E2,8.1E1,1.71E2,8.6E1,9.2E1,1.7E1,2E1,2.5E1,9E0,7.5E1,2E1,1.99E2,3E0,3E0,1.39E2,2.48E2,6.3E1,3.2E1,1.48E2,9E1,1.7E1,9E1,1.52E2,3E0,7.8E1,4.6E1,1.25E2,3.3E1,5.3E1,4.9E1,4.3E1,5E0,1.2E1,1.9E1,1E0,3E0,2.2E1,5E0,4E0,1.1E1,6.4E1,1.2E1,8E0,2E0,1.97E2,2E0,1E0,2E0,1E0,1.34E2,5E0,1.19E2,1.29E2,3.4E1,2.9E1,2.8E1,4E0,1.28E2,2E1,7.3E1,1.7E1,2E0,1.5E1,1.7E1,7.3E1,1.48E2,4E0,2E0,1E0,3.6E1,4.2E1,2E1,2.6E1,4E0,1.21E2,3E0,3E1,4.7E1,6E0,3.4E1,1.5E1,1.4E1,2.9E1,1E0,4E0,6E0,6E0,1.8E1,1E0,1E0,2E0,1.2E1,1E1,1E0,4E0,7E0,4E0,5.3E1,1.1E1,5E0,7E0],"tree_param":{"num_deleted":"0","num_feature":"11","num_nodes":"121","size_leaf_vector":"1"}},{"base_weights":[1.404241E-2,-8.2550657E-1,2.5213888E0,-1.2825394E0,-6.2137574E-2,3.913101E0,3.7633002E-1,-1.164112E0,-1.8826615E0,4.1297293E-1,-7.3892725E-1,2.9806745E0,9.72951E0,2.8658E0,4.0946603E-2,-1.6027323E0,-9.474521E-1,-1.046346E-1,-1.6996557E0,-1.0940304E-1,1.6837401E0,-8.187493E-1,2.6512104E-1,1.3976878E0,4.460532E0,1.1365093E1,6.230689E0,9.783778E-1,5.810563E0,6.344992E-1,-8.089201E-1,-1.8653752E0,-1.229934E0,-6.917357E-1,-1.3355567E0,-1.3401626E0,-1.9082539E0,-7.797734E-1,2.7662623E-1,4.1650577E0,5.390848E-1,-1.018495E0,-3.3970782E-1,2.6274416E-1,-4.1785535E-1,-7.262978E-2,2.2133048E0,6.5566163E0,2.9429665E0,6.833284E0,1.4114008E1,8.320826E0,8.042785E-1,1.4838849E-1,3.9949834E-1,6.933892E0,8.13526E-2,2.4923687E0,2.371746E-2,-1.013185E0,1.0283018E0,-6.303131E-2,-9.83755E-2,-6.343905E-2,6.3455805E-2,-4.639587E-2,1.0667383E-2,-7.055287E-2,-2.9884025E-2,-7.149957E-2,2.4227302E-4,-6.822104E-2,-1.03803E-1,-5.2936855E-3,-6.694179E-2,5.7256024E-2,-5.928573E-3,4.2866102E-1,5.3385694E-2,1.5880764E-1,-2.5925906E-3,-3.453241E-2,-6.0161036E-2,8.06685E-3,-4.063638E-2,6.76651E-4,-5.335967E-2,-2.2794021E-2,8.0658525E-2,1.2813756E-1,-1.3971381E-2,2.1861432E-1,6.554652E-1,2.5793862E-1,7.494217E-2,5.201042E-1,1.0628017E-1,8.5705024E-1,2.618606E-1,1.10267475E-1,5.313347E-1,1.583767E-1,-2.892094E-2,-7.2075627E-3,7.614177E-2,8.749805E-2,3.8103428E-1,2.1975772E-1,5.922697E-2,1.4305519E-1,-7.17682E-3,-2.1986842E-2,-7.258337E-2,1.1315093E-2,1.0111006E-1],"categories":[],"categories_nodes":[],"categories_segments":[],"categories_sizes":[],"default_left":[1,0,0,0,0,0,0,0,0,0,0,0,0,0,0,0,0,0,0,0,0,0,0,0,0,0,0,0,0,0,0,0,0,0,0,0,0,0,0,0,0,0,0,0,0,0,0,0,0,0,0,0,0,0,0,0,0,0,0,0,0,0,0,0,0,0,0,0,0,0,0,0,0,0,0,0,0,0,0,0,0,0,0,0,0,0,0,0,0,0,0,0,0,0,0,0,0,0,0,0,0,0,0,0,0,0,0,0,0,0,0,0,0,0,0],"id":6,"left_children":[1,3,5,7,9,11,13,15,17,19,21,23,25,27,29,31,33,-1,35,37,39,41,43,45,47,49,51,53,55,57,59,61,63,65,67,69,71,73,75,77,79,81,83,-1,85,87,89,91,93,95,97,99,101,-1,103,105,-1,107,109,111,113,-1,-1,-1,-1,-1,-1,-1,-1,-1,-1,-1,-1,-1,-1,-1,-1,-1,-1,-1,-1,-1,-1,-1,-1,-1,-1,-1,-1,-1,-1,-1,-1,-1,-1,-1,-1,-1,-1,-1,-1,-1,-1,-1,-1,-1,-1,-1,-1,-1,-1,-1,-1,-1,-1],"loss_changes":[3.7511577E3,4.6568134E2,1.3329585E3,5.7152466E1,1.6140163E2,1.4407339E3,1.476647E2,6.500348E1,1.6705322E0,1.9601059E2,1.6807144E1,5.4427563E2,1.4092407E2,1.1103331E2,7.971043E1,2.0225708E1,4.5820435E1,0E0,3.2918243E0,5.4560043E1,2.4201645E2,1.8025803E1,5.6722015E1,1.3807057E2,3.655984E2,2.0253638E2,1.5209491E2,1.4937038E1,2.6313843E1,1.054729E2,2.5435074E1,5.7345886E0,1.1124161E1,6.133452E1,9.518707E0,3.8731766E0,1.456543E0,2.8868145E1,4.612819E1,3.5949335E2,9.3665085E1,7.3448334E0,1.3877362E1,0E0,4.2161956E0,2.7870941E1,6.517575E1,6.5834375E2,2.2266034E2,1.6269775E2,2.8640918E2,1.17579285E2,1.8170496E1,0E0,7.5479393E0,8.025879E0,0E0,5.202971E1,3.4104702E1,1.419701E1,5.122124E0,0E0,0E0,0E0,0E0,0E0,0E0,0E0,0E0,0E0,0E0,0E0,0E0,0E0,0E0,0E0,0E0,0E0,0E0,0E0,0E0,0E0,0E0,0E0,0E0,0E0,0E0,0E0,0E0,0E0,0E0,0E0,0E0,0E0,0E0,0E0,0E0,0E0,0E0,0E0,0E0,0E0,0E0,0E0,0E0,0E0,0E0,0E0,0E0,0E0,0E0,0E0,0E0,0E0,0E0],"parents":[2147483647,0,0,1,1,2,2,3,3,4,4,5,5,6,6,7,7,8,8,9,9,10,10,11,11,12,12,13,13,14,14,15,15,16,16,18,18,19,19,20,20,21,21,22,22,23,23,24,24,25,25,26,26,27,27,28,28,29,29,30,30,31,31,32,32,33,33,34,34,35,35,36,36,37,37,38,38,39,39,40,40,41,41,42,42,44,44,45,45,46,46,47,47,48,48,49,49,50,50,51,51,52,52,54,54,55,55,57,57,58,58,59,59,60,60],"right_children":[2,4,6,8,10,12,14,16,18,20,22,24,26,28,30,32,34,-1,36,38,40,42,44,46,48,50,52,54,56,58,60,62,64,66,68,70,72,74,76,78,80,82,84,-1,86,88,90,92,94,96,98,100,102,-1,104,106,-1,108,110,112,114,-1,-1,-1,-1,-1,-1,-1,-1,-1,-1,-1,-1,-1,-1,-1,-1,-1,-1,-1,-1,-1,-1,-1,-1,-1,-1,-1,-1,-1,-1,-1,-1,-1,-1,-1,-1,-1,-1,-1,-1,-1,-1,-1,-1,-1,-1,-1,-1,-1,-1,-1,-1,-1,-1],"split_conditions":[4E0,2.2E0,2.140479E2,2.7678317E2,2.327489E2,1.347E1,1.2429127E1,1.1693304E2,1E0,2.1924562E1,6.78E0,1.5281337E2,2.1767351E1,8.55E0,2.556335E2,1.3E0,2.3173593E2,-1.046346E-1,1E-1,1.0150769E2,4.676083E0,3.1E0,4.43E0,7.417453E1,1.3000002E0,1.7208603E1,7.6531653E0,4.076667E0,3.072537E2,5E-1,1.7326084E1,1.2904882E1,2.0699001E1,3.33E0,3.504596E1,2.9986076E1,1.5629972E1,1.4205182E1,6.153166E0,2.4766667E0,1.42E0,1E-1,3E-1,2.6274416E-1,1.6000001E0,1.7657331E1,1.4197508E2,7E-1,6.5677485E0,1.6327497E1,2.648E1,2.2148046E1,9.773334E0,1.4838849E-1,1.8359417E1,7.87E0,8.13526E-2,2.3464882E2,7.3E-1,1E-1,1.6E0,-6.303131E-2,-9.83755E-2,-6.343905E-2,6.3455805E-2,-4.639587E-2,1.0667383E-2,-7.055287E-2,-2.9884025E-2,-7.149957E-2,2.4227302E-4,-6.822104E-2,-1.03803E-1,-5.2936855E-3,-6.694179E-2,5.7256024E-2,-5.928573E-3,4.2866102E-1,5.3385694E-2,1.5880764E-1,-2.5925906E-3,-3.453241E-2,-6.0161036E-2,8.06685E-3,-4.063638E-2,6.76651E-4,-5.335967E-2,-2.2794021E-2,8.0658525E-2,1.2813756E-1,-1.3971381E-2,2.1861432E-1,6.554652E-1,2.5793862E-1,7.494217E-2,5.201042E-1,1.0628017E-1,8.5705024E-1,2.618606E-1,1.10267475E-1,5.313347E-1,1.583767E-1,-2.892094E-2,-7.2075627E-3,7.614177E-2,8.749805E-2,3.8103428E-1,2.1975772E-1,5.922697E-2,1.4305519E-1,-7.17682E-3,-2.1986842E-2,-7.258337E-2,1.1315093E-2,1.0111006E-1],"split_indices":[1,1,8,8,8,1,7,8,1,7,2,8,7,2,8,1,8,0,6,8,5,1,0,8,6,7,5,0,8,6,5,7,5,3,7,7,7,7,5,4,3,6,6,0,6,5,8,6,5,7,2,7,0,0,5,1,0,8,3,6,6,0,0,0,0,0,0,0,0,0,0,0,0,0,0,0,0,0,0,0,0,0,0,0,0,0,0,0,0,0,0,0,0,0,0,0,0,0,0,0,0,0,0,0,0,0,0,0,0,0,0,0,0,0,0],"split_type":[0,0,0,0,0,0,0,0,0,0,0,0,0,0,0,0,0,0,0,0,0,0,0,0,0,0,0,0,0,0,0,0,0,0,0,0,0,0,0,0,0,0,0,0,0,0,0,0,0,0,0,0,0,0,0,0,0,0,0,0,0,0,0,0,0,0,0,0,0,0,0,0,0,0,0,0,0,0,0,0,0,0,0,0,0,0,0,0,0,0,0,0,0,0,0,0,0,0,0,0,0,0,0,0,0,0,0,0,0,0,0,0,0,0,0],"sum_hessian":[1.78E3,1.334E3,4.46E2,8.34E2,5E2,2.7E2,1.76E2,6.99E2,1.35E2,2.94E2,2.06E2,2.34E2,3.6E1,2E1,1.56E2,2.29E2,4.7E2,5.8E1,7.7E1,2.09E2,8.5E1,1.91E2,1.5E1,1.14E2,1.2E2,2.3E1,1.3E1,1.3E1,7E0,9.2E1,6.4E1,1.32E2,9.7E1,2.85E2,1.85E2,3.1E1,4.6E1,7.6E1,1.33E2,2.6E1,5.9E1,1.34E2,5.7E1,1E0,1.4E1,4.1E1,7.3E1,4.9E1,7.1E1,1E1,1.3E1,9E0,4E0,2E0,1.1E1,5E0,2E0,2.2E1,7E1,5.8E1,6E0,2.1E1,1.11E2,9.6E1,1E0,2.26E2,5.9E1,1.67E2,1.8E1,2.9E1,2E0,1.3E1,3.3E1,3.5E1,4.1E1,4.1E1,9.2E1,1E1,1.6E1,1E1,4.9E1,5E1,8.4E1,2.8E1,2.9E1,9E0,5E0,3.4E1,7E0,6.4E1,9E0,3.8E1,1.1E1,2.7E1,4.4E1,5E0,5E0,9E0,4E0,3E0,6E0,1E0,3E0,8E0,3E0,1E0,4E0,8E0,1.4E1,3E0,6.7E1,2.6E1,3.2E1,4E0,2E0],"tree_param":{"num_deleted":"0","num_feature":"11","num_nodes":"115","size_leaf_vector":"1"}},{"base_weights":[1.6231876E-2,-4.819842E-1,3.8914385E0,-1.0700502E0,5.899967E-1,5.540564E0,9.417391E-1,-1.3447946E0,-6.775337E-1,1.3611375E0,-2.4927147E-1,3.9458601E0,9.297587E0,3.0256853E0,1.1387591E-1,-1.5289359E0,-1.0469118E0,-4.1444862E-1,-1.1825558E0,3.165267E-1,2.7158167E0,1.6056828E-1,-6.394858E-1,1.2163792E0,4.931458E0,6.5573177E0,1.1203648E1,-5.9189695E-1,4.1931734E0,3.1193094E0,-1.2407724E-1,5.5897977E-2,-1.5391943E0,-9.28068E-1,-1.0191114E-1,-1.0186443E0,-8.168718E-2,-7.508566E-1,-1.3195032E0,-3.2856315E-1,1.1428543E0,6.762583E-1,2.434666E0,1.0565165E0,-1.864177E-1,-7.4679065E-1,9.815277E-1,1.7023928E0,-9.411473E-2,5.6777096E0,1.337493E0,1.1232333E1,3.8952096E0,1.179057E1,-1.3369716E-2,6.8466716E-2,-6.2900506E-2,6.34249E0,2.6396213E0,4.430593E-2,1.7841668E-1,-4.4313812E-1,1.0764294E0,-7.292508E-2,-9.76231E-2,-7.721564E-2,-3.6987405E-2,-5.8041483E-2,-3.6229838E-3,5.600542E-2,-3.3603232E-2,-3.8533637E-3,-4.6703603E-2,-5.5851735E-2,-8.38917E-2,-3.0519197E-2,4.476285E-2,-9.110848E-3,1.0357802E-1,7.1908396E-1,1.11116886E-1,1.4550172E-2,1.0799345E-1,-6.633577E-2,-3.8619008E-4,-4.5257203E-2,1.7951857E-2,1.1224748E-1,-2.3909993E-2,-7.633542E-2,1.0413133E-1,3.7905636E-1,1.5949382E-1,-1.0697617E-3,1.7579965E-1,6.6127324E-1,2.415357E-1,3.0627227E-1,5.5425763E-2,1.0434697E-1,6.095724E-1,3.5111135E-1,7.359518E-2,-2.4062907E-2,1.4999175E-1,9.67507E-3,-6.33686E-2,1.6738944E-1,9.985316E-3],"categories":[],"categories_nodes":[],"categories_segments":[],"categories_sizes":[],"default_left":[1,1,0,0,0,0,0,0,0,0,0,0,0,0,0,0,0,0,0,0,0,0,0,0,0,0,0,0,0,0,0,0,0,0,0,0,0,0,0,0,0,0,0,0,0,0,0,0,0,0,0,0,0,0,0,0,0,0,0,0,0,0,0,0,0,0,0,0,0,0,0,0,0,0,0,0,0,0,0,0,0,0,0,0,0,0,0,0,0,0,0,0,0,0,0,0,0,0,0,0,0,0,0,0,0,0,0,0,0],"id":7,"left_children":[1,3,5,7,9,11,13,15,17,19,21,23,25,27,29,31,33,35,37,39,41,43,45,47,49,51,53,55,57,59,61,-1,63,65,-1,67,69,71,73,75,77,-1,79,81,83,85,87,89,-1,91,93,95,97,99,-1,-1,-1,101,103,-1,-1,105,107,-1,-1,-1,-1,-1,-1,-1,-1,-1,-1,-1,-1,-1,-1,-1,-1,-1,-1,-1,-1,-1,-1,-1,-1,-1,-1,-1,-1,-1,-1,-1,-1,-1,-1,-1,-1,-1,-1,-1,-1,-1,-1,-1,-1,-1,-1],"loss_changes":[3.440435E3,9.960259E2,9.822605E2,1.0908728E2,3.627679E2,7.4218726E2,1.2732191E2,3.1256104E1,5.55784E1,4.1235327E2,4.3122597E1,2.4418738E2,1.2501245E2,9.117508E1,3.9005264E1,1.1713074E1,2.5440598E1,5.6010593E1,7.522537E0,8.886273E1,3.530313E2,4.123331E1,2.4737083E1,4.2360344E1,1.747821E2,1.8026495E2,1.445376E2,9.5610485E0,3.668344E1,8.4906006E-1,2.0011776E1,0E0,9.390991E0,2.311229E1,0E0,1.3234718E1,1.2917462E2,4.495611E0,5.961273E0,3.2966858E1,9.0211395E1,0E0,2.8512494E2,3.0622803E1,1.955112E1,2.3089478E1,1.7671799E1,3.1419281E1,0E0,2.4099878E2,3.8559624E1,1.2667175E1,7.400467E1,5.235669E1,0E0,0E0,0E0,9.528244E0,1.3809708E1,0E0,0E0,2.1759571E1,2.1236311E1,0E0,0E0,0E0,0E0,0E0,0E0,0E0,0E0,0E0,0E0,0E0,0E0,0E0,0E0,0E0,0E0,0E0,0E0,0E0,0E0,0E0,0E0,0E0,0E0,0E0,0E0,0E0,0E0,0E0,0E0,0E0,0E0,0E0,0E0,0E0,0E0,0E0,0E0,0E0,0E0,0E0,0E0,0E0,0E0,0E0,0E0],"parents":[2147483647,0,0,1,1,2,2,3,3,4,4,5,5,6,6,7,7,8,8,9,9,10,10,11,11,12,12,13,13,14,14,15,15,16,16,17,17,18,18,19,19,20,20,21,21,22,22,23,23,24,24,25,25,26,26,27,27,28,28,29,29,30,30,32,32,33,33,35,35,36,36,37,37,38,38,39,39,40,40,42,42,43,43,44,44,45,45,46,46,47,47,49,49,50,50,51,51,52,52,53,53,57,57,58,58,61,61,62,62],"right_children":[2,4,6,8,10,12,14,16,18,20,22,24,26,28,30,32,34,36,38,40,42,44,46,48,50,52,54,56,58,60,62,-1,64,66,-1,68,70,72,74,76,78,-1,80,82,84,86,88,90,-1,92,94,96,98,100,-1,-1,-1,102,104,-1,-1,106,108,-1,-1,-1,-1,-1,-1,-1,-1,-1,-1,-1,-1,-1,-1,-1,-1,-1,-1,-1,-1,-1,-1,-1,-1,-1,-1,-1,-1,-1,-1,-1,-1,-1,-1,-1,-1,-1,-1,-1,-1,-1,-1,-1,-1,-1,-1],"split_conditions":[7.03E0,2.67E0,2.1554892E2,1.64E0,2.0919739E2,1.347E1,1.5281989E1,1.2E0,2.4882654E2,1.5281337E2,2.5016772E2,1.1832608E2,9.4E0,6.7933335E0,1.67E0,7.989243E0,2.7546893E2,1.3004668E2,1.6862455E1,4.16E0,5.3E-1,3E-1,3.441647E2,1.26E1,2.0158493E2,3.13E0,7.6531653E0,9E0,4.7E0,1.45E0,1.773E1,5.5897977E-2,3.031546E2,1.1832608E2,-1.0191114E-1,1.7657331E1,9.626082E0,1.27E0,2.7816385E2,1.6467749E1,7.417453E1,6.762583E-1,2.7E0,3.82E0,2.5766666E0,1.7326084E1,2.22E0,4.4396984E1,-9.411473E-2,7.896917E0,1.6396667E1,1.7566371E2,1.0000001E0,1.09E1,-1.3369716E-2,6.8466716E-2,-6.2900506E-2,1.457E1,4.55E0,4.430593E-2,1.7841668E-1,2.461709E2,5.35E0,-7.292508E-2,-9.76231E-2,-7.721564E-2,-3.6987405E-2,-5.8041483E-2,-3.6229838E-3,5.600542E-2,-3.3603232E-2,-3.8533637E-3,-4.6703603E-2,-5.5851735E-2,-8.38917E-2,-3.0519197E-2,4.476285E-2,-9.110848E-3,1.0357802E-1,7.1908396E-1,1.11116886E-1,1.4550172E-2,1.0799345E-1,-6.633577E-2,-3.8619008E-4,-4.5257203E-2,1.7951857E-2,1.1224748E-1,-2.3909993E-2,-7.633542E-2,1.0413133E-1,3.7905636E-1,1.5949382E-1,-1.0697617E-3,1.7579965E-1,6.6127324E-1,2.415357E-1,3.0627227E-1,5.5425763E-2,1.0434697E-1,6.095724E-1,3.5111135E-1,7.359518E-2,-2.4062907E-2,1.4999175E-1,9.67507E-3,-6.33686E-2,1.6738944E-1,9.985316E-3],"split_indices":[1,1,8,1,8,1,7,6,8,8,8,8,2,0,2,7,8,8,7,1,3,6,8,4,8,2,5,7,3,2,4,0,8,8,0,5,5,2,8,5,8,0,1,1,4,5,3,8,0,5,4,8,6,0,0,0,0,1,2,0,0,8,2,0,0,0,0,0,0,0,0,0,0,0,0,0,0,0,0,0,0,0,0,0,0,0,0,0,0,0,0,0,0,0,0,0,0,0,0,0,0,0,0,0,0,0,0,0,0],"split_type":[0,0,0,0,0,0,0,0,0,0,0,0,0,0,0,0,0,0,0,0,0,0,0,0,0,0,0,0,0,0,0,0,0,0,0,0,0,0,0,0,0,0,0,0,0,0,0,0,0,0,0,0,0,0,0,0,0,0,0,0,0,0,0,0,0,0,0,0,0,0,0,0,0,0,0,0,0,0,0,0,0,0,0,0,0,0,0,0,0,0,0,0,0,0,0,0,0,0,0,0,0,0,0,0,0,0,0,0,0],"sum_hessian":[1.78E3,1.578E3,2.02E2,1.019E3,5.59E2,1.29E2,7.3E1,5.98E2,4.21E2,2.91E2,2.68E2,9.2E1,3.7E1,2E1,5.3E1,3.67E2,2.31E2,2.78E2,1.43E2,1.65E2,1.26E2,1.31E2,1.37E2,2.5E1,6.7E1,1.7E1,2E1,5E0,1.5E1,3E0,5E1,1E0,3.66E2,2.08E2,2.3E1,9.8E1,1.8E2,3.6E1,1.07E2,9.3E1,7.2E1,2E0,1.24E2,3.6E1,9.5E1,1.29E2,8E0,2.2E1,3E0,5.5E1,1.2E1,5E0,1.2E1,1.9E1,1E0,1E0,4E0,5E0,1E1,1E0,2E0,4E1,1E1,3.1E2,5.6E1,4.7E1,1.61E2,8.5E1,1.3E1,5.9E1,1.21E2,8E0,2.8E1,7.1E1,3.6E1,7.6E1,1.7E1,3E1,4.2E1,1E0,1.23E2,2.2E1,1.4E1,1.2E1,8.3E1,1.13E2,1.6E1,4E0,4E0,2E0,2E1,3E1,2.5E1,8E0,4E0,3E0,2E0,6E0,6E0,1E0,1.8E1,4E0,1E0,1E0,9E0,2.3E1,1.7E1,2E0,8E0],"tree_param":{"num_deleted":"0","num_feature":"11","num_nodes":"109","size_leaf_vector":"1"}},{"base_weights":[1.8051546E-2,-6.32179E-1,2.7263508E0,-1.1609806E0,1.0322014E-1,3.9819567E0,6.191416E-1,-1.4512987E0,-9.550441E-1,7.2835606E-1,-5.0386673E-1,2.9189646E0,8.88442E0,2.64403E0,2.0476824E-1,-1.3437891E0,-1.8402758E0,-7.416669E-1,-1.3175781E0,5.964293E-2,2.5729105E0,-8.810731E-2,-8.272601E-1,1.4620701E0,4.512918E0,1.0325229E1,5.676946E0,9.1201663E-1,5.0444922E0,6.0135883E-1,-1.0219646E0,-1.6420585E0,-1.0199102E0,-9.374969E-2,-7.8132296E-1,-9.626081E-1,1.29521E-1,-1.0320643E0,-1.4763268E0,-1.1653297E-1,2.463404E0,-1.0003163E0,3.4260156E0,4.2896292E-1,-5.889131E-1,8.438267E-1,-8.720706E-1,-1.4100169E-1,2.357897E0,6.955904E0,1.8461485E0,6.2021213E0,1.2660493E1,7.593122E0,7.09205E-1,1.3977154E-1,3.6516178E-1,6.473253E0,8.201143E-2,1.1448507E0,-2.1558103E-1,-1.4755292E0,4.8472422E-1,-7.3883175E-3,-8.31248E-2,1.157072E-1,-5.439788E-2,-4.521036E-2,-1.0316754E-2,-6.272618E-2,-3.428715E-2,6.659577E-2,-2.4433484E-2,-4.4213142E-2,-8.587785E-2,-7.672559E-2,-3.588764E-2,-3.9179835E-2,6.36045E-3,2.5976327E-1,6.7375E-2,-8.841341E-2,1.4584492E-1,2.614715E-1,2.0175586E-2,7.413391E-2,-4.215659E-3,-5.1515926E-2,-1.0085276E-2,-1.9990893E-2,9.030979E-2,-1.87928E-2,-5.280436E-2,1.1626438E-1,-2.2244079E-2,2.2193197E-2,1.4087908E-1,4.426492E-1,1.12918876E-1,-2.0741351E-2,1.4369969E-1,1.2145E-1,5.1220334E-1,7.600321E-1,2.2700329E-1,9.3991555E-2,4.8865643E-1,1.4676046E-1,-2.9054923E-2,6.284366E-2,-1.1890154E-2,8.1560805E-2,3.5577086E-1,1.2371465E-1,2.2322882E-2,-3.6616508E-2,1.7212315E-2,-4.9204263E-3,-8.497911E-2,1.1270314E-1,-3.3691183E-2],"categories":[],"categories_nodes":[],"categories_segments":[],"categories_sizes":[],"default_left":[1,1,0,0,0,0,0,0,0,0,0,0,0,0,0,0,0,1,0,0,0,0,0,0,0,0,0,0,0,0,0,0,0,0,0,0,0,0,0,0,0,0,0,0,0,0,0,0,0,0,0,0,0,0,0,0,0,0,0,0,0,0,0,0,0,0,0,0,0,0,0,0,0,0,0,0,0,0,0,0,0,0,0,0,0,0,0,0,0,0,0,0,0,0,0,0,0,0,0,0,0,0,0,0,0,0,0,0,0,0,0,0,0,0,0,0,0,0,0,0,0],"id":8,"left_children":[1,3,5,7,9,11,13,15,17,19,21,23,25,27,29,31,33,35,37,39,41,43,45,47,49,51,53,55,57,59,61,63,65,-1,67,69,71,73,75,77,79,81,83,85,87,89,91,93,95,97,99,101,103,105,107,-1,109,111,-1,113,115,117,119,-1,-1,-1,-1,-1,-1,-1,-1,-1,-1,-1,-1,-1,-1,-1,-1,-1,-1,-1,-1,-1,-1,-1,-1,-1,-1,-1,-1,-1,-1,-1,-1,-1,-1,-1,-1,-1,-1,-1,-1,-1,-1,-1,-1,-1,-1,-1,-1,-1,-1,-1,-1,-1,-1,-1,-1,-1,-1],"loss_changes":[3.1380984E3,5.589408E2,9.1034424E2,4.8595825E1,2.288331E2,1.0997031E3,1.0853636E2,1.1954529E1,3.7082184E1,3.6618945E2,4.1069977E1,4.0907947E2,1.16995605E2,8.686728E1,5.3644234E1,2.4794525E1,1.1820831E0,6.017885E1,6.6801453E0,9.303023E1,2.4424579E2,3.52111E1,1.3615646E1,1.367596E2,5.4092346E2,1.621919E2,1.2788187E2,1.3398574E1,3.3157272E1,3.7098824E1,1.9166506E1,4.060425E0,3.291873E1,0E0,9.605813E-2,1.9264175E1,4.822264E1,5.3707657E0,3.9302826E0,3.343092E1,3.8726814E1,5.328958E1,3.4674292E2,3.636175E1,1.1585354E1,6.706374E0,1.4943428E1,2.7265425E1,5.2420288E1,3.721162E2,9.879736E1,1.428754E2,2.4039453E2,1.0617822E2,1.6066751E1,0E0,6.750936E0,7.049515E0,0E0,4.5318993E1,1.0087971E1,6.312252E0,1.5867884E1,0E0,0E0,0E0,0E0,0E0,0E0,0E0,0E0,0E0,0E0,0E0,0E0,0E0,0E0,0E0,0E0,0E0,0E0,0E0,0E0,0E0,0E0,0E0,0E0,0E0,0E0,0E0,0E0,0E0,0E0,0E0,0E0,0E0,0E0,0E0,0E0,0E0,0E0,0E0,0E0,0E0,0E0,0E0,0E0,0E0,0E0,0E0,0E0,0E0,0E0,0E0,0E0,0E0,0E0,0E0,0E0,0E0,0E0],"parents":[2147483647,0,0,1,1,2,2,3,3,4,4,5,5,6,6,7,7,8,8,9,9,10,10,11,11,12,12,13,13,14,14,15,15,16,16,17,17,18,18,19,19,20,20,21,21,22,22,23,23,24,24,25,25,26,26,27,27,28,28,29,29,30,30,31,31,32,32,34,34,35,35,36,36,37,37,38,38,39,39,40,40,41,41,42,42,43,43,44,44,45,45,46,46,47,47,48,48,49,49,50,50,51,51,52,52,53,53,54,54,56,56,57,57,59,59,60,60,61,61,62,62],"right_children":[2,4,6,8,10,12,14,16,18,20,22,24,26,28,30,32,34,36,38,40,42,44,46,48,50,52,54,56,58,60,62,64,66,-1,68,70,72,74,76,78,80,82,84,86,88,90,92,94,96,98,100,102,104,106,108,-1,110,112,-1,114,116,118,120,-1,-1,-1,-1,-1,-1,-1,-1,-1,-1,-1,-1,-1,-1,-1,-1,-1,-1,-1,-1,-1,-1,-1,-1,-1,-1,-1,-1,-1,-1,-1,-1,-1,-1,-1,-1,-1,-1,-1,-1,-1,-1,-1,-1,-1,-1,-1,-1,-1,-1,-1,-1,-1,-1,-1,-1,-1,-1],"split_conditions":[4.82E0,2.2E0,2.1554892E2,1.2E0,2.140479E2,1.347E1,1.2682018E1,2.7678317E2,2.3173593E2,2.1924562E1,2.5156496E2,1.5834761E2,2.1767351E1,8.55E0,2.7416818E2,1.5167397E2,1.3766667E0,3.33E0,2E-1,4.47E0,1.284641E2,2.226477E1,5.6E-1,7.888998E1,3.2000003E0,1.7208603E1,7.6531653E0,4.076667E0,3.072537E2,4.07E0,1.2049E1,-8.907251E0,1.0534229E1,-9.374969E-2,1.6433333E0,6E-1,4.8281665E0,3.243047E2,3.528E1,6.2362103E1,4.59E0,1.6176083E1,1.0459415E1,8.455251E0,3.04E0,1.1E0,1.6048288E1,1.35E0,8.8649994E-1,1.5659419E1,6.2E0,2.04E1,2.648E1,2.2148046E1,9.773334E0,1.3977154E-1,1.044E1,7.87E0,8.201143E-2,6.0864997E0,1.045E1,2.9E0,5.91E0,-7.3883175E-3,-8.31248E-2,1.157072E-1,-5.439788E-2,-4.521036E-2,-1.0316754E-2,-6.272618E-2,-3.428715E-2,6.659577E-2,-2.4433484E-2,-4.4213142E-2,-8.587785E-2,-7.672559E-2,-3.588764E-2,-3.9179835E-2,6.36045E-3,2.5976327E-1,6.7375E-2,-8.841341E-2,1.4584492E-1,2.614715E-1,2.0175586E-2,7.413391E-2,-4.215659E-3,-5.1515926E-2,-1.0085276E-2,-1.9990893E-2,9.030979E-2,-1.87928E-2,-5.280436E-2,1.1626438E-1,-2.2244079E-2,2.2193197E-2,1.4087908E-1,4.426492E-1,1.12918876E-1,-2.0741351E-2,1.4369969E-1,1.2145E-1,5.1220334E-1,7.600321E-1,2.2700329E-1,9.3991555E-2,4.8865643E-1,1.4676046E-1,-2.9054923E-2,6.284366E-2,-1.1890154E-2,8.1560805E-2,3.5577086E-1,1.2371465E-1,2.2322882E-2,-3.6616508E-2,1.7212315E-2,-4.9204263E-3,-8.497911E-2,1.1270314E-1,-3.3691183E-2],"split_indices":[1,1,8,1,8,1,7,8,8,7,8,8,7,2,8,8,4,3,6,1,8,7,3,8,6,7,5,0,8,3,5,5,7,0,0,6,5,8,7,8,1,5,5,5,1,2,7,2,5,5,1,0,2,7,0,0,7,1,0,5,3,4,0,0,0,0,0,0,0,0,0,0,0,0,0,0,0,0,0,0,0,0,0,0,0,0,0,0,0,0,0,0,0,0,0,0,0,0,0,0,0,0,0,0,0,0,0,0,0,0,0,0,0,0,0,0,0,0,0,0,0],"split_type":[0,0,0,0,0,0,0,0,0,0,0,0,0,0,0,0,0,0,0,0,0,0,0,0,0,0,0,0,0,0,0,0,0,0,0,0,0,0,0,0,0,0,0,0,0,0,0,0,0,0,0,0,0,0,0,0,0,0,0,0,0,0,0,0,0,0,0,0,0,0,0,0,0,0,0,0,0,0,0,0,0,0,0,0,0,0,0,0,0,0,0,0,0,0,0,0,0,0,0,0,0,0,0,0,0,0,0,0,0,0,0,0,0,0,0,0,0,0,0,0,0],"sum_hessian":[1.78E3,1.436E3,3.44E2,8.35E2,6.01E2,2.15E2,1.29E2,3.44E2,4.91E2,2.96E2,3.05E2,1.78E2,3.7E1,2.1E1,1.08E2,2.73E2,7.1E1,3.11E2,1.8E2,2.18E2,7.8E1,1.34E2,1.71E2,9.4E1,8.4E1,2.4E1,1.3E1,1.3E1,8E0,8.2E1,2.6E1,1.4E2,1.33E2,6.8E1,3E0,2.48E2,6.3E1,6.7E1,1.13E2,2.04E2,1.4E1,1.5E1,6.3E1,6.6E1,6.8E1,4E0,1.67E2,3.4E1,6E1,4.3E1,4.1E1,1E1,1.4E1,9E0,4E0,2E0,1.1E1,5E0,3E0,4.9E1,3.3E1,2E1,6E0,2E0,1.38E2,2E0,1.31E2,2E0,1E0,1.19E2,1.29E2,2.1E1,4.2E1,5.7E1,1E1,1.04E2,9E0,5.4E1,1.5E2,3E0,1.1E1,1.3E1,2E0,3.9E1,2.4E1,2.1E1,4.5E1,3.1E1,3.7E1,2E0,2E0,4.6E1,1.21E2,3E0,3.1E1,1.2E1,4.8E1,3E1,1.3E1,1.3E1,2.8E1,6E0,4E0,1E1,4E0,3E0,6E0,1E0,3E0,4E0,7E0,1E0,4E0,1.6E1,3.3E1,1.7E1,1.6E1,3E0,1.7E1,2E0,4E0],"tree_param":{"num_deleted":"0","num_feature":"11","num_nodes":"121","size_leaf_vector":"1"}},{"base_weights":[1.9533517E-2,-4.3422332E-1,3.5489056E0,-1.0137199E0,4.6376202E-1,5.045279E0,8.721833E-1,-1.3350824E0,-7.7881116E-1,1.151409E0,-2.5945747E-1,3.5788994E0,8.50128E0,2.8025377E0,1.0533845E-1,-1.6231933E0,-1.1892962E0,-6.154434E-1,-1.206165E0,2.9440555E-1,2.2961166E0,1.3869347E-1,-6.2572694E-1,1.9256895E0,5.0241146E0,5.964782E0,1.0270597E1,-5.6962377E-1,3.8919396E0,3.0022826E0,-1.2393832E-1,-1.0554829E0,-1.720215E0,1.3094208E0,-1.2409929E0,-9.242885E-1,-2.6800436E-1,-5.782958E-1,-1.2752717E0,-4.0022632E-1,8.378112E-1,6.4198107E-1,2.0429327E0,6.328588E-1,-3.2478592E-1,-7.1473485E-1,9.272634E-1,-8.645838E-2,2.2279212E0,8.838075E0,3.0815423E0,1.0384714E1,3.4659846E0,1.0808745E1,-1.2309099E-2,6.518395E-2,-6.0251005E-2,5.9552016E0,2.4127114E0,4.264021E-2,1.7172538E-1,-4.2830774E-1,1.0217967E0,5.4566354E-2,-6.0483992E-2,-8.7209634E-2,-1.3381362E-2,-3.3204358E-2,1.2310983E-1,-5.043463E-2,-8.5501E-2,-5.2374907E-2,-1.6303383E-2,2.3463197E-1,-1.5927255E-2,-4.4336144E-2,5.7830222E-2,-6.876585E-2,-3.448964E-2,-4.1042272E-2,6.7992084E-2,9.306363E-3,1.0227486E-1,1.5859911E-1,4.5022193E-2,1.9025417E-1,2.1847531E-2,-7.692564E-2,-4.785828E-3,-4.2273074E-2,1.7887097E-2,1.05469964E-1,-2.2016263E-2,1.368637E-1,2.8076663E-3,6.5313035E-1,2.0504633E-1,2.593052E-1,7.658805E-2,6.1136645E-1,2.2331606E-1,2.7427277E-1,4.7568675E-2,5.5960906E-1,8.808658E-2,3.284911E-1,7.205255E-2,1.8185332E-1,5.967495E-2,7.6774717E-3,-5.901612E-2,1.5937585E-1,9.31785E-3],"categories":[],"categories_nodes":[],"categories_segments":[],"categories_sizes":[],"default_left":[1,1,0,0,0,0,0,0,0,0,0,0,0,0,0,0,0,0,0,0,0,0,0,0,0,0,0,0,0,0,0,0,0,0,0,1,0,0,0,0,0,0,0,0,0,0,0,0,0,0,0,0,0,0,0,0,0,0,0,0,0,0,0,0,0,0,0,0,0,0,0,0,0,0,0,0,0,0,0,0,0,0,0,0,0,0,0,0,0,0,0,0,0,0,0,0,0,0,0,0,0,0,0,0,0,0,0,0,0,0,0,0,0],"id":9,"left_children":[1,3,5,7,9,11,13,15,17,19,21,23,25,27,29,31,33,35,37,39,41,43,45,47,49,51,53,55,57,59,61,63,65,67,69,71,73,75,77,79,81,-1,83,85,87,89,91,-1,93,95,97,99,101,103,-1,-1,-1,105,107,-1,-1,109,111,-1,-1,-1,-1,-1,-1,-1,-1,-1,-1,-1,-1,-1,-1,-1,-1,-1,-1,-1,-1,-1,-1,-1,-1,-1,-1,-1,-1,-1,-1,-1,-1,-1,-1,-1,-1,-1,-1,-1,-1,-1,-1,-1,-1,-1,-1,-1,-1,-1,-1],"loss_changes":[2.8537712E3,8.221492E2,8.086909E2,7.143146E1,3.0863696E2,6.2838965E2,1.0924569E2,1.5038635E1,3.814508E1,3.1128778E2,4.4273438E1,2.1252478E2,1.092771E2,7.936336E1,3.6239006E1,5.51001E0,3.676065E1,4.321074E1,5.901184E0,6.941174E1,3.3681403E2,3.364472E1,2.2502838E1,5.3560104E1,3.3580078E2,1.6280798E2,1.2151221E2,8.712698E0,3.4464386E1,7.872734E-1,1.8222706E1,8.602852E0,3.4341125E0,1.5285185E1,2.736615E1,1.5431641E1,4.963203E1,1.0122118E1,7.0760193E0,6.1081993E1,8.068331E1,0E0,1.6999396E2,4.2461365E1,2.0982841E1,2.133265E1,1.5478903E1,0E0,4.630652E1,2.6662695E2,1.0295093E2,1.0820801E1,6.0797653E1,4.9661133E1,0E0,0E0,0E0,7.179489E0,1.2079399E1,0E0,0E0,1.8121408E1,1.93086E1,0E0,0E0,0E0,0E0,0E0,0E0,0E0,0E0,0E0,0E0,0E0,0E0,0E0,0E0,0E0,0E0,0E0,0E0,0E0,0E0,0E0,0E0,0E0,0E0,0E0,0E0,0E0,0E0,0E0,0E0,0E0,0E0,0E0,0E0,0E0,0E0,0E0,0E0,0E0,0E0,0E0,0E0,0E0,0E0,0E0,0E0,0E0,0E0,0E0,0E0],"parents":[2147483647,0,0,1,1,2,2,3,3,4,4,5,5,6,6,7,7,8,8,9,9,10,10,11,11,12,12,13,13,14,14,15,15,16,16,17,17,18,18,19,19,20,20,21,21,22,22,23,23,24,24,25,25,26,26,27,27,28,28,29,29,30,30,31,31,32,32,33,33,34,34,35,35,36,36,37,37,38,38,39,39,40,40,42,42,43,43,44,44,45,45,46,46,48,48,49,49,50,50,51,51,52,52,53,53,57,57,58,58,61,61,62,62],"right_children":[2,4,6,8,10,12,14,16,18,20,22,24,26,28,30,32,34,36,38,40,42,44,46,48,50,52,54,56,58,60,62,64,66,68,70,72,74,76,78,80,82,-1,84,86,88,90,92,-1,94,96,98,100,102,104,-1,-1,-1,106,108,-1,-1,110,112,-1,-1,-1,-1,-1,-1,-1,-1,-1,-1,-1,-1,-1,-1,-1,-1,-1,-1,-1,-1,-1,-1,-1,-1,-1,-1,-1,-1,-1,-1,-1,-1,-1,-1,-1,-1,-1,-1,-1,-1,-1,-1,-1,-1,-1,-1,-1,-1,-1,-1],"split_conditions":[7.03E0,2.5E0,2.1554892E2,1.3E0,2.0919739E2,1.347E1,1.5281989E1,1.1693304E2,2.56786E2,1.5281337E2,2.5016772E2,1.6118169E2,9.4E0,6.7933335E0,1.67E0,1.2904882E1,1.2151601E2,1.5E0,1.2682018E1,7.417453E1,5.3E-1,2.1E0,3.441647E2,4.4396984E1,9.000001E-1,3.13E0,7.6531653E0,9E0,4.7E0,1.45E0,1.773E1,-8.907251E0,2.0119833E1,1E-1,2.7416818E2,3.64E0,1.5000001E0,2.4233334E0,3.1883888E1,1.5963582E1,4.47E0,6.4198107E-1,1.0353167E1,6.8E-1,2.55E0,1.7326084E1,2.22E0,-8.645838E-2,8.93E0,5.6E0,1.8243657E2,1.7566371E2,1.0000001E0,2.89E1,-1.2309099E-2,6.518395E-2,-6.0251005E-2,1.457E1,4.028167E0,4.264021E-2,1.7172538E-1,2.461709E2,5.35E0,5.4566354E-2,-6.0483992E-2,-8.7209634E-2,-1.3381362E-2,-3.3204358E-2,1.2310983E-1,-5.043463E-2,-8.5501E-2,-5.2374907E-2,-1.6303383E-2,2.3463197E-1,-1.5927255E-2,-4.4336144E-2,5.7830222E-2,-6.876585E-2,-3.448964E-2,-4.1042272E-2,6.7992084E-2,9.306363E-3,1.0227486E-1,1.5859911E-1,4.5022193E-2,1.9025417E-1,2.1847531E-2,-7.692564E-2,-4.785828E-3,-4.2273074E-2,1.7887097E-2,1.05469964E-1,-2.2016263E-2,1.368637E-1,2.8076663E-3,6.5313035E-1,2.0504633E-1,2.593052E-1,7.658805E-2,6.1136645E-1,2.2331606E-1,2.7427277E-1,4.7568675E-2,5.5960906E-1,8.808658E-2,3.284911E-1,7.205255E-2,1.8185332E-1,5.967495E-2,7.6774717E-3,-5.901612E-2,1.5937585E-1,9.31785E-3],"split_indices":[1,1,8,1,8,1,7,8,8,8,8,8,2,0,2,7,8,6,7,8,3,6,8,8,6,2,5,7,3,2,4,5,5,6,8,3,6,4,7,5,1,0,5,3,4,5,3,0,3,2,8,8,6,3,0,0,0,1,5,0,0,8,2,0,0,0,0,0,0,0,0,0,0,0,0,0,0,0,0,0,0,0,0,0,0,0,0,0,0,0,0,0,0,0,0,0,0,0,0,0,0,0,0,0,0,0,0,0,0,0,0,0,0],"split_type":[0,0,0,0,0,0,0,0,0,0,0,0,0,0,0,0,0,0,0,0,0,0,0,0,0,0,0,0,0,0,0,0,0,0,0,0,0,0,0,0,0,0,0,0,0,0,0,0,0,0,0,0,0,0,0,0,0,0,0,0,0,0,0,0,0,0,0,0,0,0,0,0,0,0,0,0,0,0,0,0,0,0,0,0,0,0,0,0,0,0,0,0,0,0,0,0,0,0,0,0,0,0,0,0,0,0,0,0,0,0,0,0,0],"sum_hessian":[1.78E3,1.578E3,2.02E2,9.59E2,6.19E2,1.29E2,7.3E1,4.03E2,5.56E2,3.17E2,3.02E2,9.2E1,3.7E1,2E1,5.3E1,1.32E2,2.71E2,4.04E2,1.52E2,1.82E2,1.35E2,1.45E2,1.57E2,4.4E1,4.8E1,1.7E1,2E1,5E0,1.5E1,3E0,5E1,2.1E1,1.11E2,5E0,2.66E2,2.13E2,1.91E2,1.6E1,1.36E2,8E1,1.02E2,2E0,1.33E2,7E1,7.5E1,1.49E2,8E0,3E0,4.1E1,1.5E1,3.3E1,5E0,1.2E1,1.9E1,1E0,1E0,4E0,5E0,1E1,1E0,2E0,4E1,1E1,1E0,2E1,1.09E2,2E0,2E0,3E0,1.8E2,8.6E1,1.76E2,3.7E1,1E0,1.9E2,1.4E1,2E0,1.15E2,2.1E1,6.5E1,1.5E1,6.7E1,3.5E1,6.6E1,6.7E1,3E0,6.7E1,1.1E1,6.4E1,1.33E2,1.6E1,4E0,4E0,3.3E1,8E0,7E0,8E0,1.3E1,2E1,3E0,2E0,6E0,6E0,1.8E1,1E0,4E0,1E0,4E0,6E0,2.3E1,1.7E1,2E0,8E0],"tree_param":{"num_deleted":"0","num_feature":"11","num_nodes":"113","size_leaf_vector":"1"}},{"base_weights":[2.1419974E-2,-5.7200104E-1,2.4930856E0,-1.0520551E0,9.369905E-2,3.6341147E0,5.780441E-1,-9.537537E-1,-1.5502828E0,6.5636295E-1,-4.5456085E-1,2.660786E0,8.123371E0,1.9800488E0,6.087528E-2,-1.3321615E0,-7.669436E-1,-8.819966E-2,-1.4214532E0,3.5306755E-2,2.377578E0,-8.044074E-2,-7.4555886E-1,1.3232176E0,4.1244116E0,9.45136E0,5.171722E0,9.024486E-1,4.5838046E0,4.347698E-1,-1.2951657E0,-1.5428344E0,-1.0326549E0,-5.4148203E-1,-1.1094977E0,4.0678503E-3,-1.4392529E0,-1.3037437E-1,2.3083072E0,-9.39862E-1,3.1697884E0,3.996299E-1,-5.454305E-1,8.548161E-1,-7.887512E-1,-1.3028519E-1,2.1355026E0,6.391468E0,1.6512002E0,5.590494E0,1.165257E1,6.927478E0,6.2586564E-1,3.210566E0,4.618E-1,6.0220547E0,9.7057156E-2,1.9472107E0,1.488612E-1,-7.5707614E-1,-9.6424945E-2,-5.0148893E-2,-8.1755124E-2,-5.3468455E-2,6.3215345E-2,-5.675585E-2,-1.1778294E-2,-5.8850717E-2,-2.2705695E-2,-5.1093347E-2,-7.689726E-2,-3.951731E-2,3.4841169E-3,2.4648812E-1,6.210649E-2,-8.373119E-2,1.4011568E-1,2.424265E-1,1.7850533E-2,6.933651E-2,-4.057457E-3,-8.179911E-2,-1.979584E-2,-1.7915428E-2,8.91501E-2,-1.9570416E-2,-4.94633E-2,1.1121973E-1,-2.1027436E-2,1.5899835E-2,1.2870583E-1,3.946229E-1,5.8550138E-2,-2.318528E-2,1.3076256E-1,4.3750116E-1,7.4960805E-2,7.0346886E-1,2.0025401E-1,7.944873E-2,4.4942054E-1,1.3623463E-1,-2.9000713E-2,-1.0510803E-3,2.1473844E-1,-2.9285604E-2,8.288935E-2,7.497545E-2,3.3133313E-1,1.5760455E-1,-1.8501977E-2,-5.250055E-3,6.394182E-2,-1.0581315E-2,-5.357645E-2],"categories":[],"categories_nodes":[],"categories_segments":[],"categories_sizes":[],"default_left":[1,0,0,0,0,0,0,0,0,0,0,0,0,0,0,0,0,0,0,1,0,0,0,0,0,0,0,0,0,0,0,0,0,0,0,0,0,0,0,0,0,0,0,0,0,0,0,0,0,0,0,0,0,0,0,0,0,0,0,0,0,0,0,0,0,0,0,0,0,0,0,0,0,0,0,0,0,0,0,0,0,0,0,0,0,0,0,0,0,0,0,0,0,0,0,0,0,0,0,0,0,0,0,0,0,0,0,0,0,0,0,0,0,0,0],"id":10,"left_children":[1,3,5,7,9,11,13,15,17,19,21,23,25,27,29,31,33,-1,35,37,39,41,43,45,47,49,51,53,55,57,59,61,63,65,67,-1,69,71,73,75,77,79,81,83,85,87,89,91,93,95,97,99,101,103,105,107,-1,109,111,113,-1,-1,-1,-1,-1,-1,-1,-1,-1,-1,-1,-1,-1,-1,-1,-1,-1,-1,-1,-1,-1,-1,-1,-1,-1,-1,-1,-1,-1,-1,-1,-1,-1,-1,-1,-1,-1,-1,-1,-1,-1,-1,-1,-1,-1,-1,-1,-1,-1,-1,-1,-1,-1,-1,-1],"loss_changes":[2.6136868E3,4.593237E2,7.517649E2,3.9416748E1,1.8631544E2,9.222024E2,9.413898E1,4.846161E1,1.236969E0,3.1846948E2,3.32537E1,3.449707E2,1.000708E2,9.406662E1,4.9236664E1,1.2919281E1,3.577585E1,0E0,2.5245361E0,8.315147E1,2.1059985E2,3.0353737E1,1.2563545E1,1.1244078E2,4.6603357E2,1.4732104E2,1.0740411E2,2.4961143E1,2.6318436E1,3.257405E1,5.6965675E0,4.9849854E0,9.616447E0,5.167093E1,7.695877E0,0E0,2.0945892E0,2.725362E1,3.5800644E1,4.8686543E1,3.0047223E2,3.1909199E1,1.0602901E1,6.2688913E0,1.2997887E1,2.4857187E1,4.780957E1,3.35536E2,8.684554E1,1.2907349E2,2.2088855E2,9.574066E1,1.4235026E1,1.4105076E1,2.9785635E1,6.4694366E0,0E0,3.46705E1,1.8780054E1,2.0029736E0,0E0,0E0,0E0,0E0,0E0,0E0,0E0,0E0,0E0,0E0,0E0,0E0,0E0,0E0,0E0,0E0,0E0,0E0,0E0,0E0,0E0,0E0,0E0,0E0,0E0,0E0,0E0,0E0,0E0,0E0,0E0,0E0,0E0,0E0,0E0,0E0,0E0,0E0,0E0,0E0,0E0,0E0,0E0,0E0,0E0,0E0,0E0,0E0,0E0,0E0,0E0,0E0,0E0,0E0,0E0],"parents":[2147483647,0,0,1,1,2,2,3,3,4,4,5,5,6,6,7,7,8,8,9,9,10,10,11,11,12,12,13,13,14,14,15,15,16,16,18,18,19,19,20,20,21,21,22,22,23,23,24,24,25,25,26,26,27,27,28,28,29,29,30,30,31,31,32,32,33,33,34,34,36,36,37,37,38,38,39,39,40,40,41,41,42,42,43,43,44,44,45,45,46,46,47,47,48,48,49,49,50,50,51,51,52,52,53,53,54,54,55,55,57,57,58,58,59,59],"right_children":[2,4,6,8,10,12,14,16,18,20,22,24,26,28,30,32,34,-1,36,38,40,42,44,46,48,50,52,54,56,58,60,62,64,66,68,-1,70,72,74,76,78,80,82,84,86,88,90,92,94,96,98,100,102,104,106,108,-1,110,112,114,-1,-1,-1,-1,-1,-1,-1,-1,-1,-1,-1,-1,-1,-1,-1,-1,-1,-1,-1,-1,-1,-1,-1,-1,-1,-1,-1,-1,-1,-1,-1,-1,-1,-1,-1,-1,-1,-1,-1,-1,-1,-1,-1,-1,-1,-1,-1,-1,-1,-1,-1,-1,-1,-1,-1],"split_conditions":[4.82E0,2.2E0,2.1554892E2,2.7678317E2,2.140479E2,1.347E1,1.5484185E1,1.1693304E2,8.666667E-1,2.1924562E1,2.5156496E2,1.5834761E2,2.1767351E1,8.55E0,2.7416818E2,1.3E0,2.3173593E2,-8.819966E-2,6.3E-1,4.47E0,1.284641E2,2.226477E1,5.6E-1,7.888998E1,3.2000003E0,1.7208603E1,7.6531653E0,-3.328083E0,3.072537E2,2.54E0,2.9730624E2,1.2904882E1,2.0699001E1,1.594601E1,3.504596E1,4.0678503E-3,1.4336861E1,5.5811295E1,4.59E0,1.6176083E1,1.0459415E1,8.455251E0,4.1115E0,1.1E0,1.7533146E1,1.35E0,8.8649994E-1,2.0158493E2,6.2E0,1.6327497E1,2.648E1,2.2148046E1,9.773334E0,2.4133334E0,1.05510845E1,7.87E0,9.7057156E-2,2.1E0,1.773E1,1E-1,-9.6424945E-2,-5.0148893E-2,-8.1755124E-2,-5.3468455E-2,6.3215345E-2,-5.675585E-2,-1.1778294E-2,-5.8850717E-2,-2.2705695E-2,-5.1093347E-2,-7.689726E-2,-3.951731E-2,3.4841169E-3,2.4648812E-1,6.210649E-2,-8.373119E-2,1.4011568E-1,2.424265E-1,1.7850533E-2,6.933651E-2,-4.057457E-3,-8.179911E-2,-1.979584E-2,-1.7915428E-2,8.91501E-2,-1.9570416E-2,-4.94633E-2,1.1121973E-1,-2.1027436E-2,1.5899835E-2,1.2870583E-1,3.946229E-1,5.8550138E-2,-2.318528E-2,1.3076256E-1,4.3750116E-1,7.4960805E-2,7.0346886E-1,2.0025401E-1,7.944873E-2,4.4942054E-1,1.3623463E-1,-2.9000713E-2,-1.0510803E-3,2.1473844E-1,-2.9285604E-2,8.288935E-2,7.497545E-2,3.3133313E-1,1.5760455E-1,-1.8501977E-2,-5.250055E-3,6.394182E-2,-1.0581315E-2,-5.357645E-2],"split_indices":[1,1,8,8,8,1,7,8,4,7,8,8,7,2,8,1,8,0,1,1,8,7,3,8,6,7,5,5,8,2,8,7,5,7,7,0,7,8,1,5,5,5,5,2,7,2,5,8,1,7,2,7,0,0,5,1,0,6,4,6,0,0,0,0,0,0,0,0,0,0,0,0,0,0,0,0,0,0,0,0,0,0,0,0,0,0,0,0,0,0,0,0,0,0,0,0,0,0,0,0,0,0,0,0,0,0,0,0,0,0,0,0,0,0,0],"split_type":[0,0,0,0,0,0,0,0,0,0,0,0,0,0,0,0,0,0,0,0,0,0,0,0,0,0,0,0,0,0,0,0,0,0,0,0,0,0,0,0,0,0,0,0,0,0,0,0,0,0,0,0,0,0,0,0,0,0,0,0,0,0,0,0,0,0,0,0,0,0,0,0,0,0,0,0,0,0,0,0,0,0,0,0,0,0,0,0,0,0,0,0,0,0,0,0,0,0,0,0,0,0,0,0,0,0,0,0,0,0,0,0,0,0,0],"sum_hessian":[1.78E3,1.436E3,3.44E2,8.34E2,6.02E2,2.15E2,1.29E2,6.99E2,1.35E2,2.97E2,3.05E2,1.78E2,3.7E1,3.4E1,9.5E1,2.29E2,4.7E2,4.6E1,8.9E1,2.19E2,7.8E1,1.34E2,1.71E2,9.4E1,8.4E1,2.4E1,1.3E1,2.5E1,9E0,7.5E1,2E1,1.32E2,9.7E1,2.85E2,1.85E2,1E0,8.8E1,2.05E2,1.4E1,1.5E1,6.3E1,6.6E1,6.8E1,4E0,1.67E2,3.4E1,6E1,4.3E1,4.1E1,1E1,1.4E1,9E0,4E0,3E0,2.2E1,5E0,4E0,1.1E1,6.4E1,1.2E1,8E0,2.1E1,1.11E2,9.6E1,1E0,9.6E1,1.89E2,1.67E2,1.8E1,1.9E1,6.9E1,4.7E1,1.58E2,3E0,1.1E1,1.3E1,2E0,3.9E1,2.4E1,2.1E1,4.5E1,7E0,6.1E1,2E0,2E0,5.7E1,1.1E2,3E0,3.1E1,1.2E1,4.8E1,3.3E1,1E1,1.3E1,2.8E1,5E0,5E0,1E1,4E0,3E0,6E0,1E0,3E0,1E0,2E0,1.2E1,1E1,1E0,4E0,7E0,4E0,5.3E1,1.1E1,5E0,7E0],"tree_param":{"num_deleted":"0","num_feature":"11","num_nodes":"115","size_leaf_vector":"1"}},{"base_weights":[2.2441316E-2,-5.4335177E-1,2.3790274E0,-1.0000324E0,8.993469E-2,3.4655933E0,5.5535626E-1,-1.3366145E0,-8.651911E-1,5.395903E-1,-5.342513E-1,2.532191E0,7.7712097E0,1.9030651E0,5.8219105E-2,-1.4367435E0,-7.7444595E-1,-6.87015E-1,-1.158306E0,8.9281335E-2,1.5385398E0,-1.6272508E-1,-7.0826817E-1,1.2595283E0,3.9247882E0,5.41051E0,9.424609E0,8.676065E-1,4.4049506E0,4.1563383E-1,-1.2380542E0,-3.0317944E-1,-1.5011139E0,-1.1560855E0,-2.86175E-1,-1.1792071E0,-4.271778E-1,-6.7366195E-1,-1.2440369E0,-5.0247192E-2,2.2134647E0,2.3585732E0,-2.6263297E-1,2.3945796E0,-2.9014906E-1,8.2632226E-1,-7.497246E-1,-1.2119407E-1,2.031098E0,6.981487E0,2.2171857E0,9.547379E0,3.084993E0,9.918392E0,-1.1276352E-2,3.1034594E0,4.4104052E-1,5.78867E0,9.317486E-2,1.861442E0,1.4232104E-1,-7.241576E-1,-9.2139386E-2,2.2775304E-1,-5.7946708E-2,-4.399582E-3,-7.578785E-2,-6.1907567E-2,-1.2548684E-2,5.529938E-2,-2.6465977E-2,-6.038403E-2,6.1634965E-2,-3.2796435E-2,2.0127088E-2,-4.0331695E-2,1.56045435E-2,-5.4855514E-2,-7.517291E-2,-3.7582602E-2,6.7507387E-3,2.3724483E-1,5.925994E-2,-1.941794E-2,1.6822593E-1,-8.2500346E-2,4.065336E-3,-8.085931E-3,2.5158688E-1,1.0186827E-2,-3.5418637E-2,-1.7318245E-2,8.617844E-2,-1.860877E-2,-4.7012415E-2,1.0704899E-1,-2.0008925E-2,1.5166004E-2,1.22401856E-1,2.170947E-1,7.517082E-1,3.1988654E-2,2.3129623E-1,5.652358E-1,2.0109014E-1,2.4536781E-1,4.109581E-2,5.135072E-1,8.087807E-2,-1.0248065E-3,2.0758049E-1,-2.793396E-2,7.912164E-2,7.3101066E-2,3.180798E-1,1.5070935E-1,-1.7761897E-2,-4.992417E-3,6.1011154E-2,-1.1567622E-3,-4.6607535E-2],"categories":[],"categories_nodes":[],"categories_segments":[],"categories_sizes":[],"default_left":[1,0,0,0,0,0,0,0,0,0,0,0,0,0,0,0,0,0,0,1,0,0,0,0,0,0,0,0,0,0,0,0,0,0,0,0,0,0,0,0,0,0,0,0,0,0,0,0,0,0,0,0,0,0,0,0,0,0,0,0,0,0,0,0,0,0,0,0,0,0,0,0,0,0,0,0,0,0,0,0,0,0,0,0,0,0,0,0,0,0,0,0,0,0,0,0,0,0,0,0,0,0,0,0,0,0,0,0,0,0,0,0,0,0,0,0,0,0,0,0,0],"id":11,"left_children":[1,3,5,7,9,11,13,15,17,19,21,23,25,27,29,31,33,35,37,39,41,43,45,47,49,51,53,55,57,59,61,63,65,67,69,71,73,75,77,79,81,83,85,87,89,91,93,95,97,99,101,103,105,107,-1,109,111,113,-1,115,117,119,-1,-1,-1,-1,-1,-1,-1,-1,-1,-1,-1,-1,-1,-1,-1,-1,-1,-1,-1,-1,-1,-1,-1,-1,-1,-1,-1,-1,-1,-1,-1,-1,-1,-1,-1,-1,-1,-1,-1,-1,-1,-1,-1,-1,-1,-1,-1,-1,-1,-1,-1,-1,-1,-1,-1,-1,-1,-1,-1],"loss_changes":[2.3759714E3,4.1568427E2,6.817064E2,3.6740173E1,1.6953152E2,8.4839844E2,8.698869E1,1.2227875E1,3.048764E1,1.5775504E2,1.6241661E1,3.1229944E2,9.732886E1,8.684921E1,4.499206E1,1.413858E1,6.75021E0,4.745494E1,8.510468E0,7.213259E1,1.616148E2,2.7415466E1,1.156192E1,1.0145189E2,4.281891E2,1.4371283E2,1.0230347E2,2.3428461E1,2.4379425E1,2.9767078E1,5.1917114E0,5.5168556E1,3.7774658E0,1.2491093E0,6.678362E0,1.0347824E1,4.7144413E1,4.9705315E0,5.59256E0,2.9858576E1,3.3421127E1,2.0855148E2,1.6835213E1,2.777917E1,1.6462137E1,5.85793E0,1.1734657E1,2.294567E1,4.3200546E1,5.7239685E2,2.0981662E2,1.2796448E1,4.9580505E1,4.1783936E1,0E0,1.31825905E1,2.712874E1,5.572281E0,0E0,3.173394E1,1.7089102E1,1.8739367E0,0E0,0E0,0E0,0E0,0E0,0E0,0E0,0E0,0E0,0E0,0E0,0E0,0E0,0E0,0E0,0E0,0E0,0E0,0E0,0E0,0E0,0E0,0E0,0E0,0E0,0E0,0E0,0E0,0E0,0E0,0E0,0E0,0E0,0E0,0E0,0E0,0E0,0E0,0E0,0E0,0E0,0E0,0E0,0E0,0E0,0E0,0E0,0E0,0E0,0E0,0E0,0E0,0E0,0E0,0E0,0E0,0E0,0E0,0E0],"parents":[2147483647,0,0,1,1,2,2,3,3,4,4,5,5,6,6,7,7,8,8,9,9,10,10,11,11,12,12,13,13,14,14,15,15,16,16,17,17,18,18,19,19,20,20,21,21,22,22,23,23,24,24,25,25,26,26,27,27,28,28,29,29,30,30,31,31,32,32,33,33,34,34,35,35,36,36,37,37,38,38,39,39,40,40,41,41,42,42,43,43,44,44,45,45,46,46,47,47,48,48,49,49,50,50,51,51,52,52,53,53,55,55,56,56,57,57,59,59,60,60,61,61],"right_children":[2,4,6,8,10,12,14,16,18,20,22,24,26,28,30,32,34,36,38,40,42,44,46,48,50,52,54,56,58,60,62,64,66,68,70,72,74,76,78,80,82,84,86,88,90,92,94,96,98,100,102,104,106,108,-1,110,112,114,-1,116,118,120,-1,-1,-1,-1,-1,-1,-1,-1,-1,-1,-1,-1,-1,-1,-1,-1,-1,-1,-1,-1,-1,-1,-1,-1,-1,-1,-1,-1,-1,-1,-1,-1,-1,-1,-1,-1,-1,-1,-1,-1,-1,-1,-1,-1,-1,-1,-1,-1,-1,-1,-1,-1,-1,-1,-1,-1,-1,-1,-1],"split_conditions":[4.82E0,2.2E0,2.1554892E2,9.6E-1,2.2897649E2,1.347E1,1.5484185E1,2.512854E1,2.3173593E2,2.1924562E1,2.5156496E2,1.5834761E2,9.4E0,8.55E0,2.7416818E2,1.0534229E1,5.744833E0,9.953076E1,1.4003028E1,4.47E0,2.098988E2,2.25E0,5.6E-1,7.888998E1,1.2000002E0,3.13E0,7.6531653E0,-3.328083E0,3.072537E2,2.54E0,2.9730624E2,4E-1,-8.907251E0,1.12E0,5.6E-1,2.0699001E1,3.33E0,1.3556282E1,2.7546893E2,5.5811295E1,4.59E0,1.464001E2,4.1115E0,2.92E0,1.2000002E0,1.1E0,1.7533146E1,1.35E0,8.8649994E-1,7E-1,5.19E0,1.7566371E2,1.0000001E0,2.89E1,-1.1276352E-2,2.4133334E0,1.05510845E1,7.87E0,9.317486E-2,2.1E0,1.773E1,5.3333335E0,-9.2139386E-2,2.2775304E-1,-5.7946708E-2,-4.399582E-3,-7.578785E-2,-6.1907567E-2,-1.2548684E-2,5.529938E-2,-2.6465977E-2,-6.038403E-2,6.1634965E-2,-3.2796435E-2,2.0127088E-2,-4.0331695E-2,1.56045435E-2,-5.4855514E-2,-7.517291E-2,-3.7582602E-2,6.7507387E-3,2.3724483E-1,5.925994E-2,-1.941794E-2,1.6822593E-1,-8.2500346E-2,4.065336E-3,-8.085931E-3,2.5158688E-1,1.0186827E-2,-3.5418637E-2,-1.7318245E-2,8.617844E-2,-1.860877E-2,-4.7012415E-2,1.0704899E-1,-2.0008925E-2,1.5166004E-2,1.22401856E-1,2.170947E-1,7.517082E-1,3.1988654E-2,2.3129623E-1,5.652358E-1,2.0109014E-1,2.4536781E-1,4.109581E-2,5.135072E-1,8.087807E-2,-1.0248065E-3,2.0758049E-1,-2.793396E-2,7.912164E-2,7.3101066E-2,3.180798E-1,1.5070935E-1,-1.7761897E-2,-4.992417E-3,6.1011154E-2,-1.1567622E-3,-4.6607535E-2],"split_indices":[1,1,8,4,8,1,7,7,8,7,8,8,2,2,8,7,5,8,7,1,8,1,3,8,6,2,5,5,8,2,8,2,5,1,2,5,3,7,8,8,1,8,5,0,6,2,7,2,5,6,3,8,6,3,0,0,5,1,0,6,4,4,0,0,0,0,0,0,0,0,0,0,0,0,0,0,0,0,0,0,0,0,0,0,0,0,0,0,0,0,0,0,0,0,0,0,0,0,0,0,0,0,0,0,0,0,0,0,0,0,0,0,0,0,0,0,0,0,0,0,0],"split_type":[0,0,0,0,0,0,0,0,0,0,0,0,0,0,0,0,0,0,0,0,0,0,0,0,0,0,0,0,0,0,0,0,0,0,0,0,0,0,0,0,0,0,0,0,0,0,0,0,0,0,0,0,0,0,0,0,0,0,0,0,0,0,0,0,0,0,0,0,0,0,0,0,0,0,0,0,0,0,0,0,0,0,0,0,0,0,0,0,0,0,0,0,0,0,0,0,0,0,0,0,0,0,0,0,0,0,0,0,0,0,0,0,0,0,0,0,0,0,0,0,0],"sum_hessian":[1.78E3,1.436E3,3.44E2,8.34E2,6.02E2,2.15E2,1.29E2,2.36E2,5.98E2,3.5E2,2.52E2,1.78E2,3.7E1,3.4E1,9.5E1,1.99E2,3.7E1,3.74E2,2.24E2,2.42E2,1.08E2,8.1E1,1.71E2,9.4E1,8.4E1,1.7E1,2E1,2.5E1,9E0,7.5E1,2E1,1.1E1,1.88E2,2E1,1.7E1,1.28E2,2.46E2,3.5E1,1.89E2,2.28E2,1.4E1,7.4E1,3.4E1,3E0,7.8E1,4E0,1.67E2,3.4E1,6E1,2.9E1,5.5E1,5E0,1.2E1,1.9E1,1E0,3E0,2.2E1,5E0,4E0,1.1E1,6.4E1,1.2E1,8E0,1E0,1E1,2E0,1.86E2,1.8E1,2E0,2E0,1.5E1,1.27E2,1E0,1.93E2,5.3E1,3.1E1,4E0,1.24E2,6.5E1,4.7E1,1.81E2,3E0,1.1E1,2E1,5.4E1,6E0,2.8E1,2E0,1E0,3.6E1,4.2E1,2E0,2E0,5.7E1,1.1E2,3E0,3.1E1,1.2E1,4.8E1,2.3E1,6E0,3.4E1,2.1E1,3E0,2E0,6E0,6E0,1.8E1,1E0,1E0,2E0,1.2E1,1E1,1E0,4E0,7E0,4E0,5.3E1,1.1E1,3E0,9E0],"tree_param":{"num_deleted":"0","num_feature":"11","num_nodes":"121","size_leaf_vector":"1"}},{"base_weights":[2.374437E-2,-3.7148947E-1,3.0978847E0,-8.721291E-1,4.0429372E-1,4.397533E0,7.72855E-1,-1.1890455E0,-6.9321954E-1,8.81649E-1,-3.761558E-1,3.1129324E0,7.425699E0,2.5033991E0,8.5553505E-2,-1.2151021E0,-8.1254326E-2,-5.140859E-1,-9.642181E-1,-1.2746637E-1,1.3281025E0,-1.8586272E-2,-6.726004E-1,1.6592965E0,4.384375E0,8.672009E0,4.669738E0,-4.9263737E-1,3.4704504E0,2.760669E0,-1.2593699E-1,-1.3207171E0,-8.864468E-1,6.332846E-2,-6.4728516E-1,-1.1156942E0,-2.7734628E-1,-1.0033263E0,5.0320524E-1,-3.050524E-1,2.3746715E0,5.97587E0,1.1983612E0,-7.354106E-1,2.176679E-1,-7.5146145E-1,1.0692959E0,-8.1677325E-2,1.9333935E0,7.8056817E0,2.6453962E0,7.763436E-2,9.223573E0,2.9030852E0,5.089885E-1,6.4984836E-2,-5.555218E-2,5.3833375E0,2.1115618E0,4.2480804E-2,1.5572406E-1,-3.9072505E-1,8.724491E-1,-3.2619085E-2,-6.923571E-2,-2.9939039E-2,-6.1324347E-2,-4.0676583E-2,8.754837E-3,-5.7476755E-2,6.009409E-2,-4.8049632E-2,1.6444173E-3,-3.11105E-2,-5.4327887E-2,2.452972E-1,-5.2412093E-2,5.6516076E-3,-3.7809968E-2,2.4688716E-1,3.4867857E-2,5.139181E-3,5.177495E-1,1.0988925E-1,2.9691873E-2,9.808406E-2,-4.5729708E-2,1.333061E-1,6.1565014E-3,-1.8958798E-2,-5.2135773E-2,7.9074286E-2,-3.7291337E-2,1.20047055E-1,-2.385937E-3,5.911106E-1,1.6840677E-1,2.3001526E-1,6.0807623E-2,2.644165E-1,5.484907E-1,8.039714E-2,3.1262657E-1,3.2085997E-1,1.10520475E-1,-2.3225462E-2,1.20781E-1,7.1367132E-3,-5.401486E-2,1.4989822E-1,3.3502646E-3],"categories":[],"categories_nodes":[],"categories_segments":[],"categories_sizes":[],"default_left":[1,1,0,0,0,0,0,0,0,0,0,0,0,0,0,0,0,0,0,0,0,0,0,0,0,0,0,0,0,0,0,0,0,0,0,0,0,0,0,0,0,0,0,0,0,0,0,0,0,0,0,0,0,0,0,0,0,0,0,0,0,0,0,0,0,0,0,0,0,0,0,0,0,0,0,0,0,0,0,0,0,0,0,0,0,0,0,0,0,0,0,0,0,0,0,0,0,0,0,0,0,0,0,0,0,0,0,0,0,0,0],"id":12,"left_children":[1,3,5,7,9,11,13,15,17,19,21,23,25,27,29,31,33,35,37,39,41,43,45,47,49,51,53,55,57,59,61,63,65,-1,67,69,71,73,75,77,79,81,83,85,87,89,91,-1,93,95,97,-1,99,101,-1,-1,-1,103,105,-1,-1,107,109,-1,-1,-1,-1,-1,-1,-1,-1,-1,-1,-1,-1,-1,-1,-1,-1,-1,-1,-1,-1,-1,-1,-1,-1,-1,-1,-1,-1,-1,-1,-1,-1,-1,-1,-1,-1,-1,-1,-1,-1,-1,-1,-1,-1,-1,-1,-1,-1],"loss_changes":[2.1650732E3,6.1361694E2,6.100105E2,5.3607178E1,2.3131367E2,4.8258228E2,8.7801834E1,9.859741E0,2.940802E1,1.736207E2,2.5003391E1,1.6460907E2,9.002588E1,6.2553406E1,3.089879E1,1.0526886E1,7.686018E0,5.2814903E1,1.4507599E1,5.3601425E1,1.538417E2,1.845017E1,1.852399E1,4.3773415E1,2.7088025E2,8.3847534E1,1.0672766E2,8.094362E0,3.022316E1,5.8504105E-2,1.3823284E1,9.917816E0,7.580124E0,0E0,1.0994732E0,9.616653E0,5.7084026E1,6.8734894E0,5.295693E1,2.1210644E1,3.0949245E1,1.789683E2,1.5638464E2,1.4842555E1,1.8652397E1,1.3049904E1,6.7576385E0,0E0,3.9017654E1,2.4535773E2,8.9402725E1,0E0,1.0004138E2,4.2002403E1,0E0,0E0,0E0,5.497574E0,9.738102E0,0E0,0E0,1.5236402E1,1.8630936E1,0E0,0E0,0E0,0E0,0E0,0E0,0E0,0E0,0E0,0E0,0E0,0E0,0E0,0E0,0E0,0E0,0E0,0E0,0E0,0E0,0E0,0E0,0E0,0E0,0E0,0E0,0E0,0E0,0E0,0E0,0E0,0E0,0E0,0E0,0E0,0E0,0E0,0E0,0E0,0E0,0E0,0E0,0E0,0E0,0E0,0E0,0E0,0E0],"parents":[2147483647,0,0,1,1,2,2,3,3,4,4,5,5,6,6,7,7,8,8,9,9,10,10,11,11,12,12,13,13,14,14,15,15,16,16,17,17,18,18,19,19,20,20,21,21,22,22,23,23,24,24,25,25,26,26,27,27,28,28,29,29,30,30,31,31,32,32,34,34,35,35,36,36,37,37,38,38,39,39,40,40,41,41,42,42,43,43,44,44,45,45,46,46,48,48,49,49,50,50,52,52,53,53,57,57,58,58,61,61,62,62],"right_children":[2,4,6,8,10,12,14,16,18,20,22,24,26,28,30,32,34,36,38,40,42,44,46,48,50,52,54,56,58,60,62,64,66,-1,68,70,72,74,76,78,80,82,84,86,88,90,92,-1,94,96,98,-1,100,102,-1,-1,-1,104,106,-1,-1,108,110,-1,-1,-1,-1,-1,-1,-1,-1,-1,-1,-1,-1,-1,-1,-1,-1,-1,-1,-1,-1,-1,-1,-1,-1,-1,-1,-1,-1,-1,-1,-1,-1,-1,-1,-1,-1,-1,-1,-1,-1,-1,-1,-1,-1,-1,-1,-1,-1],"split_conditions":[7.03E0,2.5E0,2.1554892E2,1.2E0,2.2897649E2,1.347E1,1.5281989E1,1.9833333E0,2.327489E2,1.0982171E2,3E-1,1.6118169E2,1.796028E2,6.7933335E0,1.67E0,2.3576563E1,7.3E-1,8.37235E1,7.03E0,8.083333E0,5.3E-1,2.29E0,1.709067E1,4.4396984E1,9.000001E-1,9.237492E1,2.1057909E2,9E0,4.7E0,1.45E0,1.773E1,1.1631956E1,1.52E0,6.332846E-2,1.6851084E1,2.0699001E1,1.594601E1,1.4003028E1,4.43E0,1.55843E1,8.86E0,1.4378879E2,6.919832E0,1.94E0,-5.103082E0,2.5044673E2,5.306667E0,-8.1677325E-2,8.93E0,5.6E0,1.8243657E2,7.763436E-2,1.7208603E1,2.98E1,5.089885E-1,6.4984836E-2,-5.555218E-2,1.6946917E1,4.55E0,4.2480804E-2,1.5572406E-1,2.461709E2,5.35E0,-3.2619085E-2,-6.923571E-2,-2.9939039E-2,-6.1324347E-2,-4.0676583E-2,8.754837E-3,-5.7476755E-2,6.009409E-2,-4.8049632E-2,1.6444173E-3,-3.11105E-2,-5.4327887E-2,2.452972E-1,-5.2412093E-2,5.6516076E-3,-3.7809968E-2,2.4688716E-1,3.4867857E-2,5.139181E-3,5.177495E-1,1.0988925E-1,2.9691873E-2,9.808406E-2,-4.5729708E-2,1.333061E-1,6.1565014E-3,-1.8958798E-2,-5.2135773E-2,7.9074286E-2,-3.7291337E-2,1.20047055E-1,-2.385937E-3,5.911106E-1,1.6840677E-1,2.3001526E-1,6.0807623E-2,2.644165E-1,5.484907E-1,8.039714E-2,3.1262657E-1,3.2085997E-1,1.10520475E-1,-2.3225462E-2,1.20781E-1,7.1367132E-3,-5.401486E-2,1.4989822E-1,3.3502646E-3],"split_indices":[1,1,8,1,8,1,7,4,8,8,6,8,8,0,2,7,1,8,2,4,3,2,5,8,6,8,8,7,3,2,4,7,2,0,5,5,7,7,0,7,4,8,5,4,5,8,0,0,3,2,8,0,7,4,0,0,0,5,2,0,0,8,2,0,0,0,0,0,0,0,0,0,0,0,0,0,0,0,0,0,0,0,0,0,0,0,0,0,0,0,0,0,0,0,0,0,0,0,0,0,0,0,0,0,0,0,0,0,0,0,0],"split_type":[0,0,0,0,0,0,0,0,0,0,0,0,0,0,0,0,0,0,0,0,0,0,0,0,0,0,0,0,0,0,0,0,0,0,0,0,0,0,0,0,0,0,0,0,0,0,0,0,0,0,0,0,0,0,0,0,0,0,0,0,0,0,0,0,0,0,0,0,0,0,0,0,0,0,0,0,0,0,0,0,0,0,0,0,0,0,0,0,0,0,0,0,0,0,0,0,0,0,0,0,0,0,0,0,0,0,0,0,0,0,0],"sum_hessian":[1.78E3,1.578E3,2.02E2,9.59E2,6.19E2,1.29E2,7.3E1,3.44E2,6.15E2,3.84E2,2.35E2,9.2E1,3.7E1,2E1,5.3E1,3.36E2,8E0,3.72E2,2.43E2,1.18E2,2.66E2,1.07E2,1.28E2,4.4E1,4.8E1,2.4E1,1.3E1,5E0,1.5E1,3E0,5E1,2.52E2,8.4E1,2E0,6E0,1.04E2,2.68E2,2.37E2,6E0,1.11E2,7E0,6E0,2.6E2,2.6E1,8.1E1,1.23E2,5E0,3E0,4.1E1,1.5E1,3.3E1,2E0,2.2E1,1.1E1,2E0,1E0,4E0,5E0,1E1,1E0,2E0,4E1,1E1,2.3E1,2.29E2,4.7E1,3.7E1,5E0,1E0,1.03E2,1E0,8.3E1,1.85E2,4.4E1,1.93E2,1E0,5E0,5.8E1,5.3E1,2E0,5E0,3E0,3E0,9.7E1,1.63E2,1E0,2.5E1,2E0,7.9E1,5.5E1,6.8E1,4E0,1E0,3.3E1,8E0,7E0,8E0,1.3E1,2E1,8E0,1.4E1,9E0,2E0,3E0,2E0,1E0,9E0,2.3E1,1.7E1,2E0,8E0],"tree_param":{"num_deleted":"0","num_feature":"11","num_nodes":"111","size_leaf_vector":"1"}},{"base_weights":[2.5195226E-2,-5.8682126E-1,1.8529733E0,-9.0533984E-1,-5.478571E-2,2.8680646E0,2.8832534E-1,-8.177226E-1,-1.349654E0,-3.9505228E-1,4.3039992E-1,2.1846235E0,7.1313243E0,2.2155962E0,2.8701063E-2,-1.206211E0,-6.758264E-1,-1.5453331E0,-1.2324698E0,-5.9948725E-1,-6.520831E-2,1.2235874E0,-3.6692607E-1,1.0042021E0,3.2884567E0,8.406272E0,4.43632E0,7.681494E-1,4.4716783E0,4.6287152E-1,-5.9293824E-1,-1.2483883E0,5.0666947E-2,-8.085831E-1,-2.2232646E-1,-1.0684289E0,-8.150838E-2,5.3762733E-3,-1.2487341E0,-3.755148E-1,-1.0840669E0,1.7117271E0,-3.3109656E-1,5.5495974E-2,2.695192E0,1.3060729E-1,-4.2120972E-1,-4.8187207E-2,1.5879339E0,4.1328173E0,7.037711E-1,4.8224826E0,1.0621658E1,6.071861E0,2.7797422E-1,1.2092731E-1,2.915377E-1,5.3970895E0,5.651483E-2,1.9878149E0,-3.7643548E-2,-7.5127417E-1,8.263131E-1,-3.9952286E-2,-6.737784E-2,-4.7081433E-2,5.1514793E-2,-5.0571393E-2,-3.053618E-2,2.2287469E-1,-1.5021159E-2,4.8734547E-4,-5.9465457E-2,-5.0498694E-2,-7.073838E-2,-7.329373E-3,-3.7859436E-2,-6.0436815E-2,2.2712125E-2,-3.1958945E-2,1.475549E-1,-6.791373E-2,-8.779593E-3,2.7638045E-1,-6.70772E-3,2.9740307E-1,9.291881E-3,-2.9083202E-2,1.8440293E-2,-2.0301765E-2,7.6171085E-2,9.618018E-2,-3.7635602E-2,2.5808063E-1,6.0516626E-2,-4.4745818E-2,6.992289E-2,3.9099544E-1,5.1065464E-2,6.5943575E-1,1.6816066E-1,3.658836E-1,3.628727E-2,-4.352605E-2,1.2179887E-1,5.5674184E-2,-1.2931037E-2,6.825402E-2,2.9652378E-1,1.7202944E-1,4.0406626E-2,1.22987464E-1,-9.199771E-3,-1.391686E-2,-5.5772837E-2,4.3642926E-3,8.912937E-2],"categories":[],"categories_nodes":[],"categories_segments":[],"categories_sizes":[],"default_left":[1,0,0,0,0,0,0,0,0,1,0,0,0,0,0,0,0,0,0,0,0,0,0,0,0,0,0,0,0,0,0,0,0,0,0,0,0,0,0,0,0,0,0,0,0,0,0,0,0,0,0,0,0,0,0,0,0,0,0,0,0,0,0,0,0,0,0,0,0,0,0,0,0,0,0,0,0,0,0,0,0,0,0,0,0,0,0,0,0,0,0,0,0,0,0,0,0,0,0,0,0,0,0,0,0,0,0,0,0,0,0,0,0,0,0,0,0],"id":13,"left_children":[1,3,5,7,9,11,13,15,17,19,21,23,25,27,29,31,33,35,37,39,41,43,45,47,49,51,53,55,57,59,61,63,65,67,69,71,-1,-1,73,75,77,79,81,83,85,-1,87,89,91,93,95,97,99,101,103,-1,105,107,-1,109,111,113,115,-1,-1,-1,-1,-1,-1,-1,-1,-1,-1,-1,-1,-1,-1,-1,-1,-1,-1,-1,-1,-1,-1,-1,-1,-1,-1,-1,-1,-1,-1,-1,-1,-1,-1,-1,-1,-1,-1,-1,-1,-1,-1,-1,-1,-1,-1,-1,-1,-1,-1,-1,-1,-1,-1],"loss_changes":[1.9933679E3,2.2618375E2,7.091255E2,3.1402588E1,8.288135E1,7.7403E2,8.850125E1,3.777234E1,1.2139587E0,1.9853237E1,1.3136179E2,3.0290002E2,8.9838745E1,6.5141815E1,4.2648346E1,9.923462E0,3.0825897E1,1.5981293E-1,2.095749E0,1.9345833E1,5.44279E1,1.7862317E2,1.7918613E1,7.07225E1,2.6116248E2,1.3932458E2,9.35282E1,1.030728E1,1.8636917E1,7.105774E1,1.5227488E1,6.944153E0,7.7747254E0,1.53559265E1,4.44656E1,1.3148947E0,0E0,0E0,2.0992584E0,1.0898329E1,1.1480537E1,4.5590946E1,1.5734601E1,6.197106E1,3.7437424E2,0E0,1.3270948E1,2.4239246E1,5.958853E1,2.6735693E2,3.567969E1,1.1734456E2,2.165033E2,6.1291687E1,1.4512851E1,0E0,5.7143755E0,4.8081055E0,0E0,3.6637222E1,2.640295E1,9.851414E0,4.7913947E0,0E0,0E0,0E0,0E0,0E0,0E0,0E0,0E0,0E0,0E0,0E0,0E0,0E0,0E0,0E0,0E0,0E0,0E0,0E0,0E0,0E0,0E0,0E0,0E0,0E0,0E0,0E0,0E0,0E0,0E0,0E0,0E0,0E0,0E0,0E0,0E0,0E0,0E0,0E0,0E0,0E0,0E0,0E0,0E0,0E0,0E0,0E0,0E0,0E0,0E0,0E0,0E0,0E0,0E0],"parents":[2147483647,0,0,1,1,2,2,3,3,4,4,5,5,6,6,7,7,8,8,9,9,10,10,11,11,12,12,13,13,14,14,15,15,16,16,17,17,18,18,19,19,20,20,21,21,22,22,23,23,24,24,25,25,26,26,27,27,28,28,29,29,30,30,31,31,32,32,33,33,34,34,35,35,38,38,39,39,40,40,41,41,42,42,43,43,44,44,46,46,47,47,48,48,49,49,50,50,51,51,52,52,53,53,54,54,56,56,57,57,59,59,60,60,61,61,62,62],"right_children":[2,4,6,8,10,12,14,16,18,20,22,24,26,28,30,32,34,36,38,40,42,44,46,48,50,52,54,56,58,60,62,64,66,68,70,72,-1,-1,74,76,78,80,82,84,86,-1,88,90,92,94,96,98,100,102,104,-1,106,108,-1,110,112,114,116,-1,-1,-1,-1,-1,-1,-1,-1,-1,-1,-1,-1,-1,-1,-1,-1,-1,-1,-1,-1,-1,-1,-1,-1,-1,-1,-1,-1,-1,-1,-1,-1,-1,-1,-1,-1,-1,-1,-1,-1,-1,-1,-1,-1,-1,-1,-1,-1,-1,-1,-1,-1,-1,-1],"split_conditions":[4E0,2.2E0,2.140479E2,2.7678317E2,1.3000002E0,1.347E1,1.2429127E1,8.61371E1,8.666667E-1,2.91E0,2.140479E2,1.5281337E2,2.1767351E1,8.55E0,2.556335E2,2.7333333E0,3.33E0,1.09275E0,6.3E-1,3E-1,2.92E0,2.185203E1,1.2133334E0,7.417453E1,2.0158493E2,1.7208603E1,5.01E0,4.076667E0,3.072537E2,5E-1,1.7326084E1,1.3202726E1,3.5359566E1,1.9211996E1,4E-1,9.766667E-1,-8.150838E-2,5.3762733E-3,1E-1,1.80036E1,1.7657331E1,1.84E0,2.26E0,1.5E0,7.0999994E0,1.3060729E-1,3.42E0,1.7657331E1,1.4197508E2,1.5659419E1,3.7433333E0,1.6327497E1,2.648E1,2.968636E1,2.04E1,1.2092731E-1,1.044E1,7.87E0,5.651483E-2,2.3514995E2,7.3E-1,1E-1,1.6E0,-3.9952286E-2,-6.737784E-2,-4.7081433E-2,5.1514793E-2,-5.0571393E-2,-3.053618E-2,2.2287469E-1,-1.5021159E-2,4.8734547E-4,-5.9465457E-2,-5.0498694E-2,-7.073838E-2,-7.329373E-3,-3.7859436E-2,-6.0436815E-2,2.2712125E-2,-3.1958945E-2,1.475549E-1,-6.791373E-2,-8.779593E-3,2.7638045E-1,-6.70772E-3,2.9740307E-1,9.291881E-3,-2.9083202E-2,1.8440293E-2,-2.0301765E-2,7.6171085E-2,9.618018E-2,-3.7635602E-2,2.5808063E-1,6.0516626E-2,-4.4745818E-2,6.992289E-2,3.9099544E-1,5.1065464E-2,6.5943575E-1,1.6816066E-1,3.658836E-1,3.628727E-2,-4.352605E-2,1.2179887E-1,5.5674184E-2,-1.2931037E-2,6.825402E-2,2.9652378E-1,1.7202944E-1,4.0406626E-2,1.22987464E-1,-9.199771E-3,-1.391686E-2,-5.5772837E-2,4.3642926E-3,8.912937E-2],"split_indices":[1,1,8,8,6,1,7,8,4,3,8,8,7,2,8,4,3,5,1,6,0,7,0,8,8,7,3,0,8,6,5,7,8,7,2,0,0,0,6,7,5,2,4,6,6,0,1,5,8,5,0,7,2,7,0,0,7,1,0,8,3,6,6,0,0,0,0,0,0,0,0,0,0,0,0,0,0,0,0,0,0,0,0,0,0,0,0,0,0,0,0,0,0,0,0,0,0,0,0,0,0,0,0,0,0,0,0,0,0,0,0,0,0,0,0,0,0],"split_type":[0,0,0,0,0,0,0,0,0,0,0,0,0,0,0,0,0,0,0,0,0,0,0,0,0,0,0,0,0,0,0,0,0,0,0,0,0,0,0,0,0,0,0,0,0,0,0,0,0,0,0,0,0,0,0,0,0,0,0,0,0,0,0,0,0,0,0,0,0,0,0,0,0,0,0,0,0,0,0,0,0,0,0,0,0,0,0,0,0,0,0,0,0,0,0,0,0,0,0,0,0,0,0,0,0,0,0,0,0,0,0,0,0,0,0,0,0],"sum_hessian":[1.78E3,1.334E3,4.46E2,8.34E2,5E2,2.7E2,1.76E2,6.99E2,1.35E2,2.94E2,2.06E2,2.34E2,3.6E1,2E1,1.56E2,1.85E2,5.14E2,4.6E1,8.9E1,1.81E2,1.13E2,1.03E2,1.03E2,1.14E2,1.2E2,2.3E1,1.3E1,1.3E1,7E0,9.2E1,6.4E1,1.79E2,6E0,3.97E2,1.17E2,9E0,3.7E1,1E0,8.8E1,1.25E2,5.6E1,1.4E1,9.9E1,5.8E1,4.5E1,1E0,1.02E2,4.1E1,7.3E1,9E1,3E1,1E1,1.3E1,9E0,4E0,2E0,1.1E1,5E0,2E0,2.2E1,7E1,5.8E1,6E0,3.4E1,1.45E2,3E0,3E0,1.94E2,2.03E2,1E0,1.16E2,1E0,8E0,3.9E1,4.9E1,7.9E1,4.6E1,5.2E1,4E0,5E0,9E0,1.2E1,8.7E1,1E0,5.7E1,1.9E1,2.6E1,8.5E1,1.7E1,3.4E1,7E0,6.4E1,9E0,6.6E1,2.4E1,9E0,2.1E1,5E0,5E0,9E0,4E0,7E0,2E0,3E0,1E0,4E0,7E0,1E0,4E0,9E0,1.3E1,3E0,6.7E1,2.6E1,3.2E1,4E0,2E0],"tree_param":{"num_deleted":"0","num_feature":"11","num_nodes":"117","size_leaf_vector":"1"}},{"base_weights":[2.5936099E-2,-4.6916962E-1,2.0880837E0,-8.6035126E-1,7.329451E-2,3.219406E0,7.287381E-1,-1.1574495E0,-7.4136525E-1,5.3460836E-1,-3.7619838E-1,-2.5990853E-2,3.9619868E0,2.7570093E-1,2.6525068E0,-1.2475041E0,-6.530187E-1,-5.7970476E-1,-1.0075045E0,6.0228277E-3,1.9998515E0,-7.315693E-2,-6.1186343E-1,-8.145638E-1,6.4559567E-1,5.295477E0,2.4668357E0,1.4715656E0,-1.8522279E-1,8.668434E0,1.6630173E0,-2.1987273E-1,-1.3061501E0,-1.0085187E0,-2.0198995E-1,-7.4240005E-1,3.9284974E-2,-5.6252766E-1,-1.0865132E0,-1.4009687E-1,2.0123317E0,3.128785E0,1.508972E-1,3.727235E-1,-4.925134E-1,8.3381784E-1,-6.512476E-1,6.71097E-2,-1.191611E0,1.8906133E0,1.04548916E-1,7.923786E-1,6.40887E0,5.5712276E0,1.2931144E0,8.7204057E-1,2.7548463E0,8.151238E-2,-1.1762185E0,1.9688568E-1,5.715149E-1,3.1700857E0,4.2877743E-1,2.1730283E-1,-5.1502664E-2,-1.5623569E-4,-6.600347E-2,-3.7102662E-2,-7.17721E-2,5.521332E-2,-2.1714432E-2,-5.749301E-2,-2.934427E-2,1.9579089E-1,-5.6129484E-3,-3.4469336E-2,1.8093808E-2,-5.012193E-2,-7.280639E-2,-1.0738279E-2,6.0155E-2,3.0837214E-2,1.7595913E-1,4.0365943E-1,7.425289E-2,-6.975982E-2,3.299872E-2,6.548804E-2,-3.1578552E-3,-7.68617E-2,-1.7601639E-2,-1.4353709E-2,8.383853E-2,1.7439146E-3,-3.6948714E-2,-2.9532218E-3,-7.990383E-2,2.5388097E-2,1.5521054E-1,-5.1077724E-2,6.0879182E-2,9.9777944E-2,-6.0576506E-2,2.3141836E-1,4.1990778E-1,6.8825305E-1,1.948038E-1,-8.082362E-2,9.113782E-2,8.945721E-2,4.011085E-3,2.4044576E-1,4.4705234E-2,3.894435E-2,-2.2778887E-2,-3.436141E-2,-8.487574E-2,2.2118337E-1,8.213589E-2,9.08751E-2,-9.279462E-3],"categories":[],"categories_nodes":[],"categories_segments":[],"categories_sizes":[],"default_left":[1,0,0,0,0,0,0,0,0,0,0,0,0,0,0,0,0,0,0,1,0,0,0,0,0,0,0,0,0,0,0,0,0,0,0,0,0,0,0,0,0,0,0,0,0,0,0,0,0,0,0,0,0,0,0,0,0,0,0,0,0,0,0,0,0,0,0,0,0,0,0,0,0,0,0,0,0,0,0,0,0,0,0,0,0,0,0,0,0,0,0,0,0,0,0,0,0,0,0,0,0,0,0,0,0,0,0,0,0,0,0,0,0,0,0,0,0,0,0,0,0],"id":14,"left_children":[1,3,5,7,9,11,13,15,17,19,21,23,25,27,29,31,33,35,37,39,41,43,45,47,49,51,53,55,57,59,61,63,65,67,69,71,73,75,77,79,81,83,85,87,89,91,93,-1,95,97,99,101,103,105,107,109,111,113,115,-1,-1,117,119,-1,-1,-1,-1,-1,-1,-1,-1,-1,-1,-1,-1,-1,-1,-1,-1,-1,-1,-1,-1,-1,-1,-1,-1,-1,-1,-1,-1,-1,-1,-1,-1,-1,-1,-1,-1,-1,-1,-1,-1,-1,-1,-1,-1,-1,-1,-1,-1,-1,-1,-1,-1,-1,-1,-1,-1,-1,-1],"loss_changes":[1.8193472E3,3.0499738E2,5.282147E2,2.8659607E1,1.25237564E2,4.5317737E2,1.3697182E2,9.9513855E0,2.5187439E1,2.3079083E2,2.1808628E1,1.9591297E1,2.919834E2,7.1377686E1,1.6416513E2,1.1766083E1,5.8892365E0,3.7794167E1,7.2991333E0,6.47774E1,1.6442822E2,2.5426254E1,1.0336174E1,1.5423765E1,1.3274594E1,3.9601953E2,2.6242883E2,2.5294579E1,2.494322E1,7.253174E0,4.8863014E1,4.886739E1,3.4238281E0,1.3237934E0,5.9415197E0,1.8144882E1,4.6849323E1,4.471158E0,4.4446106E0,2.0919106E1,2.9373695E1,3.862461E2,2.5320303E1,2.7039528E1,9.73225E0,5.205652E0,1.0137955E1,0E0,6.810734E0,8.493147E0,2.004471E1,4.3405758E1,1.8781372E2,2.2088855E2,8.770358E1,1.873715E1,3.774334E1,2.8446318E1,3.931593E0,0E0,0E0,1.570932E1,1.3988286E1,0E0,0E0,0E0,0E0,0E0,0E0,0E0,0E0,0E0,0E0,0E0,0E0,0E0,0E0,0E0,0E0,0E0,0E0,0E0,0E0,0E0,0E0,0E0,0E0,0E0,0E0,0E0,0E0,0E0,0E0,0E0,0E0,0E0,0E0,0E0,0E0,0E0,0E0,0E0,0E0,0E0,0E0,0E0,0E0,0E0,0E0,0E0,0E0,0E0,0E0,0E0,0E0,0E0,0E0,0E0,0E0,0E0,0E0],"parents":[2147483647,0,0,1,1,2,2,3,3,4,4,5,5,6,6,7,7,8,8,9,9,10,10,11,11,12,12,13,13,14,14,15,15,16,16,17,17,18,18,19,19,20,20,21,21,22,22,23,23,24,24,25,25,26,26,27,27,28,28,29,29,30,30,31,31,32,32,33,33,34,34,35,35,36,36,37,37,38,38,39,39,40,40,41,41,42,42,43,43,44,44,45,45,46,46,48,48,49,49,50,50,51,51,52,52,53,53,54,54,55,55,56,56,57,57,58,58,61,61,62,62],"right_children":[2,4,6,8,10,12,14,16,18,20,22,24,26,28,30,32,34,36,38,40,42,44,46,48,50,52,54,56,58,60,62,64,66,68,70,72,74,76,78,80,82,84,86,88,90,92,94,-1,96,98,100,102,104,106,108,110,112,114,116,-1,-1,118,120,-1,-1,-1,-1,-1,-1,-1,-1,-1,-1,-1,-1,-1,-1,-1,-1,-1,-1,-1,-1,-1,-1,-1,-1,-1,-1,-1,-1,-1,-1,-1,-1,-1,-1,-1,-1,-1,-1,-1,-1,-1,-1,-1,-1,-1,-1,-1,-1,-1,-1,-1,-1,-1,-1,-1,-1,-1,-1],"split_conditions":[4.82E0,2.2E0,2.0264314E2,9.6E-1,2.140479E2,7.888998E1,1.4535E1,2.512854E1,2.3173593E2,2.1924562E1,2.5156496E2,6.2E0,7.896917E0,1.6904673E1,4.34275E0,1.0534229E1,5.744833E0,3.33E0,1.4003028E1,4.47E0,1.0459415E1,2.1924562E1,5.6E-1,2.8666666E0,6.475E0,1.6135834E0,3.67E0,7.3E0,2.7416818E2,1.543E1,7.3E0,4E-1,-8.907251E0,2.733833E2,5.6E-1,7.628329E1,3.38E0,1.3556282E1,2.9548486E2,2.0699001E1,1.0982171E2,2.44E0,2.0133333E0,8.455251E0,4.1115E0,1.1E0,1.2538134E1,6.71097E-2,4.74275E0,5.4133334E0,2.7719164E0,1.3701631E2,1.09E1,4.0633335E0,1.073025E1,2.556335E2,6.05E0,2.7E0,2.9730624E2,1.9688568E-1,5.715149E-1,2.2741899E2,9.773334E0,2.1730283E-1,-5.1502664E-2,-1.5623569E-4,-6.600347E-2,-3.7102662E-2,-7.17721E-2,5.521332E-2,-2.1714432E-2,-5.749301E-2,-2.934427E-2,1.9579089E-1,-5.6129484E-3,-3.4469336E-2,1.8093808E-2,-5.012193E-2,-7.280639E-2,-1.0738279E-2,6.0155E-2,3.0837214E-2,1.7595913E-1,4.0365943E-1,7.425289E-2,-6.975982E-2,3.299872E-2,6.548804E-2,-3.1578552E-3,-7.68617E-2,-1.7601639E-2,-1.4353709E-2,8.383853E-2,1.7439146E-3,-3.6948714E-2,-2.9532218E-3,-7.990383E-2,2.5388097E-2,1.5521054E-1,-5.1077724E-2,6.0879182E-2,9.9777944E-2,-6.0576506E-2,2.3141836E-1,4.1990778E-1,6.8825305E-1,1.948038E-1,-8.082362E-2,9.113782E-2,8.945721E-2,4.011085E-3,2.4044576E-1,4.4705234E-2,3.894435E-2,-2.2778887E-2,-3.436141E-2,-8.487574E-2,2.2118337E-1,8.213589E-2,9.08751E-2,-9.279462E-3],"split_indices":[1,1,8,4,8,8,4,7,8,7,8,1,5,7,5,7,5,3,7,1,5,7,3,0,4,5,2,2,8,1,2,2,5,8,2,8,3,7,8,5,8,4,4,5,5,2,7,0,5,4,5,8,4,4,5,8,3,6,8,0,0,8,0,0,0,0,0,0,0,0,0,0,0,0,0,0,0,0,0,0,0,0,0,0,0,0,0,0,0,0,0,0,0,0,0,0,0,0,0,0,0,0,0,0,0,0,0,0,0,0,0,0,0,0,0,0,0,0,0,0,0],"split_type":[0,0,0,0,0,0,0,0,0,0,0,0,0,0,0,0,0,0,0,0,0,0,0,0,0,0,0,0,0,0,0,0,0,0,0,0,0,0,0,0,0,0,0,0,0,0,0,0,0,0,0,0,0,0,0,0,0,0,0,0,0,0,0,0,0,0,0,0,0,0,0,0,0,0,0,0,0,0,0,0,0,0,0,0,0,0,0,0,0,0,0,0,0,0,0,0,0,0,0,0,0,0,0,0,0,0,0,0,0,0,0,0,0,0,0,0,0,0,0,0,0],"sum_hessian":[1.78E3,1.436E3,3.44E2,8.34E2,6.02E2,1.87E2,1.57E2,2.36E2,5.98E2,2.97E2,3.05E2,3.5E1,1.52E2,1.28E2,2.9E1,1.99E2,3.7E1,3.74E2,2.24E2,2.19E2,7.8E1,1.34E2,1.71E2,1.6E1,1.9E1,7.9E1,7.3E1,3.5E1,9.3E1,3E0,2.6E1,1.1E1,1.88E2,2E1,1.7E1,2.96E2,7.8E1,3.5E1,1.89E2,2.05E2,1.4E1,4.8E1,3E1,6.5E1,6.9E1,4E0,1.67E2,2E0,1.4E1,5E0,1.4E1,1.6E1,6.3E1,1.9E1,5.4E1,2.5E1,1E1,7.4E1,1.9E1,2E0,1E0,1.1E1,1.5E1,1E0,1E1,2E0,1.86E2,1.4E1,6E0,2E0,1.5E1,8E1,2.16E2,2E0,7.6E1,3.1E1,4E0,1.57E2,3.2E1,1.95E2,1E1,8E0,6E0,1.1E1,3.7E1,7E0,2.3E1,2E1,4.5E1,7E0,6.2E1,2E0,2E0,1.9E1,1.48E2,4E0,1E1,3E0,2E0,7E0,7E0,1E1,6E0,3.5E1,2.8E1,2E0,1.7E1,8E0,4.6E1,1.1E1,1.4E1,4E0,6E0,3.2E1,4.2E1,1.1E1,8E0,5E0,6E0,4E0,1.1E1],"tree_param":{"num_deleted":"0","num_feature":"11","num_nodes":"121","size_leaf_vector":"1"}},{"base_weights":[2.6815193E-2,-3.18801E-1,2.7149982E0,-7.5073946E-1,3.505211E-1,3.8418705E0,6.9866836E-1,-9.952387E-1,-5.7205284E-1,8.708771E-1,-1.9675194E-1,2.9462156E0,7.3111744E0,2.2412913E0,8.5821144E-2,-1.3241522E0,-9.086562E-1,-7.533994E-1,-3.2401776E-1,2.1945105E-1,1.8112513E0,9.108719E-2,-4.614846E-1,1.5634831E0,4.039749E0,9.110902E0,2.1229265E0,-4.7026995E-1,3.118046E0,1.3100009E-1,-1.146209E-1,-1.3551954E0,-5.4948807E-2,-7.363603E-2,-9.6353E-1,3.510379E-1,-7.863833E-1,2.3345521E-1,-7.326364E-1,4.7513474E-2,1.7553393E0,5.554071E-1,1.579205E0,6.43456E-1,-1.9457805E-1,-8.125819E-1,-1.7296879E-1,1.0035918E0,3.1595244E0,7.5505805E0,3.0574148E0,1.5585461E0,9.907735E0,3.0317028E0,-2.0113429E-2,6.1868083E-2,-1.0592686E0,4.9426184E0,1.8393662E0,-3.6081862E-1,8.1344527E-1,-7.6592125E-2,-5.132824E-2,8.783007E-3,-1.2904167E-2,-4.1380584E-2,1.2523042E-1,-5.6185585E-2,-3.298056E-2,9.092032E-2,-1.2155251E-2,-4.7156584E-2,-2.8963655E-2,-1.2161987E-3,1.6165893E-1,-4.5178015E-2,-7.1778134E-3,-1.4599732E-2,3.4847625E-2,6.4550997E-3,1.2479897E-1,1.5567671E-1,3.5491362E-2,8.435374E-2,-2.5301552E-3,-2.273932E-2,4.149816E-2,3.6834806E-2,-4.458831E-2,-1.4781139E-2,7.762863E-2,7.93746E-2,-8.628111E-2,2.9719794E-2,2.1838947E-1,4.514556E-1,1.1681201E-1,3.0579707E-1,9.170179E-2,1.5334201E-2,1.01556756E-1,5.174498E-1,7.118926E-2,4.5883812E-2,2.4199188E-1,-2.3956593E-2,-6.431579E-2,2.9432467E-1,1.0182895E-1,-2.4557978E-2,1.0607674E-1,6.19488E-3,-4.9353074E-2,1.3713247E-1,3.999722E-3],"categories":[],"categories_nodes":[],"categories_segments":[],"categories_sizes":[],"default_left":[1,1,0,0,0,0,0,0,0,0,0,0,0,0,0,0,0,0,0,0,0,0,0,0,0,0,0,0,0,0,0,0,0,0,0,0,0,0,0,0,0,0,0,0,0,0,0,0,0,0,0,0,0,0,0,0,0,0,0,0,0,0,0,0,0,0,0,0,0,0,0,0,0,0,0,0,0,0,0,0,0,0,0,0,0,0,0,0,0,0,0,0,0,0,0,0,0,0,0,0,0,0,0,0,0,0,0,0,0,0,0,0,0,0,0],"id":15,"left_children":[1,3,5,7,9,11,13,15,17,19,21,23,25,27,29,31,33,35,37,39,41,43,45,47,49,51,53,55,57,-1,59,61,63,65,67,69,71,73,75,77,79,-1,81,83,85,87,89,91,93,95,97,99,101,103,-1,-1,105,107,109,111,113,-1,-1,-1,-1,-1,-1,-1,-1,-1,-1,-1,-1,-1,-1,-1,-1,-1,-1,-1,-1,-1,-1,-1,-1,-1,-1,-1,-1,-1,-1,-1,-1,-1,-1,-1,-1,-1,-1,-1,-1,-1,-1,-1,-1,-1,-1,-1,-1,-1,-1,-1,-1,-1,-1],"loss_changes":[1.6555563E3,4.567614E2,4.5856152E2,4.1371826E1,1.7673297E2,3.8240857E2,6.976668E1,1.0301971E1,2.4809906E1,1.9440431E2,2.3130762E1,1.5245068E2,2.234314E2,5.1391182E1,2.7729952E1,3.1563568E0,1.47291565E1,1.196965E1,5.415818E1,4.9827133E1,2.6290814E2,2.3162918E1,1.5864395E1,3.972239E1,1.769458E2,9.889966E1,1.9578262E1,7.3454547E0,2.8237411E1,0E0,1.1946383E1,3.0715942E0,1.8586887E-1,4.2895443E1,1.4009491E1,9.160329E0,9.582489E0,7.817854E1,1.3664528E1,3.790726E1,2.2562443E1,0E0,1.6853064E2,3.6302025E1,2.623709E1,9.36713E0,1.9083693E1,6.1702187E1,3.4596054E1,7.142059E1,1.646448E2,1.1519322E0,4.8906982E1,1.849326E1,0E0,0E0,4.2277336E-2,4.4693146E0,8.275627E0,1.2567846E1,1.5345343E1,0E0,0E0,0E0,0E0,0E0,0E0,0E0,0E0,0E0,0E0,0E0,0E0,0E0,0E0,0E0,0E0,0E0,0E0,0E0,0E0,0E0,0E0,0E0,0E0,0E0,0E0,0E0,0E0,0E0,0E0,0E0,0E0,0E0,0E0,0E0,0E0,0E0,0E0,0E0,0E0,0E0,0E0,0E0,0E0,0E0,0E0,0E0,0E0,0E0,0E0,0E0,0E0,0E0,0E0],"parents":[2147483647,0,0,1,1,2,2,3,3,4,4,5,5,6,6,7,7,8,8,9,9,10,10,11,11,12,12,13,13,14,14,15,15,16,16,17,17,18,18,19,19,20,20,21,21,22,22,23,23,24,24,25,25,26,26,27,27,28,28,30,30,31,31,32,32,33,33,34,34,35,35,36,36,37,37,38,38,39,39,40,40,42,42,43,43,44,44,45,45,46,46,47,47,48,48,49,49,50,50,51,51,52,52,53,53,56,56,57,57,58,58,59,59,60,60],"right_children":[2,4,6,8,10,12,14,16,18,20,22,24,26,28,30,32,34,36,38,40,42,44,46,48,50,52,54,56,58,-1,60,62,64,66,68,70,72,74,76,78,80,-1,82,84,86,88,90,92,94,96,98,100,102,104,-1,-1,106,108,110,112,114,-1,-1,-1,-1,-1,-1,-1,-1,-1,-1,-1,-1,-1,-1,-1,-1,-1,-1,-1,-1,-1,-1,-1,-1,-1,-1,-1,-1,-1,-1,-1,-1,-1,-1,-1,-1,-1,-1,-1,-1,-1,-1,-1,-1,-1,-1,-1,-1,-1,-1,-1,-1,-1,-1],"split_conditions":[7.03E0,2.5E0,2.1554892E2,1.3E0,2.0919739E2,1.73E1,1.5281989E1,6.6E-1,1.5E0,1.5557852E2,2.5016772E2,1.6118169E2,2.6000001E0,6.7933335E0,1.67E0,3.2217484E1,1.1631956E1,9.8333335E-1,1.9616748E2,